-0.5934 -0.39116 -0.43527 0.79282 -0.36583 0.81265 0.59698 -0.49234 0.63068 -0.30703 0.496979 -0.123665 0.549899 0.202588 0.766709 -0.499359 -0.583471 0.867179 -0.89483 -0.370689 0.125801 0.821889 0.0608558 0.913081 -0.366233 -0.218214 0.810535 0.944027 -0.849173 0.0287493 0.410303 -0.494476 -0.608802 -0.339559 -0.955075 -0.177318 -0.177074 -0.15864 -0.721663 -0.188183 -0.0820973 0.0523103 -0.696881 -0.669535 0.402185 -0.659708 0.190991 -0.571995 0.505463 -0.430873 -0.857718 -0.405176 -0.788683 0.668742 0.736556 -0.987121 0.50766 -0.114631 0.181957 -0.194348 0.635781 -0.968077 0.565891 0.287737 -0.658915 -0.262284 0.104315 0.215284 -0.876946 0.698346 -0.607703 0.0360129 0.484954 0.925655 0.653971 0.138802 -0.816334 0.99823 0.991943 0.104071 -0.519502 0.31081 -0.362083 -0.0464506 -0.609778 0.324727 -0.797229 -0.599524 -0.0681194 -0.182445 0.926082 -0.900507 0.378075 0.133431 -0.0739181 -0.1034 -0.494537 0.432827 0.450345 0.0791674 0.844839 0.942562 -0.875053 0.626015 -0.0695843 0.205762 0.205396 0.457364 -0.449246 0.332357 0.825551 -0.315144 0.99823 0.248306 0.248428 0.861686 -0.681316 0.946164 -0.884087 0.232009 0.562717 0.734786 0.699017 0.981871 -0.966123 0.48941 0.147226 0.488494 0.54056 0.901911 -0.260758 -0.429531 -0.355857 -0.269853 0.132699 -0.26204 0.9107 -0.951108 -0.386132 0.442532 0.159617 0.499115 -0.651834 0.326863 -0.285418 0.537936 0.629982 0.47531 -0.346945 -0.31081 0.13221 -0.336385 -0.943722 -0.206983 -0.843008 -0.391198 -0.74028 -0.744064 0.885552 0.219557 -0.897638 0.301105 -0.372642 0.845633 0.177501 0.217665 0.0715376 -0.471708 0.0818531 0.611488 0.535616 0.250443 -0.333577 0.654703 0.216139 0.186108 0.286089 0.335897 0.438747 0.950925 -0.95062 -0.289874 -0.0922908 -0.148386 0.0691571 0.148752 -0.0435207 -0.863273 -0.288348 -0.410425 -0.202832 -0.753952 -0.152475 -0.213148 -0.229079 0.0606726 -0.899103 -0.43887 0.597876 0.153147 0.100287 0.0495025 0.626808 0.0374779 0.727583 -0.0446805 -0.914423 -0.581029 -0.631203 0.798511 -0.668925 0.444607 0.164134 0.165232 0.098883 0.95239 0.257279 0.958249 0.753586 -0.278093 -0.954038 0.646402 0.538546 -0.275652 -0.568028 0.515351 -0.173778 -0.628029 -0.929134 0.916987 -0.63218 -0.231276 -0.377892 0.51938 -0.456266 -0.0402246 -0.000854544 -0.442715 -0.38717 0.181713 -0.380883 -0.918086 0.963316 -0.887444 -0.34664 0.210706 0.3619 -0.878105 0.276994 -0.622536 -0.795581 -0.479521 -0.0810596 -0.417384 0.765794 -0.189404 0.512238 -0.3572 -0.550632 0.93597 0.743637 -0.558872 0.0379051 0.531466 -0.696271 -0.822804 0.942746 0.173717 0.137521 0.61692 -0.545871 0.630593 -0.306781 0.34255 0.991577 -0.888726 0.173473 -0.997253 0.352988 0.516755 0.784655 0.563023 0.965574 0.688824 0.986877 -0.445462 0.13514 -0.338949 -0.255692 0.325581 0.296771 0.908564 0.775194 0.29024 0.264115 0.597388 -0.198621 -0.820668 0.479949 0.835439 -0.201123 0.290301 0.265702 0.921809 0.247391 -0.263566 -0.927974 0.59696 0.3807 -0.302142 -0.271684 -0.707135 0.436306 -0.329061 -0.307087 -0.617042 0.905817 -0.281511 0.302936 -0.568028 -0.215467 -0.280291 0.0245376 -0.553928 -0.17805 0.620338 -0.297259 0.12281 -0.228774 -0.31789 -0.188427 0.101141 -0.360496 -0.266252 -0.296222 -0.788561 -0.0621986 0.420009 0.861198 -0.274431 0.931209 -0.548007 0.144357 -0.393335 -0.111701 -0.142465 -0.957151 -0.240615 0.332174 -0.769456 0.92541 -0.720381 -0.710798 0.981749 0.289019 0.704999 0.540255 -0.41244 0.0101935 -0.735946 -0.13044 -0.158335 0.59403 0.127266 0.315693 0.103583 -0.575414 -0.343893 -0.579259 -0.45065 0.0150766 0.653726 0.481231 -0.578465 -0.742843 -0.385583 -0.203015 0.279131 0.671855 -0.0257584 -0.0778856 -0.752854 -0.341329 -0.639749 0.914607 -0.732406 0.746444 0.84136 -0.413844 0.348471 0.842581 0.177379 0.75267 0.81432 0.483489 -0.930172 0.483611 0.556003 -0.915522 0.411829 -0.647439 0.280901 0.190075 -0.462614 -0.312946 0.762803 0.723189 -0.527681 0.818531 0.0918025 0.235854 0.183788 0.33199 0.924495 0.159189 -0.169871 -0.683208 -0.266252 -0.947079 0.0114143 -0.383996 0.0590856 -0.14393 -0.981139 -0.923457 -0.24385 -0.863944 -0.914668 0.799548 0.247207 0.339742 -0.365135 0.389428 -0.229262 -0.957761 0.532992 -0.795031 0.631936 0.198437 -0.663371 -0.390954 0.451932 -0.608802 0.544284 0.218031 -0.581334 0.0830739 0.845511 -0.847769 -0.46359 0.865104 0.371605 -0.713911 -0.124275 0.707135 -0.054935 -0.502167 -0.176402 0.208326 0.329915 -0.0803272 0.333516 0.846426 -0.518525 -0.81255 -0.824818 0.228163 -0.203321 -0.308674 0.185131 -0.660807 -0.636391 0.825124 0.515779 -0.205762 -0.788134 0.236404 -0.113899 -0.913447 0.562534 -0.922969 -0.168223 -0.161265 0.0779467 -0.74736 0.954648 -0.948178 -0.888116 0.672648 0.172862 -0.643838 0.959836 0.500397 -0.0288714 0.26088 0.108039 0.403162 -0.349387 -0.596228 -0.515229 -0.197827 0.578771 -0.198071 -0.290545 -0.877434 -0.560581 -0.89892 0.343039 -0.956601 -0.516999 0.8261 -0.862479 -0.252396 -0.22383 -0.369651 -0.713239 0.171885 0.452054 0.546603 0.675884 -0.742965 -0.0398584 0.236098 -0.868888 -0.802295 0.316365 0.239333 -0.329427 0.692608 0.35311 0.225478 -0.246536 0.193859 0.969053 -0.757309 0.53055 -0.842031 0.379357 0.968199 0.0938168 -0.704694 -0.634438 0.9577 0.726851 -0.180004 0.52585 -0.103827 0.154428 0.700116 -0.475798 0.847525 0.793078 -0.0924739 0.341696 0.504303 -0.999695 0.668254 0.525423 0.438137 0.325581 0.71208 0.438931 0.349509 0.759141 -0.477446 0.512238 -0.682171 -0.0170298 -0.41244 0.491729 -0.948544 0.620521 -0.351584 0.690228 -0.862418 -0.51352 -0.0493805 -0.763169 0.292437 0.837087 -0.506562 -0.672587 -0.389184 -0.380211 -0.719832 0.473845 -0.183117 0.723738 -0.432094 -0.245498 0.513398 0.22914 -0.882256 -0.935726 -0.567967 0.657877 0.444729 0.364524 -0.316487 0.223097 -0.932613 0.932735 -0.992553 0.0794116 0.758896 0.612952 -0.977782 -0.427089 0.795642 -0.934322 0.475371 -0.509064 -0.791735 -0.982177 0.493011 -0.687725 0.031374 -0.487273 -0.169688 0.457303 0.553195 -0.840078 0.121467 -0.462553 0.566136 -0.614417 -0.870659 -0.394067 -0.38369 -0.317829 -0.00390649 -0.592932 0.253922 0.858634 0.492401 0.626808 -0.717085 0.290179 0.267839 -0.857718 -0.988769 -0.831533 0.101202 0.272355 0.500824 -0.248123 -0.850027 0.0268571 0.81725 0.614784 0.200696 0.357505 0.280168 -0.101996 0.918574 0.407007 -0.286822 0.559055 -0.902216 -0.240371 -0.306232 -0.378502 -0.0882622 -0.308796 -0.196728 -0.574315 -0.837759 0.418849 -0.123115 0.878105 0.53055 0.350974 -0.746139 0.701642 0.826344 -0.662577 0.0272844 0.685711 -0.761765 -0.0802661 0.294085 0.936092 0.584325 0.58048 -0.594885 -0.875175 0.560947 0.993835 -0.784716 -0.259232 0.993652 -0.724776 -0.666728 -0.661234 -0.913325 -0.768235 0.371727 -0.209791 0.673686 -0.388207 -0.803028 -0.46707 -0.533419 -0.644998 0.179637 0.821217 0.306781 0.842642 0.443997 0.975523 0.414088 -0.852957 -0.88189 -0.367149 0.63749 -0.717512 0.584447 -0.00317402 0.704816 -0.54581 -0.271257 0.0871635 0.472868 0.30904 -0.808887 -0.00982726 -0.822743 0.18507 0.615516 -0.891595 0.682659 0.362022 -0.100531 -0.589025 0.732406 0.310871 0.444851 0.683452 0.198926 0.944027 0.407068 -0.222548 0.333516 -0.134774 -0.0542636 -0.138497 0.0162974 0.619911 0.474211 -0.329915 -0.993591 -0.0555454 -0.0902765 0.754502 -0.808094 -0.98297 -0.0763596 0.731978 -0.160349 0.707258 -0.809131 0.536593 0.845511 0.825673 0.640664 -0.331441 -0.0159922 -0.625404 0.705671 -0.555332 0.159006 -0.202161 0.572911 0.248062 0.652933 0.230483 -0.56699 0.778246 0.37722 0.748825 -0.269304 -0.699078 -0.877922 0.620888 0.414576 0.898859 0.807178 -0.44418 0.186901 0.720381 0.730208 0.954587 0.754196 -0.769212 0.81847 -0.841116 0.0766038 -0.538241 0.877861 0.70268 -0.381615 0.261246 -0.156748 -0.43948 -0.402368 -0.456632 -0.971556 0.39895 0.236343 -0.460905 -0.623756 -0.174449 -0.989807 0.0456571 0.708173 -0.360496 -0.100653 -0.323506 0.974608 0.0814869 0.637246 -0.88836 -0.495025 -0.916865 -0.0385155 0.347616 0.257767 -0.481841 0.863822 -0.0529817 -0.930049 0.451138 -0.160654 0.289202 0.908014 0.388207 0.137643 0.819813 -0.883416 0.526949 -0.988281 -0.699384 0.669902 0.00634804 0.969114 -0.939633 -0.579442 -0.843191 -0.979613 0.24385 -0.649454 0.750229 -0.0691571 -0.937923 -0.179576 -0.750473 -0.530794 -0.95709 0.819752 0.059635 -0.341757 0.280413 0.216932 0.776354 0.0246597 0.684978 -0.990661 0.437099 0.849051 -0.766709 0.57346 0.770799 0.415797 -0.781054 -0.0857596 -0.552524 0.263383 -0.498505 0.915949 -0.671 0.434109 -0.242996 -0.408655 -0.281694 0.724104 -0.27205 -0.667399 -0.390161 -0.0664713 0.473295 0.160532 0.939572 -0.88366 -0.381737 -0.0253311 -0.165537 0.830739 0.604651 -0.196301 -0.136544 0.388146 -0.0595129 -0.944882 -0.713483 -0.895562 0.450406 0.765611 0.305194 -0.450589 0.52524 0.850211 0.312275 0.796557 -0.627724 -0.646768 -0.857963 -0.326863 0.265458 -0.30202 0.320332 0.0106818 -0.205213 -0.0635415 0.314106 -0.105536 -0.883233 -0.000427272 -0.218153 0.91363 -0.795459 0.947262 0.823659 -0.588842 0.0974181 0.218153 0.230666 -0.265824 0.151071 0.880242 0.735763 -0.516511 -0.712324 0.879814 0.262894 0.764024 0.245987 0.292498 -0.822377 -0.565769 -0.169139 0.572728 -0.462858 0.357016 0.163706 -0.19624 0.33962 0.64866 -0.0676311 -0.0521272 0.774767 0.929744 -0.35897 0.0961362 -0.526216 0.574437 0.860404 -0.281389 -0.240737 0.961179 -0.522737 -0.0857596 0.895318 0.721907 0.94537 0.660868 -0.663004 0.992797 -0.465788 0.0651895 -0.0185558 0.663737 -0.419642 -0.387048 -0.58341 -0.371422 0.736373 -0.581395 -0.827748 0.0352194 -0.778978 -0.524202 0.969358 -0.464811 -0.929866 0.906794 -0.029787 0.534151 -0.614539 -0.787279 0.0287493 -0.558506 -0.414698 -0.475981 0.940182 -0.0792895 0.654276 -0.150278 -0.308918 0.139047 0.393396 0.327779 -0.290423 0.0177013 0.670329 0.475127 0.115058 0.481841 0.668864 0.437466 0.968504 0.710432 0.139291 0.2397 0.521882 -0.613685 0.648416 -0.964781 0.469145 -0.0534701 0.829274 0.356894 -0.804859 -0.168406 -0.368675 -0.634133 -0.973448 -0.263688 -0.429286 0.102667 -0.51883 0.859183 -0.0203259 0.736434 0.518342 0.152597 0.256852 0.815296 -0.211378 -0.427089 -0.882561 0.516389 -0.115791 -0.669535 -0.15687 -0.104315 -0.411402 -0.860587 -0.468229 0.138009 -0.873283 -0.532137 0.347739 0.8073 -0.585119 0.787768 0.771776 -0.904108 -0.68919 0.825002 0.851126 -0.924251 0.863761 -0.190747 -0.550754 0.947323 0.563999 -0.27553 -0.503693 0.289813 0.593664 -0.441922 -0.761399 -0.688397 0.0759934 0.55173 -0.511018 0.100104 0.325948 -0.54935 0.876701 -0.128792 0.0994323 -0.24562 -0.902826 0.220045 0.84429 0.966123 0.162669 0.370567 -0.0507843 -0.157175 -0.348532 0.425563 -0.00524934 -0.354331 -0.0415064 0.616798 0.00274675 -0.610328 -0.455106 0.554966 0.686321 -0.906427 0.188427 0.479582 -0.300067 -0.969725 0.233046 0.509186 0.889947 0.976439 -0.160715 -0.108954 -0.456693 -0.53763 0.233962 0.251541 -0.36074 -0.977171 0.960447 0.845877 -0.902216 -0.553806 -0.871818 -0.192028 -0.969358 -0.97534 0.663615 -0.598975 0.990905 -0.195508 -0.441128 -0.733138 0.222853 0.835866 -0.876946 -0.323689 0.912409 -0.577489 -0.76848 0.779161 -0.563206 0.372703 -0.424159 -0.146188 -0.385216 -0.751938 0.914301 0.558017 -0.0436428 -0.385583 0.321187 0.178111 0.913142 0.2914 0.437588 0.87957 0.127754 0.602515 0.720808 0.956418 -0.315388 -0.374901 0.694561 0.0819142 -0.640542 -0.559238 -0.801013 0.558262 -0.130562 0.384728 -0.359275 0.566258 0.122993 0.295978 -0.757309 -0.584264 0.469999 -0.232314 0.294329 0.795764 -0.0482207 -0.603064 -0.598791 0.0236831 -0.448941 -0.965513 0.735763 -0.703778 -0.557956 -0.964781 -0.713728 0.939083 0.24031 -0.492157 0.1081 0.656351 0.25264 -0.435146 -0.427699 0.781542 0.727522 0.572972 0.616981 -0.473295 -0.89544 -0.597632 -0.00390649 0.233169 0.265153 -0.322468 -0.469633 0.620888 -0.218336 -0.973387 -0.643167 0.0386987 -0.831899 0.33199 -0.821095 0.714643 -0.869987 0.97943 -0.48355 -0.994812 0.814076 0.108893 0.955808 0.646341 -0.941647 -0.135628 -0.600745 0.00238052 -0.357322 0.643655 -0.683758 -0.683147 0.537997 0.348227 0.992187 -0.0377831 -0.843496 -0.366172 -0.221327 -0.310322 -0.397668 -0.840139 -0.655741 -0.120491 -0.0794116 0.839956 0.923579 0.790698 -0.6522 -0.909052 0.56754 0.811268 -0.437832 0.0844778 0.393823 -0.291888 -0.0668986 0.995483 -0.163767 -0.122871 0.771409 -0.747177 0.895196 -0.407068 0.57932 -0.210279 -0.61283 0.259232 -0.699567 0.292865 0.195569 -0.341452 -0.429897 0.452909 0.519746 -0.797778 -0.0354636 -0.785448 -0.874382 -0.819264 0.251785 0.0264298 -0.404322 0.0133065 0.64103 0.0908869 -0.421535 -0.501984 -0.9671 -0.385705 0.039309 0.0619545 0.269731 -0.943051 0.509675 0.0111701 -0.615211 0.383141 0.337484 0.780504 0.853263 0.310749 -0.062809 0.183605 -0.158884 -0.438198 0.0394922 -0.336752 -0.543673 0.112312 0.941708 -0.45889 -0.00201428 0.441922 -0.242813 0.267717 0.206678 0.784411 -0.333883 -0.327779 0.514192 0.377403 -0.835195 0.213209 0.294024 0.712385 -0.68388 0.227797 -0.889214 0.784777 0.999329 -0.817982 -0.0291155 0.343893 0.159861 0.921138 0.57169 -0.857047 -0.940243 0.918879 0.552219 0.189282 -0.472319 -0.471953 0.742904 0.993713 0.208326 -0.769456 0.415431 0.821278 -0.187145 -0.112922 0.533114 -0.0592688 0.369041 -0.0129402 -0.999573 0.875053 0.470854 -0.100958 -0.0864311 -0.349264 0.528841 -0.879692 0.809864 -0.951596 0.0197156 -0.472746 -0.0820363 -0.147348 0.736983 0.625099 -0.59165 0.101691 0.0401025 0.797778 0.642556 0.337972 0.105292 0.558384 -0.576451 0.857657 -0.825063 -0.201245 -0.754135 0.960752 0.808155 -0.960264 0.545443 0.201367 -0.870048 0.681255 -0.0507233 -0.362632 0.0822804 0.251602 -0.473784 -0.919368 0.673198 -0.341513 0.0363792 0.347006 0.227126 0.438381 0.181102 0.505951 -0.364951 -0.993591 -0.146676 -0.869011 0.604407 -0.0928401 -0.612647 -0.450223 0.908808 -0.93652 0.808948 0.0935726 -0.361594 -0.97241 -0.915034 -0.652506 0.449857 0.230544 -0.625832 -0.599036 0.81609 0.232009 0.276445 -0.903131 -0.723677 0.970945 -0.917048 -0.717695 0.686626 0.0148324 -0.973448 0.0581701 -0.53116 -0.189587 0.531527 0.0291766 0.861869 0.933285 0.463041 -0.44595 0.170482 -0.662455 -0.621742 -0.00451688 0.0161143 -0.393151 0.775621 0.969969 -0.413355 0.203259 0.344626 -0.402307 -0.113715 0.717878 -0.783434 -0.246658 0.985656 -0.879326 -0.785876 -0.6851 -0.728438 -0.989257 0.101264 -0.585363 0.697796 0.86602 0.833242 -0.31142 0.0338766 -0.707135 0.806873 -0.473295 0.116279 0.2773 -0.889764 -0.677287 -0.902582 0.433742 -0.226698 -0.275407 -0.303363 0.255631 -0.983336 0.883965 0.449246 -0.634621 0.503144 -0.293841 0.95709 -0.235732 0.586217 -0.899042 -0.861686 -0.917475 -0.43887 -0.768357 0.477995 -0.170787 0.914851 0.765672 -0.72325 0.642373 0.575047 0.123909 -0.0975401 -0.46121 0.161265 0.731734 0.0388207 -0.835622 0.23445 0.268022 -0.0638467 0.043887 -0.453214 -0.0842337 -0.338827 -0.169139 0.292071 -0.388268 0.347067 0.557895 -0.644876 -0.703229 -0.556797 -0.113715 -0.437344 0.165476 -0.0342428 0.356589 0.932491 -0.0836233 -0.253189 0.637917 -0.0762376 0.00189221 0.685345 0.77849 0.68742 0.878472 -0.00372337 -0.544772 0.315327 -0.74382 -0.538729 -0.775743 0.0911311 -0.650552 0.678386 -0.229506 0.739791 0.126289 0.311848 -0.842459 -0.32259 0.558628 -0.657633 -0.921748 0.261979 0.872307 0.317402 0.104132 -0.957578 -0.202832 0.600317 0.935787 -0.9906 -0.183056 -0.378929 -0.347677 0.844961 0.419276 0.126228 0.962522 0.17213 -0.654398 -0.571568 -0.546908 0.805957 -0.158579 0.657084 0.840627 0.00244156 -0.0939999 0.00762986 -0.78026 -0.290728 -0.457486 -0.00787402 0.314778 -0.184643 0.00830129 0.689129 0.728316 -0.598975 -0.935787 0.993347 -0.807972 -0.0117195 0.225356 -0.134041 -0.183117 0.790148 0.0104987 -0.415248 -0.657755 -0.0388818 -0.807666 0.993835 0.38662 -0.152597 0.0477324 0.753525 0.697369 0.236404 -0.392907 0.590673 0.400781 -0.393151 0.905085 0.548679 -0.748093 0.379051 0.229872 0.237136 -0.114814 0.164561 0.373924 0.0821583 -0.936764 -0.983642 -0.116645 0.576268 0.92834 0.67918 0.308307 -0.47177 0.250931 -0.161448 -0.547214 -0.686443 -0.31905 -0.62809 0.624794 0.123848 0.99707 -0.402124 -0.114021 -0.782824 0.35665 -0.47354 -0.697796 0.168223 -0.453824 0.109321 0.193188 0.117744 -0.768968 -0.510956 0.382348 -0.976927 0.205579 0.250259 -0.55289 0.908198 0.6428 0.668437 -0.0310688 -0.887078 -0.655313 -0.039309 0.783129 -0.45596 0.992553 -0.464384 0.228652 -0.0755051 -0.604163 0.243118 -0.601233 -0.956479 0.743759 -0.375572 -0.609595 0.00708051 0.85369 -0.837698 0.554538 -0.512849 0.422328 -0.469023 -0.254227 0.972533 0.275102 -0.154062 -0.427028 0.0179454 0.616615 0.914118 -0.351279 -0.504975 0.279924 0.483794 -0.160532 0.841604 -0.0225844 0.494842 -0.484282 -0.688397 -0.449796 0.328328 0.801807 -0.774156 -0.781786 0.0568882 -0.174144 -0.778551 0.830678 -0.305561 -0.0299091 -0.498321 -0.885064 0.44656 -0.879509 -0.91363 0.928279 -0.0402857 0.917231 -0.938107 0.505951 -0.427638 0.00384545 -0.1692 0.712751 -0.436001 -0.721724 0.362205 0.29201 0.405725 -0.857779 -0.558567 -0.883843 0.00976622 0.751267 0.920588 -0.56345 0.980162 -0.735274 0.96771 -0.866752 -0.13807 -0.903864 -0.682476 0.965574 0.39187 -0.837209 0.521272 -0.178844 0.74797 0.135934 -0.80376 -0.0328389 0.79967 -0.309467 -0.723494 0.299396 -0.642312 -0.244278 -0.737716 -0.407557 -0.575475 -0.23561 -0.529695 -0.249893 -0.556308 -0.0966245 -0.716352 -0.945248 0.550388 0.363426 0.401941 -0.582067 -0.179088 0.589086 0.091009 -0.370018 -0.476714 0.528963 0.433193 0.610145 0.366783 -0.114448 -0.422755 0.656534 0.751999 -0.634865 0.988464 0.696209 0.0211195 -0.0719038 0.698163 -0.464933 -0.292376 0.0385155 0.554416 -0.891839 0.786486 0.914546 -0.528414 -0.270768 0.924007 -0.222059 0.680522 -0.659098 -0.272233 -0.895135 0.978331 0.764878 -0.00292987 -0.124947 -0.0214857 0.951474 0.972471 0.822255 -0.638894 0.230178 -0.414271 -0.316181 0.122688 -0.440701 -0.289568 0.451566 -0.174083 -0.223891 -0.588842 0.620765 -0.150034 0.846792 0.194226 0.440762 0.640542 -0.883904 0.257035 0.164805 0.959653 0.558384 -0.261368 -0.699994 -0.864433 0.0261246 -0.0305194 -0.142465 0.313435 0.501312 0.721296 -0.397851 -0.295794 0.344381 -0.542819 -0.697186 -0.164317 0.545138 0.582006 -0.0175792 -0.198132 -0.0282 0.691509 0.16743 0.513337 0.621986 -0.17683 -0.861564 -0.0532869 0.871879 0.705915 0.180126 0.395532 0.726607 0.0098883 -0.169322 -0.280718 -0.929805 -0.403345 -0.867546 0.594214 0.915949 -0.230544 0.881768 -0.23738 0.655497 0.522615 0.878594 -0.716474 -0.690289 0.791979 -0.82317 -0.217665 -0.221632 -0.295306 -0.665263 -0.299457 0.0900934 -0.17036 -0.33608 0.546481 0.652445 0.426845 0.480193 0.144479 -0.498321 0.697674 -0.646951 -0.114448 -0.446683 -0.965025 0.356284 -0.0229506 -0.148386 0.273271 -0.682964 0.69273 0.819691 0.938168 -0.93304 -0.377342 -0.490508 0.496612 0.691326 0.923518 0.852164 0.607215 0.779039 0.56815 0.907526 0.369896 0.67332 -0.404077 0.114204 -0.424037 -0.278826 -0.637307 0.540133 -0.0418116 0.52353 0.790698 -0.868278 0.440701 0.18507 -0.381737 0.96472 0.389001 -0.435451 -0.349387 0.493194 0.860099 0.524629 0.00915583 0.800647 -0.147897 -0.818287 0.381615 0.849295 -0.444912 -0.843618 0.272111 0.730269 -0.399927 0.822926 0.251419 0.913569 0.309711 0.559482 -0.793505 -0.501984 -0.0521272 -0.00183117 -0.409205 -0.538363 -0.0300311 -0.724898 0.674174 -0.0888116 0.272844 0.280352 -0.207227 -0.667765 0.444607 -0.0924129 -0.40072 0.839407 -0.985168 -0.695355 -0.687176 -0.57401 0.704816 -0.876824 -0.0311298 -0.785387 -0.323384 0.768968 -0.330831 0.706525 0.784289 -0.348898 0.832143 0.0316792 0.822865 0.433376 -0.557712 0.199414 -0.2209 0.282793 0.300861 0.347616 0.0810596 0.120674 0.275285 0.993225 -0.151926 -0.127876 -0.450589 -0.718061 0.141122 -0.283831 0.873711 0.238723 0.212415 -0.664286 0.814686 0.0170298 0.755661 -0.832387 -0.994568 -0.850638 -0.84429 -0.347433 -0.604285 -0.202649 0.739425 0.48532 -0.498627 -0.998962 0.0242935 -0.135812 -0.345358 -0.0699506 -0.0301532 -0.258194 0.25441 -0.867851 -0.773302 -0.925472 -0.984374 -0.215284 -0.613013 -0.927425 0.220106 0.9436 0.234267 0.450162 -0.0344259 0.793628 0.993408 0.675334 -0.583471 -0.101447 -0.419459 -0.780016 0.0537142 0.45126 -0.14631 0.810291 0.924373 -0.476897 0.86193 0.6757 -0.1081 0.314778 0.0955869 -0.199902 0.886468 -0.594458 0.736861 0.171092 -0.845694 0.00384545 0.90893 0.0301532 0.508576 -0.803211 0.926631 -0.877312 0.578099 -0.799487 0.546115 -0.051822 0.0585973 0.610267 0.214979 -0.990356 -0.0377831 -0.350424 0.322163 0.0644571 0.867363 -0.578404 0.448025 -0.626625 0.168711 -0.84197 0.614478 0.951718 -0.672404 -0.530489 0.534579 -0.182079 -0.878288 -0.404444 0.862968 -0.75499 0.895196 0.654764 0.445645 0.00976622 -0.191723 0.894342 -0.429958 -0.357505 0.087957 0.940609 -0.78496 -0.322163 0.277544 -0.951291 0.300861 0.90423 0.486663 0.352988 0.939083 0.613746 -0.358664 0.116157 -0.317402 -0.147226 0.734237 0.980345 0.77617 0.671489 0.0740402 0.2162 -0.594641 -0.626381 0.536288 0.97357 0.94769 -0.232619 0.812489 -0.469145 0.221571 0.414515 0.660868 0.545871 0.737289 -0.11927 0.155893 0.304889 -0.0538973 -0.0143441 0.938595 -0.026735 0.491119 -0.947262 -0.533907 0.845389 -0.543551 -0.840322 0.262406 -0.405848 -0.382103 -0.612281 -0.832509 -0.478118 0.692608 -0.927974 0.588049 -0.190563 0.588964 -0.948056 0.746933 0.766709 0.6569 0.920527 0.933529 -0.91772 0.93774 0.274553 0.753586 -0.925777 -0.58579 -0.0348532 -0.620765 -0.0610999 -0.739486 -0.653055 0.799304 -0.99823 0.0922298 -0.471281 -0.931575 0.967466 -0.783922 0.623207 -0.441616 -0.831044 0.88073 0.996765 0.2068 0.818837 -0.474394 0.519746 0.767808 0.257889 -0.967955 -0.183361 0.0620765 0.206372 -0.0272844 -0.484405 -0.773363 -0.986938 0.861442 -0.50119 0.965147 -0.0939999 -0.596472 0.152414 0.797046 0.241836 -0.253983 -0.383874 0.308796 0.756272 -0.273027 -0.966062 0.402979 0.81377 0.125984 -0.196362 0.54874 -0.342245 -0.0859427 0.826955 0.031435 -0.339254 -0.496429 -0.240737 -0.797046 -0.42599 -0.00152597 0.260209 0.731734 -0.222304 0.443936 -0.756943 0.852286 -0.469084 -0.923579 0.125374 0.615638 0.221693 0.574315 0.0780687 -0.860648 0.61692 -0.69328 -0.723677 0.857535 0.112251 0.584752 0.149301 0.770189 -0.017335 -0.089544 0.629799 -0.305927 0.63163 0.227614 -0.595495 -0.487579 0.841726 -0.828786 -0.835561 0.42477 -0.975707 0.317952 -0.145883 0.196972 0.469938 0.435512 -0.0778856 -0.58872 0.597632 0.733199 -0.429225 0.716719 0.205579 0.11164 0.0065922 0.0781298 0.720991 0.413172 0.6898 0.0272233 -0.550327 -0.328939 0.584508 0.911982 0.82665 -0.639687 -0.591223 0.146676 -0.334432 -0.352622 0.88482 -0.537936 0.409205 0.639871 -0.0118415 0.155527 0.379112 -0.363242 0.198926 0.340414 -0.974303 0.378868 0.750656 0.19685 -0.8214 0.297992 -0.119026 -0.778856 0.296039 -0.232497 0.0814259 -0.523714 -0.284868 -0.647867 -0.652628 0.84136 -0.0979064 -0.941891 0.42831 0.261857 -0.298114 -0.417018 0.0772752 1.00006 -0.411463 -0.434292 0.301471 -0.115852 0.914912 0.836782 -0.388024 0.559177 -0.837514 -0.332296 0.273759 0.736251 -0.807728 0.021974 -0.444363 -0.557041 0.493744 0.804126 0.980468 0.273576 0.435268 -0.890069 -0.425319 0.638467 -0.485808 -0.522859 -0.880913 -0.985717 0.606971 -0.865653 -0.601843 0.194714 0.218641 -0.748093 -0.549777 0.539156 -0.266679 0.191479 0.817677 -0.776354 0.664164 0.756028 0.796557 -0.509125 -0.0971739 -0.560154 -0.313068 -0.100348 0.970335 -0.320942 0.0430935 -0.424709 -0.733809 -0.899286 -0.0772752 -0.54056 -0.680767 0.773729 0.137765 -0.439663 0.0369285 0.457914 -0.496124 0.202466 -0.0443142 -0.145211 0.0908259 -0.723372 0.490936 -0.142648 0.472075 -0.509675 -0.813343 -0.200208 0.975096 -0.382775 0.966429 0.70799 0.931209 -0.252457 -0.61808 0.54874 -0.0744064 0.537753 -0.135628 -0.519258 -0.95239 0.460844 0.97357 -0.896112 0.140328 -0.943905 -0.351828 -0.290423 -0.94946 0.179515 0.456083 -0.469633 0.879448 -0.746994 0.84374 -0.00946103 -0.768541 0.515412 0.386681 0.955625 -0.534395 0.271501 0.039309 -0.0176402 -0.0556064 0.142831 -0.615028 -0.43069 -0.715742 0.317158 -0.114082 0.406275 -0.394311 0.798633 0.133187 0.624245 -0.216932 0.657938 -0.903192 -0.954221 0.694561 -0.718 -0.624184 0.435146 0.472258 -0.375511 0.448086 0.747421 -0.247757 -0.545016 -0.0798389 0.379479 0.924617 0.609962 0.77788 -0.580541 -0.617042 0.241775 0.63572 0.897211 0.775377 0.0697064 0.987182 0.0334493 0.25325 -0.370872 0.454557 -0.509308 -0.277788 -0.478057 0.039248 0.622902 -0.908136 0.666484 0.371483 0.725142 -0.474455 -0.452725 0.960203 0.284014 0.690594 -0.534517 -0.556614 0.227675 0.00811817 -0.211317 0.838247 -0.824513 -0.0967466 -0.799365 0.79027 0.688458 -0.945065 0.95184 0.824269 0.518647 -0.353659 0.10871 -0.406214 -0.140206 0.614173 0.804615 0.131661 0.597021 0.899103 -0.51114 -0.901056 0.556736 0.695721 0.177684 0.0363181 0.756821 0.70268 -0.296893 0.61283 0.656595 -0.627602 0.96417 -0.12336 -0.593298 0.161326 0.175731 -0.495147 -0.90069 0.77965 0.119514 -0.946591 0.0180065 0.441494 -0.606604 -0.792712 -0.112434 -0.885064 -0.338094 -0.969847 -0.875725 0.772142 0.905695 -0.785265 0.0860648 0.638833 0.671916 -0.667338 0.321919 0.444851 -0.675945 -0.915583 -0.177684 -0.326192 -0.707624 -0.45065 0.269365 0.813526 0.323201 0.435879 0.286272 0.605323 0.729293 -0.668925 0.687908 -0.705365 0.639749 0.951291 -0.26967 -0.119026 -0.749802 0.391259 0.361228 -0.632607 0.0729415 0.375145 -0.53055 0.0111701 0.186169 0.505707 -0.864494 0.573277 -0.51529 0.51468 -0.118843 -0.431484 -0.0700726 -0.487273 -0.0804492 0.516084 0.799426 -0.760544 0.405359 -0.811634 -0.06287 -0.686626 0.68449 0.862418 -0.996399 0.481841 -0.455655 -0.431545 0.725935 -0.129036 0.463957 -0.658793 0.147043 0.236159 0.863334 -0.530977 -0.123238 -0.788683 -0.645913 -0.255814 -0.658854 0.559727 0.989501 -0.287188 0.0327779 -0.577062 0.513764 -0.0748337 0.760483 -0.428005 -0.38717 -0.81493 0.899591 0.656656 0.164011 -0.199292 -0.358359 -0.544711 -0.514131 0.83373 -0.75499 -0.874321 -0.411402 -0.650247 0.284197 0.454251 0.42361 -0.331319 0.900018 -0.893914 -0.866325 0.61399 0.0497467 0.875847 -0.696698 0.763047 0.757309 0.936336 0.208082 -0.302875 -0.637368 -0.910395 0.0650674 -0.748276 0.77263 -0.983092 -0.717268 0.765977 -0.290118 -0.472014 -0.288775 0.332845 -0.0360129 -0.188366 -0.108405 0.0493194 -0.359397 0.685528 0.306781 -0.733687 0.412012 -0.153879 0.630776 -0.161265 0.766709 -0.880913 0.979186 -0.624855 -0.740402 -0.291155 -0.841238 0.488311 -0.237624 -0.551364 -0.0817921 0.0444973 0.71269 0.0507233 0.197034 0.414393 0.364585 0.356162 0.376549 0.722151 0.0388818 -0.415003 -0.470854 0.0960752 -0.62748 0.586278 0.668986 0.91833 -0.430935 -0.912348 0.00128182 0.0748337 0.648233 0.946164 0.172984 0.205701 0.696271 -0.602942 -0.477812 0.95477 -0.884331 0.305316 -0.671489 0.219679 -0.124153 -0.585912 -0.937008 -0.597876 0.76207 -0.404016 -0.361961 0.657938 0.626137 0.102118 0.657511 0.146249 0.636391 -0.187206 -0.333516 -0.719343 -0.472502 0.487029 -0.598303 -0.0215467 0.850638 0.0128182 -0.958799 -0.0892388 0.223158 -0.342855 -0.545566 -0.247269 0.579076 -0.684246 0.452359 0.433437 -0.581456 0.763474 0.0369896 0.385705 0.0584752 0.903803 -0.347922 0.796435 0.88189 -0.980834 -0.567234 0.856253 0.588232 0.0213026 -0.544467 -0.990173 -0.556491 -0.29964 0.988281 0.205884 0.530123 -0.0243545 -0.259843 -0.853385 0.996765 0.145334 -0.888116 -0.461332 -0.691571 0.136422 -0.554233 -0.657938 0.496979 -0.245132 -0.724898 0.0211195 -0.589941 -0.064335 0.574925 -0.20625 -0.037661 -0.00750778 0.0114753 0.882195 0.384362 0.868156 0.192456 0.762131 0.473418 0.383996 0.91717 -0.586706 0.843008 0.490814 0.425929 0.569737 0.173167 0.517854 0.650858 0.968748 0.460355 0.423427 0.465238 -0.398157 0.267289 0.0447415 0.933834 0.96472 -0.026735 0.348044 0.562717 0.306415 -0.976256 0.678264 0.549655 0.880364 -0.81902 0.00933895 0.0334493 -0.806507 -0.226698 0.194165 -0.655436 0.257096 0.945492 -0.785631 -0.745224 0.83605 0.908869 0.430873 0.22737 0.699078 -0.809131 -0.167002 -0.333211 -0.130928 -0.114143 -0.710798 -0.830922 -0.127327 0.904169 -0.202954 -0.228224 0.990539 -0.777452 0.732772 -0.796496 -0.493072 0.13453 -0.898736 -0.865348 0.960569 0.499603 0.787157 0.426906 -0.606665 -0.00616493 -0.197095 0.383141 0.601904 0.359824 -0.459257 -0.0021974 -0.61399 0.656412 0.0214246 -0.793261 0.799915 0.508881 -0.855399 0.13746 -0.59873 -0.64103 -0.0609778 0.358359 0.502289 -0.285113 -0.187878 0.129525 -0.581701 0.401086 -0.199658 -0.347433 0.719282 -0.191601 -0.18098 0.320332 -0.521516 -0.855765 -0.0875298 -0.033022 0.523592 -0.317585 -0.496246 0.118415 -0.314167 0.0130013 0.645059 -0.75853 -0.94946 -0.707441 -0.732833 -0.00500519 0.206922 0.494171 0.430202 0.478667 -0.502106 -0.343039 -0.427272 -0.516206 -0.729354 -0.863212 -0.237441 -0.256791 -0.874077 0.856131 0.946347 -0.81902 -0.831411 -0.446927 -0.800769 0.162791 -0.74266 0.032961 -0.0238662 0.745407 0.254776 0.41714 -0.640054 -0.0728194 -0.722639 -0.606788 -0.686871 0.898065 0.945736 -0.534334 0.926875 0.288958 0.633889 0.20503 -0.329183 -0.577428 -0.279802 -0.501801 0.644387 -0.437038 0.837026 0.798877 -0.174998 -0.834646 -0.879998 0.376549 -0.680339 -0.873344 -0.54056 0.567662 0.614051 0.0350363 -0.250931 -0.975218 -0.17744 -0.579991 0.136605 -0.0328389 0.938839 -0.997314 0.27382 -0.569981 -0.914973 -0.0545077 0.566258 0.515412 -0.237319 0.102179 -0.576756 0.641458 0.101813 -0.732039 0.508515 0.792956 0.111579 0.429592 -0.010987 0.77086 -0.0700726 -0.985107 -0.21388 0.442776 -0.926265 0.143624 0.825002 0.992614 -0.310993 -0.123665 0.284502 0.170482 -0.199719 0.465483 0.847708 -0.456632 0.561314 -0.39541 -0.0487701 -0.255753 -0.495575 -0.321187 -0.963987 -0.277361 -0.208753 -0.985412 0.796802 -0.00543246 -0.537936 -0.87017 0.431789 -0.107795 0.686199 -0.0161143 0.89367 0.814503 -0.988403 -0.772691 0.13868 -0.523653 0.615638 -0.547702 0.37722 -0.840505 -0.446072 -0.557651 -0.676677 0.961973 -0.988403 -0.577611 -0.554782 -0.952207 0.552463 0.308735 -0.785204 -0.101813 -0.63102 0.959104 0.357993 -0.439968 -0.46707 -0.57755 -0.895501 0.897027 -0.755295 0.189709 -0.561863 0.839102 0.0838674 -0.557529 0.346579 -0.367393 0.258561 0.304279 -0.928951 0.0905207 -0.143991 0.0897882 0.357322 0.842031 0.0924739 -0.44479 -0.29555 -0.417506 0.562901 0.148141 0.615882 0.3243 0.491241 -0.742538 -0.151499 0.645669 -0.0197156 -0.536288 0.663676 0.941403 -0.738143 -0.211439 0.0761155 -0.327229 -0.053409 0.945309 0.104743 0.617652 0.274126 0.588415 -0.977721 0.119758 0.362754 0.563938 0.605628 0.339742 -0.540072 0.159311 -0.614906 0.504486 -0.807972 -0.646646 -0.104682 0.157175 0.814259 0.0663493 -0.0754441 0.407557 0.460477 -0.590185 -0.234756 -0.818409 0.393823 0.936947 -0.536471 0.472014 0.256241 -0.108039 0.0695233 -0.412562 0.318562 0.460966 0.887322 0.403406 0.730391 -0.979064 0.724654 0.611549 0.770494 -0.609168 -0.85662 0.969969 0.0961973 0.0806324 -0.290545 0.553134 -0.00585973 -0.458341 -0.757676 0.00201428 0.629616 -0.583043 -0.934383 0.774034 0.296832 -0.20918 0.256852 0.392785 0.668986 0.43887 0.897272 -0.301532 0.0480986 0.0781908 -0.67802 0.0977843 0.61515 -0.382714 -0.629494 0.813587 -0.319966 -0.593847 -0.36428 0.135079 0.931575 0.486175 0.714704 0.668315 -0.312702 -0.160105 0.458219 0.585363 0.144052 -0.358481 -0.778917 0.874748 0.627175 0.506623 -0.887872 0.591467 0.841055 0.742172 -0.756089 0.107001 -0.881096 -0.40365 0.983031 0.359092 -0.326741 0.509125 -0.800464 0.101996 -0.154917 0.361594 -0.48178 -0.84374 -0.645669 0.726302 -0.432949 -0.340963 -0.449979 -0.882927 0.228285 -0.686321 0.660013 0.239639 0.887933 0.640054 -0.959104 -0.759507 0.685894 0.224257 0.428676 0.958127 -0.233962 -0.0308857 -0.81255 -0.828298 0.526277 0.343649 -0.438931 -0.147409 0.868156 -0.366783 0.92187 0.413172 -0.55289 -0.81023 -0.979186 0.957151 0.92303 0.681682 -0.761582 -0.470305 -0.791186 -0.656595 -0.16627 -0.632424 0.722273 -0.773851 -0.805408 0.148874 -0.365867 0.447537 -0.911982 -0.757187 -0.880242 0.441189 -0.0900934 0.96063 0.608252 -0.792468 -0.0651895 -0.195935 -0.967833 0.56345 0.566502 -0.282793 0.0788012 -0.608191 -0.412684 -0.66508 -0.561436 0.892327 0.408961 -0.766221 0.0562168 -0.169261 -0.678569 -0.818409 -0.619728 -0.210523 0.74443 -0.612281 0.613258 0.417384 0.475676 -0.247146 -0.0386376 0.679485 0.942501 -0.880974 -0.114997 0.107306 0.450711 0.519868 0.348349 0.0488921 0.435329 0.43008 0.0694012 0.918635 0.710065 0.0161143 -0.229811 -0.552829 0.717634 0.385766 -0.57346 -0.0681194 0.779589 -0.161936 -0.481597 -0.513886 -0.653665 -0.886468 0.279375 -0.709943 0.247574 0.644326 0.947079 -0.159922 -0.0586584 -0.196545 -0.98706 0.198926 0.765061 0.156015 -0.527437 -0.754196 0.184582 0.707929 0.0751999 0.926448 0.0452298 -0.843191 0.57401 -0.497345 -0.179271 -0.858268 -0.0238052 0.80315 -0.135934 -0.506928 -0.207166 -0.52762 0.657023 -0.517488 -0.711225 0.221998 0.0600623 0.0733687 0.733138 -0.920588 0.562901 -0.829946 0.648355 0.638833 0.533968 0.86895 -0.938839 -0.689556 -0.529451 0.707074 0.752426 0.571507 -0.750961 0.913386 0.506318 0.214979 -0.625343 -0.34194 0.36135 -0.399377 0.231459 0.302936 0.859855 0.904657 0.332418 0.650919 0.29787 0.369346 -0.43069 0.196362 -0.0242935 -0.446316 0.463285 -0.624855 -0.552768 0.583104 -0.586278 0.814808 -0.229445 -0.600867 -0.0505402 0.583654 0.75737 -0.98999 -0.0220961 -0.558201 0.223341 0.740341 -0.964475 0.091009 -0.761826 -0.519258 -0.462247 0.423915 -0.624489 0.9389 0.0288104 0.774828 -0.0372337 0.888299 0.431789 -0.830617 -0.668864 0.419154 -0.701276 0.574986 0.0661661 -0.811939 -0.939327 0.14985 0.256791 0.668132 -0.722517 0.493988 0.746261 -0.60166 -0.112006 0.898736 0.381371 0.234878 0.459806 0.596716 -0.736922 -0.400293 -0.560581 0.0121467 -0.00366233 0.73149 -0.597449 0.0106208 0.939755 0.935116 0.303546 -0.851065 -0.544223 0.832082 0.725691 0.925716 -0.838918 -0.389977 -0.86895 -0.969664 -0.823842 0.273454 -0.889031 0.594336 -0.624794 0.892816 0.635537 -0.560032 -0.363426 -0.144967 -0.696637 -0.668559 -0.90777 -0.886346 -0.407373 -0.775987 -0.62162 -0.561375 0.10987 0.514619 -0.115058 -0.334005 0.840933 0.291217 -0.994323 -0.0514558 0.400171 0.583593 -0.611488 -0.994812 -0.718916 -0.387353 -0.814991 -0.628456 -0.893853 -0.959165 -0.699261 0.649454 -0.123299 -0.777941 0.645364 0.757065 -0.777269 0.451566 -0.61808 -0.820973 -0.346457 0.215772 0.17805 0.216749 -0.193005 0.442898 -0.54526 0.237441 -0.299945 0.752365 0.637307 0.925044 -0.0215467 -0.295123 -0.595495 0.529879 -0.832998 0.0529207 0.939572 -0.881401 0.919368 -0.0100104 -0.821034 -0.175426 -0.732161 0.401331 0.0637246 0.0970518 -0.125801 0.113166 0.788439 0.952084 -0.72148 -0.856437 -0.948605 0.221937 0.150217 -0.0481597 0.3055 -0.194592 0.537325 0.688641 -0.993347 0.91772 -0.883111 0.44595 -0.13453 -0.65983 0.445157 0.507416 -0.904108 0.671061 0.206617 -0.402124 -0.333822 -0.425563 0.46536 -0.866325 0.54819 -0.968687 0.913874 0.472685 -0.0321675 -0.411219 0.123787 0.163767 0.654947 0.610511 0.795703 -0.802356 -0.906855 -0.473723 -0.991149 0.256241 0.77025 -0.917353 -0.52823 0.962949 -0.572545 0.592504 0.771654 -0.867729 0.310505 -0.815174 0.624428 0.0207532 -0.581517 -0.944638 -0.87487 -0.424342 0.754868 0.716291 -0.00201428 -0.313862 -0.423488 0.245681 -0.154428 -0.567478 -0.355368 0.538668 -0.600317 0.336629 0.474272 0.556369 0.771165 -0.388451 0.584081 0.576512 0.699322 -0.587988 0.746994 -0.557041 -0.197278 0.0839895 -0.760544 -0.183605 -0.171214 -0.58518 -0.907709 -0.57639 0.903803 -0.116523 -0.660074 0.307941 0.782885 -0.0899713 0.270768 0.0788622 0.100104 -0.893853 0.677043 -0.837392 -0.381432 -0.475066 -0.895196 0.051822 -0.519868 0.910883 -0.895501 0.555149 0.455655 -0.0503571 0.48001 -0.952146 -0.805286 -0.481414 0.539156 -0.278032 -0.523897 -0.0635415 -0.656168 -0.164622 -0.542758 0.21327 0.959897 0.962644 0.924739 -0.699628 0.706769 0.244644 0.543734 -0.659159 0.408106 -0.361167 -0.891595 0.919001 -0.358726 -0.831166 0.792285 0.310261 0.987914 0.174937 0.397119 0.731978 -0.717085 0.563633 0.60398 -0.407557 0.865775 0.0578038 -0.777391 -0.258194 0.829335 -0.553195 0.442105 0.721358 0.270707 -0.163401 0.0798389 0.0136727 -0.459318 -0.100775 0.83257 0.292987 -0.505829 -0.876701 -0.474333 0.674785 0.739913 -0.936214 0.363731 -0.0339376 0.890313 0.59226 0.179943 -0.084844 -0.188 -0.853873 -0.313496 0.46182 0.875542 -0.0199597 0.724654 0.987304 0.204969 -0.585668 -0.485747 -0.436123 -0.0712934 0.0861869 -0.0955869 0.205945 -0.57108 0.198926 0.622963 0.118599 0.59165 0.772508 0.526521 0.948788 -0.943356 0.892999 -0.14924 0.034487 -0.531954 0.963194 -0.539645 -0.344442 0.723555 -0.0479766 0.0987609 0.282854 -0.775438 0.64512 -0.361777 -0.171153 0.127083 0.89422 0.33022 0.897394 0.590307 0.867607 0.0548129 0.0335103 -0.972349 0.299945 -0.428981 0.974181 0.356589 -0.257584 -0.232985 -0.102912 -0.751938 -0.187511 0.909723 0.671916 -0.622597 0.443997 -0.105292 0.109443 0.673625 0.137276 -0.503144 -0.788195 0.569493 -0.791003 -0.38015 0.422999 -0.748154 -0.957578 0.546176 0.8778 0.911616 -0.663065 0.187145 -0.347311 0.993286 -0.641519 -0.666789 -0.984374 -0.554721 -0.810535 0.903742 -0.323994 -0.0296649 0.978697 -0.803394 0.0344259 -0.725386 0.191052 -0.860892 -0.567112 0.318562 0.858329 -0.462858 -0.594946 -0.433864 0.828359 0.325642 0.925899 0.23561 -0.984557 -0.181774 -0.338583 -0.451199 0.650736 -0.0422999 -0.780382 -0.0182506 0.530977 -0.434353 0.399683 0.514131 0.269975 -0.407373 0.441922 -0.120369 -0.452359 0.367942 0.278398 -0.183971 -0.639565 0.849966 -0.217604 0.314716 -0.728865 -0.124153 -0.9812 0.871147 0.659098 -0.588232 -0.506318 -0.265458 -0.0303974 -0.197217 -0.595312 -0.841726 -0.0350363 -0.977232 0.890801 0.649576 0.973509 -0.075322 -0.717878 0.219191 0.140023 -0.509919 0.350913 -0.367698 0.675884 0.0798389 -0.440029 -0.342306 -0.891473 0.683391 -0.685955 -0.681865 0.532381 0.1692 0.209302 -0.859611 -0.142526 0.534701 0.282854 0.404993 -0.939083 0.156076 0.263749 0.396325 0.436062 -0.961423 0.822133 -0.347189 -0.157724 0.0664103 -0.180431 -0.783251 -0.0440701 0.252457 -0.440823 -0.115486 -0.480559 -0.0114143 0.0355246 -0.54404 0.591711 0.295672 0.184215 -0.0146493 -0.2021 0.0734298 -0.867363 -0.969664 -0.42007 -0.649576 -0.55051 0.90307 -0.554172 0.534395 0.394799 -0.0810596 -0.779955 -0.338522 -0.830007 -0.352194 0.293719 -0.352805 0.168101 0.163218 0.874077 -0.464201 0.223219 -0.707502 -0.765367 -0.249588 -0.138863 -0.132821 0.96594 -0.656961 0.549045 0.97241 0.224257 -0.755234 -0.0546908 -0.802722 0.982665 -0.484588 -0.85015 -0.114936 0.280474 0.593847 -0.0458402 0.382653 -0.526521 0.54758 0.0907648 -0.70915 -0.516084 0.323262 0.483916 -0.285357 0.0504181 0.996521 0.499115 0.512666 0.977843 -0.978514 -0.806812 -0.452603 -0.612464 -0.518159 0.564793 0.935604 0.967527 -0.660441 0.803455 0.297381 -0.778246 0.685894 -0.459745 0.00732467 0.721174 -0.00927791 -0.902033 0.44357 0.3525 -0.646951 -0.259476 -0.761826 0.56931 -0.249161 0.923396 0.527498 0.641458 0.290728 0.543063 0.201123 -0.0949765 -0.54172 0.188 -0.847037 -0.987182 0.368309 0.387719 0.531099 -0.81609 0.0140389 -0.136788 0.986938 -0.546298 0.518037 0.776964 -0.0739791 -0.0759324 0.381371 -0.017335 0.757981 -0.986816 -0.26558 0.275713 0.146066 0.705976 -0.413844 -0.357444 -0.742294 -0.196728 -0.925288 0.511445 -0.985961 -0.827321 0.716963 -0.998413 -0.659769 0.998169 -0.341452 0.174083 0.415309 0.029848 0.924434 -0.719038 -0.0779467 0.834646 0.668071 -0.984008 0.297381 -0.954526 -0.578038 0.764451 -0.0179454 0.612098 -0.652323 -0.147653 0.670695 -0.949887 -0.514436 0.798022 0.561863 0.692303 -0.995239 0.560459 -0.392114 -0.0629921 0.453641 -0.209546 0.765367 0.499603 -0.991088 0.0801441 -0.755722 0.661539 -0.273149 -0.787035 -0.24092 0.520784 0.792285 0.414027 -0.222304 -0.758347 0.768846 -0.400659 0.772203 0.305194 -0.150705 0.62693 -0.531771 0.758286 -0.89483 0.545688 -0.904108 0.464628 -0.262772 0.846365 0.638833 -0.645852 0.324666 0.710676 0.0844778 0.673442 0.0757493 0.262162 -0.325459 0.235061 0.0777635 -0.184521 -0.845694 -0.331624 0.546908 -0.873161 -0.976805 -0.331075 0.0780687 0.643899 -0.215528 -0.751206 0.895379 0.755478 -0.80492 0.986449 0.101447 -0.958066 -0.483672 0.276567 0.928218 -0.47476 0.763047 0.580541 -0.0137948 -0.0814869 -0.0459623 0.675945 0.515168 0.876396 0.362144 -0.0931453 -0.366722 -0.755356 0.764024 -0.566319 -0.411829 -0.689007 0.690228 -0.516572 -0.993957 0.0541415 -0.324788 0.599341 0.142099 0.394372 0.507538 0.890924 0.13044 0.443142 0.479338 -0.715681 0.233962 0.753708 0.63688 0.772325 -0.90539 -0.429714 -0.969908 -0.336629 -0.0166636 0.0789843 -0.0366233 0.83312 0.0497467 -0.343161 -0.755722 0.973143 -0.427577 -0.877373 -0.565159 -0.158518 -0.791003 -0.0134896 -0.899286 -0.487273 -0.754135 -0.30025 0.0616493 -0.372093 0.84844 0.905451 0.641091 0.644326 -0.689251 0.687725 0.916499 -0.914423 -0.693829 -0.177745 -0.0308857 0.792041 0.136727 0.0263078 -0.865592 0.170054 0.983397 -0.791796 -0.74852 -0.557407 0.155893 0.718122 -0.0864921 -0.100775 0.343222 0.597143 0.717329 -0.854483 -0.137093 0.828053 0.513825 0.353842 -0.0883233 0.585058 0.657877 -0.487395 -0.185131 -0.516511 0.258133 0.676921 0.277117 0.830678 -0.572789 -0.781969 0.631508 0.874626 0.53171 -0.926143 0.0903375 0.0551181 -0.558078 -0.00128182 0.994873 0.253494 0.782396 0.813099 0.0648233 0.0422389 -0.81902 0.653971 -0.350546 -0.0646402 0.520234 0.224806 0.9765 -0.361838 -0.814137 -0.954526 -0.597449 -0.702496 -0.681926 0.702313 -0.336507 0.751633 0.0606726 0.0977843 -0.876213 0.780016 0.81139 0.701093 -0.973082 0.35372 0.471831 -0.202466 -0.254654 -0.114814 0.697613 -0.26088 0.0302142 0.47824 -0.851798 -0.805957 0.261735 -0.822072 0.737167 0.397119 -0.300983 0.221266 0.881585 0.399316 -0.269914 0.285967 0.752731 0.318135 -0.878227 -0.2585 0.525728 0.587438 -0.729964 -0.101141 0.629616 0.207593 -0.55051 0.26027 0.997314 -0.00469999 0.0638467 -0.230666 0.315571 -0.16627 -0.104499 0.061161 -0.724837 -0.0777025 -0.644082 0.712263 -0.17921 0.0269792 -0.26442 0.490386 0.400964 0.730208 0.453641 0.604956 -0.781908 0.680584 0.308246 -0.0433986 -0.521394 -0.156748 0.726485 0.387475 0.6428 0.749924 -0.985839 -0.0689739 -0.325337 -0.251663 -0.393518 0.0622597 0.292498 0.253067 -0.683025 0.947446 0.218092 -0.0051883 0.588537 0.694256 0.427516 0.270707 0.742538 0.601904 0.400415 -0.805652 -0.770555 0.410853 -0.629433 0.94592 0.879021 -0.446927 -0.424403 -0.978575 -0.850882 0.402002 -0.493011 -0.515962 -0.622719 -0.477751 -0.839834 0.212904 0.0296039 0.920222 -0.715498 0.153452 -0.0490142 -0.70683 0.633278 0.567906 -0.384545 -0.719709 -0.786608 0.284502 0.375877 0.711958 -0.463834 0.9483 -0.286089 -0.140145 -0.133614 0.270341 0.490325 0.687298 -0.52701 -0.721663 0.194531 0.0986999 -0.121284 -0.433498 0.19508 -0.809803 0.110236 0.545138 0.98944 0.499359 -0.051883 0.691143 -0.546298 -0.745285 -0.82317 0.797717 0.0932674 0.626747 0.834951 -0.775438 0.292071 0.976927 0.464506 -0.852103 -0.436916 -0.891839 -0.638284 -0.189831 0.79845 -0.484771 -0.173045 -0.22975 -0.481292 -0.366172 0.414027 0.153391 -0.876335 -0.908808 -0.819142 -0.0986388 0.14216 0.956113 0.939449 -0.977843 -0.518647 0.988403 0.50528 -0.159434 -0.322041 0.889703 -0.051883 0.24733 0.147226 -0.447171 -0.158457 0.949826 0.433437 0.312275 0.513032 0.721785 -0.540377 0.193493 -0.706281 -0.346762 0.778124 -0.836355 -0.230788 0.401025 -0.180492 -0.618629 -0.971617 -0.562229 -0.856009 0.446499 0.914668 0.30318 -0.309772 0.650308 -0.725447 0.852835 0.0259415 0.225478 -0.790698 0.508881 -0.402307 0.596289 0.323689 -0.49002 -0.0189831 -0.371849 -0.0237441 0.161143 0.130257 0.878166 0.529756 0.0837453 -0.3713 0.844534 0.600562 -0.534517 -0.061283 0.217054 0.309223 0.31081 -0.348654 -0.873161 0.530001 -0.309894 -0.263383 0.396692 0.141183 0.9906 0.793505 0.790331 -0.725203 -0.834585 0.299701 0.263261 0.567112 -0.0151987 -0.137887 -0.78789 0.407862 -0.715376 0.466459 -0.274614 0.190991 0.217848 -0.272966 0.832509 -0.435757 0.503327 -0.862479 -0.24562 -0.320698 -0.323506 -0.679668 -0.846487 0.44186 0.339376 -0.723372 0.383874 -0.238845 -0.589941 -0.363364 0.740524 0.800891 -0.626625 -0.0905207 0.710065 -0.77202 -0.469572 -0.266923 -0.779467 0.464018 -0.75145 0.124397 0.891656 0.933895 -0.788195 0.729293 -0.716169 -0.683452 0.670512 -0.92773 0.149728 -0.204846 0.691204 -0.1927 0.682781 -0.693646 -0.592993 -0.0333272 0.768113 0.791003 -0.732345 0.211927 0.232192 0.443631 0.288958 0.083257 0.0929622 0.962827 -0.69682 -0.749924 -0.19038 0.801013 -0.79082 0.760544 0.53293 -0.585424 0.22212 0.291583 0.355002 0.513886 -0.87664 -0.600745 -0.440762 -0.687115 0.51114 0.76848 -0.129341 -0.220167 0.0495636 -0.537142 -0.294391 -0.113288 -0.280413 0.175365 -0.578282 0.859427 -0.931759 0.477385 0.568211 0.427577 0.459379 0.0694012 -0.864555 0.0750778 0.322713 0.0309467 0.805713 0.289446 0.404749 0.0702558 0.202039 -0.187817 -0.98181 -0.225417 0.139291 0.888848 0.292498 -0.140023 0.873711 0.518586 -0.57694 -0.578404 -0.647378 -0.295306 -0.0779467 -0.816761 0.46536 0.70445 0.86779 0.74797 0.292071 0.278642 0.1551 -0.152719 -0.645486 0.942501 -0.254715 -0.408045 -0.133919 0.214613 0.916072 -0.278459 0.981322 -0.132027 -0.488677 -0.145456 0.0460233 -0.820912 -0.808399 0.738326 -0.15217 0.178722 0.683941 -0.501007 -0.13453 0.901239 -0.968809 0.892083 -0.480742 0.634987 0.843557 0.551364 -0.57932 -0.827809 -0.453336 0.240005 0.623024 0.0593908 0.633339 -0.900262 -0.129586 -0.153574 0.912348 0.901788 0.84899 -0.662699 -0.241165 -0.704633 -0.564304 0.840139 0.364829 -0.940609 0.949582 -0.583532 0.988219 -0.64866 -0.599646 0.132393 0.203565 0.957761 0.739791 -0.692791 0.151865 -0.456327 0.110541 -0.235366 -0.209608 0.903742 -0.90307 0.0821583 0.143014 0.210767 0.974974 -0.158945 -0.450345 -0.733016 -0.0386987 0.87664 0.91717 -0.246597 0.464689 0.528047 0.968199 0.479827 0.334981 0.88836 -0.507782 0.635049 0.113532 0.0545077 0.59519 -0.963377 0.283037 -0.622475 -0.0509675 -0.618629 0.517671 0.712202 0.0425441 -0.50528 0.932979 -0.333028 -0.569493 0.58109 -0.664286 0.85485 -0.0155039 0.473723 0.474577 -0.858024 0.142282 0.884881 -0.710981 0.899103 0.15803 0.655619 0.16041 -0.749741 -0.647684 -0.994018 0.161204 -0.676128 -0.637734 0.785143 0.305439 -0.497894 -0.608741 -0.279375 0.79845 0.670939 -0.540804 -0.330709 0.287005 -0.529817 -0.3478 -0.133065 -0.89074 -0.456083 -0.626991 0.177989 0.545077 0.789843 0.590734 0.345907 0.0651895 0.609595 -0.909418 -0.757004 0.582189 -0.841299 -0.275285 0.120796 -0.300311 0.596838 -0.338766 -0.140756 0.963133 0.337179 -0.365135 0.217604 -0.891046 0.297198 -0.803272 -0.916316 -0.684612 0.147958 -0.0357077 -0.275346 0.45181 0.564671 0.871513 0.036074 0.329 0.476286 -0.581517 -0.207166 0.949338 0.315754 0.922236 -0.101569 -0.243667 -0.730208 -0.23445 -0.364524 0.885247 0.529451 0.648294 -0.0845389 0.412379 0.539034 -0.16395 0.528658 -0.394372 0.247269 0.411463 -0.605811 0.174449 0.356528 -0.476958 -0.189587 -0.48062 0.573216 -0.363914 -0.295672 -0.0173961 0.857596 -0.217909 0.882012 0.0976012 0.673808 0.80907 0.278032 -0.160715 0.239944 0.631264 -0.793567 -0.126045 -0.221998 -0.520479 0.609901 0.809437 0.763902 -0.84899 0.309894 0.444729 -0.822682 0.259476 0.256974 -0.979674 0.752182 -0.515351 -0.219435 0.468473 0.225905 0.82317 0.83904 -0.33785 0.590063 0.837637 -0.730574 -0.333639 0.340048 -0.0927181 0.0380883 0.987304 0.725264 -0.522127 0.489898 0.822316 0.998901 -0.688702 -0.401209 0.310566 -0.332052 0.73619 -0.782335 -0.217726 -0.256241 -0.102912 -0.671733 0.00946103 -0.00885064 -0.994629 -0.708722 -0.544894 0.178905 -0.411219 -0.903803 -0.476103 0.329854 -0.258683 0.611671 -0.188122 -0.0293597 -0.626686 0.834829 -0.643594 -0.618141 -0.53818 -0.858085 -0.113593 0.848135 -0.700055 0.538485 -0.928096 -0.0924129 -0.252457 0.90832 -0.225233 0.602759 0.48062 0.264481 -0.702191 0.72972 -0.758469 -0.0010987 0.63572 -0.911555 -0.910578 0.132393 -0.275896 0.733382 -0.350546 0.564732 0.690411 0.221998 0.363426 0.324422 -0.896905 0.866386 -0.260758 0.819081 -0.777513 -0.0178844 0.601721 -0.914973 -0.750107 0.138986 -0.658487 -0.962156 0.578343 0.410486 -0.833852 0.721663 -0.958127 -0.376 -0.650613 -0.440518 0.166453 -0.389001 0.481292 -0.396386 0.419032 0.456693 -0.281633 0.78496 0.458097 -0.249771 0.0336324 0.163218 0.38369 -0.165293 -0.533541 -0.822682 0.986999 -0.942929 0.372703 0.895074 -0.999268 -0.981688 0.674419 -0.737289 0.349264 -0.176769 -0.889886 0.356162 -0.602149 -0.669597 0.485137 -0.370506 0.203626 0.402612 0.920527 -0.833791 -0.235183 0.156198 -0.895868 0.928585 -0.728743 -0.788439 -0.459623 0.00744674 -0.645913 0.943356 -0.200269 -0.1269 -0.664103 0.729415 -0.230788 -0.375633 0.480681 -0.798022 0.902338 -0.76085 -0.756333 -0.502716 -0.531221 0.824269 0.521943 0.505219 -0.19508 -0.134896 0.903498 0.119514 -0.436611 0.476531 -0.0821583 0.488067 0.963316 0.651834 -0.71385 -0.737594 0.0399194 -0.486663 0.170848 0.848318 -0.104743 0.562595 0.425685 -0.344931 -0.0524324 0.929622 -0.154123 -0.653849 -0.818531 0.62339 -0.581945 0.0889337 -0.601782 -0.21797 0.570408 -0.195446 0.465177 -0.0774583 0.422206 -0.581945 -0.433803 -0.809437 -0.965757 0.108588 0.451749 -0.389062 0.659098 0.558933 0.688397 0.337301 0.990112 0.206006 0.909296 0.902094 0.41244 0.490569 0.0639687 0.466703 -0.747421 0.107123 0.668376 -0.928462 -0.971495 0.25441 0.0548129 0.88604 -0.300555 -0.115302 -0.377953 -0.541964 0.916072 0.954526 0.0852713 0.964903 -0.729598 -0.32607 0.725996 -0.537753 -0.453885 -0.242691 0.642129 0.135323 -0.0319844 -0.327352 -0.00195324 0.547702 -0.547519 -0.1081 -0.725386 -0.107978 0.857291 0.141061 0.519014 0.240066 0.231337 0.649881 0.594763 -0.207776 0.0653726 -0.59812 0.43185 0.127876 0.541354 -0.615089 0.276689 -0.54465 0.78258 -0.159556 0.942135 -0.138009 0.103705 -0.486114 -0.942807 0.563816 -0.738998 -0.0955258 0.31789 -0.84429 -0.297931 0.515595 0.735885 0.861991 0.815907 0.104254 -0.110297 -0.214918 -0.817311 -0.0684246 0.174266 0.156992 -0.175548 -0.987609 0.0507233 -0.411707 -0.545749 -0.634194 -0.70329 0.318623 -0.27321 -0.735641 0.256485 0.466398 0.488006 0.484893 -0.909846 -0.721113 -0.974791 -0.442227 -0.975096 0.382592 -0.682598 -0.98236 -0.396142 -0.967527 -0.715254 0.652994 -0.0632363 -0.637185 0.0389428 0.755906 -0.0503571 -0.363426 -0.867118 -0.62748 -0.365013 -0.504425 -0.188854 -0.446744 0.301837 -0.789355 0.259537 0.601965 -0.174754 0.931697 0.855277 -0.673503 -0.102851 -0.0629921 -0.583043 -0.711225 -0.724532 -0.115608 0.454923 0.0545688 -0.965086 0.0601843 0.420375 0.443447 -0.183605 0.629738 0.956357 -0.221083 -0.922908 -0.112739 0.146982 -0.861503 0.341024 -0.494049 -0.231826 0.603614 0.448025 -0.21211 0.536898 0.509431 0.804859 0.914118 -0.638345 0.695111 0.634316 0.194287 0.592504 -0.246231 0.225905 -0.682659 -0.729476 0.282427 0.185375 -0.399011 0.378685 0.131905 0.684917 -0.758286 0.0909479 -0.342977 0.713056 0.56522 -0.97711 0.966612 -0.675212 -0.724409 -0.518464 -0.827016 0.891656 -0.293536 0.715254 -0.357077 0.351279 0.0698895 0.163645 -0.75322 0.457975 -0.293048 0.70799 -0.391137 -0.967771 0.33785 -0.0792285 0.357505 0.211317 -0.688702 -0.683941 0.374657 -0.301593 0.85546 -0.400781 -0.95361 0.0135506 -0.67332 -0.0829518 -0.487151 -0.257218 0.460966 -0.892388 -0.0822194 0.788989 0.622719 0.950803 0.658976 -0.379051 0.0553623 -0.582738 -0.362083 0.524324 0.131417 -0.0803272 -0.489532 0.851004 0.602026 0.561802 0.936092 0.269059 0.847525 -0.611243 -0.17213 0.0133065 -0.873283 -0.362693 0.60343 0.134896 -0.171947 0.985534 -0.566258 0.751206 0.718122 0.802722 -0.50589 -0.7039 0.192761 -0.600317 0.213514 -0.229933 0.526766 -0.721113 0.524812 -0.0103156 -0.876335 0.383996 0.114814 0.838125 -0.23384 -0.650186 0.674297 -0.485198 -0.134469 0.753159 -0.852164 0.785815 -0.287798 0.361594 0.984191 0.233352 -0.274614 0.384606 -0.614539 -0.493805 -0.29671 0.722883 0.558445 -0.430507 0.0729415 0.218397 0.963071 -0.0450467 -0.859794 -0.0952207 0.563572 0.0103156 0.340231 0.256974 0.0780077 0.150034 -0.51352 0.441189 0.22853 -0.895135 0.021913 -0.434841 0.990966 -0.827992 0.267961 -0.0718428 0.844961 -0.534884 0.675151 0.270585 0.0243545 -0.835927 -0.927181 -0.975645 -0.233291 0.765428 -0.0805103 -0.437038 -0.436428 -0.668315 -0.447842 -0.548923 0.410425 -0.257645 -0.562901 -0.305072 0.056461 -0.0570103 -0.580724 -0.00799609 0.25502 0.195508 0.972777 -0.0186779 0.0131844 0.32845 0.450162 0.493316 0.842031 0.986632 0.333333 0.79967 0.00647012 0.881218 0.483001 -0.136422 -0.224623 0.0398584 -0.611365 -0.410242 0.671672 -0.943295 -0.581273 0.0741622 0.721785 0.342245 0.0707441 0.854239 0.706403 -0.626808 -0.779161 0.158701 -0.590063 -0.0570714 0.37429 0.157847 0.871025 -0.588903 -0.084844 0.213331 -0.368431 -0.0461454 0.356406 0.128121 -0.0118415 -0.186413 -0.410059 -0.603308 -0.759324 0.54935 0.136666 0.455045 0.943295 0.286211 0.396264 -0.0698285 0.153696 0.966123 -0.102728 -0.109076 0.684002 -0.403101 0.547397 -0.902704 0.349692 -0.496612 -0.117134 0.25087 0.220533 -0.42361 0.319172 -0.755661 -0.129952 -0.476775 0.400537 0.412257 0.62571 -0.882317 0.0500519 -0.219984 0.818898 -0.550143 -0.180187 0.314961 -0.965269 0.176402 0.140878 -0.824635 -0.637429 0.770128 0.573033 0.961546 0.645486 -0.229567 -0.945004 0.964353 -0.26967 0.0332052 -0.845389 0.416773 0.718122 -0.0194714 -0.68156 -0.257157 0.213514 0.851065 0.121895 -0.191784 0.575352 -0.050296 -0.480559 -0.830312 -0.833974 -0.102118 0.0943661 -0.674235 -0.397607 -0.116523 0.308918 -0.0338766 -0.995361 0.9107 -0.245804 0.221998 -0.752854 -0.95007 0.400232 -0.0841726 0.208204 0.68858 -0.154001 0.811695 -0.980162 -0.220289 0.56931 -0.13514 -0.681804 -0.906611 -0.82317 0.472319 0.493255 -0.534212 -0.345602 -0.27791 0.938778 -0.950436 0.616554 -0.356162 -0.697613 0.563816 0.556614 0.458646 -0.263871 0.543917 -0.903009 -0.171275 -0.854666 0.591833 0.23915 0.1081 0.439602 0.62571 -0.386987 -0.408106 -0.217787 0.130257 -0.272111 -0.23323 -0.159495 -0.593359 -0.778368 0.560825 -0.964353 0.822377 0.111274 -0.406702 0.792956 0.061222 -0.957517 -0.574681 0.791186 -0.626442 0.540194 0.80907 0.213331 0.826222 0.257828 -0.0620155 0.996277 -0.447964 0.22798 -0.302631 -0.919368 -0.999206 0.112067 0.913752 -0.338705 0.188366 0.450528 -0.395288 0.436611 0.947079 -0.0875298 0.229933 0.859061 -0.824513 0.546237 0.939816 -0.615089 0.0889947 -0.971373 0.826589 0.724715 -0.530977 -0.0841116 -0.826405 -0.907709 0.913752 0.892816 0.706037 -0.543979 -0.912898 0.0230117 0.840078 0.787829 0.970335 0.999451 0.933346 -0.686626 -0.889764 0.393457 -0.464933 -0.237319 0.870781 0.905695 -0.364158 0.619423 -0.31844 0.615516 -0.0824025 -0.628884 0.289263 0.231215 0.00366233 -0.240615 0.00653116 0.340048 -0.291278 -0.970457 -0.0373558 0.658182 0.289019 -0.818959 0.353293 -0.719465 -0.30788 0.217115 -0.309711 -0.0688519 -0.193005 -0.605323 0.0523103 -0.787218 -0.285967 0.475127 0.334066 -0.142648 0.935055 0.973204 -0.503266 -0.0246597 0.683147 -0.592382 -0.181896 0.306354 -0.887139 0.551486 0.14216 -0.531221 0.570591 0.681316 -0.870659 -0.789843 0.843374 0.827626 0.506623 -0.343222 0.410059 0.0249039 0.317158 0.563755 -0.30904 0.561619 0.170665 0.565098 0.297809 -0.770005 0.493255 0.423854 0.283526 0.576451 -0.22267 0.282 -0.60752 0.150766 -0.16804 0.910395 0.310688 -0.242813 -0.967771 0.958555 -0.0846609 0.703595 -0.429897 0.205274 0.525117 -0.948361 0.703534 0.808033 -0.850089 0.867424 0.00701947 0.553256 0.741622 -0.529817 0.62162 0.106269 -0.557346 0.683819 0.504547 0.26143 -0.162424 0.0855155 -0.320454 -0.808277 0.202039 0.256791 -0.513093 -0.300555 -0.246902 0.0327779 -0.166941 0.46536 -0.100653 -0.247207 0.441067 -0.700604 -0.509431 0.509858 0.100165 0.390405 0.0682415 -0.599158 -0.0838064 -0.444058 -0.885125 0.776903 0.561375 -0.507233 -0.695172 -0.507477 -0.475859 -0.973753 -0.246414 0.156687 0.359763 0.360923 -0.732039 0.381859 -0.0606726 0.329915 -0.403528 0.034548 -0.299152 -0.354453 0.678874 0.485198 0.898553 0.149057 -0.103888 -0.141854 -0.147165 0.0603064 -0.679058 0.281633 -0.799121 -0.771776 0.967466 -0.862296 -0.853873 0.380822 0.0407129 0.312641 0.708478 0.374718 0.187756 -0.553867 0.974058 -0.554416 0.746689 -0.817799 0.34548 0.458036 -0.00292987 0.418666 -0.208204 0.155466 0.410059 -0.44302 0.0986388 0.410364 -0.102118 -0.247146 -0.882317 -0.526155 -0.935543 0.165843 -0.982604 -0.77379 0.455167 -0.790881 -0.46768 0.426662 -0.193676 -0.199719 -0.786425 -0.0370506 -0.703839 0.610328 0.678691 0.102118 0.794238 -0.685711 -0.138558 -0.260026 -0.88897 -0.158579 -0.737777 -0.348776 -0.750839 -0.375572 -0.802234 -0.260453 -0.3478 0.850394 -0.948849 0.287432 -0.544894 -0.29024 0.522066 -0.79375 -0.26558 -0.352683 0.876152 -0.713606 0.758164 0.611732 0.195874 -0.552768 -0.764695 0.305194 0.629982 -0.0132454 -0.433132 -0.56583 -0.356406 -0.167918 -0.905268 0.959104 -0.731673 -0.210767 -0.647439 -0.656168 -0.647806 -0.207044 -0.684795 -0.193249 0.809498 0.157175 0.649026 -0.430324 0.870903 0.824574 0.961668 -0.891534 0.3337 0.616615 -0.947873 -0.596899 0.811512 0.483855 0.161387 -0.812916 -0.0158091 0.755783 -0.779039 0.198193 0.848318 0.390588 0.104438 0.427883 0.966551 0.2256 0.876518 -0.628578 -0.281939 0.22682 -0.956784 -0.721663 -0.451321 0.739486 0.802417 0.401819 -0.779772 -0.262772 0.292804 0.248978 -0.938717 0.0731856 0.844961 0.830922 0.216688 0.729048 0.230483 -0.0875908 -0.102484 0.0653116 -0.0872856 0.262589 0.631569 -0.928401 0.296283 0.904047 -0.487273 0.616615 -0.0229506 0.363426 -0.548312 0.69743 0.992614 -0.0786181 0.425197 -0.30965 0.0715986 0.862479 0.726546 -0.399255 -0.115669 -0.275102 0.215345 -0.68742 0.292498 -0.44888 -0.432277 -0.161021 -0.401025 -0.862724 -0.473784 -0.428371 -0.201611 0.283526 0.149728 -0.468412 -0.173473 -0.956296 0.0635415 0.618507 0.810657 0.976134 -0.290728 0.860892 -0.680706 0.392175 0.595251 0.6663 0.61283 -0.392236 0.54581 0.0712324 -0.107612 0.192639 0.951962 -0.00897272 -0.448941 0.220228 0.0209363 -0.530062 0.423183 -0.482024 0.026613 0.931209 -0.965818 0.917353 0.559177 -0.573338 0.851553 -0.496551 -0.22505 -0.112495 -0.466642 -0.134408 -0.352866 0.373497 0.179882 -0.653177 -0.785021 -0.676616 0.582311 -0.705915 -0.16566 0.805042 0.473357 0.308368 0.427333 -0.235244 0.777147 -0.505707 0.732528 -0.721724 0.859183 -0.289263 0.554966 -0.200024 -0.223524 0.820302 -0.98413 0.413172 -0.472624 0.939327 -0.196606 0.0799609 0.301654 -0.311665 0.421535 0.891595 -0.269548 -0.558323 -0.559177 -0.682048 0.136361 0.577733 -0.251541 -0.541842 -0.216749 0.728377 -0.202222 0.290057 0.126656 0.0297259 0.858695 0.920222 -0.936764 0.371849 0.26735 -0.165598 0.181408 0.648538 0.676494 0.147226 0.0104987 0.00750778 -0.69505 0.852103 -0.728438 -0.89953 -0.811512 0.0712934 0.127266 -0.666972 0.42892 0.306293 -0.568882 0.114753 -0.555637 -0.312885 -0.0214246 0.108832 0.219618 -0.777025 -0.243911 0.482695 -0.444302 0.051883 -0.808216 0.15748 0.320149 0.690716 0.405176 -0.941708 0.696881 0.285113 0.457059 -0.63572 -0.563938 -0.139962 0.599585 0.758347 -0.89544 -0.431057 -0.473479 -0.322896 -0.66453 -0.0554843 0.623024 0.561497 0.0783739 -0.85192 -0.784655 -0.893975 0.849051 0.220106 -0.178417 -0.490631 -0.0201428 0.329671 -0.599097 -0.276018 -0.13044 0.0249649 0.604163 0.706159 0.233413 0.483184 -0.976805 -0.333944 -0.647195 0.760239 0.441799 -0.681987 -0.674113 -0.959226 0.0845999 -0.869926 -0.683147 -0.110969 -0.131905 0.574254 0.806629 -0.502716 -0.349997 0.376366 0.842276 0.937435 0.479521 -0.23384 -0.71269 -0.590368 -0.153024 -0.272478 0.0719648 -0.506379 0.934566 0.24794 0.442471 0.397607 -0.134652 -0.431118 0.211622 -0.791308 0.954465 -0.564121 -0.991394 0.143197 -0.042361 0.348288 -0.470732 -0.204053 -0.677226 0.809253 0.785448 0.391076 -0.561253 0.575902 -0.64451 -0.968809 -0.114082 -0.0907038 0.634499 0.948361 0.686199 0.824452 0.0834402 0.752976 -0.447476 0.340109 0.480132 -0.315388 -0.860343 -0.27083 -0.831533 0.861991 0.29378 -0.231765 -0.690838 0.532198 -0.698041 -0.0120857 -0.871147 -0.678447 -0.856803 -0.0773363 -0.82903 -0.514558 0.737838 0.360923 -0.454862 0.157847 0.197278 0.594946 -0.822621 0.601782 0.0746506 -0.329183 -0.939755 -0.540988 0.614539 -0.361106 -0.497345 0.00054935 -0.997558 0.803089 -0.620094 -0.624 0.616126 0.971312 -0.616371 -0.135934 0.27382 0.705304 -0.72795 0.1222 -0.514314 0.570897 -0.880364 0.436916 -0.296588 0.387719 0.567417 -0.0264909 -0.430324 0.479338 0.0725142 0.0261857 0.168834 0.923152 0.158823 -0.731856 0.276567 0.800586 0.666545 -0.998474 -0.390038 -0.553195 0.00201428 0.407312 0.0776415 -0.298907 0.388451 -0.204846 -0.970701 -0.843557 -0.885003 -0.145944 0.506562 -0.590002 -0.212354 0.901666 0.491851 -0.687542 -0.421596 0.134408 0.159434 0.218763 0.475981 0.878044 -0.875175 -0.762559 0.535311 -0.163279 0.695111 0.481292 -0.872368 0.344015 -0.881646 0.316731 0.191113 -0.388085 0.834707 0.614234 -0.520356 -0.0183117 -0.275102 -0.00201428 -0.185985 0.17335 0.361838 -0.903681 0.331197 0.535799 -0.740707 -0.208448 -0.265458 0.296893 0.12281 0.469511 -0.456021 0.813404 -0.900995 -0.729903 -0.654215 0.820912 0.0262467 -0.662638 0.0426051 -0.315998 -0.315998 0.069035 -0.896722 0.64628 -0.956662 0.366661 -0.186413 0.0798999 0.516755 -0.114082 0.52524 0.736373 -0.792163 0.286272 -0.0935116 0.995788 0.162119 0.48117 0.192028 0.117073 -0.384057 -0.112251 0.432949 -0.511567 0.247574 -0.322652 -0.25325 -0.123176 0.426357 0.025087 0.567417 0.677959 -0.536959 -0.640115 -0.104926 -0.833608 0.86016 -0.385216 0.546603 -0.253922 -0.438992 -0.523469 0.404993 -0.800708 -0.798999 -0.364158 -0.33022 -0.0623817 -0.643594 0.0374779 0.107062 -0.748703 0.795337 -0.870231 0.299029 0.559727 0.72679 -0.884637 0.894403 0.660929 0.0515779 -0.799426 -0.141671 0.981994 0.611854 0.845816 -0.277544 0.828847 0.441067 -0.985229 0.834829 0.636452 -0.9859 -0.573949 0.609534 -0.781542 0.497467 -0.198559 0.777513 -0.982299 0.998718 -0.883233 0.635964 -0.644204 -0.183117 0.851981 0.298419 -0.316792 0.692852 0.240615 -0.0551181 0.829274 -0.941891 -0.479705 -0.928279 0.252274 -0.713545 -0.817372 -0.258133 -0.710493 -0.0575597 -0.776964 -0.165598 0.40719 -0.967833 0.390893 0.295062 0.450162 -0.746689 -0.560764 0.385705 -0.107551 -0.755173 0.37545 0.934933 0.0869194 0.837209 -0.289691 -0.412623 0.51529 0.301959 -0.290972 0.0545077 0.0382103 -0.397546 -0.359702 -0.636208 0.145273 -0.35665 -0.973082 -0.890618 0.204969 -0.47946 0.895807 0.701886 0.714643 -0.228469 -0.97296 0.617836 0.55051 -0.374901 -0.794482 -0.349326 0.217848 0.25148 0.469572 0.160166 -0.899347 0.0122078 0.361289 -0.677776 0.712202 -0.289507 0.177074 0.37954 -0.0559727 -0.159311 0.216932 -0.109199 0.317158 -0.161326 -0.965086 0.981566 -0.768785 -0.668376 0.689068 0.593237 -0.785082 -0.611671 -0.00903375 0.734176 -0.824208 -0.231154 -0.243423 -0.271257 -0.349753 0.174571 0.0554233 -0.532015 0.0535921 -0.501618 -0.539034 0.659281 -0.0698895 -0.925349 0.300922 0.0761765 0.202954 -0.0709272 -0.0935726 -0.190991 0.424159 0.0286883 -0.137215 0.514253 0.0247207 -0.468046 -0.740768 0.664897 -0.435512 0.0389428 -0.061161 -0.19978 -0.0176402 -0.159128 -0.25148 -0.223891 -0.154123 -0.829518 -0.210767 0.0147104 0.601721 -0.548068 -0.334249 0.754624 -0.174693 0.550754 0.736861 0.3008 0.471159 0.0238662 -0.635049 0.274614 0.122505 0.369651 0.166819 0.864005 0.241592 0.277788 -0.737411 0.0730025 -0.580541 -0.12043 -0.473112 0.97241 0.626381 -0.00256363 -0.162241 0.949094 0.461027 -0.604529 0.327413 0.95654 0.401392 0.0290545 -0.368125 0.764573 0.0541415 0.29494 0.141122 0.209485 0.404993 0.281267 -0.751144 0.443936 -0.931575 -0.982299 0.603186 -0.813221 -0.461942 -0.274736 -0.644571 -0.0261857 0.436245 -0.933651 -0.588598 -0.593359 0.764085 0.394861 0.680522 0.403772 -0.848135 -0.994262 0.32607 -0.550449 -0.89129 -0.61399 0.0155039 -0.154673 0.272783 0.463529 -0.830129 0.958616 -0.339376 0.857657 0.214491 -0.526949 0.918391 0.129341 -0.171824 0.63926 -0.429531 0.0307636 0.193982 -0.476347 0.27083 -0.244278 0.248611 0.259598 0.051761 -0.810841 0.932979 -0.703595 -0.425258 0.157724 0.441494 0.650308 0.380272 -0.320942 -0.527132 -0.846731 0.137399 -0.787402 0.479582 -0.295733 -0.105597 -0.0908869 0.917903 0.518464 -0.671733 -0.139474 0.498077 0.377281 -0.00494415 -0.649576 0.434353 -0.121284 0.579625 0.103827 0.694806 0.687298 0.145639 0.536898 -0.748703 0.783556 -0.614112 -0.992675 -0.670146 -0.285235 -0.127999 -0.935543 0.66038 -0.155405 -0.69566 0.698773 0.726302 -0.397058 0.762559 -0.407984 0.0153208 0.736312 -0.0453519 0.367759 -0.730941 -0.442715 0.468046 -0.159373 0.732955 0.195324 -0.981261 0.266923 -0.593908 -0.154062 0.702008 0.594152 0.29201 0.0211195 0.241531 -0.288836 -0.352439 -0.200635 -0.759812 -0.301532 0.234084 -0.924556 -0.570164 -0.922114 0.566319 -0.189282 -0.0788622 0.0626259 0.163218 -0.717329 0.453641 -0.192883 0.797534 -0.66453 0.645669 -0.342428 -0.254166 -0.370384 -0.755356 0.40127 -0.961179 0.8919 -0.622963 -0.48294 0.711103 0.165537 -0.202161 0.425258 0.0507843 0.0603064 0.141305 -0.26265 0.850394 0.00225844 0.170237 0.506501 0.655985 -0.516145 -0.973387 -0.522981 0.0176402 -0.685955 0.481414 0.334981 -0.260453 0.868278 0.184154 0.957517 0.129525 -0.66215 0.913569 0.663187 0.249405 0.981383 -0.172923 -0.537936 -0.835134 0.373009 -0.288775 -0.694134 -0.804309 -0.346213 0.231337 -0.662699 -0.834646 -0.218885 -0.818409 -0.859366 -0.348654 -0.221327 -0.264726 -0.00830129 0.235 -0.0133065 -0.305683 0.107489 0.751511 -0.688458 0.739852 -0.103461 0.540133 0.47647 -0.318501 -0.791308 -0.306171 -0.729476 -0.291705 0.585485 0.309772 -0.200269 -0.362205 0.509369 -0.261307 -0.263871 -0.833364 0.654642 -0.1645 -0.431667 0.120308 -0.863273 0.208875 -0.148569 -0.296771 -0.237258 -0.528658 0.456693 -0.251358 -0.719099 0.489593 -0.17805 -0.0311298 0.631142 -0.366233 0.201489 -0.795031 0.194348 0.0285052 0.915888 0.677043 -0.956784 0.801868 -0.397974 -0.766099 0.191845 0.335958 -0.536471 0.603552 -0.154489 -0.483123 0.520234 0.642617 0.65098 0.98474 0.858329 0.586767 0.94653 0.383141 -0.119697 0.300616 0.0115974 -0.390038 -0.444546 -0.472441 -0.682659 0.0669597 -0.330831 -0.859916 -0.22383 -0.0904596 -0.926753 0.389489 0.991943 -0.70268 0.936214 0.155771 0.509736 -0.356345 -0.0076909 0.198193 -0.933834 0.865898 -0.207105 0.404688 -0.160471 0.63511 -0.0444973 0.0421168 -0.300922 -0.373497 -0.586095 -0.993652 0.455716 0.76909 -0.331502 -0.927852 0.11164 0.495758 0.0359519 -0.856864 0.110541 -0.00665324 0.899408 0.501862 0.587621 0.452664 0.95831 0.0595739 -0.380944 0.318196 0.478667 -0.393212 0.473112 0.538607 0.542819 -0.937313 0.858817 -0.183666 0.299396 -0.274431 0.176891 -0.142282 0.213697 -0.47769 0.769517 0.623085 -0.682842 0.258988 -0.829946 -0.423549 0.457914 0.870475 -0.646341 0.936153 -0.449857 0.670451 -0.0134896 0.923885 0.824757 0.601721 -0.323689 -0.984374 0.0788012 0.485808 0.222243 -0.808643 -0.0740402 0.27321 -0.135201 -0.815418 -0.953855 -0.706647 0.536043 -0.266984 -0.564121 -0.495392 -0.890862 -0.171885 -0.342123 0.744186 0.649087 -0.0346701 0.0913752 -0.021913 -0.338216 -0.606055 0.182018 0.551547 -0.655069 -0.632729 -0.308307 -0.561802 0.837637 0.39248 -0.0509675 0.491241 0.47006 -0.519563 -0.9013 -0.307819 -0.986022 -0.603797 -0.647928 0.401819 0.932918 -0.0912531 0.23677 0.609595 -0.368919 -0.959409 -0.153269 0.183971 0.704755 0.318684 0.092596 0.122444 -0.808887 0.0233779 -0.0489532 -0.198743 0.819264 0.439297 0.715559 0.2256 -0.740829 -0.895318 -0.754441 -0.720564 -0.627419 0.0620765 -0.782641 0.976012 0.462675 -0.892633 0.373436 0.707013 -0.476408 -0.959043 -0.227492 0.493377 0.491485 0.916804 -0.959958 0.234695 -0.506684 -0.70738 -0.382287 0.959836 0.0980284 -0.519563 0.0136727 0.0759934 0.565586 0.796008 -0.94769 0.619911 -0.902704 -0.191235 -0.875298 0.506745 -0.913691 -0.407557 -0.561863 -0.219191 0.366905 0.974547 -0.733687 -0.134713 0.464567 -0.21388 -0.800525 0.812305 -0.153513 0.1128 0.394128 0.552585 -0.828847 -0.45651 -0.17683 0.146249 0.538668 0.421535 -0.473967 -0.968138 0.740157 -0.906427 -0.141488 0.277422 0.508332 -0.839224 0.742782 -0.170726 -0.232558 0.72795 0.917353 -0.237014 0.882988 -0.346457 -0.812855 -0.46707 -0.0881401 0.800464 -0.326131 -0.777574 -0.147531 -0.715132 -0.934933 0.793872 -0.105475 -0.272417 -0.134896 -0.661906 0.669291 -0.497345 -0.355613 0.325398 -0.500824 -0.0114753 0.29024 0.854544 -0.351645 -0.182872 -0.744247 0.903375 -0.427944 0.124641 0.811085 0.57871 0.167185 -0.199048 -0.707807 -0.633828 0.0217909 0.740035 0.35195 -0.619667 0.665629 -0.910578 0.209302 0.614784 -0.180431 0.501068 0.899774 0.191723 0.646219 -0.619667 -0.474944 -0.387536 0.999206 0.136849 -0.496368 0.00726363 0.673747 0.433986 -0.179821 -0.614845 0.656656 0.438931 0.275652 -0.115791 0.375816 0.0729415 0.737655 -0.97882 0.950742 0.261185 0.389977 0.942196 0.442227 0.182628 0.983031 -0.328389 -0.897455 0.520234 0.0833791 0.363242 0.625587 0.710798 0.3243 0.549594 -0.60398 0.194958 0.655252 -0.607947 -0.259354 -0.332479 -0.407862 0.931087 -0.822865 0.326985 0.467375 -0.664225 -0.335042 -0.874321 0.679668 0.154428 0.854789 0.0202649 0.944149 -0.436001 -0.661539 -0.779344 0.54233 -0.379418 -0.100165 0.441311 0.57224 -0.491119 0.763718 0.150034 -0.801807 0.792895 0.846304 0.819081 0.901117 0.665141 -0.99469 0.174144 -0.27205 -0.802844 -0.709882 0.445096 0.542514 0.589697 0.191113 -0.384362 0.274553 0.421962 -0.109809 0.673442 -0.829335 0.902338 -0.489288 0.859916 0.0436428 0.117988 0.367576 0.920527 -0.477446 -0.715009 -0.783251 0.354575 -0.696881 -0.00134286 -0.493988 0.665385 -0.602576 -0.517427 0.624245 0.610023 -0.616188 -0.160166 -0.848379 -0.550571 -0.342855 -0.697919 0.110358 0.198865 0.678691 -0.51999 0.213331 0.876946 0.225966 0.613197 -0.884881 -0.243545 0.643167 0.820057 0.662028 0.614173 0.0907038 -0.652139 0.141183 -0.0194714 -0.204602 -0.176891 -0.468473 0.390161 -0.699384 -0.499115 0.753342 -0.368675 -0.283953 0.515351 0.918147 -0.00360129 0.967771 -0.870659 -0.421107 -0.468412 -0.951962 0.985045 -0.0197156 -0.712995 -0.733932 0.352927 0.308063 0.566685 -0.502899 -0.617103 0.93951 0.178417 -0.567295 -0.646402 -0.306903 -0.315815 -0.168834 -0.0774583 -0.920955 0.649698 -0.233107 0.376183 -0.451077 -0.105536 -0.119148 0.879875 0.74559 0.742172 -0.369651 -0.272355 0.75322 0.270219 0.539217 0.592993 -0.652567 0.560032 -0.552524 -0.222243 -0.754441 -0.0532869 -0.238235 -0.53702 -0.64396 0.26967 0.705121 0.958616 0.0287493 0.121773 0.566746 -0.0467558 0.30495 0.100104 -0.0475493 -0.235305 -0.83257 0.0556064 -0.965574 0.589575 0.790454 0.342977 0.801441 0.753342 -0.210706 -0.929195 0.308185 -0.0396753 0.471098 -0.647989 -0.073735 0.54404 0.0841116 0.553012 0.593481 0.716535 0.0681804 -0.456021 -0.936214 -0.181102 -0.69566 -0.0504181 -0.841848 -0.428676 -0.634682 -0.60221 -0.98651 -0.677348 -0.235 0.771043 0.333211 -0.6992 -0.791186 -0.545016 -0.362998 -0.137521 0.843557 0.589941 -0.488677 0.743332 -0.492706 0.319539 -0.141305 0.30788 0.979857 -0.958494 -0.851798 0.79967 -0.768052 0.657877 -0.334615 -0.409083 -0.32375 -0.176158 0.76207 0.433193 0.416529 -0.801013 0.106391 0.706464 -0.502106 0.696942 0.933285 0.669902 0.157114 0.734664 -0.706525 0.711469 0.072148 -0.516572 -0.695172 0.59812 0.612525 0.118538 0.401148 0.725569 0.0889337 0.0688519 0.582616 -0.631386 -0.996277 0.26735 -0.334066 -0.069096 -0.699384 0.400781 0.534395 0.194958 -0.385338 0.159983 0.387353 -0.427822 0.522371 0.489532 -0.00915583 0.352988 -0.208509 0.838064 0.927181 0.95654 -0.368614 0.407862 0.845083 -0.819142 -0.0572545 -0.594641 0.709699 -0.546664 -0.432277 0.290972 0.0525545 0.0798389 -0.460233 -0.971373 0.221693 0.495147 0.333822 0.33669 -0.368553 0.513032 -0.883843 0.936947 -0.987487 -0.423854 0.99469 0.805225 0.662333 0.006287 0.268205 0.421473 -0.305866 0.2538 -0.322529 0.0192883 -0.711958 0.148141 -0.345541 0.836477 -0.0593908 0.147592 -0.427516 0.36428 0.714582 0.589452 0.996338 -0.401758 0.488982 0.939755 0.932064 0.287798 -0.790515 -0.956601 -0.922847 0.186047 -0.861686 0.374718 -0.929134 0.300128 0.103827 -0.71385 -0.256485 0.141183 0.750778 0.25972 0.366783 0.974181 -0.209669 -0.844107 -0.0961362 -0.932308 -0.749741 0.464445 0.259476 0.944943 -0.275346 0.553684 -0.470549 0.632241 -0.376061 0.921016 -0.748642 0.910395 0.424953 -0.557407 -0.346029 0.563633 -0.0790454 -0.376122 0.907587 -0.369468 -0.528353 -0.151193 0.37368 0.653482 -0.746872 0.630471 -0.144601 -0.0715376 -0.492095 -0.139413 0.84722 0.755722 -0.205152 0.0601233 -0.215162 0.689251 0.239333 -0.371238 -0.704389 0.786913 0.782946 0.0951596 -0.55173 0.860587 0.433864 -0.633278 -0.997192 0.725996 0.516633 0.980162 0.660807 -0.547275 -0.0778856 -0.649515 0.314961 0.614539 0.357749 -0.977904 0.29964 -0.461393 -0.402857 -0.0817311 0.640664 0.556553 0.730696 0.590978 0.30495 0.253372 -0.585424 -0.528963 0.451077 0.718489 -0.877922 0.118538 -0.321065 0.794787 0.392541 0.472197 -0.720076 -0.670756 0.0815479 0.0996155 0.486785 0.422999 0.611426 -0.552585 -0.276506 0.680645 -0.779405 -0.908808 -0.144235 0.460905 -0.785754 0.985412 -0.559604 -0.87365 -0.786242 -0.286883 -0.0241104 0.293719 0.406946 -0.263261 -0.848135 -0.916926 -0.202222 0.647378 0.0996155 -0.630898 -0.54288 0.415003 0.641641 -0.970213 -0.22798 0.638589 0.541903 -0.8026 0.695782 -0.204053 0.755783 -0.492034 0.99823 0.493927 0.680095 -0.648599 -0.484405 0.718061 -0.597082 -0.878411 0.400659 -0.917109 0.95416 -0.533663 0.372398 0.0820973 -0.445523 0.537325 -0.0337545 -0.662211 0.86663 -0.760117 0.784167 0.851553 -0.755967 0.483916 0.744308 0.253311 0.982299 0.43246 -0.66862 0.0521882 -0.432216 -0.247085 0.846609 0.886346 0.928707 0.866691 -0.342733 0.772569 0.684429 -0.801502 -0.552585 0.35665 -0.604285 0.42776 0.467375 0.16334 -0.184948 -0.262956 0.783739 -0.153696 0.135995 -0.936581 -0.470427 -0.561985 -0.756516 0.347677 0.154611 0.600012 -0.0357688 0.784228 -0.325337 -0.12751 0.315937 0.0717207 -0.0779467 -0.0751999 0.757981 -0.337423 0.795642 0.805164 -0.559055 0.0132454 -0.489654 -0.80962 -0.542941 -0.166087 -0.152048 -0.363303 0.0898492 -0.661234 -0.593725 -0.171092 0.0641519 -0.504059 0.849905 -0.169261 0.796313 -0.722639 -0.840811 -0.665141 -0.35604 0.908991 0.881829 0.913081 -0.843618 -0.87957 -0.619117 -0.73442 0.324116 0.395654 0.0867973 0.472014 -0.171031 0.222059 -0.254288 -0.759507 -0.705671 0.341268 -0.329427 0.158518 0.535128 -0.00128182 0.990539 0.942013 0.807361 -0.806385 -0.098944 -0.314106 0.0585363 -0.070683 0.914485 0.114387 0.177867 -0.537081 0.108954 0.83019 0.245498 -0.444485 0.379479 0.564976 -0.216627 -0.278032 0.687237 -0.57053 0.00463896 0.481292 -0.690228 0.16334 -0.936214 0.606055 -0.908686 -0.615089 -0.692974 0.373009 0.692425 0.841726 0.52176 0.812794 -0.16041 0.65983 -0.813404 0.959836 0.576451 0.59458 -0.278032 -0.897577 0.512482 -0.720076 -0.260575 0.0331441 0.073796 -0.520906 -0.708051 0.297931 -0.247085 -0.666178 0.124153 -0.553012 -0.641274 -0.385033 0.921809 -0.715681 -0.733382 0.972349 0.562046 -0.882073 -0.331807 -0.815724 -0.636391 -0.990478 -0.178356 0.408716 0.336752 -0.975096 -0.69859 0.431789 0.432705 0.483794 -0.751511 -0.0811207 -0.205579 -0.790515 -0.379784 -0.335653 -0.993774 0.779772 0.440334 -0.158701 0.343893 -0.224379 -0.951108 -0.748276 -0.975707 -0.967405 -0.647439 0.576817 0.456205 
0.54211 -0.30256 -0.45212 -0.025231 -0.05538 -0.49835 -0.16419 -0.52518 0.86539 0.7923 -0.374596 0.0449857 0.843496 -0.881096 -0.506012 0.127388 0.683208 0.819447 0.75853 0.50235 -0.745773 -0.388757 0.0869804 0.530245 0.000244156 -0.3384 0.260697 0.747299 -0.397302 -0.561802 0.424281 -0.884637 0.231765 -0.0402246 0.335592 -0.727583 -0.204541 -0.954465 0.615821 0.78203 0.190624 -0.434109 0.99939 -0.616859 -0.448209 -0.308368 0.583898 -0.758774 0.50235 -0.85546 0.0804492 -0.803028 0.403467 -0.552768 0.0633584 -0.982848 -0.395166 0.172923 -0.779894 -0.355796 -0.305439 -0.804431 0.601721 -0.553745 -0.251236 0.940426 -0.127937 0.467436 0.582006 0.632729 -0.441372 0.67741 0.99707 0.549045 -0.697858 0.221754 0.0349142 0.266618 0.106635 -0.328145 -0.775011 0.913508 0.589269 0.274919 0.835134 -0.581762 -0.769517 0.203809 0.120918 0.760728 0.624367 0.807178 -0.423244 0.220961 -0.272355 0.85955 -0.814991 -0.369774 0.110969 0.811085 0.666667 -0.379601 0.207898 -0.962156 -0.269487 -0.125801 -0.434658 0.0918635 0.323994 -0.624977 -0.906427 0.950559 0.882744 0.657206 -0.683941 -0.732894 0.580541 0.0556064 0.619728 -0.378929 -0.420375 -0.043887 -0.495697 -0.232802 -0.719526 -0.954709 0.833486 0.886346 0.571873 0.560703 0.0836233 -0.165293 0.0806934 0.540194 -0.405298 -0.605201 0.422328 0.0728194 0.820118 0.524751 0.450284 -0.451749 0.576024 0.608313 -0.49356 0.90716 -0.707746 -0.295001 -0.329 -0.109504 -0.738021 0.800525 0.0123299 0.290606 0.891534 0.0557895 0.837209 0.200208 0.950314 -0.942196 -0.0595739 0.262894 0.821217 -0.930477 0.85546 -0.076909 0.750534 -0.720625 -0.896417 -0.324055 0.0975401 -0.948361 0.445034 -0.682537 -0.414942 0.176524 -0.872429 0.19447 -0.450955 -0.880303 0.137765 -0.545749 0.188915 -0.726912 -0.549838 0.295306 -0.182995 -0.796069 0.277849 0.216627 -0.890679 0.905634 -0.678081 -0.731917 -0.645059 0.0469999 -0.978026 0.300494 0.706342 0.222914 -0.194165 -0.785021 0.429042 -0.796069 0.339559 -0.786059 -0.848013 -0.813587 -0.22267 -0.949643 -0.882317 -0.957456 0.0120857 -0.721968 0.431545 0.570286 -0.0755051 0.501495 -0.687786 0.743148 -0.366111 -0.374046 0.342062 -0.0393701 0.747787 0.107673 0.71623 0.298114 0.611854 0.203504 0.493499 -0.243484 0.560093 -0.778917 0.845755 0.512849 0.164988 -0.231032 0.308246 -0.830617 -0.513032 0.00634804 -0.97064 -0.995239 -0.674907 -0.106818 -0.979003 0.223219 -0.533541 -0.559666 0.40835 0.204419 0.936642 0.95947 -0.320515 -0.245743 0.249039 -0.687237 -0.0638467 -0.645791 -0.344076 0.163523 -0.856803 -0.588476 -0.602393 0.2256 0.37899 0.509431 -0.0473662 -0.486297 0.084783 -0.343466 0.287798 -0.406641 0.315449 0.537692 0.108222 -0.169139 0.988952 -0.236892 0.107428 -0.356772 0.136544 -0.880913 0.217054 0.748337 0.153024 -0.182262 -0.142892 -0.585363 0.0460844 0.746628 0.185802 0.711774 -0.313129 0.719282 0.349753 0.759751 0.0600012 0.725142 -0.266252 0.979552 -0.487029 0.179149 0.21095 0.342916 0.00701947 -0.827687 0.392663 -0.377587 -0.633828 0.721419 -0.121467 -0.358664 -0.471831 -0.981444 -0.493377 -0.476225 0.793811 -0.317707 -0.396875 0.944638 0.0771531 0.00640908 0.232558 0.379418 -0.844412 -0.789172 -0.552341 -0.645425 0.9201 0.691143 -0.460416 0.697552 -0.375816 0.26851 -0.712385 0.78612 -0.864616 0.440212 0.209546 -0.201001 -0.815846 0.629128 0.811146 -0.0340597 -0.385583 -0.566075 0.836599 -0.182872 0.633156 0.879204 -0.481597 0.433803 -0.939327 0.66508 -0.172557 -0.302326 0.580846 0.417628 0.7227 0.54172 -0.00964414 -0.0614051 -0.598608 -0.801013 -0.55051 -0.544284 -0.450711 -0.545932 0.731978 -0.127632 -0.409815 0.891961 -0.525789 -0.982421 0.936397 -0.851798 -0.57346 -0.103522 0.238113 0.159678 0.702313 0.939694 -0.365806 0.413538 0.0279558 0.253617 -0.998291 -0.802051 0.993591 -0.12928 0.206006 0.852103 0.302142 -0.00103766 -0.649576 -0.98474 0.0203259 -0.727828 -0.97296 0.878411 -0.172252 -0.999878 0.566014 -0.567662 -0.732528 -0.581823 0.28554 -0.280535 -0.00408961 -0.0625649 -0.257523 -0.917536 0.0324727 -0.605078 -0.0181896 -0.584997 0.0101935 0.303485 -0.21327 -0.588537 -0.574925 -0.898553 -0.0711713 0.817066 0.886773 0.403406 -0.582067 0.677654 0.367759 -0.750839 -0.247757 -0.409998 -0.545871 -0.645181 -0.832082 -0.0482818 -0.40481 -0.638039 0.889947 0.211011 0.353598 -0.911982 -0.619117 -0.882988 -0.345053 -0.223646 0.592382 -0.0303974 0.0385766 0.345785 0.213636 0.869499 0.906855 -0.358848 -0.0774583 0.967955 0.775377 0.683086 -0.364829 0.717207 -0.476958 0.917903 -0.244033 0.120308 0.642434 0.46768 -0.572545 0.981139 -0.511323 0.380394 0.780748 -0.84606 -0.469145 0.879753 -0.815296 0.794482 0.60105 -0.384911 -0.502899 0.608558 -0.855582 -0.0881401 0.313679 0.103095 0.469877 -0.979064 0.218275 -0.164195 0.999268 0.369346 0.0334493 -0.334798 0.517671 -0.190563 -0.930416 -0.999512 0.423732 -0.130196 -0.624184 -0.9483 -0.0208143 0.00445584 -0.0108039 -0.920344 0.559116 0.843496 -0.81493 0.646036 -0.0981505 0.442471 0.727461 -0.137093 0.359031 0.53293 0.118049 -0.356406 -0.854483 0.772264 0.847403 -0.0479155 0.589636 0.993469 0.643899 0.0530428 0.382592 -0.544711 -0.275591 0.762009 -0.170665 -0.907465 -0.955869 0.695111 0.0978453 -0.234389 0.546664 0.519441 0.469511 0.510651 -0.586645 -0.797168 0.588781 -0.210462 0.314472 0.264115 0.713606 -0.259781 -0.341879 0.0224013 -0.0349142 0.426112 -0.159067 -0.151987 0.577733 0.0865531 -0.502289 0.41189 0.14924 -0.613441 -0.248489 -0.0642739 -0.109443 -0.332784 0.463896 0.442166 0.876091 -0.805042 0.484282 0.00433376 0.293231 -0.58756 -0.0992492 0.996521 -0.307087 -0.812244 0.289568 0.343344 -0.760789 -0.935055 0.965208 -0.229384 -0.0402857 -0.486175 -0.769639 0.0547519 -0.00512727 -0.820118 0.626381 -0.727095 0.848807 -0.86547 -0.817738 -0.946835 -0.361411 -0.875053 -0.334005 0.82433 -0.655069 -0.176036 -0.166697 0.0657389 -0.938473 -0.919795 0.678447 0.557895 0.245681 0.168406 0.68388 0.631875 0.967527 0.0385766 0.0703168 -0.58048 0.160715 -0.433254 -0.953183 -0.896417 -0.127693 -0.19508 0.0609168 -0.832509 -0.487518 0.230605 0.0479766 0.645669 0.104743 0.997192 0.681987 0.372764 0.53586 -0.816334 0.625099 -0.765183 -0.194104 -0.95477 -0.222304 0.418483 -0.721846 0.262589 -0.471403 -0.339132 0.929439 0.192089 -0.995178 -0.499664 -0.40072 0.116096 -0.678325 -0.474211 -0.758774 -0.507294 -0.167308 0.62693 -0.82842 0.205762 0.379784 -0.755906 0.32021 0.81493 -0.457059 -0.381188 -0.520051 0.805469 0.890801 0.0429714 -0.442715 0.838735 -0.770189 -0.890679 -0.178234 -0.998474 0.855216 -0.0382714 0.156198 -0.943234 -0.199902 0.544467 -0.69328 0.693097 0.0860648 -0.147409 -0.867057 -0.225478 -0.0270402 0.182262 0.857474 0.591406 0.208875 -0.619911 -0.683819 0.109504 0.28023 -0.906366 -0.79143 0.220472 0.661661 -0.978758 -0.652933 -0.00824025 -0.934017 -0.838064 0.907709 -0.0833791 0.694806 0.0656778 -0.320759 0.164134 0.487273 -0.917109 0.314411 0.828969 -0.628762 0.615333 0.57871 0.181713 0.512971 0.36489 -0.398828 0.918818 -0.433376 -0.415309 0.124092 0.412257 0.925044 -0.671428 0.753037 0.96002 -0.0310688 0.701093 0.206617 0.0357688 -0.682415 -0.892633 -0.43301 0.539095 -0.921504 0.503876 0.529756 -0.954953 -0.902582 -0.352866 -0.346701 0.054996 -0.791552 0.345053 0.609717 0.245437 -0.516145 -0.294024 0.434109 0.719099 0.484344 0.389306 -0.224989 -0.745773 -0.491424 0.854911 -0.855765 0.555332 0.843985 -0.386437 -0.83312 0.502045 0.015748 -0.522981 0.831289 0.40011 0.0378441 -0.192456 -0.261063 -0.768907 -0.33785 0.768296 0.35488 -0.0976012 -0.370933 -0.426845 0.257218 -0.503144 0.91717 0.736922 0.387475 -0.47647 0.993164 0.325032 -0.69975 0.167002 0.0621986 0.203748 -0.586156 0.537692 -0.682171 0.290118 -0.740646 0.921687 -0.808277 0.802051 -0.26851 -0.969114 -0.396142 0.508088 0.338094 0.253372 0.212537 0.97766 -0.549777 -0.0975401 0.664225 0.830922 0.552524 -0.532564 0.843802 -0.0112312 0.492462 0.863639 -0.875847 -0.076909 -0.268876 0.681621 0.617103 -0.0936336 0.592993 0.438259 -0.578038 -0.738204 -0.484771 0.825978 0.876946 -0.386376 -0.700971 -0.0371116 -0.192028 -0.863456 -0.64158 -0.356894 0.779833 0.806446 -0.0292376 -0.413599 0.345175 0.649454 0.526827 -0.311665 -0.704938 -0.00708051 -0.219618 0.27028 0.909052 -0.285113 0.0988219 0.329305 -0.79552 0.49411 -0.28731 -0.211622 -0.812489 -0.939999 0.965879 -0.253861 -0.89776 0.443142 0.56522 0.727217 0.681316 0.22444 -0.168773 0.931636 -0.604834 0.785937 0.94769 0.485564 0.703168 -0.439907 -0.788744 -0.309223 0.302448 -0.719465 -0.717573 -0.725142 0.378685 0.231643 -0.565403 0.641397 -0.144296 0.498138 -0.195508 0.11927 0.645852 0.216017 0.642251 -0.786486 -0.100653 -0.178234 0.56113 0.855033 0.255081 0.302814 0.787829 -0.349936 0.0900324 -0.552768 -0.587865 0.13105 -0.230544 0.094122 -0.362632 -0.994079 -0.103034 0.383019 0.0299701 -0.591223 -0.435573 0.00445584 0.769761 -0.851004 0.602026 0.449796 -0.10047 0.962278 -0.172008 -0.73912 -0.424281 0.759507 -0.700848 0.280779 0.318074 -0.122322 0.560642 -0.0969908 -0.740829 -0.670268 0.895562 -0.678142 0.395532 0.0542025 -0.424709 0.782824 0.836294 -0.834768 0.109992 -0.168589 -0.945859 0.203137 0.497589 -0.435268 -0.864677 -0.616432 -0.525545 0.880242 -0.971068 -0.151621 0.765428 0.726119 0.797778 -0.0850272 -0.66685 0.351462 0.867363 -0.673564 -0.370811 -0.443814 0.276933 -0.498016 -0.157175 0.941036 0.929012 -0.213758 0.152048 0.157236 -0.160898 -0.300128 0.972777 0.157114 -0.613746 -0.810902 -0.790698 -0.556308 -0.43716 0.876335 0.504547 0.320698 0.224257 0.309162 -0.510834 -0.857352 -0.660746 0.211439 0.0325337 0.564976 -0.759934 0.73265 -0.508027 -0.206311 0.872124 -0.302081 0.963438 0.835805 0.0437649 0.858512 -0.469267 0.748825 -0.322835 0.141 0.51645 -0.108649 0.0576207 -0.101813 -0.268998 0.172557 -0.916621 -0.841726 -0.276628 -0.697491 0.516511 -0.124336 0.0307026 -0.958066 0.231765 -0.819996 -0.571629 -0.547397 0.467741 -0.372703 0.180309 -0.853324 0.0758713 -0.551181 0.288348 -0.462553 0.771226 0.802112 -0.257157 -0.911311 -0.618202 0.0199597 0.772386 -0.434719 0.0993103 -0.138619 0.0938168 0.28261 0.728377 -0.239028 -0.83782 0.356955 0.936947 0.0791674 0.421168 0.955381 0.50644 0.352133 -0.447842 -0.454373 -0.418666 -0.458158 -0.274675 0.146554 0.919734 0.286089 -0.151071 -0.422694 0.142465 -0.851737 0.819508 -0.291766 -0.015748 0.868034 -0.228224 -0.289752 0.542758 0.610084 0.328939 0.305072 -0.47122 0.215528 0.852408 0.0151376 0.516877 0.451016 0.691815 -0.586156 -0.805652 -0.741134 0.435024 -0.624672 -0.387719 0.00744674 0.158457 -0.675639 0.434658 -0.259293 -0.323567 -0.513337 -0.811146 -0.571568 0.791979 -0.861381 0.515718 0.216322 -0.454129 0.857535 0.419032 -0.324544 0.467741 0.771165 0.516145 0.0531649 0.825124 0.80846 0.287554 0.52231 0.873894 0.948971 -0.673015 -0.568455 0.108222 -0.527132 -0.408228 0.555454 -0.489288 -0.7885 -0.347922 -0.655863 -0.197888 -0.203259 0.941708 -0.826222 -0.308613 -0.0888726 0.0073857 -0.403894 0.125984 -0.46182 0.759507 0.588842 0.541415 0.212171 0.721541 0.805225 -0.888543 -0.731978 -0.719893 -0.175609 0.998657 0.0916804 -0.0644571 0.401453 0.603064 0.369651 0.551059 0.717024 -0.186474 0.339315 -0.396814 0.627602 0.257218 -0.961301 0.432033 -0.0844778 -0.450772 0.55698 -0.509492 0.538851 -0.456754 0.283709 0.595434 0.881401 0.581151 -0.84075 -0.823842 0.00280779 -0.257035 -0.0747726 0.526094 -0.111457 -0.902765 -0.626625 0.0512727 -0.300311 -0.0493805 0.596716 -0.478667 0.0233779 -0.901972 -0.761277 -0.680706 -0.8778 -0.927181 -0.256119 0.691265 -0.815174 0.396631 -0.392602 -0.00347922 0.575597 -0.17097 -0.37484 0.958005 0.0844168 0.618324 0.14393 0.911555 -0.822743 0.750839 -0.688824 -0.9436 0.245926 -0.798877 -0.674663 0.705365 0.857718 0.182384 0.685467 -0.466032 0.00585973 -0.604407 0.441311 -0.168406 0.359397 0.280535 0.44357 0.750595 0.513154 0.264848 -0.406336 0.556553 -0.762498 -0.985534 0.0939388 0.878533 -0.270891 0.684124 -0.302814 0.958677 -0.140084 0.166087 -0.0427272 -0.0974791 0.427883 -0.658548 0.47885 0.929073 -0.59342 -0.670573 -0.832998 -0.379845 0.195691 0.737533 0.478118 0.171397 -0.129708 -0.0886895 -0.331136 -0.358726 -0.568516 -0.814991 -0.952939 0.201795 0.0561558 -0.869072 0.221205 -0.611915 -0.653238 0.809803 0.350363 0.348837 -0.418116 0.0202039 0.394738 0.0956479 -0.034487 -0.450528 -0.635049 -0.246353 0.877739 -0.57694 0.572789 0.811207 0.124031 -0.845266 -0.119575 -0.630165 -0.813892 -0.00347922 -0.0488311 0.394616 -0.528719 -0.81139 0.498871 -0.0364402 0.562595 0.209669 0.538241 -0.48178 0.468779 -0.97357 0.634743 0.113349 -0.125496 0.34432 -0.845389 0.667033 0.390283 -0.143563 0.515107 0.210401 0.802234 0.494659 -0.566136 0.138192 -0.677776 0.678874 -0.820485 0.45828 -0.161692 0.567417 -0.178417 0.0417506 0.163767 0.306781 0.480193 0.8731 0.287981 0.281817 -0.423793 0.300006 0.626137 -0.634377 -0.918574 -0.716596 0.268998 -0.830373 0.76848 0.647806 -0.766831 0.293597 0.460477 -0.669535 0.711408 0.57523 0.281633 0.632546 -0.678447 -0.659159 0.906794 0.467924 -0.642129 -0.34487 -0.188488 -0.38601 -0.959958 0.570714 -0.477629 -0.0383935 0.76378 -0.621315 -0.133492 0.764695 -0.649881 -0.141549 0.221876 0.890435 0.296588 0.527681 -0.232741 -0.930721 0.0257584 0.892205 -0.267717 0.145334 0.136483 -0.303852 -0.352744 -0.674663 -0.346762 -0.827809 -0.406763 0.429958 -0.723799 -0.708967 0.452176 0.142648 -0.368431 0.0117195 0.156687 0.260453 -0.478972 -0.468473 -0.059696 -0.056461 0.172252 0.536166 0.587255 -0.034609 -0.511506 0.449368 0.682537 0.962949 0.299091 -0.316609 0.86193 -0.314045 0.608863 -0.111274 0.0620155 -0.751999 -0.151499 0.204053 -0.22975 -0.624306 -0.87542 -0.493621 0.274736 0.658915 -0.53055 0.661051 0.914362 0.80083 0.0911921 0.771654 0.328877 0.867851 0.623512 -0.570164 0.708783 -0.460294 -0.623939 0.966123 0.0452298 -0.64042 -0.415675 0.698651 0.380455 0.983825 -0.340475 -0.815968 0.0571934 -0.568272 -0.561436 0.467619 -0.0309467 0.336446 0.434231 0.332357 -0.189526 0.194043 0.0850272 0.54996 0.326619 0.613929 0.00531038 -0.869926 -0.436611 0.568821 0.235183 0.57108 -0.882439 0.644693 -0.509492 0.109138 0.386803 -0.70915 -0.587072 -0.0310078 0.819264 -0.93011 0.819996 -0.386437 0.16395 0.907831 -0.0452909 -0.00585973 0.72093 0.343405 0.736373 -0.19978 -0.409388 -0.220778 -0.9906 -0.290423 0.924739 0.731002 0.794848 0.638406 0.175243 0.0776415 0.538668 -0.00915583 0.345236 0.31142 -0.637002 -0.0903375 0.238479 -0.21211 -0.684002 -0.474211 0.709516 0.97589 -0.378746 -0.791674 0.913691 0.70738 0.928279 0.815052 0.557041 0.42776 -0.437893 -0.0587194 0.146554 0.445828 -0.225966 0.171397 -0.760117 0.183361 -0.00915583 -0.672465 0.695599 0.425685 -0.935055 -0.279497 0.922786 -0.428737 0.524995 0.399011 0.131417 -0.118171 0.825002 -0.599707 0.582494 -0.267472 -0.405237 -0.000183117 0.837453 -0.138314 -0.109687 0.961362 0.00866752 -0.379174 0.44302 0.786791 0.00939999 -0.775072 -0.0899103 -0.0335714 -0.196545 0.00225844 -0.87542 -0.771043 -0.344381 0.644204 -0.654459 -0.208753 -0.61869 -0.544589 0.507538 -0.391625 0.59696 0.604102 -0.529207 -0.376244 0.969481 0.371422 0.271806 0.0191052 0.466642 -0.597998 0.372276 0.464384 -0.392907 0.953916 0.91009 0.367881 -0.289568 -0.852042 0.948788 -0.873955 -0.853446 -0.781115 -0.272478 0.373924 -0.413294 -0.235732 0.911738 0.23445 0.252457 0.995239 0.84197 -0.430996 0.16627 0.985839 0.785082 0.227431 0.401636 -0.0762986 -0.816639 -0.702619 0.332418 0.359763 -0.0947323 -0.644632 -0.11634 -0.541903 0.494659 0.715925 -0.21913 -0.753891 0.42129 -0.318501 -0.199353 0.864677 -0.669291 0.793567 -0.979979 0.817433 -0.705609 -0.918818 0.0671428 -0.778307 -0.940609 0.312214 -0.629311 0.0581701 0.298785 -0.757554 -0.589819 -0.579442 -0.139047 -0.133858 0.966184 -0.234023 0.0206311 -0.334249 -0.630593 0.164866 0.72795 -0.137948 0.752121 0.550754 -0.141061 -0.335958 0.296771 -0.0294818 -0.534517 0.519197 0.486968 0.834646 0.025148 0.362937 -0.643228 -0.833669 0.691387 -0.130806 0.7415 0.852652 -0.456815 0.700238 0.526643 -0.106635 -0.164317 -0.243606 0.898981 0.652078 0.249527 -0.57346 0.595801 0.105231 -0.858817 -0.162424 -0.844839 0.0928401 0.793078 -0.895196 -0.833791 -0.432033 -0.336996 -0.418055 0.518586 0.847342 0.635171 0.110663 0.652689 -0.139657 -0.731185 0.271196 0.809803 0.400293 0.0497467 0.631936 0.282 0.373375 0.638894 0.999634 0.662211 0.0491363 0.123299 0.669169 0.0938778 0.310627 -0.734298 0.673869 -0.478484 0.903864 0.754807 0.0352805 0.940365 0.688274 -0.545382 0.0132454 -0.353842 -0.11341 0.655558 0.355857 0.485869 0.33492 0.323262 -0.450528 0.106879 -0.267655 -0.650552 -0.93127 -0.792468 -0.108344 -0.198254 -0.373192 0.787035 0.988586 -0.826894 -0.575352 0.395044 -0.187878 0.63279 0.402002 0.382287 0.0148935 -0.724654 0.48648 0.150217 0.36251 0.371605 -0.155771 0.401086 0.983886 -0.382409 -0.870414 -0.612281 -0.378746 -0.614295 -0.264726 -0.835927 -0.119758 0.973875 0.0421168 -0.165354 -0.520418 0.855582 -0.330648 -0.195263 0.501495 0.930416 -0.27553 0.0304584 -0.358848 0.773607 -0.946774 0.268754 0.457364 -0.113838 0.489776 -0.672771 -0.378014 -0.054996 -0.893853 -0.685589 -0.829763 -0.947323 0.463285 -0.110419 0.750778 -0.0123909 0.859916 0.512666 -0.124886 0.453946 -0.416896 0.6945 0.168467 -0.668559 -0.841482 0.246597 -0.380822 0.926204 -0.400171 -0.468595 0.828908 -0.780748 0.659037 -0.287859 -0.737655 0.118354 0.0762986 -0.997436 -0.502045 -0.293719 -0.169627 0.917659 -0.52292 0.492034 0.388085 0.522554 0.754563 -0.339926 0.954587 0.683758 0.748215 -0.679058 -0.276933 0.318257 0.989562 0.760911 0.125618 0.643899 -0.627052 0.691815 -0.918147 -0.570775 0.40658 -0.498688 -0.74968 -0.756272 -0.538668 -0.496856 -0.722578 -0.292376 -0.97827 -0.813404 0.0480376 -0.258256 0.935726 -0.533297 0.935299 -0.182079 0.66392 -0.0655558 0.0504181 0.208692 -0.469267 -0.89367 0.493255 -0.762803 0.973936 0.674968 0.601721 -0.472319 0.794116 -0.241592 0.201978 0.255081 -0.594641 -0.849234 0.858695 -0.605201 0.0853934 -0.428127 0.124397 -0.0265519 -0.775438 -0.0827687 -0.209608 0.318196 0.577123 -0.49179 0.136056 0.307026 -0.489959 0.34194 0.178844 -0.381371 -0.745956 -0.658793 -0.0751999 -0.017274 -0.847159 0.605017 0.618202 -0.57053 0.913752 -0.34255 0.991332 0.540194 0.856803 -0.300922 -0.485015 0.696576 0.165782 -0.144235 0.648477 0.33138 -0.862357 -0.570591 -0.911311 -0.82195 -0.567295 0.147653 0.0216688 0.520967 0.324361 0.413783 -0.628945 -0.555088 0.949399 -0.443081 0.0490753 -0.914179 0.557895 0.0821583 0.206189 0.880425 0.763169 -0.0798999 -0.518892 0.815846 -0.208265 0.677348 -0.749191 -0.319783 0.733809 -0.113899 0.880791 -0.687359 -0.207715 -0.74559 -0.0256363 0.852835 0.533785 0.916316 0.623512 0.991149 0.137948 -0.318806 -0.341696 0.218824 -0.352133 -0.715437 0.897333 -0.921992 0.219923 0.637795 -0.602942 0.411707 -0.626442 0.0775804 -0.29732 -0.386803 -0.758286 -0.383202 0.097357 0.87719 0.820668 -0.806018 0.852713 -0.551486 0.219618 0.923579 0.478423 -0.126534 0.911494 -0.654642 -0.0273454 0.248672 -0.0178844 -0.324483 -0.928218 0.471586 0.380944 0.0556064 0.500702 0.490508 -0.829702 -0.196972 0.22212 0.554599 -0.223708 -0.338888 -0.312763 -0.536349 0.237991 0.0487701 0.0857596 0.818531 -0.542392 -0.68919 0.595373 -0.72972 -0.549045 -0.0321675 0.63218 0.77147 -0.402918 0.966245 0.10047 0.824879 0.888177 -0.0720259 -0.357077 0.734359 0.179637 -0.598914 0.890557 -0.145639 0.440518 -0.89074 0.712446 -0.159617 -0.997436 0.202039 -0.533968 0.898492 -0.188427 -0.495514 -0.752731 0.0354636 -0.324055 -0.232192 0.140145 -0.690899 0.517671 -0.0812428 0.466886 0.0778856 -0.378136 -0.690106 -0.961973 -0.749069 -0.1128 -0.0302142 -0.597265 -0.461637 0.075383 0.852408 0.0980284 -0.299029 -0.938595 0.0877129 0.899408 0.800342 0.0837453 -0.768602 -0.929622 0.448819 0.994018 -0.484832 -0.386742 -0.940609 0.506928 0.0961973 -0.481841 0.0963194 0.450833 0.307514 0.0137948 0.324116 0.0171519 -0.0920466 0.816944 0.0582311 0.0106208 -0.667826 0.382714 -0.584997 -0.90069 -0.0593298 0.154489 0.561619 0.0645791 0.269548 0.814137 -0.0343649 0.0509064 0.280779 0.531527 0.645913 0.816273 -0.387841 -0.785143 0.421657 0.981749 -0.172801 0.760911 0.163157 0.281755 0.665263 -0.695843 0.0413233 -0.185985 0.2914 -0.531954 -0.222059 0.289629 -0.453519 0.613868 0.895624 0.282793 0.197217 -0.90893 0.967466 0.481108 -0.814015 0.488006 -0.132454 -0.0646402 0.881218 -0.119453 0.0209974 0.309772 -0.673442 0.0833791 0.653299 0.1316 0.492157 -0.100714 0.040774 -0.958433 0.523347 0.369346 -0.239211 0.043887 -0.0084844 -0.977171 0.941403 -0.244583 0.14393 0.12751 0.51114 0.657023 -0.846731 0.939266 -0.550327 -0.657755 0.368492 -0.0477934 -0.962644 0.768418 0.563938 -0.851187 -0.894647 0.505707 0.18977 0.250076 0.28554 0.987914 -0.377831 0.964903 0.260514 -0.238174 -0.587072 -0.759629 0.0137948 -0.262162 0.539706 -0.487518 0.0795947 -0.560703 0.655741 0.955075 0.793017 -0.746872 0.34017 -0.270036 0.539767 -0.320698 -0.651895 -0.76207 0.00640908 -0.418849 0.860282 0.367759 0.430385 0.43539 -0.267045 -0.253861 -0.150217 0.581823 0.748703 -0.0113532 -0.646402 -0.52646 0.86547 -0.0512727 -0.668498 -0.0727583 -0.533053 0.968382 -0.275957 0.372642 0.613075 -0.872551 0.272417 -0.897455 -0.710981 -0.505341 0.768724 0.52353 -0.343832 0.376671 -0.694317 -0.595007 -0.698712 -0.431728 0.527132 -0.870109 -0.512666 0.602942 -0.122749 -0.0554843 -0.597265 -0.997986 -0.148691 -0.791979 0.41189 0.525606 0.245315 -0.35665 0.304767 -0.578527 0.40597 -0.413599 -0.452725 0.676311 -0.519319 -0.763596 -0.468779 0.264604 0.667948 0.906183 0.823964 -0.600684 -0.533297 -0.728865 -0.581456 0.781908 -0.0731246 -0.379235 0.984374 0.851614 0.899225 0.107367 -0.88427 0.0362571 0.28493 -0.00341818 -0.416346 -0.997986 -0.713728 -0.0826466 0.584325 0.903375 0.656473 0.112067 0.989745 -0.367393 0.949094 0.686138 0.597937 0.0709272 0.768663 -0.141671 0.382592 0.337484 -0.979491 0.210889 0.743209 0.0396753 -0.839102 0.939144 -0.245071 0.523408 -0.553317 0.101569 -0.58109 -0.877495 -0.814503 0.870353 -0.087957 -0.59049 0.9859 -0.219435 -0.163279 -0.555088 -0.993164 0.980834 0.471464 0.0277117 -0.791369 0.482757 0.020387 0.945004 -0.397974 0.411463 -0.136605 -0.77788 0.498627 -0.744674 0.806385 -0.627052 0.760667 0.116035 -0.669413 -0.350424 0.0512727 0.958433 -0.156504 0.292132 -0.915522 0.860648 0.928218 -0.220778 -0.124886 0.264176 -0.406641 -0.922298 -0.0114753 -0.776231 -0.476225 -0.107184 0.791003 -0.342489 -0.670207 0.917964 -0.300555 -0.403284 0.797778 0.0846609 0.431972 -0.564121 -0.860709 0.81316 -0.743026 0.182995 -0.757554 0.26143 -0.756028 -0.290972 -0.0792285 -0.423732 0.513215 0.998718 0.163401 0.142404 0.485442 0.399438 -0.614478 -0.167063 0.132515 -0.127571 -0.32198 -0.740768 0.227004 -0.758164 0.0576207 0.0210584 -0.407923 0.445401 0.716719 0.956357 -0.64805 -0.216261 -0.726607 0.391198 -0.818592 0.171092 -0.978148 0.390222 -0.443814 -0.61515 -0.818165 -0.993835 0.00262467 0.315754 -0.851126 0.530306 -0.652078 -0.782396 0.74443 -0.258317 -0.029787 -0.0421168 0.465421 0.158213 0.0480986 0.266984 -0.265092 0.285662 -0.188793 -0.0113532 -0.848501 -0.131722 -0.210157 -0.669902 0.739852 0.138497 -0.934872 -0.88836 0.200024 0.0671428 -0.480925 -0.983031 -0.841909 0.613319 0.0842337 -0.156931 -0.584081 0.974181 0.994079 -0.250015 -0.798877 0.835439 0.0328389 0.511445 -0.582921 0.62101 0.78557 -0.236037 -0.107062 -0.257096 0.888116 -0.742233 -0.366416 0.851859 0.276933 -0.893792 -0.930233 0.086309 -0.560581 0.0359519 0.308185 -0.676555 -0.336141 -0.363242 -0.619239 0.428615 -0.71092 0.611915 0.49588 -0.494842 -0.0451688 -0.972227 0.287249 -0.85485 0.851614 0.564304 0.0644571 0.678752 0.97064 0.764329 0.0630532 0.424159 -0.646158 -0.715864 -0.305927 -0.0617713 -0.655741 0.143502 -0.205335 0.265946 0.835561 -0.0247818 0.877556 0.190502 0.521943 0.275407 -0.618934 0.48355 0.14863 -0.346518 -0.0802051 0.154734 0.761704 0.0822804 -0.466337 0.702435 0.957822 -0.852347 -0.0613441 0.362754 -0.865653 0.299091 -0.223646 0.360557 -0.260148 -0.901178 0.864372 -0.84136 -0.476653 -0.52701 0.445645 0.708539 -0.215406 -0.0393701 -0.560703 0.699445 0.624428 -0.0358909 0.69035 0.809253 -0.806018 -0.000854544 -0.780992 0.954099 -0.0542636 -0.0553012 0.471892 -0.461881 0.882622 -0.707074 0.571019 -0.295672 -0.191723 -0.600501 0.564304 -0.416651 0.577428 -0.266801 0.675456 0.544589 -0.654764 0.126106 0.553928 -0.554721 0.818104 -0.9765 -0.475066 0.881524 0.502594 -0.265824 0.839712 -0.563084 0.95654 0.680095 -0.0751999 -0.0657389 0.0383324 -0.353781 0.633095 -0.316181 -0.842703 0.0313129 -0.507355 0.734725 -0.476531 -0.903009 -0.0421168 0.123909 0.397668 0.218519 0.658732 0.127022 -0.658671 -0.866081 -0.349264 0.50766 0.467008 0.195141 0.665568 0.767991 0.687664 0.616981 -0.639626 0.398096 -0.0326558 0.727522 -0.431606 -0.873344 -0.429347 0.218214 -0.451627 -0.829396 0.313313 0.394006 0.235 -0.514985 0.81139 0.422816 -0.511445 0.0133675 -0.268144 -0.414149 0.345419 -0.062748 0.0427883 -0.472136 -0.73265 -0.0732467 -0.73735 0.506745 0.392419 0.390038 -0.28908 -0.356528 -0.2162 -0.276323 0.757798 -0.827443 -0.318928 0.562656 -0.926021 0.691937 0.749252 0.029848 0.881646 -0.587804 0.329183 -0.0132454 0.202954 0.407984 0.687603 -0.717024 -0.888726 0.866691 -0.73326 0.00665324 -0.0191052 0.339132 0.935238 -0.266191 -0.263566 0.989562 0.236709 -0.220961 0.103705 -0.154856 -0.358909 -0.554843 -0.141 -0.953244 -0.206006 0.273271 -0.920405 0.0984557 -0.23323 0.29262 -0.606421 0.117317 -0.693585 0.270952 0.229628 0.0839285 -0.914057 -0.0358909 -0.932796 -0.907953 0.954221 0.366355 -0.313191 0.598914 0.185314 -0.0398584 0.41952 0.674724 -0.270219 0.966307 0.39718 0.253189 0.46359 -0.406336 -0.197583 -0.618751 -0.561497 0.289874 0.118782 -0.530794 0.132271 -0.00970518 0.380577 -0.459562 0.698163 0.368919 -0.577428 0.481902 0.215284 0.087896 0.130928 -0.706647 0.938717 -0.95239 -0.308063 -0.6616 0.549045 0.637002 -0.156931 0.593664 0.402857 -0.0171519 -0.877556 -0.101202 