0.199529 0.901 0.999899 0.999468 0.800353 0.100672 0.801703 0.200863 0.598637 0.499493 0.198249 0.0999354 0.89943 0.898453 0.798271 0.898355 0.298619 0.199338 0.599398 0.599328 0.899999 0.80093 0.900996 0.200467 0.400377 0.600884 0.40002 0.49925 0.199662 0.69949 0.500469 0.899913 0.501156 0.700933 0.799881 0.200701 0.999936 0.702075 0.798948 0.39985 0.799378 0.100117 0.200966 0.29948 0.299967 0.398904 0.801767 0.700991 0.300612 0.500426 0.399939 0.399739 0.498429 0.899011 0.599847 0.600214 0.398911 0.498846 0.897944 0.300656 0.900128 0.997854 0.399989 0.298718 0.59724 0.898551 0.800689 0.999629 0.0969501 0.299496 0.899908 0.299163 0.700605 0.0998133 0.0998495 0.500654 0.799954 0.799577 0.499068 0.800643 0.399953 0.0992279 0.102852 0.498979 0.300725 0.700862 0.299951 0.500274 0.698612 0.49679 0.199549 0.800256 0.800917 0.798369 0.0988343 0.298917 0.500054 0.698961 0.798027 0.599977 0.300106 0.0990188 0.098753 0.600233 0.699783 0.598703 0.69965 0.1017 0.797651 0.699818 0.600839 0.399034 0.0987525 0.60007 0.69985 0.699309 0.899304 0.399929 0.897491 0.900469 0.399202 0.198259 0.79845 0.999023 0.297297 0.898318 0.599837 0.296961 0.598315 0.496315 0.300093 0.600233 0.699739 0.698436 0.597362 0.69938 0.499319 0.699905 0.399186 0.599317 0.295815 0.197513 0.494302 0.893585 0.19604 0.39326 0.396064 0.795251 0.996348 0.396709 0.598002 0.797012 0.697403 0.197735 0.396342 0.596922 0.398444 0.59799 0.298097 0.398383 0.798761 0.699006 0.79861 0.199641 0.498961 0.0977248 0.600253 0.999912 0.49926 0.398551 0.798141 0.198406 0.500023 0.0993119 0.0998468 0.598826 0.998485 0.900365 0.499647 0.999674 0.600306 0.300923 0.700752 0.101393 0.999024 0.599966 0.801883 0.6008 0.10032 0.901627 0.99862 0.697862 0.198203 0.896353 0.299496 0.997411 0.997049 0.0981597 0.996143 0.498281 1.00026 0.800873 0.898962 0.200658 0.197774 0.298895 1.00023 0.30166 0.698937 0.298781 0.797748 0.701213 0.799367 0.298847 0.197092 0.399 0.90008 1.00058 0.39843 0.899759 0.601428 0.500037 0.200386 0.999648 0.9996 0.300905 0.299871 0.999908 0.800676 1.00088 0.39998 0.300932 0.998325 0.997952 0.899507 0.199394 0.998043 0.79922 0.79798 0.899744 0.499113 0.200502 0.601725 0.299066 0.598079 0.999079 0.998697 0.799301 0.90042 0.500387 0.799181 0.0995587 0.297638 0.899932 0.601199 0.799792 0.497951 0.399379 0.299226 0.199552 0.596879 0.0978452 0.501016 0.899261 0.496906 0.99778 0.797416 0.697965 0.896862 0.397869 0.100011 0.399503 0.400333 0.899974 0.30143 0.199995 0.100728 0.399981 0.999898 0.300959 0.299968 0.699005 0.997688 0.698985 0.99977 0.100251 0.798666 0.598927 0.599868 0.500143 0.100103 0.399825 0.201016 1.00095 0.699796 0.499992 0.699353 0.698957 0.201415 0.701124 0.0992526 0.599896 0.49902 0.399013 0.601978 0.799594 0.49915 0.799993 0.699871 0.299152 0.199566 0.70144 0.700689 1.00029 0.400907 0.9006 0.899907 0.800123 0.599678 0.799666 0.699893 0.79897 0.398003 0.399645 0.899227 0.698294 0.798153 0.898601 0.798961 0.600183 0.499281 0.100568 0.398777 0.199263 0.600286 0.900066 0.201593 0.399865 0.100168 0.50016 0.697796 0.699409 0.898588 0.598856 0.896348 0.800052 0.599643 0.998484 0.200653 0.399522 0.397561 0.498294 0.698116 0.0973969 0.594572 0.0983912 0.899074 0.799094 0.496756 0.0978758 0.994741 0.294956 0.493821 0.695128 0.389836 0.0999597 0.398162 0.89347 0.39332 0.893813 0.494855 0.696471 0.692921 0.397083 0.395143 0.397935 0.295418 0.395022 0.196149 0.794938 0.292142 0.196056 0.986479 0.598278 0.687092 0.597628 0.196392 0.598146 0.894633 0.694884 0.395022 0.996364 0.190722 0.0981785 0.781925 0.397033 0.906067 0.0938083 0.0971104 0.891821 0.293421 0.895822 0.1864 0.793537 0.17845 0.596281 0.3059 0.693177 0.795198 0.390352 0.0981467 0.0984901 0.795683 0.599213 0.185972 0.0956303 0.0992617 0.59729 0.401277 0.692506 0.690967 0.991725 0.986343 0.0933163 0.98337 0.0910885 0.197258 0.0918964 0.0925243 0.189563 0.493813 0.495739 0.891445 0.596657 0.98944 0.990997 1.00379 0.493697 0.292954 0.292798 0.0958992 0.69737 0.791341 0.99655 0.487023 0.897006 0.304885 0.598741 0.895912 0.589516 0.497001 0.196956 0.991102 0.696666 0.295109 0.797592 0.100277 0.0992084 0.994085 0.789194 0.39835 0.0981538 0.396086 0.99918 0.596508 0.598575 0.702735 0.897899 0.800296 0.896376 0.29766 0.196799 0.194109 0.298512 0.697797 0.296976 0.803309 0.797864 0.995402 0.0983782 0.298915 0.998152 0.197437 0.900928 0.196779 0.398914 0.502992 0.49988 0.699599 0.197306 0.999609 0.400107 0.595951 0.998488 0.398761 0.599015 0.598834 0.900348 0.797894 0.897229 0.397998 0.898947 0.500837 0.500244 0.600032 0.198695 0.998675 0.698331 0.49937 0.0990785 0.0976686 0.498956 0.398784 0.198848 0.0975376 0.997907 0.197228 0.498122 0.598524 0.598725 0.198942 0.899067 0.0996945 0.499487 0.0988728 0.398895 0.899248 0.0989883 0.699842 0.299012 0.898982 0.299419 0.898731 0.100363 0.799446 0.798034 0.399963 0.798708 0.698787 0.399431 0.1989 0.899887 0.200951 0.90044 0.301527 0.398714 0.89891 0.302128 0.200438 0.401497 0.899985 0.801064 0.59998 0.599919 0.699836 0.198661 0.899055 0.699974 0.800406 0.301623 0.201023 0.198172 0.699203 0.299123 0.499037 0.599301 0.898918 0.198849 0.59893 0.799754 0.998994 0.0995325 0.498846 0.0995255 0.898932 0.89881 0.19901 0.198971 0.0999388 0.400775 0.498916 0.399968 0.201459 0.600957 0.89879 0.799062 0.400896 0.500414 0.199027 0.300927 0.49884 1.00013 0.298235 0.598606 0.800494 0.798849 0.498147 0.801141 0.396974 0.298679 0.398993 0.198299 0.0999484 0.59902 0.400668 0.0990478 0.798418 0.599785 0.401553 0.798178 0.499833 0.502299 0.101105 0.997805 0.399916 0.598743 0.499747 0.599923 0.800849 0.300502 0.996439 0.298606 0.892904 0.296545 0.0897242 0.298248 0.996822 0.796148 0.695632 0.493847 0.589965 0.292032 0.782641 0.690674 0.971293 0.99308 0.900037 0.585061 0.686945 0.685827 0.576311 0.881395 0.766475 0.384316 0.165998 0.379742 0.698775 0.974133 0.18138 0.77653 0.66234 0.170825 0.639851 0.473345 0.339712 0.177359 0.581143 0.166355 0.770336 0.859534 0.559476 0.666781 0.740193 0.972918 0.0272295 0.275159 0.907246 0.0700493 0.95959 0.75136 0.244734 0.156925 0.131781 0.759421 0.298029 0.0551668 0.695912 0.149139 0.0560176 0.137806 0.227936 0.250836 0.815563 0.260583 -0.0118822 0.940071 0.818073 0.353973 0.14873 0.243549 0.532819 0.0596833 -0.00324859 0.755431 0.881635 0.920955 0.669131 0.955559 0.836615 0.932688 0.202858 0.136789 0.581913 0.933307 0.375277 0.402993 1.04442 0.139383 0.117542 0.510925 0.908784 0.841347 0.104732 0.744833 0.501153 0.319632 0.680571 0.549874 0.627291 0.819585 0.807327 0.444487 0.392067 0.33788 0.301143 0.317957 0.222691 0.644654 0.0244982 0.503672 0.217388 0.249972 0.483188 0.947467 0.0262165 0.924055 0.505925 0.94971 0.326693 0.806933 0.345089 0.169063 0.793887 0.968551 0.554249 0.856926 0.893958 0.375098 0.354969 0.0556416 0.649935 0.270321 0.611476 0.572239 0.666171 0.559746 0.676647 0.874103 0.948932 0.6571 0.963478 0.782156 0.0599308 0.883688 0.284356 0.676357 0.962615 0.991958 0.279332 0.0818357 0.081537 0.792926 0.666482 0.39039 0.986212 0.286427 0.160153 0.494363 0.885343 0.3895 0.288229 0.195612 0.38379 0.792672 0.189956 0.591567 0.431229 0.697773 0.895447 0.494497 0.896301 0.897427 0.0973658 1.0009 0.496479 0.597594 0.20825 0.800723 0.897034 0.896485 0.794076 0.496142 0.796988 0.0982664 0.194619 0.193269 0.403245 0.798896 0.493758 0.0947473 0.695791 0.995947 0.894891 0.297133 0.59552 0.295447 0.0984559 0.0971931 0.693688 0.296934 0.59782 0.598803 0.499979 0.0975112 0.898608 0.498787 0.498932 0.798586 0.899449 0.298903 0.599971 0.798805 0.700466 0.698606 0.299029 0.399919 0.899047 0.599665 0.0995217 0.299724 0.999989 0.499899 0.800249 0.297336 1.00086 0.898954 0.899704 0.399296 0.602947 0.498301 0.400922 0.600844 0.697772 0.799803 0.902529 0.39907 0.499456 0.500904 0.70024 0.999037 0.999818 0.100426 0.500374 0.302021 0.700621 0.899576 0.900196 0.899479 0.299425 0.399998 0.499428 0.9 0.800592 0.600004 0.799694 0.900375 0.7992 0.199771 0.898842 0.398987 1.00004 0.200788 0.40156 0.400281 0.0992953 0.301978 0.100615 0.600903 0.898251 0.800448 0.489807 0.993721 0.898134 0.194302 0.59475 0.494046 0.0928953 0.492788 0.291996 0.195735 0.189606 0.385646 0.289444 0.286023 0.0819991 0.888294 0.486142 0.0845078 0.482958 0.489554 0.16735 0.662352 0.268718 0.365329 0.840638 0.471857 0.169545 0.463631 0.162607 0.667145 0.141954 0.333131 0.658347 0.833424 0.720801 0.251711 0.256129 0.240867 0.0387429 0.0427255 0.386295 0.17593 0.405944 0.699617 0.170455 0.205322 0.808895 0.110797 0.180766 0.397914 -0.0552233 0.421285 0.30206 0.545628 0.509648 0.558727 0.74664 0.779385 0.12915 0.646497 0.503711 0.101035 0.560695 0.061302 0.665814 0.318637 0.757516 0.458035 0.200469 0.13936 0.540698 0.441923 0.611687 0.0386158 0.680146 0.736611 0.834678 -0.0731065 0.0431706 0.183394 0.531788 0.739257 0.844821 0.237912 0.024911 0.516652 0.175691 0.128138 0.62197 0.185353 -0.0801608 0.532932 0.794956 0.434434 0.113658 0.692731 0.831246 0.518613 -0.0789444 0.163943 0.034829 0.456474 0.161278 -0.0499684 0.701856 0.247459 0.739092 0.330191 0.693261 0.0650381 0.218372 0.750835 0.801204 0.609873 -0.0646041 0.437697 0.773079 0.218566 -0.0861866 0.726777 0.416282 0.779181 0.0297632 0.538942 -0.0359154 -0.0196175 0.888309 0.33714 0.0266538 0.25846 0.488757 0.244939 0.780146 0.18045 0.421828 0.245441 0.6932 0.292318 -0.114449 0.422091 0.701114 0.874614 0.618814 0.303726 0.164186 0.097357 0.922501 0.613771 0.508118 0.845095 0.864189 0.423595 0.458485 0.242578 0.42709 0.61876 0.997303 0.243948 0.27746 0.0115085 0.323833 0.559685 0.721896 0.562468 0.754889 0.754759 0.220509 0.0787738 0.141072 0.653267 0.946389 0.681893 0.461701 0.875199 0.379858 0.281846 0.267768 0.784566 0.871475 0.670025 0.282058 0.587796 0.183596 0.786837 0.387688 0.696968 0.245237 0.59363 0.191876 0.488506 0.794624 0.992958 0.292691 0.991407 0.69504 0.692358 0.417946 0.500105 0.795466 0.594479 0.699117 0.100191 0.299364 0.999507 0.30035 1.00032 0.101812 0.59909 0.698612 0.900568 0.801049 0.29935 0.199004 0.101913 0.100011 0.20222 0.899849 0.600542 0.101747 0.598631 0.0988707 0.0989977 0.99889 1.00177 0.198837 0.698644 0.199971 0.0999051 0.399946 0.799173 0.999721 0.299718 0.397584 0.897111 0.298912 0.298115 0.0979945 0.0980805 0.0996332 0.0984807 0.297414 0.596695 0.59739 0.597031 0.796723 0.497952 0.0970538 0.895117 0.595873 0.197234 0.899586 0.89807 0.29924 0.498112 0.200948 0.999136 0.297272 0.399296 0.698903 0.897424 0.597457 0.998287 0.596689 0.397572 0.497069 0.696998 0.99665 0.797743 0.59649 0.396611 0.794017 0.897303 0.595855 0.0993737 0.397033 0.392428 0.895935 0.395119 0.993232 0.295713 0.0704102 0.27695 0.376297 0.290763 0.478637 0.76743 0.570869 0.771528 0.562405 0.0764268 0.14486 0.841215 0.750938 0.749549 0.747319 0.530685 0.0364639 0.257415 0.225363 0.654099 0.0868738 0.266208 0.121222 0.398761 0.884903 0.555279 0.266573 0.597319 0.725532 0.897002 0.196028 0.582679 -0.000202863 0.73132 0.711355 0.570925 -0.0936862 0.826049 -0.0406585 0.14234 0.0118551 0.383822 -0.0157238 0.760113 -0.0440142 -0.0506191 0.59774 -0.016293 0.549969 0.45973 0.430681 0.404285 0.351655 -0.0104381 -0.132333 -0.0274655 0.319557 0.504789 0.0695578 -0.0909687 0.563209 -0.297825 0.762481 0.68876 -0.213243 0.199515 0.033767 0.626246 0.307469 0.50475 -0.0477692 -0.0454598 0.520811 0.490183 -0.247064 -0.365169 0.390059 0.455262 0.268434 -0.0517415 0.318344 -0.18843 0.351743 -0.152332 -0.322613 0.0444642 0.05584 0.0915657 0.186957 0.350583 -0.139461 -0.132643 0.278513 0.292261 -0.41942 0.327249 0.00140276 0.0935178 -0.152336 -0.158338 0.223334 -0.045979 0.744679 -0.0909368 -0.111303 0.333893 0.645675 -0.352431 -0.257829 0.353341 0.607635 0.518702 0.224131 0.429977 -0.0521627 0.490544 0.258414 0.0527062 0.216889 -0.51112 -0.126627 0.0510608 0.250213 0.265967 -0.0224985 -0.0760449 0.798874 -0.183882 0.104342 -0.0906175 -0.0195095 0.706819 0.135838 -0.144895 -0.291702 -0.0750602 0.44353 -0.20563 0.440411 0.266461 0.252363 0.164456 -0.0106076 0.405225 0.348862 -0.109359 0.611865 -0.0220787 -0.28733 0.56158 -0.000207836 0.74484 0.12561 0.271735 0.0216452 0.419533 0.528588 -0.105223 0.147171 0.102243 0.767934 0.285755 0.754771 0.459602 0.495307 0.547225 0.144801 0.677314 0.714539 0.789457 -0.0330305 0.371226 0.16033 0.532987 0.657333 0.693158 0.376814 0.826541 0.338161 0.86054 0.136565 0.671617 0.145384 0.307221 0.283114 0.74764 0.893882 0.174943 0.717396 0.925887 0.965321 0.563821 0.0695959 0.956025 0.0889827 0.33225 0.401906 0.0834539 0.0710679 0.36618 0.990551 0.0906749 0.990274 0.194189 0.398018 0.108739 0.897321 0.795368 0.393623 0.893299 0.100503 0.700046 0.40247 0.399762 0.600137 0.999847 0.300069 0.599779 0.698956 0.800479 0.199637 0.798744 0.398854 0.199495 0.500181 0.597407 0.099081 0.597413 0.599002 0.700017 0.300062 0.299898 0.800178 0.5998 0.0996092 0.89701 0.899198 0.300541 0.699606 0.69708 0.701024 0.900652 0.599185 0.699154 0.0991752 0.498825 0.699972 0.199238 0.198962 0.100971 0.600934 0.800431 0.102102 0.297997 0.100675 0.79997 0.999362 0.700548 0.998459 0.999195 0.693723 0.494672 0.692606 0.895543 0.592622 0.889321 0.194125 0.494218 0.390625 0.294132 0.0730236 0.576241 0.76489 0.297759 0.979581 0.0569855 0.170717 0.378696 0.459824 0.271363 0.516238 0.0305414 0.518678 0.447864 0.140199 0.572896 0.222665 0.637362 0.857283 0.21987 0.721127 0.500791 0.431594 0.203316 0.180579 0.342131 0.21517 0.155535 0.620356 0.529337 0.0224666 0.578962 0.368467 0.683214 0.101424 -0.0351729 0.292829 0.65934 0.0893756 0.0476802 0.0025784 0.125891 0.589909 0.23985 -0.206864 0.0266426 -0.283773 0.129166 0.205661 -0.0850963 -0.139475 -0.417607 0.642805 0.0445124 0.269891 0.0391103 0.0694984 0.304238 -0.238451 0.0756808 0.166037 -0.0445801 0.232505 0.580637 -0.381273 -0.333055 0.245353 -0.10564 -0.280463 -0.525492 -0.433176 0.11732 0.174073 0.431037 -0.478705 -0.109991 -0.352712 0.133371 0.00704376 0.137946 -0.297307 0.14893 0.512484 0.144065 -0.0305255 0.292663 -0.0813543 -0.0398203 0.000595209 0.198864 0.251798 0.102236 0.464078 0.533829 -0.424562 -0.0201806 0.09223 -0.254248 -0.198278 -0.73202 0.224321 -0.284543 0.251983 -0.0346744 -0.444308 -0.393169 0.12476 -0.620428 0.627464 -0.425417 0.0340224 0.162369 0.195074 0.317448 -0.56483 0.185269 -0.00908349 -0.866447 0.083946 -0.338945 -0.0706486 -0.2399 0.254363 -0.0696109 -0.668452 -0.420068 0.239385 -0.494279 0.583932 -0.218558 0.305083 -0.0427233 0.138228 -0.23419 0.2966 0.272675 0.46239 -0.066062 -0.00218876 -0.429554 0.186693 -0.126346 0.230891 0.0978283 0.379252 0.144262 -0.0672883 -0.511903 0.421062 -0.447027 0.352594 0.605883 0.391659 -0.00405864 0.356634 0.221685 -0.0252352 -0.463054 -0.0736022 -0.256571 -0.123118 -0.0417347 -0.0699239 -0.331643 0.329683 0.0950304 -0.109926 -0.336026 -0.3072 -0.232237 0.0729381 0.444962 -0.316959 0.195417 0.263183 0.056766 0.516274 0.521031 0.449715 0.22398 -0.0068817 0.730385 0.297864 0.182372 0.67207 0.84353 0.437579 0.0860331 0.339423 0.205376 0.513073 0.883086 0.416809 0.442989 0.672699 0.799946 0.755095 0.179849 0.561245 0.434217 0.805408 0.346187 0.022561 0.486968 0.863174 0.807321 0.245386 0.248346 -0.0203338 0.469451 0.267977 0.169434 0.474429 0.164735 0.666173 0.634001 0.576352 0.378968 0.761536 0.0657585 0.0916436 0.89597 0.298673 0.195598 0.494487 0.111467 0.396671 0.096533 0.195398 0.694495 0.0976181 0.600289 0.40142 0.89962 0.500238 0.299243 0.80093 0.799986 0.9984 0.598069 0.596163 0.398338 0.596595 0.297972 0.896629 0.59519 0.996097 0.696654 0.993729 0.996382 0.499527 0.499706 0.102554 0.399906 0.100868 0.303254 0.199982 0.700428 0.800228 0.898431 0.601688 0.901204 0.900511 0.301256 0.99829 0.600508 0.497988 0.70359 0.998532 0.90103 0.978632 0.485788 0.378792 0.49531 0.78586 0.865127 0.282262 0.485224 0.767311 0.77798 0.733636 0.946104 0.731079 0.673123 0.260279 0.400348 0.53967 0.159359 0.0111122 0.922338 0.734463 0.541674 0.833404 0.423355 0.659971 0.160795 0.352913 0.657951 0.537012 0.311079 0.596995 0.170505 0.617485 0.0378309 0.747436 0.0883282 0.00466075 0.740252 0.509051 -0.0399053 -0.0377238 0.375293 0.0106843 0.125304 -0.23842 0.412439 -0.153527 0.329839 -0.322003 0.172113 -0.390987 -0.422924 -0.18038 0.30083 0.510167 -0.106105 -0.200742 -0.269188 -0.446554 -0.0782904 0.222908 0.0184392 0.0938334 0.278417 -0.0284341 -0.0570916 -0.299774 -0.104848 -0.0510851 -0.00583867 -0.41253 -0.544862 0.436462 0.495999 0.221469 0.0642879 0.179837 0.308154 0.151331 -0.492399 0.259711 -0.119837 0.255235 0.433866 -0.388245 -0.220323 -0.272406 -0.307812 -0.160656 -0.176829 -0.158849 -0.14273 0.454913 0.238581 -0.0221832 0.177597 -0.319251 -0.423901 0.0698055 -0.445812 -0.232012 -0.0587535 0.0779397 -0.0119081 -0.0862654 -0.0198146 0.0133244 -0.328342 0.00737326 -0.107222 0.116235 -0.194827 -0.142614 0.160443 -0.614453 -0.290366 -0.638184 -0.50769 0.263422 0.593819 -0.0986337 0.107252 0.452534 0.0279177 -0.663901 -0.025559 0.0139122 -0.441504 0.0146291 0.47701 0.498456 -0.0718621 0.181031 0.187078 -0.419327 -0.386565 -0.403652 -0.280846 0.0294919 0.171293 0.286034 -0.117058 0.383223 0.262084 -0.17049 -0.0504914 -0.0269936 -0.193938 0.227808 0.236613 0.283351 -0.338197 0.30555 -0.0360995 -0.338106 -0.191287 -0.615925 -0.281199 0.0873111 -0.257367 0.1854 -0.0129709 -0.331293 0.0272118 0.372964 0.447906 -0.696472 -0.335519 0.106906 -0.263693 0.099193 -0.117182 -0.0900139 0.1221 0.194312 0.524739 -0.669078 -0.110662 -0.340666 -0.00721783 -0.251201 -0.117011 -0.0585334 -0.317889 0.491062 0.730696 -0.435034 -0.0585819 -0.241425 -0.198637 -0.33154 -0.195013 -0.224372 0.381371 0.751417 0.65785 0.462394 -0.190993 0.0620885 -0.0877838 0.413627 0.490673 0.223178 0.400371 0.409487 0.728233 0.404606 0.743573 0.678804 0.46278 0.0647034 0.682608 0.0865884 0.136901 0.537535 0.558171 0.471466 0.383709 0.147927 -0.000622714 0.243041 0.458407 0.95538 0.438193 0.653481 0.897937 0.0533997 0.442365 0.0561085 0.0241516 0.0834968 0.982346 0.0889629 0.187038 0.0843665 0.418043 0.685702 0.377093 0.287134 0.379176 0.999586 0.199874 0.100117 0.198566 0.298718 0.401801 0.799464 0.199394 1.00174 0.399723 0.299301 0.499991 0.0999431 0.199646 0.600948 0.200448 0.499988 0.599576 0.89995 1.00011 0.399046 0.899436 0.0982964 0.097733 0.300461 0.799094 0.897987 0.0992512 0.0976391 0.696711 0.293062 0.496253 0.793822 0.292048 0.390817 0.392775 0.993676 0.0982327 0.387608 0.28842 0.565139 0.274815 0.562433 0.0854186 0.360189 0.442782 0.664469 0.0859859 0.542563 0.0419566 0.38336 0.303646 -0.000760852 0.255771 0.287801 0.110543 0.670714 0.416834 0.519907 0.514243 0.635446 0.567597 -0.131329 0.645692 -0.00244539 -0.149285 0.741748 0.224932 0.591695 0.211318 0.190978 -0.219922 0.642963 -0.0308714 -0.152291 0.172365 0.206245 0.214867 0.116219 0.220145 -0.182255 -0.141613 0.375679 0.494342 0.141538 -0.309423 -0.187078 0.487885 0.130398 -0.370782 -0.17988 -0.212162 -0.138069 -0.16392 0.118631 -0.122759 -0.0843854 0.53069 0.189868 -0.587341 -0.585119 -0.821331 0.0565288 -0.0360972 -0.39964 -0.42289 0.183595 0.413963 -0.261402 0.108301 -0.0187944 -0.228699 0.240778 0.0176129 -0.305951 -0.0559812 -0.278432 0.175245 0.422064 -0.321792 -0.0822866 -0.239867 -0.0693909 0.30954 -0.217949 -0.100589 -0.205497 -0.278835 0.255373 -0.206489 0.146101 -0.153657 0.285408 0.194147 -0.651289 0.247837 -0.537137 0.266027 0.230304 0.292538 0.120498 -0.0547915 0.214079 0.0636983 -0.350349 0.320565 -0.0363228 0.162096 -0.0112649 0.385327 0.167093 0.043943 0.147524 -0.210594 -1.08623 -0.323237 -0.295244 -0.182554 -0.154572 0.403451 -0.16897 -0.0435555 0.33433 0.193805 -0.844216 0.083294 -0.382062 -0.414005 0.172114 0.418354 -0.00659721 -0.351715 -0.0371731 0.039392 -0.339327 -0.443531 -0.428135 0.092012 -0.0731406 0.67986 0.295088 -0.343847 -0.323074 0.299975 -0.22241 0.228443 -0.686835 0.129979 -0.178088 0.0527716 0.299986 0.024487 0.00217496 0.1465 -0.407066 -0.254044 -0.859651 -0.0937262 -0.296257 0.330311 -0.117812 -0.407794 -0.0260299 0.112712 0.229382 0.215315 -0.873212 -0.453624 0.0133738 0.15861 -0.359936 -0.204856 -0.266583 -0.28347 0.0789671 -0.232587 -0.347994 -0.259758 0.203862 -0.651089 -0.11538 -0.299981 0.0933297 -0.307643 0.119038 -0.0503538 -0.457842 0.199362 -0.0878917 -0.765396 0.405368 -0.0993615 -0.152644 -0.122175 0.586047 0.175202 -0.0207677 0.34549 0.00590461 0.0918477 0.479926 -0.00273831 0.564911 -0.0475838 0.294588 0.473053 0.264112 0.157739 -0.128487 -0.211514 0.202298 0.326799 0.41315 0.764671 -0.0160579 0.893402 0.0157299 0.507045 0.613145 0.68046 0.802741 0.72409 0.143103 0.711265 0.52753 0.495113 0.522476 0.711938 0.233457 0.670303 0.179974 0.781045 0.683939 0.684274 0.671164 0.144948 0.684097 0.176842 0.0801073 0.772391 0.299696 0.497519 0.596868 0.400907 0.500271 1.0006 0.900531 0.599006 0.501416 0.0987697 0.499492 0.898904 0.198948 0.0989998 0.59831 0.797728 0.900475 0.399666 0.500316 0.198854 0.395609 0.699631 0.695131 0.393163 0.791815 0.193566 0.198091 0.903737 0.3957 0.886656 0.966728 0.191763 0.482708 0.765272 0.564192 0.168299 0.579999 0.399159 0.667578 0.741317 0.325603 0.463789 0.635757 0.920217 0.806494 0.28027 0.934918 0.365509 0.205088 0.360058 0.701319 0.575528 0.325798 0.182038 -0.0778002 0.518843 0.419234 0.491279 0.342911 -0.107425 0.342926 -0.151643 0.605563 -0.12261 0.337528 -0.216097 0.278192 0.217257 0.45142 0.202436 -0.225657 0.39345 0.0774324 0.271985 -0.211654 0.25384 0.281396 0.569038 -0.452196 -0.194091 -0.476275 -0.113302 0.370599 -0.136466 -0.240611 -0.359983 -0.0594307 0.215709 -0.509453 -0.263678 -0.468381 -0.654428 0.00713929 0.284199 -0.289424 -0.444138 0.240577 0.116534 0.0713664 -0.693569 -0.306787 -0.689389 -0.177596 0.0655059 -0.210368 -0.01996 -0.0795217 0.29249 -0.0402097 -0.409477 -0.430442 -0.169412 -0.0969014 -0.0243719 -0.0101414 -0.0216717 -0.0162642 0.47612 -0.111311 -0.321984 0.270201 -0.828436 -0.217881 -0.402722 -0.430534 0.0403147 0.0681525 0.133821 0.177843 0.342004 0.00429253 -0.706214 0.0541475 -0.0953205 -0.478067 -0.0549665 0.150317 -0.0948226 0.251738 0.384764 0.0264794 0.206643 -0.306897 0.00328514 -0.600864 -0.0199816 -0.411778 0.0405183 -0.383098 0.436072 -0.0853743 0.213728 -0.393436 -0.15775 -0.784611 -0.268227 0.0853864 -0.00323387 -0.261719 0.0554109 0.28607 0.266965 -0.237988 -0.176148 -1.0252 0.110323 -0.0834073 0.261738 -0.360408 0.473913 -0.273809 0.122582 -0.150928 0.29829 -0.617177 -0.0127926 -0.201632 0.0495134 -0.0483663 0.277444 -0.13699 0.210456 0.302026 0.229488 -0.549375 -0.406695 -0.817902 0.557563 -0.256517 0.303115 0.174777 -0.332225 -0.0141461 0.0839615 0.231002 -0.219598 -0.920483 0.288528 0.0952668 0.00397233 0.29707 -0.569896 -0.0604296 -0.423186 -0.451482 0.101871 -0.485952 0.22159 0.0326425 -0.365644 0.428044 -0.183282 -0.158856 -0.354358 0.223443 0.234192 -0.331856 0.301729 0.118069 -0.486397 0.0904002 0.0101219 -0.0873263 0.152697 0.314276 0.253764 -0.766159 0.122018 0.194558 -0.562113 0.106978 0.274397 -0.173745 0.10067 -0.350759 0.549244 -0.675511 -0.301851 -0.113343 -0.0125764 0.108922 -0.145998 0.467594 0.328228 0.674581 0.716571 0.50848 -0.140505 0.371572 -0.27328 0.375873 0.108363 0.666029 0.570055 0.521147 0.532349 0.373428 0.211203 0.424597 0.526681 0.0143105 0.920587 0.232463 0.735759 0.223928 0.814286 0.137056 0.524058 0.836163 0.01401 0.872755 0.384579 0.584311 0.189039 0.573558 0.740825 0.879278 0.87531 0.669894 0.176084 0.697532 0.497548 0.896175 0.499177 0.800196 0.700249 0.197369 0.996497 0.897112 0.496369 0.90032 0.80061 0.598573 0.398632 0.899156 0.200086 0.700155 0.400028 0.800822 0.90031 0.293024 0.197391 0.395425 0.0925189 0.692779 0.591498 0.796879 1.00035 0.0944586 0.0879417 0.64629 0.28849 0.672828 0.840299 0.443556 0.0553463 0.170219 0.499084 0.65082 0.225016 0.471575 0.454762 0.216163 0.200056 0.0684602 0.854507 0.405636 0.369538 0.380282 0.792935 -0.0263407 0.676858 0.82092 0.411335 0.449491 0.695874 0.410135 0.0374867 0.440312 0.399631 -0.223454 0.401085 0.258358 0.511817 -0.0572833 0.404265 0.0309933 0.465213 0.233479 0.112179 0.336962 0.401696 -0.00136444 0.241965 0.316218 -0.101256 0.250005 0.336196 -0.0825573 -0.0679056 -0.436139 -0.191932 -0.245184 0.0934047 -0.23372 -0.404971 -0.52759 0.39702 0.279631 -0.297962 -0.274168 -0.432612 0.0464014 -0.676119 0.231172 -0.230192 -0.319553 0.454611 0.072993 -0.0754014 0.0616842 -0.247164 -0.284841 -0.26007 0.200022 0.420131 -0.542892 0.329969 0.0875912 -0.147884 0.234133 -0.548944 0.154539 -0.314678 -0.0963105 0.051178 -0.00762964 0.291255 0.377395 0.207495 -0.157893 -0.896104 -0.292663 -0.5041 -0.187604 0.445967 0.213933 0.447078 -0.0911811 0.0108682 0.106466 -0.158787 -0.332322 -0.851572 -0.381132 -0.0272134 0.0701092 0.118767 0.225034 0.190791 -0.137993 -0.118747 0.112441 -0.502535 -0.553828 0.177927 0.1461 0.581432 0.00608942 0.189547 0.180319 0.0799711 -0.377534 -0.368129 -0.807677 0.010513 -0.430814 0.182272 -0.380892 -0.379427 0.233964 0.361259 0.205481 0.0539342 -0.480236 0.0959715 -0.417826 0.375261 -0.542027 -0.347405 -0.160463 0.305559 -0.155595 0.175956 -0.487469 -0.21056 -0.397553 0.124962 -0.64028 0.0208908 0.144588 -0.28218 -0.219203 0.13599 -0.129571 -0.430243 -0.74669 0.346926 -0.522235 0.00979925 0.235926 -0.0635312 0.130324 -0.176749 -0.144057 -0.140413 -0.736839 0.452619 -0.408876 -0.324734 0.637426 0.00546595 0.182938 -0.242245 -0.261474 0.0981473 -0.636521 -0.0115853 0.184074 0.0565789 -0.0599004 -0.732109 -0.453751 -0.403574 -0.423912 -0.46136 -0.58052 -0.318854 -0.0776415 -0.378953 -0.235181 -0.486214 -0.0662781 -0.435706 -0.447424 0.125972 -0.427 0.333846 0.258316 0.144999 0.0373397 -0.0275682 -0.0297344 0.214173 -0.302719 -0.189988 -0.202967 0.239811 -0.159807 -0.431305 -0.0800198 0.312144 0.225241 0.345554 0.327285 0.629894 0.407751 0.248109 0.44915 -0.294612 0.576762 0.749083 -0.0800753 -0.0486538 0.727796 0.979617 0.120027 0.0647755 0.175764 0.419472 0.935203 0.0460938 0.532315 0.560452 0.337961 0.802534 0.552795 0.447476 0.567742 0.038769 0.684406 0.69308 0.0951003 0.993729 0.883696 1.02713 0.0880694 0.791524 0.597899 0.092219 0.796777 0.700363 0.700366 0.699838 0.296592 0.801876 0.299288 0.499167 0.598186 0.295251 0.79838 0.89921 0.599907 0.099555 0.899226 0.498399 0.398574 0.398667 0.397827 0.200963 0.790717 0.799066 0.297624 0.991265 0.79294 0.294597 0.892034 0.997835 0.495757 0.987381 0.255648 0.989416 0.680122 0.256753 0.557394 0.25922 0.37074 0.299293 0.958622 0.832091 0.367439 0.351861 0.818445 0.190939 0.378826 0.86088 0.904316 0.57012 0.674336 0.322877 0.520594 0.674752 0.707108 0.668504 0.228503 0.512277 0.19544 0.330024 0.646792 -0.162371 -0.356169 0.297767 -0.284031 0.417177 -0.369045 -0.152669 0.013485 0.0225635 -0.0278918 -0.0711848 0.259862 -0.331586 0.21034 -0.103772 -0.255027 0.299375 -0.459541 0.0207176 -0.001307 -0.584217 0.181836 0.185167 -0.427319 -0.172411 -0.143825 0.181585 -0.544534 0.400545 0.168583 -0.296252 0.201856 -0.744208 -0.664355 -0.892744 -0.39269 0.377864 -0.22552 -0.0578312 -0.00911318 -0.0534146 -0.192946 -0.600588 -0.231912 -0.472341 -0.116165 0.12668 0.0994504 0.253927 0.0140398 0.156518 -0.144068 -0.412321 -0.395978 -0.388282 0.275173 0.120235 -0.389932 -0.221723 0.0567314 0.156617 0.0543564 -0.716855 -0.640672 -0.917996 0.130521 0.623177 0.202406 0.429205 0.398963 -0.0362771 0.198286 -0.0483489 -0.437949 -0.247619 -0.299085 0.0981753 0.0713941 -0.0995048 0.207581 -0.0257699 -0.00511561 -0.00249694 -0.120934 -0.0352103 -0.416492 -0.0369879 -0.0119783 0.0248709 -0.070909 -0.467014 -0.127452 0.475043 -0.516385 0.188725 -0.298587 -0.0154019 0.274677 0.299811 0.00690695 -0.210458 -0.0535361 0.365681 -0.322621 0.0403471 -0.762902 -0.231898 -0.467398 0.537774 -0.170191 -0.509053 0.0536833 0.591622 -0.124719 0.0530153 0.112362 -0.510042 -0.278845 0.16576 -0.2542 -0.16494 -0.478258 -0.0823522 0.0561175 0.511145 0.172912 -0.609105 -0.929707 0.55198 0.0584245 -0.258783 0.430697 -0.582477 0.122676 0.310258 0.164958 -0.752994 -0.354109 0.196901 0.108907 0.138951 0.160862 -0.192134 -0.242225 0.169086 -0.0585129 -0.671776 -0.515877 0.389934 0.142077 0.230736 -0.0797092 -0.431374 -0.469618 0.17991 -0.0914895 -0.260898 -0.874307 0.24683 0.378782 -0.25032 0.527507 -0.423077 0.0372608 -0.615963 -0.389509 -0.0455558 -0.357236 -0.110765 0.185062 -0.278487 -0.0456551 -0.473849 -0.151916 0.084307 -0.101249 -0.148006 0.172099 0.178624 0.0715925 -0.251973 0.466195 -0.179296 0.452063 0.597247 0.339396 -0.107116 -0.228688 0.000505949 0.817251 -0.0090046 0.480669 0.277465 0.807262 0.0640251 0.445247 0.483764 -0.0460107 0.469397 0.350098 -0.0341311 0.765074 0.771289 0.0611379 0.279934 0.761251 1.10478 0.270161 0.369984 0.889783 0.06708 0.293531 0.594657 0.294834 0.694056 0.0904667 0.225253 0.589607 0.0959644 0.702142 0.990747 0.300866 0.199263 0.200056 0.499886 0.301458 0.400802 0.500636 0.501048 0.900094 0.799388 0.300611 0.599719 0.29761 0.896932 0.197155 0.497569 0.09774 0.298707 0.598396 0.398971 0.293033 0.40019 0.393866 0.98839 0.987506 0.786431 0.89027 0.19828 0.293921 0.48611 0.0560453 0.891039 0.581409 0.853614 0.951935 0.851836 0.864159 1.00582 0.860348 0.43031 0.371474 0.165914 0.226572 0.406882 0.183275 -0.00889038 0.898092 0.574697 0.79347 0.541675 0.152928 -0.00409377 0.111223 0.191703 0.721456 0.0847451 0.794119 0.90064 0.0926393 0.397884 0.0466195 -0.152209 0.447676 0.147853 0.372343 0.274598 -0.248339 0.0775042 -0.275016 0.345555 -0.0370685 0.39539 -0.378631 0.0348947 -0.26214 0.243563 0.215118 0.250922 -0.104874 -0.0907827 0.18483 0.117878 -0.636201 -0.461354 -0.319033 -0.261381 0.344216 0.15646 -0.123513 -0.0485892 -0.243837 -0.756902 -0.756586 -0.421909 0.0467126 0.0811313 0.129586 -0.183105 -0.0679127 0.383019 0.155391 -0.247934 -0.283753 -0.431319 -0.0807955 0.134497 0.271864 -0.402042 0.071585 0.0268781 0.443177 -0.153014 -0.447533 -0.260224 0.583955 0.432256 0.452147 0.0559883 0.243698 0.15974 0.570202 -0.307828 -0.392706 -0.363289 0.326955 0.396276 -0.0655941 -0.370574 0.332287 0.146675 -0.216231 0.0136021 -0.463021 0.240019 0.305297 0.302458 0.264936 -0.37124 0.012243 -0.516715 0.0674612 0.796152 -0.610675 0.402969 0.0950498 0.317749 0.336757 -0.327471 0.385036 -0.0438347 0.0157306 0.537326 -0.453352 0.651444 -0.102894 0.292573 0.00567593 -0.125161 0.149301 -0.00963537 -0.566368 0.862598 -0.132219 0.511351 0.00248861 0.222831 -0.292895 -0.285348 0.00152173 0.0277394 -0.112557 0.488604 -0.19516 0.338578 0.370718 -0.423649 -0.517162 0.60211 -0.0561859 -0.129615 -0.677199 0.306927 -0.121564 -0.0254781 0.306772 -0.704827 -0.243431 0.588027 0.198708 0.399486 0.145148 -0.399853 0.132118 -0.135346 0.296237 -0.380406 -0.329504 0.382228 0.0166859 -0.0843083 -0.134239 -0.316054 0.0845631 -0.124714 0.18931 -0.32863 -0.236539 0.383942 0.0738773 0.338168 0.641131 -0.424465 -0.0221811 -0.125564 -0.160441 -0.560274 -0.0131087 -0.237952 0.311536 0.158331 0.504284 -0.446786 -0.633374 -0.69251 0.0425592 -0.728366 -0.402918 -0.463021 -0.192026 -0.224697 0.175117 -0.23618 0.104996 -0.0187664 -0.30311 -0.0428059 -0.343125 0.224764 0.455517 0.455282 -0.0523531 0.599338 0.463725 0.240509 0.480317 -0.322774 -0.020382 0.0381698 0.553391 0.251117 0.123277 -0.0024384 -0.074312 -0.0431907 0.65365 0.673298 0.565942 0.46083 0.484325 0.0768708 0.375476 0.379616 0.672156 0.284976 0.766864 0.121765 0.973418 0.376573 0.693107 0.669395 0.797947 0.797364 0.601607 0.397364 0.498288 0.304471 0.594748 0.196354 0.202426 0.395927 0.298459 0.499001 0.599505 0.498055 0.700257 0.599431 0.0994394 0.298189 0.099781 0.196619 0.899433 0.899776 0.998312 0.0969991 0.498227 0.398015 0.598966 0.898805 0.999495 0.198567 0.0968052 0.399347 0.194347 0.791583 0.793763 0.794322 0.694434 0.79974 0.395991 0.796097 0.569588 0.492575 0.882102 0.675373 0.571745 0.574617 0.872149 0.699764 0.380298 0.368641 0.2106 0.572597 0.739321 0.53273 0.216304 0.130537 0.725179 0.881492 0.424956 0.00763653 0.268731 0.492626 0.793029 0.117225 0.261713 0.425663 0.112012 0.390533 -0.0805281 0.0294494 0.399347 0.233815 0.293791 0.0855024 0.518537 -0.154378 0.152628 0.326049 0.0147864 0.438366 -0.0605092 0.471988 -0.565848 -0.457997 -0.237997 -0.0966823 -0.342333 -0.00895176 0.135508 0.206375 0.00490894 -0.233452 -0.798102 -0.5505 0.438883 0.0514531 0.230286 -0.292301 -0.0258711 0.421687 -0.172628 -0.781333 -0.600395 -0.468919 0.27593 -0.140963 0.10255 0.0476417 -0.0129651 0.135192 0.393238 -0.809811 -0.597696 -0.807658 0.248507 0.505836 -0.0943479 0.15991 -0.134614 0.573749 0.171719 -0.778517 -0.829207 -0.076419 0.705922 0.569311 0.455235 -0.00951732 0.0173764 0.190721 0.216372 -0.721776 -0.424692 -0.348999 0.190791 0.623861 0.198846 0.094639 0.145481 0.0109574 0.21169 -0.429803 -0.237962 0.329779 0.276379 0.594654 0.255823 -0.0203205 0.636566 -0.143304 -0.684321 0.462229 -0.763354 0.546508 -0.373512 0.221936 -0.124993 -0.22624 0.115748 -0.153091 -0.129992 0.759078 -0.0852563 0.290668 -0.342618 0.00602832 -0.0518748 0.0076384 -0.125028 -0.372304 -0.695077 0.385799 -0.119417 0.385945 -0.20429 -0.0849187 -0.224277 -0.337912 -0.168778 0.323417 -0.692165 0.545739 -0.160853 0.669257 -0.0168951 -0.351388 -0.0941743 0.163141 0.0199275 0.098284 -0.499062 -0.211973 -0.200642 0.0100684 0.00359769 -0.022037 0.100533 0.506654 -0.067068 0.393869 -0.445502 -0.931563 -0.212133 0.0065229 -0.231938 -0.74167 0.210685 0.262425 0.144057 0.048887 0.40723 -0.911951 -0.107334 0.177512 -0.0712268 -0.829826 -0.371402 0.139209 -0.155134 0.250981 -0.004433 -0.567695 0.144337 0.0414581 -0.0289482 -0.251881 0.0188124 0.352555 0.282769 0.362802 0.571669 0.100818 -0.0794048 -0.616148 -0.188971 -0.409677 0.349963 0.352906 0.281587 0.12843 0.343055 -0.372802 -0.151051 0.186348 -0.0871432 -0.743621 0.335956 -0.167245 0.331124 0.0350509 -0.034996 0.0806096 0.319984 0.229765 0.175511 -0.219306 -0.0670823 0.168739 0.191975 0.13091 0.521053 -0.0152871 0.771707 -0.0675968 0.236467 0.589931 0.372922 0.436575 0.529378 0.83921 0.980523 0.583731 0.886378 0.68411 0.671 0.0816375 0.581465 0.18353 0.387808 0.0758025 0.896111 0.59729 0.798893 0.596935 0.893048 0.402115 0.193658 0.196649 0.394025 0.693658 0.199767 0.300896 0.20049 0.398978 0.198267 0.499542 0.797079 0.599588 0.798657 0.802515 0.298241 0.600081 0.100762 0.900461 0.401452 0.399209 0.999368 0.499991 0.499251 0.0998517 0.797229 0.39895 0.79653 0.496405 0.0972103 0.40141 0.39848 0.102308 0.497044 0.898198 0.689866 0.398395 0.197194 0.0949471 0.988843 0.788008 0.292938 0.803426 0.994117 0.38828 0.627727 0.276956 0.0530512 0.351148 0.535621 0.556937 0.844413 0.47487 0.845617 0.742126 0.694416 0.486817 0.799942 0.727299 0.214398 0.259544 0.510624 0.282408 0.603826 0.832774 -0.218699 0.0213385 0.348761 -0.10931 0.0483286 -0.247487 0.434338 0.305572 0.250669 0.706319 -0.267335 -0.457551 -0.585595 -0.457516 -0.263821 -0.116665 -0.243926 -0.0152855 -0.143257 0.0752503 -0.236409 -0.427087 -0.954447 -0.303727 0.0557032 0.067806 0.302019 -0.0265313 0.107239 0.314227 0.138532 -0.362411 -0.58218 -0.374004 0.310419 0.153931 -0.321476 0.0586536 -0.671401 0.268585 0.158026 -0.216068 -0.829265 -0.0835816 0.2636 0.277889 0.0846277 -0.316958 -0.160435 0.475696 0.276119 -0.509654 -0.309567 0.00926581 0.298878 0.31172 0.403255 -0.147397 0.0177499 0.316808 0.135159 -0.114642 -0.431677 -0.0434548 0.629308 0.639529 0.234437 -0.14052 0.0470284 0.164901 -0.0641347 -0.525684 -0.137351 0.307656 0.0375794 0.29761 0.0945303 -0.69095 0.323242 0.346689 -0.812768 0.400515 -0.00150864 0.329331 0.0362007 0.517977 -0.315002 -1.01568 0.355295 -0.171804 -0.626301 0.577767 -0.41268 0.200348 -0.0793128 0.105817 -0.402292 -0.826518 0.462522 0.293033 -1.05701 0.424958 0.0921061 0.0743884 0.0365744 -0.0785187 -0.173986 -0.346295 -0.00102318 0.236697 -0.720166 0.357444 -0.388662 0.264051 0.544308 -0.370811 -0.155313 0.0641654 0.132179 0.0728207 -0.597878 -0.751867 0.169879 0.358362 0.459011 -0.245209 0.302614 -0.0450674 -0.0528114 0.104276 -0.805297 -0.445423 -0.381901 -0.254865 0.372213 -0.282029 -0.120888 0.269328 -0.267134 0.38301 -0.355718 -0.762327 0.207597 0.0720986 -0.0686187 -0.0883157 0.152063 -0.155281 -0.275211 0.430275 -0.076609 -0.337289 -0.199541 -0.569106 -0.0684565 -0.0654556 0.219967 0.0516482 -0.126285 -0.114819 0.644723 -0.237587 0.181783 -0.551759 -0.326048 -0.0433418 -0.185264 -0.0417548 0.189266 0.0792263 0.69724 -0.377331 -0.157368 0.284317 -0.165699 -0.498347 0.31261 0.391978 -0.270536 -0.132288 0.204798 0.38158 -0.458899 0.23257 -0.279629 0.179214 0.121874 -0.0225538 0.236658 -0.171884 0.478056 0.144149 0.696854 0.58354 0.575314 -0.203224 0.212623 0.660876 0.748858 0.289051 0.668818 0.479792 0.380842 0.376972 0.362097 0.267127 0.574851 0.667923 0.373359 0.564232 0.196628 0.496227 0.602323 0.794842 0.79341 0.895599 0.586959 0.396895 0.796297 0.394337 0.199722 0.49863 0.499788 0.0984093 0.496956 0.497903 0.894644 0.897097 0.796508 0.199896 0.298082 0.899141 0.499185 0.597713 0.600691 0.200242 0.397744 0.997051 0.198218 0.100082 0.796996 1.00082 0.897454 0.100071 0.796706 0.0969304 0.397661 0.899395 0.998384 0.297949 0.991246 0.595192 0.991485 0.291004 0.0900633 0.291441 0.690808 0.0991725 0.0930253 0.990678 0.534651 0.578547 0.650836 0.960015 0.842218 0.562168 0.943427 0.671309 0.750617 0.149048 0.835386 0.899836 0.228909 0.443593 0.0618167 0.64607 0.146092 0.595504 0.428744 0.578444 0.280068 0.262511 -0.0686294 0.144758 0.471439 -0.149145 -0.00188269 -0.0506907 0.275703 0.180917 0.32173 -0.0723937 -0.728698 -0.641137 0.242593 -0.495925 -0.183722 -0.14373 -0.352121 0.099207 0.0504187 -0.0859073 -0.718598 0.0100349 0.685224 -0.145974 0.0312134 -0.00339915 -0.0619039 -0.189308 0.500281 -0.273339 -0.59958 -0.628188 0.741034 -0.339523 -0.204945 -0.277998 -0.192168 0.0794104 0.533645 -0.203279 -0.144685 -0.510027 0.422882 0.208115 0.0133442 -0.150176 -0.191173 -0.08222 -0.0317754 -0.192391 -0.619398 -0.181711 0.545325 0.377978 0.125752 -0.253754 0.218553 0.150498 0.0987497 -0.600793 -0.165984 0.253415 0.11637 0.256719 0.59235 -0.751111 0.287708 0.346759 -0.387267 -0.432723 -0.442303 0.436332 0.270304 0.251034 0.00033051 -0.45281 0.180355 0.105019 -0.637771 0.407188 -0.246809 0.266295 -0.164611 0.430043 -0.372438 -0.699816 0.193871 -0.0193915 -0.597753 0.611271 -0.127398 0.185006 -0.230084 0.159843 0.24204 -0.231119 0.264865 0.413646 -1.48347 0.406792 -0.0159658 0.218192 -0.0214009 -0.211666 -0.0451625 -0.340196 0.0576945 0.313727 -1.02944 -0.401416 0.159217 -0.161054 0.177979 -0.206984 0.099594 0.0866355 0.222427 0.330347 -0.687378 -0.560112 -0.106873 0.397722 0.432172 -0.041806 0.0729537 0.467686 -0.0272813 0.484146 -0.364341 -0.307566 0.188412 0.173692 0.0415104 -0.0120034 -0.374023 -0.0593111 -0.161343 0.102865 0.171985 -0.467224 -0.154262 0.169485 0.376584 -0.198752 0.157487 -0.187399 -0.318057 -0.381674 0.179768 0.0362407 -0.608228 0.225054 0.0177693 -0.526261 0.048216 0.300702 -0.431639 -0.233989 -0.119049 0.0153125 -0.296253 -0.202342 0.297478 -0.00337974 0.242838 -0.0390399 -0.627771 -0.157026 0.114786 -0.235256 -0.538832 0.093843 -0.378987 -0.28744 -0.0815198 0.315349 -0.361894 -0.429973 0.075748 -0.0552644 -0.29698 0.105152 0.366999 0.287853 0.195709 0.233277 -0.032106 -0.358943 0.727658 0.0230045 0.467902 -0.127708 0.153483 0.467586 0.430917 0.540974 0.102808 0.338743 0.153992 0.269206 0.283794 0.0657149 0.246103 0.252378 0.763862 0.76222 0.556049 0.736666 0.594276 0.796713 0.806394 0.196733 0.690349 0.796316 0.0867032 0.695458 0.6932 0.893589 0.699906 0.198819 0.499778 0.500678 0.29921 0.499437 0.397913 0.50104 0.798113 0.10089 0.400654 0.0981542 0.800495 0.79965 0.499863 0.198304 0.697194 0.300062 0.799109 0.898781 0.598335 0.59678 0.197184 0.298181 0.197796 0.695968 0.298256 0.498084 0.798359 0.197431 0.396292 0.497988 0.498021 0.799619 0.897665 0.795819 0.398164 0.101264 0.697733 0.595754 0.0652914 0.982187 0.269915 0.185096 0.673226 0.674817 0.171158 0.180986 0.972624 0.378699 0.166192 0.195369 0.0567928 0.369657 -0.00240309 -0.0547783 0.813478 0.284798 0.426734 0.480324 0.23715 0.552235 -0.0236125 -0.151412 0.446587 -0.146516 0.0579709 0.184645 0.0394731 -0.0567648 -0.160353 -0.477931 -0.623424 -0.522861 0.0344841 -0.0138104 -0.314332 -0.355123 -0.468851 -0.1469 0.502775 -0.217686 -0.135723 -0.699896 0.402583 -0.802739 -0.194 -0.0597013 -0.256202 0.0733527 0.627113 -0.858182 0.136512 -0.792104 0.50911 -0.0622185 0.225426 -0.0102293 -0.605968 -0.0144174 0.608162 -0.354498 -0.277273 0.00229661 0.411665 0.131746 0.372511 -0.652542 -0.345567 0.403812 0.192493 -0.288617 -0.238245 0.0454971 0.700438 0.00923158 0.378509 -0.432934 -0.327277 0.221459 -0.358695 -0.069097 0.368522 -0.184218 0.471925 0.112873 0.101808 -0.172813 0.101792 0.177795 -0.468175 -0.0845451 0.0367859 -0.0385541 0.511195 0.0276054 -0.000536569 -0.715654 0.355064 0.225854 -0.864519 0.619069 0.138697 -0.14841 -0.000524451 -0.0326228 -0.309146 -0.427229 0.150702 0.188398 -0.832832 0.426929 0.318292 -0.363689 0.486443 0.171679 -0.0734166 -0.593814 0.13065 -0.0398378 -0.738748 0.622218 0.00296574 0.234155 0.554238 -0.346524 0.0231305 0.00702739 0.0773869 0.194566 -0.553642 -0.211715 0.135712 -0.0759136 0.602492 -0.300073 0.195212 0.13212 0.100031 -0.0484565 -0.736051 -0.813197 0.253414 -0.0723687 0.487487 -0.0718526 0.198442 -0.0751381 -0.166233 0.198369 -0.700169 -0.284581 -0.0475907 -0.20789 0.145021 -0.052765 -0.22767 -0.0533721 -0.352855 0.219483 0.0515372 -0.432099 -0.273503 0.135733 -0.112595 0.0263005 0.336144 0.401418 -0.400903 0.0266985 0.00122163 -0.36556 -0.313625 -0.0101197 -0.0562203 -0.563173 0.361321 0.0732717 -0.379912 -0.298387 -0.124181 0.244378 -0.346176 -0.532343 0.209914 -0.155507 0.456734 -0.134242 -0.690976 -0.000647921 -0.11871 -0.151159 -0.0238258 0.235086 -0.0146919 -0.325854 0.34552 -0.468025 0.050839 -0.014324 -0.10704 0.411149 -0.0621155 0.110097 -0.0111638 -0.412442 0.678997 -0.14053 -0.232002 0.188048 0.444934 0.431821 0.240937 0.090909 0.669797 0.707067 0.719887 0.673599 -0.0612357 0.163564 0.848105 0.467906 0.786216 0.460503 0.0469629 0.951292 0.638265 0.159089 0.552194 0.740006 0.991827 0.99467 0.307926 0.195815 0.0895283 0.590522 0.377835 0.992636 0.786136 0.791702 0.698072 0.29726 0.202115 0.100852 0.299505 0.301408 0.195789 0.0996313 0.998333 0.499219 0.7979 0.29737 0.398839 0.496698 0.897163 0.297995 0.997981 0.69864 0.99901 0.99948 0.100836 0.700288 0.699571 0.402011 0.399063 0.900423 0.402727 0.199914 0.70185 0.700979 0.8947 0.798836 0.395808 0.704338 0.596134 0.0971941 0.296577 0.899788 0.894489 0.696509 0.257557 0.1842 0.774467 0.992831 0.0672332 0.273144 0.169008 0.286947 0.471626 0.773428 0.452007 0.891815 0.386703 0.595186 0.185704 0.722037 0.0273764 0.482789 0.422922 0.384524 0.0394791 0.128078 0.380148 0.0759931 0.229423 -0.269098 0.238293 0.165998 0.318297 0.457959 0.34022 -0.099904 0.226449 -0.391695 -0.11518 -0.386467 0.0683144 -0.177719 -0.515904 0.217862 0.00734397 -0.541944 -0.0529923 0.0327971 0.136638 -0.538981 0.0563989 -0.703258 -0.378128 0.0090126 0.62997 -0.0825201 0.169388 -0.566586 0.0248769 -0.260879 -0.178368 -0.67797 -0.620986 0.366167 0.0461123 -0.78995 0.0904913 -0.413752 0.610929 -0.506127 0.555083 -0.479899 -0.28987 0.382529 -0.222336 -0.610994 0.322346 -0.729069 0.293947 -0.293876 0.462643 -0.546242 -0.0149772 -0.0352707 -0.0438154 -0.00790866 0.0970062 0.0449876 0.199515 0.0841281 0.182718 -0.411839 0.247454 0.0877922 -0.642959 0.458556 0.0641209 -0.013906 0.0542261 -0.428426 -0.0572037 -0.552267 0.431335 -0.176117 -0.868515 0.686053 0.44486 -0.598976 0.230233 -0.592462 0.127352 0.158782 0.471869 -0.00576011 -0.656618 0.839081 0.260907 -0.472899 0.600321 0.0169402 0.359025 -0.197237 0.0753191 -0.0997754 -0.906466 0.21606 0.0117257 -0.148262 0.32499 0.0262658 -0.305151 0.0976542 0.341059 0.310506 -1.13041 -0.113265 0.527014 -0.088193 0.613127 0.154879 -0.130795 0.00465654 -0.237919 0.348175 -0.464034 -0.641628 0.364886 0.083693 0.6109 -0.280739 0.0710585 -0.0707642 -0.264172 0.193543 -0.49276 -0.53444 -0.138854 0.327669 0.111047 0.101721 -0.106681 0.11659 -0.197255 0.0884488 0.421186 -0.659915 -0.279854 -0.0518876 0.373077 -0.0934912 0.0733307 -0.01198 -0.144387 -0.0699117 0.0289004 -0.819629 -0.251163 0.380288 -0.16782 -0.406811 0.49119 -0.249722 -0.515488 -0.81311 -0.246296 0.186743 0.117314 0.047014 0.00885109 -0.06171 -0.176335 -0.393745 -0.0886754 -0.448116 0.442351 -0.381723 -0.176985 -0.194408 0.235161 -0.249643 0.461635 -0.294847 0.222564 0.149268 0.580379 0.329017 0.541228 0.436529 0.433569 0.231271 0.0945318 0.276588 0.0641651 -0.170736 0.412454 0.218345 0.80069 0.378242 0.536277 -0.0552709 0.757719 0.565039 0.231058 0.353856 0.646442 0.862677 0.624675 0.84994 0.532241 0.96004 0.618212 0.0656349 0.643384 0.645874 0.689065 0.29279 1.01954 0.190528 0.683884 0.0919307 0.969335 0.893802 0.283641 0.188137 0.496899 0.502338 0.703266 0.99708 0.29641 0.299943 0.395294 0.200424 0.896029 0.297967 0.0983603 0.599604 0.799386 0.299926 0.10004 0.399671 0.399127 0.90043 0.900062 0.499636 0.898451 0.0989938 0.101277 0.899574 0.199501 0.298449 0.898923 0.798989 0.19885 0.30073 0.0933963 0.0932473 0.291317 0.103851 0.691887 0.490355 0.690936 0.292536 0.589973 0.0916583 0.815865 0.268732 0.27978 0.129162 0.842876 0.261334 0.553369 0.0801518 0.15286 0.16387 0.413155 0.647137 0.0247225 0.798587 0.106742 -0.0857219 -0.12659 0.844375 0.574461 0.143633 0.513248 0.0813341 0.454821 0.250584 0.226308 0.183779 0.192839 0.0471322 -0.35439 -0.251478 0.245925 -0.189169 -0.243153 0.147482 0.297964 -0.00115012 -0.160689 -0.132344 -0.593879 -0.543299 0.573547 -0.37135 0.412611 -0.226267 -0.238933 -0.729275 -0.363581 -0.338928 -0.679927 0.0435629 0.140289 -0.508183 -0.00666848 -0.269711 0.385634 -0.282083 0.321857 -0.0767372 -0.016511 0.168203 0.097476 -0.706505 0.21163 -0.337197 0.247424 -0.0261884 0.423077 -0.727609 0.243279 -0.0759951 0.453925 -0.598445 0.0917405 -0.316272 -0.150268 -0.496693 0.406762 0.000754241 0.359117 0.0334326 -0.016395 -0.227268 0.361464 -0.205679 0.192121 -0.15155 -0.00947111 -0.529675 0.249455 0.219587 -0.953421 0.330573 0.190724 -0.256863 0.281762 -0.590774 0.145786 0.273877 0.574081 -0.166895 -0.378554 0.558933 0.215303 -0.564346 0.168434 -0.307153 -0.0291346 0.0831965 0.377711 0.126305 -0.823716 0.346853 0.161125 -0.491026 0.548489 0.00687925 -0.143623 0.408869 0.039883 0.057471 -0.599242 0.301645 0.395173 -0.257506 0.318716 -0.450906 -0.455776 0.00592718 -0.217528 -0.0639987 -0.405025 -0.178833 -0.00197877 0.100439 0.596947 -0.176649 -0.252212 0.337447 -0.00544271 -0.0701731 -0.0586739 -0.334095 0.508158 0.000567326 0.295742 0.318117 -0.147612 0.422163 -0.0792666 0.306177 0.33685 -0.741854 -0.20715 0.00965443 0.0358895 -0.0672551 0.220536 -0.334238 -0.122622 -0.443759 0.385542 -0.768296 -0.318396 0.448749 -0.299318 -0.344531 -0.0291373 -0.387668 -0.21076 -0.291025 -0.202054 -0.82963 -0.31721 0.250695 0.121962 0.228365 0.555768 -0.245404 -0.508532 -0.659903 0.140811 0.146111 -0.270294 0.24364 -0.28289 -0.253078 0.129804 -0.131723 -0.696044 -0.442116 0.481291 -0.181931 -0.189814 -0.0596164 -0.285723 -0.354392 -0.149601 -0.346328 -0.128808 0.273833 -0.00734355 -0.0800218 0.051314 -0.217571 -0.139448 0.407412 0.296882 0.272784 0.196191 0.324893 0.237804 0.61228 0.35847 0.0789733 -0.123185 0.496457 0.172871 0.206139 -0.0452562 0.275424 0.342801 0.141858 1.0397 0.334105 0.0310221 0.35576 0.69859 0.155542 0.522383 0.341172 0.790613 0.191514 0.4193 0.191939 0.586172 0.192751 0.969336 0.595393 0.883863 0.98748 0.49875 0.799901 0.20132 0.89768 0.399417 0.796915 0.0973018 0.998884 0.997983 0.598128 0.99991 0.400121 0.0999945 0.401245 0.799185 0.499069 0.398262 1.00015 0.399712 0.699464 1.00063 0.300125 0.999545 0.699787 0.898927 0.800106 0.700484 0.400011 0.899842 0.100553 0.0901516 0.896872 0.890033 0.502831 0.696709 0.289526 0.0966676 0.49648 0.192676 0.0957004 0.19712 0.25379 0.391636 0.640247 0.524163 0.445104 0.226794 0.260105 0.620159 0.0434026 -0.135042 0.498329 0.884328 0.534799 0.320288 0.732563 -0.19405 0.406001 0.304955 -0.0134902 0.265642 -0.256542 0.0829828 -0.147021 0.363964 0.0473915 -0.557062 0.409612 -0.0907735 -0.0216293 0.219945 -0.108911 0.563317 -0.26947 0.173901 0.0938297 -0.020927 -0.0211038 -0.604092 0.233264 0.431582 -0.185606 -0.021168 -0.53225 -0.242542 -0.118851 -0.283278 -0.519164 -0.500041 -0.207434 0.436169 -0.702109 0.419839 -0.104551 -0.126817 0.155844 0.276345 -0.591987 -0.0562577 -0.325716 0.613173 -0.627502 0.0994991 -0.148731 -0.558714 -0.559196 0.555574 -0.0495376 0.217379 -0.0233434 -0.174578 0.162831 0.0312743 -0.240857 0.109624 -0.119895 0.774791 0.0378569 0.692469 0.0116989 -0.433592 0.188604 0.417051 -0.681851 -0.524992 -0.12151 0.444998 0.217418 0.192274 -0.511198 -0.323139 0.183596 0.635907 -0.381797 0.0486599 -0.464704 0.183516 -0.0464297 0.137671 0.0263649 -0.301403 0.738025 0.342538 -0.463412 0.134425 -0.575642 0.0772984 0.609474 0.0122988 -0.0164328 -0.398916 0.200844 0.0581887 -0.468112 0.320695 -0.204181 -0.2097 0.0786213 -0.252874 -0.2014 -0.243421 -0.26314 0.244206 -0.177447 0.159769 -0.3665 0.268574 0.53701 -0.208894 -0.117447 0.0614814 -0.33624 -0.074327 -0.054483 -0.121007 -0.118788 -0.259148 -0.125955 0.00767803 0.183275 0.0565261 -0.87352 0.18384 0.434524 0.0441743 -0.0472739 -0.0992136 -0.0844616 -0.0248051 -0.241373 0.270548 -1.00056 0.120409 -0.0343 -0.391535 -0.229187 0.0559497 -0.615367 0.0176432 -0.0723498 -0.224671 -0.137904 -0.118557 0.243623 -0.595925 0.179907 0.300338 -0.496539 -0.377044 -0.214268 0.255283 -0.0882073 0.237808 -0.168576 -0.553118 0.234013 -0.12875 -0.7037 -0.416977 -0.458731 -0.280797 0.0638335 -0.106643 -0.0963393 -0.243161 -0.361506 -0.338465 0.122826 -0.247513 -0.293769 0.380138 0.237261 0.4484 -0.111011 0.139567 0.147275 -0.0684261 -0.0578202 0.214161 -0.00105062 0.0710359 -0.278444 0.220904 0.222573 -0.151594 0.556462 -0.181701 -0.205189 0.19301 -0.108894 -0.0268917 0.0144706 0.481421 -0.0312766 0.508409 0.0500394 0.0704095 0.13626 0.252816 0.407605 0.162628 0.538032 0.185251 0.526278 0.356851 0.44715 0.608807 0.863878 0.914675 0.752254 0.196051 0.996159 0.807857 0.0948589 0.694614 0.396447 0.183102 0.796333 0.191459 0.795829 0.598116 0.10058 0.799737 0.298518 0.898843 0.298138 0.696722 0.999841 0.40107 0.998075 0.599148 0.599554 0.799943 0.698734 0.399907 0.196619 0.69918 0.997569 0.897602 0.497727 0.699921 0.101166 0.499018 1.00007 0.59894 0.999536 0.899951 0.400275 0.498713 0.200153 0.589705 0.99137 0.486994 0.319159 0.19193 0.184587 0.187734 0.192174 0.0854776 0.191588 0.0851717 0.243996 0.761362 0.169352 0.904769 0.0259795 0.31152 0.347749 0.197995 0.727194 0.198925 0.0040067 0.335702 0.660666 0.623156 -0.165274 0.651967 0.0189344 -0.00696241 0.076739 0.127988 -0.278657 0.23902 0.0584966 -0.346698 0.371823 0.0798878 -0.378698 -0.306082 0.172055 0.340547 0.247572 -0.0214385 -0.275907 0.211719 0.0199145 -0.351512 -0.202333 -0.0627582 -0.328564 0.605167 -0.772597 0.486303 0.202276 -0.585159 -0.000879384 0.0784033 -0.192519 0.16705 -0.75099 0.509396 -0.534942 0.218108 0.0260388 -0.0948321 -0.171944 -0.374076 -0.586896 0.155039 -0.505234 0.549186 -0.25772 0.451901 -0.0488396 -0.574502 -0.0573199 0.21798 -0.707423 0.069626 -0.913848 0.509301 0.109281 0.186016 -0.683911 -0.362222 -0.012056 0.383195 0.0769143 -0.00733385 -0.0589359 0.147349 0.0132674 0.330721 -0.789414 -0.612705 0.0942374 0.369463 -0.370504 0.404631 -0.621556 -0.321357 -0.0802309 0.346474 -0.812444 -0.47093 -0.150008 0.394953 -0.164128 -0.224573 -0.175655 -0.0481703 0.25989 0.405201 -0.392536 -0.363974 -0.154979 0.392536 0.269738 -0.0174409 -0.300939 -0.0422129 0.106153 0.196502 -0.058829 0.0550999 -0.0318012 -0.0311843 0.108715 -0.400081 -0.0617387 -0.311012 0.33672 -0.0341742 -0.0334101 -0.0579236 0.0470159 0.305393 0.366788 -0.210957 0.208585 -0.0143656 -0.454423 -0.168806 -0.00879805 0.021819 -0.20497 0.365743 -0.0358762 -0.0627646 0.0376666 -0.287028 -0.669291 0.224293 0.275378 -0.254423 -0.0721559 0.317864 -0.310067 -0.193767 -0.148856 -0.0272377 -0.978996 -0.146819 0.122493 -0.414854 -0.357438 0.0898128 -0.528652 -0.070642 -0.261719 -0.189322 -0.317904 0.229377 0.204066 -0.80274 0.296285 0.332268 -0.338089 -0.655263 -0.122149 0.299763 -0.16274 -0.22394 -0.325109 -0.394481 0.0123167 -0.0536386 -0.758726 0.0874105 -0.676092 -0.270401 -0.405541 0.543982 -0.279452 -0.652651 -0.479106 -0.242066 -0.353676 0.0750884 -0.4366 -0.395575 0.349297 0.153267 0.146355 0.0848999 0.341872 -0.124497 -0.232853 -0.387867 -0.0542228 0.182732 0.216257 0.654033 -0.141989 0.612927 0.0664633 -0.217458 0.060157 -0.144252 0.448059 0.67076 0.721372 0.387798 0.567061 0.645156 0.669158 0.17811 0.0862126 0.274878 0.262194 0.174366 0.146854 0.451574 0.536252 0.176468 0.360532 0.624049 0.279296 0.92462 0.0715101 0.992665 0.987306 0.804033 0.886044 0.596703 0.186421 0.875032 0.0953467 0.0882643 0.593881 0.200134 0.102262 1.0005 0.399015 0.300506 0.299086 0.198893 0.2 0.999916 0.699977 0.500573 0.301834 0.400636 1.00197 0.901519 0.598876 0.8002 0.999802 0.50114 0.59987 0.398516 0.999909 0.399375 0.700151 0.599311 0.699048 0.399094 0.300869 0.697242 0.100925 0.395559 0.0949308 0.0889184 0.318899 0.994934 0.491561 0.690721 0.595283 0.981628 0.793016 0.307795 0.740156 0.462972 0.469168 0.216692 0.310352 0.706576 0.350588 0.581334 0.235179 0.47063 0.774594 0.0184616 0.108788 0.0167944 0.182456 0.158242 0.691103 0.533819 0.643894 0.529012 -0.230172 0.710541 0.00666966 -0.130415 0.492225 0.0385161 -0.311044 -0.0551636 0.0429713 0.076125 0.245358 0.0458974 -0.274889 -0.666063 -0.222353 -0.497635 -0.291528 -0.301714 -0.249123 0.134069 0.112418 0.0881005 0.00719089 -0.306978 0.189965 -0.758024 -0.175984 -0.28455 -0.606065 0.102611 -0.44935 0.382767 -0.210659 -0.838181 0.0321917 0.115316 -0.77823 -0.120988 -0.836169 0.618121 -0.0928421 0.00757817 -0.332829 -0.355732 0.438719 -0.275263 -0.29366 0.13314 -0.241334 0.254541 -0.281921 0.233152 -0.577588 -1.01269 0.0308507 0.600789 -0.365447 0.324154 -0.665201 0.120117 0.361096 0.213638 0.100743 -0.203658 -0.0226341 0.236843 -0.300649 -0.11351 -0.423765 -0.439722 -0.0588554 -0.202172 -0.173197 -0.13497 -0.361915 0.596311 0.0305552 -0.184821 -0.202853 -0.0506864 0.32623 -0.068656 -0.555569 0.0636978 -0.0631053 0.634399 -0.0445951 -0.229508 -0.084011 0.0327892 0.0550849 0.152833 -0.132718 -0.410667 -0.315549 0.498727 0.0579258 -0.45273 -0.184562 0.00792234 -0.0205057 -0.232458 -0.151002 -0.456576 0.10994 0.379372 0.0365098 0.0456446 -0.403071 -0.253716 0.0566356 0.198263 -0.062891 -0.262277 -0.305132 0.096479 -0.413089 -0.246041 0.0478964 -0.206395 -0.491314 0.204784 -0.0721053 -0.0303602 -0.147328 -0.0860206 -0.311044 -0.0556576 -0.558368 -0.401237 -0.42963 0.125789 0.109329 -0.355273 0.174185 -0.236446 -0.845806 -0.266933 -0.387833 0.0791795 -0.381531 -0.00339913 0.250501 -0.803926 -0.0578085 -0.188739 -0.753117 -0.119234 -0.709978 -0.509005 -0.243661 0.102488 -0.379005 -0.384345 -0.0464846 -0.612547 -0.241854 -0.0843063 -0.39786 -0.102342 -0.188638 -0.0136051 -0.301379 -0.17677 0.0413422 -0.460914 -0.0786765 -0.365647 -0.127189 -0.235575 0.406959 0.470901 0.251976 0.216582 0.444923 0.141178 0.461559 0.151049 0.0646251 0.249686 0.559008 0.583841 0.469873 0.673044 0.0318517 0.216608 -0.0611711 0.0216128 0.590197 0.613287 0.638397 0.760027 0.329711 0.79815 0.887008 0.529615 0.715789 0.702413 0.0100939 0.780146 0.0517534 0.420749 0.44596 0.572423 0.970719 0.344681 0.580245 0.634417 0.577206 0.493713 0.492108 0.0983491 0.690562 0.399445 0.691022 0.189718 0.797777 0.390156 0.692599 0.499387 0.695768 0.497941 0.496931 0.699103 0.701653 0.997416 0.897791 0.096773 0.598928 0.0991062 0.797225 0.898873 0.39898 0.19888 0.198041 0.698692 0.499616 0.20003 0.799362 0.39844 0.800806 0.79743 0.200252 0.799286 0.0974513 0.498077 0.899923 0.0994771 0.699032 0.895252 0.294218 0.790962 1.00536 0.194775 0.686301 0.596305 0.397423 0.479214 0.494484 0.0356483 0.263844 0.18122 0.649971 0.350161 0.424091 0.936972 0.763986 0.296101 0.547551 0.352897 0.617525 0.510832 0.948875 0.384749 0.240145 0.529172 0.134549 -0.190413 0.594212 0.334523 0.524347 0.313776 0.251746 0.525353 0.15194 0.431857 0.627092 0.0536674 -0.215615 0.176177 -0.278765 0.0196079 0.148703 -0.221065 -0.190499 -0.154127 -0.314751 0.0194853 -0.000563371 -0.12614 -0.0028591 0.126643 0.305438 -0.846802 0.11503 -0.551892 -0.440202 -0.443274 0.0176775 -0.0039442 -0.2689 0.182506 0.286861 -0.170449 -0.121115 -0.326706 -0.303606 0.141653 -0.567171 0.454419 0.157467 0.39185 9.87947e-05 -0.586358 0.0922501 0.0404919 -0.54855 0.116009 -0.560665 0.497939 0.160305 -0.173507 -0.180122 -0.974168 0.195347 -0.40082 -0.0205248 0.192793 -0.661945 0.436034 -0.44856 -0.0789968 0.108122 -0.301086 0.0722116 0.463961 -0.256651 0.025192 -0.208917 -0.181742 0.0474379 -0.120249 0.223585 -0.669857 0.036273 0.145966 -0.262435 0.0899022 -0.0205574 -0.210287 -0.16773 0.173669 -0.133441 -0.439579 -0.247051 0.395812 -0.362519 -0.0350865 -0.188338 0.12633 -0.288814 -0.26861 0.181378 -0.553162 0.135753 0.566453 -0.246755 -0.451138 -0.522175 -0.034716 0.20619 -0.176779 -0.0560273 -0.49074 -0.00126115 0.174758 -0.0197243 -0.0801557 -0.326409 -0.181213 -0.279221 0.128355 0.140736 -0.00537721 0.24232 0.287749 -0.177178 -0.283086 0.0145042 -0.209855 -0.361908 -0.00510003 0.232465 0.0864859 0.0305599 -0.249279 -0.220726 0.164949 -0.44608 0.168254 -0.83405 0.0720237 -0.368587 -0.507583 -0.118025 -0.489103 -0.0354648 0.189417 -0.0273007 -0.110934 -0.70728 -0.183093 -0.257439 0.158887 0.319123 0.175704 -0.465447 0.0716707 -0.288015 -0.461825 -0.0797148 0.276368 -0.110057 -0.430892 0.288316 -0.397733 -0.381395 -0.185899 -0.0819453 -0.195394 0.160646 0.132304 -0.337079 0.29613 -0.291356 0.278121 -0.502546 -0.414868 -0.4472 -0.24199 0.0784774 0.171274 0.38041 0.590163 0.629091 0.115086 -0.0501055 -0.237867 0.510144 0.530755 0.671462 0.0999708 0.0406738 0.114457 0.8104 0.656636 0.330372 0.236075 0.0119292 0.0464684 0.398712 0.523413 0.677116 0.531409 0.235441 -0.00467912 0.941587 0.864284 0.336997 0.588087 0.673485 1.00405 0.775252 0.983012 0.488761 0.571295 0.888327 0.164621 0.885474 0.998404 0.994741 0.301137 0.894758 0.498773 0.698677 0.995885 0.200433 0.595358 0.494616 0.39716 0.99906 0.201472 0.39798 0.399014 0.499588 0.700445 0.699045 0.598253 0.299571 0.898854 0.199017 0.899957 0.797879 0.300294 0.997924 0.49728 0.99812 0.398431 0.398447 0.399343 0.300265 1.00071 0.799399 0.90083 0.498519 0.700191 0.699945 0.100244 0.399618 0.797621 0.697865 0.396519 0.602971 0.796042 0.290722 0.596603 0.295727 0.881376 0.590984 0.166563 0.269989 0.875769 0.311358 0.568606 0.151071 0.469812 0.272517 0.417203 0.163806 0.264478 0.592339 0.527069 0.497455 0.870188 0.0410877 0.46566 0.591003 0.373535 0.178911 0.291415 -0.0301577 -0.0703767 0.735616 -0.200754 0.391321 -0.144711 0.057275 0.222298 0.184985 0.0316666 0.215129 0.21471 0.358222 -0.306603 0.148741 -0.266595 0.435104 0.143686 -0.200901 0.247944 0.350321 0.135762 0.0173579 -0.165785 -0.303515 -0.413471 0.297147 -0.206005 -0.476346 -0.201961 -0.261364 0.539522 0.325653 -0.503251 0.133158 -0.670844 -0.00908444 -0.103062 -0.22633 0.219607 0.102232 -0.120671 0.393712 -0.80272 -0.049225 -0.893552 0.173085 0.0843136 -0.403913 0.137952 -0.30142 0.0476443 0.0119572 -0.520053 0.30632 -0.242548 -0.111826 -0.0809676 -0.665435 0.667863 0.106259 0.239038 0.0979073 -0.0400929 0.32793 -0.116265 -0.00849488 0.0715749 -0.610469 0.625971 -0.479672 -0.300722 0.458542 -0.288703 0.461931 -0.207717 0.290965 0.303376 -0.112854 0.212596 -0.345002 0.0643262 0.185444 -0.147932 0.412271 -0.0521468 -0.335072 0.119549 -0.0961873 0.295812 0.0135451 -0.266168 0.238418 0.0472057 -0.218943 0.211869 -0.304772 0.372738 0.0080657 -0.0198607 0.230369 -0.374207 0.212202 0.250716 0.0430237 -0.205802 -0.476759 0.209621 -0.0416761 0.122122 0.269665 -0.514624 0.18328 0.307464 0.115926 0.0767849 -0.490218 0.222999 -0.487567 0.324022 0.0608998 -0.0678629 0.162841 -0.0845291 0.278798 0.119847 -0.251969 0.29038 -0.388607 -0.251714 -0.00631177 -0.0418604 0.0796788 -0.0517546 -0.232877 -0.609477 -0.571019 -0.175842 -0.379365 -0.362811 0.0294296 0.0747361 -0.35475 0.356199 -0.297805 -0.0384977 -0.0440135 0.0829652 -0.0598028 0.204415 0.437749 0.0741717 -0.267566 0.182692 0.0588158 0.173008 -0.179518 0.0449482 -0.137904 -0.0785819 -0.0991879 0.188894 -0.369549 0.225305 0.410087 0.306616 0.193799 0.0499621 0.605154 0.565767 0.524037 0.29183 0.192738 0.238606 0.663311 0.101576 -0.149892 -0.0930519 0.352413 0.694422 0.672617 0.6565 -0.0524406 0.481559 0.790961 0.451558 0.490727 0.0491523 0.878985 0.573073 0.557962 0.686305 0.347144 0.168543 0.0803002 0.446366 0.869062 0.838817 0.567554 0.59638 0.295082 0.701361 0.792389 0.296355 0.998538 0.589925 0.494462 0.0913563 0.595128 0.500758 0.198878 0.999295 0.0988869 0.100316 0.0982429 0.396656 0.39965 0.59811 0.0986305 0.39933 0.398948 0.599065 0.0986102 0.898762 0.498824 0.997703 0.599056 0.497815 0.897965 0.699685 0.399391 0.997837 0.999604 0.499937 0.600594 0.100177 0.998958 0.994889 0.197493 0.0995957 0.599284 0.699319 0.29878 0.599866 0.303845 0.498816 0.798075 0.396903 0.0984199 0.0961164 0.59763 0.198412 0.204985 0.296083 0.794569 0.395366 0.596905 0.69143 0.894067 0.390594 0.682845 0.182643 0.411102 0.484725 0.0787761 0.788197 0.589205 0.962803 0.685293 0.845235 0.554633 0.553212 0.812226 0.0523465 0.0324601 0.455375 0.158275 0.273912 0.150066 0.170427 0.31399 0.656675 0.179232 0.0555227 0.303269 0.867173 0.296512 -0.154087 0.342243 0.44195 0.616658 0.610737 0.203919 0.589988 -0.219783 0.407404 0.286598 0.10605 -0.203469 -0.0856631 0.50323 0.056359 0.0225655 0.410501 -0.102589 0.412992 0.485612 -0.139277 0.29692 -0.224889 0.0152666 0.140931 0.337457 -0.487795 0.380422 0.121416 0.0196729 0.237688 -0.372483 0.115153 0.574074 -0.384402 0.28191 -0.0905009 0.0139792 -0.210545 0.365105 -0.270286 0.293909 0.595075 0.0582985 -0.161412 -0.0271454 -0.154457 0.361288 -0.364947 -0.220144 0.235533 -0.358576 0.332112 -0.366811 -0.423541 0.449463 -0.515038 -0.1771 -0.121443 -0.213297 0.494204 -0.302186 0.0565397 -0.152778 0.0123118 0.436414 0.176942 0.131331 -0.133696 -0.324241 0.52501 -0.372072 0.26745 -0.199038 -0.814445 0.371162 -0.187488 0.270865 -0.563805 -0.101776 0.37993 -0.00768685 0.118775 0.07867 -0.103858 0.0628725 0.0696649 0.437374 -0.378225 -0.0324201 0.687128 -0.1569 -0.24281 0.128543 -0.376605 0.175869 0.0343097 0.264946 -0.50235 0.202919 0.124255 -0.35375 -0.0705443 -0.26384 -0.174147 0.154723 -0.166688 -0.00105841 0.125202 -0.151818 0.227902 0.306471 0.284487 -0.050612 0.131009 0.248704 -0.130942 0.0385462 0.302109 0.30474 -0.0343796 0.211311 0.0334096 -0.241979 0.498872 0.12465 0.448676 0.209804 -0.149519 -0.25186 0.294415 -0.0693251 -0.313939 -0.0596741 0.332246 -0.132919 0.740384 -0.105699 -0.00565596 0.341812 0.111809 -0.0172941 0.090675 0.0476804 0.616769 0.412677 0.772429 -0.0576415 0.366665 0.240198 0.115533 0.218174 0.752037 0.3175 0.534776 0.410219 -0.0761901 0.678736 0.359841 0.725499 0.440293 0.213787 0.463558 0.782105 0.81327 0.637596 0.484621 -0.00878148 -0.0376165 -0.0313782 0.541903 0.497638 0.447268 0.651005 0.662953 0.430484 0.0418896 0.664648 0.0364384 0.334365 0.141258 0.76227 0.985439 0.585532 0.497543 0.380847 0.785154 0.294645 0.181214 0.788486 0.282253 0.589722 0.0984849 0.698526 0.802985 0.596949 0.0986147 0.102504 0.396746 1.0007 0.896289 0.599011 0.299784 0.301581 0.699917 0.10064 0.499189 0.199934 0.699954 0.300522 0.298621 0.101181 0.699391 1.00122 0.199082 0.0987672 0.400192 0.398781 0.498579 0.39895 0.898477 0.497708 0.798383 0.69863 0.697667 0.796463 0.298737 0.29811 0.199203 0.599225 0.10087 0.0987836 0.598555 0.699081 0.400249 0.199176 0.99915 0.899456 0.901031 0.297895 0.795402 0.401876 0.897821 0.797205 0.399186 0.101948 0.898153 0.197934 0.0979913 0.195693 0.595683 0.498109 0.994681 0.796195 0.490652 0.80443 0.492807 0.892579 0.896339 0.596051 0.190868 0.794361 0.0831113 0.185253 0.3762 0.116998 0.979923 0.673857 0.0900109 0.49815 0.852258 0.775618 0.76171 0.768882 0.634641 0.52762 0.935729 0.82742 0.365743 0.30057 0.378656 0.94589 0.406012 0.912406 0.725416 0.498066 0.446105 -0.0298438 0.113355 0.957356 0.643936 0.586714 0.137492 0.635083 0.0548252 0.229718 0.280868 0.435448 0.328615 0.469739 0.603406 0.41649 0.356382 0.586578 -0.0454276 0.439731 -0.0733381 0.506639 0.141801 0.392931 0.318154 0.272222 -0.0285351 0.0566831 0.521894 0.849283 -0.0491856 0.409685 -0.184867 0.230168 -0.213855 0.261818 0.32185 -0.0758971 -0.01925 0.269071 -0.22904 0.381016 0.2131 0.666756 0.406211 0.211508 0.551049 0.396997 -0.216773 0.324721 -0.125735 0.00375195 -0.343549 0.15699 0.498839 0.181493 -0.175178 0.143738 0.246007 0.112973 0.207624 0.110375 0.323795 0.109247 0.57453 0.0345132 -0.188899 0.12805 -0.413705 0.145478 -0.299152 0.155937 -0.154584 0.414277 0.407202 0.202747 -0.196393 0.00974657 -0.0859024 0.0154509 -0.0194869 0.389459 -0.401264 0.779155 0.179364 0.00974647 -0.14293 0.501762 0.119571 0.50297 -0.158686 0.525169 -0.0934506 0.106693 0.266229 0.392957 0.0988826 -0.235903 0.485758 -0.102235 0.490693 0.253134 0.440629 0.506172 0.265744 0.245187 0.539314 0.110047 0.395216 -0.1538 -0.0562974 -0.192756 0.125197 0.32148 0.0994579 0.626121 0.613132 0.458759 -0.0319107 0.528979 0.151949 0.425575 0.199734 0.409042 0.111335 0.620464 0.0616634 0.235631 0.0655943 0.422775 0.172288 0.209351 0.765508 0.16606 0.606145 0.497822 0.147007 0.0885629 0.148817 0.80005 0.585507 0.854898 0.239116 0.625915 0.83882 0.412024 0.693727 0.232791 0.0148331 0.393839 0.597528 0.710943 0.585525 0.279337 0.589285 0.778153 0.535188 0.651827 0.234645 0.836363 0.528131 0.2518 0.329523 0.421339 0.533749 0.955211 0.967984 0.381434 0.0773287 0.0774819 0.268296 0.383511 0.0646881 0.463989 0.178727 0.08903 0.188916 0.69401 0.993561 0.494258 0.287439 0.794467 0.688104 0.987113 0.491026 0.492022 0.300014 0.199472 0.500565 0.296277 0.898821 0.597723 0.0988385 0.89698 0.0983789 0.996927 0.500636 1.00218 0.501134 0.301304 0.199933 0.500727 0.599484 0.499864 0.99797 0.496401 0.899997 0.600632 0.999263 0.901567 0.799337 0.199864 0.898799 0.199763 0.998421 0.399922 0.898018 0.09888 0.0994651 0.598266 0.999349 0.0972934 0.0982839 0.699796 0.897184 0.49892 0.29897 0.300933 0.89896 0.599459 0.597842 0.298747 0.400531 0.498316 0.797894 0.900556 0.598979 0.399471 0.500688 0.599663 0.601896 0.400874 0.600076 0.599396 0.899026 0.898088 0.694498 0.395855 0.295598 0.994874 0.495978 0.99512 0.498553 0.198478 0.196905 0.498728 0.0951392 0.493308 0.09487 0.70415 0.892758 0.195562 0.295596 0.102214 0.980445 0.0939694 0.477702 0.681092 0.272452 0.0960443 0.177619 0.0805027 0.0865327 0.610167 0.0622391 0.0951656 0.748453 0.257964 0.938013 0.296893 0.538063 0.14633 0.364555 0.139407 0.50071 0.0796764 0.831888 0.644307 0.811959 0.0942781 0.615837 0.81876 0.449554 0.496005 -0.0276808 0.480868 0.0946588 0.309768 0.379095 0.879408 0.57981 0.471705 0.120131 0.298954 0.473403 0.691494 0.730858 -0.00439704 0.257512 0.935823 0.628448 0.748719 -0.0103844 0.7011 0.224408 0.908961 -0.0904284 0.255733 0.820546 0.448914 -0.0826144 0.0737621 0.261025 0.855188 0.625706 0.455487 0.172584 0.524384 0.114472 0.41138 -0.0595985 0.231848 0.427016 1.01947 0.120408 0.549568 0.334212 0.778732 0.582116 0.844749 0.64323 0.785875 0.405139 1.02488 0.380053 0.884611 0.707796 0.176446 0.377363 0.0739062 0.515941 0.180308 0.104602 0.938414 0.53014 0.0995233 0.344082 0.213557 0.0113237 0.128834 -0.15808 0.201694 0.313095 0.821709 0.298373 0.60048 0.0438893 -0.0765902 0.806185 0.296554 0.207304 -0.00281364 0.416117 0.239434 0.737527 0.562071 0.735535 -0.0491998 -0.0675905 0.283249 0.358644 -0.0881815 0.412724 0.686492 0.366873 0.375569 0.553013 0.780513 0.0532507 0.00458562 -0.163141 0.221645 0.631884 0.914454 0.779869 1.0061 0.701108 0.0178722 0.854607 0.633399 0.495219 0.755026 0.265627 0.017595 0.160094 0.585288 0.578138 0.442472 0.682672 -0.00286251 0.635004 0.897668 0.100237 0.31007 0.185691 1.06462 0.618439 0.456692 0.911073 0.222543 0.297412 0.0248027 0.325612 0.613567 0.711024 0.670239 0.158528 0.376996 0.0556468 0.460099 0.0413296 0.556916 0.154937 0.941867 0.945239 0.91396 0.565951 0.384181 0.565054 0.672972 0.954376 0.775114 0.264128 0.558235 0.265717 0.300226 0.979543 0.195412 0.182094 0.387672 0.775007 0.894281 0.677487 0.180187 0.0862554 0.195504 0.0970659 0.198558 0.897623 0.297766 0.797809 0.499475 0.396955 0.296767 0.497719 0.199752 0.498014 0.399617 0.297227 0.600037 0.898711 0.998542 0.398624 0.197968 0.998211 0.498634 0.198973 0.698691 0.19889 0.19794 0.997077 0.200331 0.198956 0.500045 0.897933 0.100031 0.69917 0.699939 0.6998 0.699745 0.49908 0.800808 0.40045 0.399954 0.599192 0.700753 0.699808 0.7 0.100769 0.600128 0.701061 0.300741 0.300981 0.301978 0.600438 0.701385 0.69804 0.598923 0.0973404 0.498507 0.599002 0.998153 0.397742 0.998597 0.496589 0.296811 0.598994 0.201158 0.799248 0.200969 0.800614 0.399943 0.999687 0.898981 0.100029 0.601142 0.299792 0.999999 0.799978 0.89992 0.500739 0.1012 0.800775 0.699994 0.900264 0.600951 0.897654 0.199812 0.800053 0.498153 0.998241 0.29907 0.598994 0.601097 0.394746 0.40004 0.489591 0.892032 0.0919151 0.095356 0.187862 0.786971 0.493666 0.297061 0.583679 0.494203 0.68146 0.186897 0.084432 0.59337 0.37864 0.380342 0.488758 0.113199 0.865211 0.5909 0.672263 0.579648 0.57348 0.28352 0.964868 0.264423 0.0816982 0.433563 0.149924 0.567407 0.0518409 0.369645 0.659282 0.474884 0.738105 0.543212 0.470365 0.849801 0.128896 0.0735086 0.250467 0.17041 0.759818 0.171584 0.333915 0.739804 0.0741572 0.49894 0.514836 0.363052 0.928823 0.956853 0.752108 0.453213 0.402864 0.817927 0.955857 0.849805 0.471771 0.429886 0.701905 0.837744 0.730034 0.723081 -0.0315461 0.59459 0.33949 0.7005 0.839768 0.487132 0.691357 0.42246 0.623157 0.015629 0.20811 0.374306 0.325365 0.408585 0.331875 -0.0219337 0.24697 0.695304 0.304084 0.174808 0.453472 0.549022 0.103909 0.479146 0.420938 0.660235 0.570992 0.321485 0.914242 0.468691 0.47995 0.467098 0.915631 0.573228 0.363267 0.260166 0.585124 0.939973 0.429354 -0.00670757 0.0169731 0.0904172 0.234146 0.761181 0.188879 0.170819 0.463425 0.442016 0.626653 0.179434 -0.0818985 0.191927 0.913106 0.623543 0.18762 0.812697 0.0841708 0.568686 0.148365 0.899295 0.614916 0.407751 0.530357 0.988485 0.806584 0.781536 0.711155 0.279594 0.260763 0.722444 0.373117 0.927754 0.744566 0.185963 0.0350233 0.160547 0.640504 0.280643 0.262901 0.349981 0.908297 0.646631 0.158545 0.974171 0.344092 0.593463 0.269178 0.0899124 0.373594 0.771913 0.644993 0.478957 0.272405 0.476188 0.866907 0.119157 0.981745 0.489985 0.883301 0.584984 0.171119 0.879124 0.976757 0.482555 0.876099 0.99341 0.591503 0.0986565 0.595237 0.192503 0.987867 0.293061 0.0900377 0.993917 0.0931042 0.10141 0.596775 0.100294 0.299015 0.200715 0.197524 0.098369 0.996003 0.401271 0.59976 0.500226 0.898523 0.59887 0.597994 0.699883 0.498124 0.0987869 0.198031 0.999429 0.796871 0.200091 0.100697 0.799774 0.199941 0.998994 0.400914 0.201037 0.799448 0.800041 0.500301 0.999593 0.69947 0.598987 0.99908 0.700706 0.298643 0.698964 0.798854 0.699931 0.298707 0.899811 0.0997475 0.300983 0.300951 0.699588 0.200189 0.701545 0.20172 0.601424 0.800833 0.498671 0.50007 0.39792 1.00126 0.100496 0.898991 0.598858 0.898851 0.898939 0.898374 0.199509 0.799869 0.50014 0.200921 0.200938 0.299972 0.399505 0.599977 0.899718 0.999365 0.502313 0.801254 0.499723 0.600701 0.998796 0.499841 0.999418 0.598941 0.0992223 0.499716 0.899788 0.801014 0.802638 0.899894 0.599916 0.601211 0.898793 0.899543 0.700927 0.499419 0.397023 0.0990748 0.898995 0.798733 0.698075 0.700067 0.099787 0.600368 0.899566 0.497847 0.197494 0.597783 0.0982679 0.897102 0.697824 0.49719 0.297 0.798756 0.700719 0.496857 0.0972667 0.197262 0.495824 0.698874 0.0976992 0.0985959 0.196394 0.0979173 0.0968377 0.198678 0.0972633 0.991339 0.493574 0.994343 0.293599 0.988654 0.989242 0.394646 0.697971 0.886654 0.393306 0.590283 0.991875 0.196222 0.594027 0.189177 0.688976 0.591388 0.996598 0.885098 0.0891799 0.491537 0.297933 0.197208 0.296781 0.0959267 0.0944478 0.498182 0.490612 0.492216 0.692004 0.190982 0.0970742 0.0929779 0.892002 0.384661 0.591977 0.193609 0.792134 0.5831 0.585272 0.0860472 0.392387 0.689035 0.688013 0.183759 0.781167 0.0896349 0.997493 0.674445 0.171624 0.368641 0.078962 0.27868 0.871487 0.461933 0.0635565 0.971697 0.688843 0.167117 0.758798 0.159334 0.377428 0.975829 0.868727 0.15687 0.757075 0.575675 0.58608 0.863783 0.832037 0.0652783 0.186448 0.0811957 0.0714154 0.351263 0.755175 0.48177 1.00688 0.767418 0.931658 0.274554 0.99219 0.186179 0.47211 0.257594 0.267722 0.188571 0.10227 0.57964 0.83087 0.155394 0.486771 0.980345 0.36668 0.35864 0.368775 0.176976 0.99995 0.767066 0.234459 0.65868 0.888398 0.37938 0.469417 0.0617035 0.266175 0.97144 0.490562 0.568919 0.350037 0.666651 0.993849 0.88412 0.577521 0.372251 0.0785353 0.381569 0.0992659 0.880228 0.672528 0.785159 0.498414 0.895403 0.290917 0.187063 0.18681 0.690431 0.402456 0.489036 0.487219 0.887268 0.0988218 0.39444 0.794358 0.29245 0.293566 0.990745 0.794926 0.792624 0.295612 0.0979668 0.299541 0.198016 0.398572 0.0957188 0.49725 0.397191 0.899264 0.101041 0.398084 0.298093 0.301389 1.00036 0.499679 0.0999755 0.298973 0.997066 0.799879 0.298427 0.499748 0.0976453 0.899729 0.299602 0.798761 0.698849 0.601435 0.0999125 0.798203 0.500058 0.598311 0.599521 0.59932 1.00089 0.49909 0.100917 0.499957 0.899064 0.399053 0.999044 0.897797 0.199723 0.0994475 0.599078 0.501654 0.0993114 0.599408 0.199514 0.899676 0.498924 0.2998 0.998969 0.19919 0.198242 0.0974326 0.998891 0.200577 0.798273 0.301001 0.798064 0.399629 1.00044 0.501053 0.998279 0.599561 0.300006 0.999317 0.397988 0.199876 0.699437 0.100059 
0.899994 0.499956 0.100009 0.80048 0.398963 0.099459 0.999965 0.799336 0.698947 0.799528 0.400403 0.599593 0.200992 0.0998923 0.899909 0.499897 0.700997 0.4 0.700986 0.799986 0.89898 0.6 0.29998 0.800942 0.998849 1.00093 0.599802 0.200214 0.198353 0.299028 0.4 1.00049 0.599372 0.899974 0.199785 0.501 0.7 0.299916 0.499855 0.801997 0.501136 0.200195 0.798987 0.501019 0.200983 0.099886 0.0999991 0.299965 0.100715 0.200345 0.8 0.199633 0.198228 0.699985 0.799134 0.598471 0.901275 0.798991 0.998924 0.69983 0.498998 0.0992829 0.99918 0.498858 0.598999 0.49892 0.199979 0.197985 0.697565 0.798774 1.001 0.599816 0.40058 0.201952 1.00081 0.399998 0.899998 1.00067 0.799998 0.599841 0.0986524 0.600809 0.999143 0.100833 0.599953 0.899103 0.599849 0.100008 0.100959 0.600895 0.799995 0.900272 0.999989 0.999952 0.899996 0.0999965 0.299977 0.799988 0.59995 0.499661 0.699814 0.299915 0.900773 0.500754 0.100233 0.598939 0.799983 0.899997 0.898832 0.498461 0.799935 0.299993 0.0997974 0.101067 0.799954 0.499965 0.199003 0.198729 0.299022 0.999992 0.396999 0.997287 0.896395 0.396893 0.89649 0.397336 0.297592 0.596987 0.397174 0.795998 0.99924 0.398795 0.698904 0.599018 0.898166 0.100947 0.799038 0.898998 0.298487 0.0991693 0.796107 0.796452 0.19742 0.99587 0.894189 0.69761 0.597345 0.795425 0.396494 0.196455 0.498307 0.699874 0.997831 0.200996 0.198992 0.299986 0.398151 0.299 0.499394 0.59994 0.499085 0.4 0.099996 0.500808 1.00062 0.800035 0.0999716 0.400312 0.599915 0.298947 0.700413 0.598841 0.198997 0.398999 0.19869 0.498996 0.898999 0.499076 0.998963 0.600538 0.500967 0.599715 0.999046 0.300253 0.899794 0.599892 0.0999993 0.197381 0.0991008 0.498712 0.0989451 0.497902 0.897999 0.397731 0.297625 0.998985 0.89825 0.39838 0.897998 0.898839 0.8 0.600004 0.199987 0.799715 0.700993 0.199976 0.0999985 0.800054 0.799609 0.899998 0.799993 0.698961 0.498606 0.798536 0.998629 0.197051 0.399888 0.199071 0.497506 0.198795 0.599108 0.801608 0.399994 0.698563 0.599258 0.499899 0.60092 0.398976 0.600721 0.400102 0.100626 0.799928 1.00017 0.40015 0.799093 0.599977 0.899948 0.199258 0.499879 0.699985 0.900717 0.999481 0.0995064 0.900281 0.598998 0.0989703 0.29901 0.699011 0.298471 0.998684 0.499997 0.800006 0.698999 0.199945 0.699965 0.199985 0.998988 0.69874 1.00061 0.600193 0.199907 0.599307 0.898382 0.599161 0.797814 0.898141 0.399371 0.599922 0.199344 0.799766 0.799929 0.999992 1.00097 0.399992 0.199408 0.200174 0.700284 0.499999 0.499931 0.399993 0.100864 0.599933 0.0989997 0.200491 0.600971 0.399495 0.599915 0.600045 0.499748 0.699009 0.500678 0.600972 0.698908 0.59952 0.0983427 0.499219 0.600079 0.499793 0.400836 0.100479 0.2 0.399507 0.099997 0.399973 0.700673 0.199074 0.899962 0.199995 0.200927 0.801005 0.199992 0.201267 0.400116 0.999885 0.39862 0.700583 0.299873 0.199645 0.599408 0.100568 0.0984186 0.299441 0.300001 0.799983 1.00167 0.699341 0.299005 0.899863 0.0994524 0.202508 0.499999 0.501412 0.699995 0.499998 0.199992 0.999944 0.599972 0.999861 0.599964 0.0999998 0.597985 0.997809 0.599899 0.597912 0.598727 0.998879 0.699342 0.797231 0.997908 0.499707 0.500012 0.899012 0.798264 0.599985 0.39588 0.799863 0.499148 0.398312 0.100882 0.100472 0.199972 0.998826 0.895525 0.996981 0.0953635 0.799495 0.598959 0.396309 0.197568 0.696324 0.893939 0.29701 0.693926 0.694628 0.893854 0.196547 0.295442 0.19534 0.794636 0.494497 0.494027 0.0971362 0.787455 0.695917 0.792183 0.996572 0.994073 0.393783 0.0952984 0.491522 0.896679 0.497892 0.88961 0.498378 0.790494 0.997608 1.00058 0.494313 0.0974231 0.595824 0.994114 0.0968797 0.29022 0.0962618 0.881915 0.696243 0.100105 0.893958 0.197026 0.791616 0.797945 0.499452 0.194238 0.599745 0.890849 0.498766 0.0987465 0.598443 0.098457 0.39631 0.893766 0.895361 0.492632 0.196128 0.289969 0.696629 0.397606 0.794252 0.19637 0.292863 0.595971 0.195195 0.597346 0.295637 0.892976 0.693026 0.100825 0.0958813 0.397046 0.193372 0.0946648 0.195234 0.99341 0.897127 0.0961363 0.195175 0.496292 0.79646 0.796336 0.394687 0.597132 0.896815 0.0945914 0.698905 0.297527 0.796293 0.697415 0.197794 0.29705 0.59349 0.89972 0.700893 0.498399 0.39999 0.799079 0.699863 0.50114 0.400005 0.299831 0.500089 0.698697 0.497785 0.0979164 0.598586 0.198227 0.098605 0.198381 0.697533 0.496802 0.996404 0.100308 0.900976 0.897584 0.398787 0.398957 0.0999391 0.0987346 0.300488 0.49881 0.199612 0.199393 0.0996306 0.899525 0.899327 0.89911 0.400158 0.999772 0.399996 0.299852 0.800019 0.598997 0.798998 0.998684 0.0992051 0.199492 0.599562 0.699081 0.599024 0.199943 0.798977 0.699944 0.099 0.699343 0.899338 0.89899 0.899 0.399001 0.699 0.0989975 0.499996 0.798954 0.0987613 0.700038 0.298012 0.598834 0.699 0.598903 0.998989 0.698343 0.198919 0.298991 0.9 0.199 0.798989 0.798984 0.299995 0.599 0.198729 0.398996 0.498683 0.199989 0.0999959 0.398887 0.899983 0.199797 0.499548 0.799849 0.998309 0.798934 0.699552 0.299027 0.300901 0.698994 0.898859 0.0996859 0.599201 0.998949 0.698974 0.997941 0.797877 0.599999 0.800334 0.699988 0.299991 0.999816 0.299997 0.699781 0.499616 0.300995 0.200949 0.698978 0.99909 0.197917 0.897704 0.79891 0.198988 0.198998 0.298736 0.597878 0.0990891 0.800071 0.201659 0.100531 0.298955 0.999986 0.599995 0.199128 0.299732 0.0998136 1.00263 0.799999 0.698678 0.299801 0.199054 0.499877 0.199576 0.399999 0.300766 0.899791 0.800053 0.5 0.200138 0.300112 0.599524 1 0.600999 0.799998 0.799019 0.299999 0.399879 0.298967 0.198845 0.498402 0.0989995 0.198543 0.600689 0.199937 0.798605 0.398008 0.797975 0.897326 0.297888 0.394479 0.99856 0.19272 0.897814 0.796462 0.995474 0.0965397 0.596555 0.794023 0.795769 0.888946 0.395685 0.287342 0.993286 0.19536 0.190767 0.392642 0.690853 0.881844 0.387424 0.872319 0.0913492 0.0761767 0.987126 0.488068 0.780062 0.987175 0.483859 0.673092 0.374739 0.856576 0.376506 0.658688 0.678536 0.2852 0.271573 0.672471 0.0660191 0.462192 0.773357 0.943489 0.773627 0.0445886 0.175702 0.0958042 0.767802 0.368588 0.66069 0.853682 0.270671 0.738906 0.972621 0.729802 0.569039 0.280376 0.760775 0.76451 0.0603493 0.755486 0.466932 0.341111 0.472416 0.429243 0.95803 0.876567 0.369636 0.660904 0.661595 0.338405 0.456772 0.127745 0.658247 0.818952 0.737542 0.782223 0.762673 0.549215 0.842977 0.929472 0.651446 0.317016 0.950774 0.31234 0.331234 0.979909 0.457546 0.447457 0.538337 0.445544 0.760889 0.219778 0.358648 0.828522 0.440527 0.583293 0.166816 0.159417 0.248547 0.0493546 0.255903 0.608448 0.953188 0.0409908 0.336262 0.480877 0.458582 0.348329 0.934518 0.647242 0.256998 0.711517 0.959462 0.643344 0.147002 0.283838 0.26129 0.246787 0.636699 0.558985 0.77529 0.926362 0.0745276 0.163162 0.166152 0.896657 0.377345 0.366281 0.759817 0.0665526 0.776045 0.246819 0.575424 0.767576 0.36115 0.394543 0.679766 0.963358 0.166992 0.479938 0.18831 0.770367 0.490302 0.188521 0.675667 0.118985 0.0929418 0.283882 0.285039 0.0874299 0.693257 0.879339 0.593754 0.293631 0.488332 0.904846 0.696211 0.189805 0.692876 0.694258 0.396696 0.388173 0.0976403 0.49297 0.591986 0.806711 0.497284 0.794554 0.297246 0.199917 0.898992 0.697057 0.799572 0.799244 0.898375 0.801999 0.399988 0.597517 0.0987125 0.694849 0.495126 0.093746 0.0949268 0.394551 0.595624 0.398283 0.195955 0.693071 0.893515 0.997806 0.797795 0.0986925 0.199123 0.797943 0.7989 0.696785 0.198539 0.996373 0.298902 0.899995 0.198207 0.298164 0.501928 0.497976 0.197906 0.799629 0.397918 0.397777 0.99857 0.300022 0.399565 0.299827 0.500004 0.898657 0.898988 0.19911 0.698995 0.499055 0.799959 0.901 0.399128 0.499205 0.998856 0.19999 0.499989 0.3 0.899984 0.199983 0.997987 0.997791 0.397731 0.199993 0.998239 0.497552 0.697145 0.697213 0.600978 0.796606 0.0970224 0.2 0.300055 0.199974 0.39932 0.400756 0.399965 0.199978 0.499196 0.900177 0.599941 0.799936 0.4 0.300881 0.199024 0.400954 0.501681 0.399526 0.599998 0.199017 0.90053 0.69646 0.898259 0.398774 0.797845 0.497925 0.699303 0.598456 0.0971805 0.797188 0.399135 0.790923 0.393432 0.195889 0.0937348 0.592805 0.393226 0.790942 0.992704 0.990887 0.0947873 0.39303 0.291406 0.0884086 0.392013 0.988144 0.89611 0.0909351 0.690285 0.290768 0.0939266 0.480726 0.0816936 0.768574 0.87687 0.77114 0.18348 0.876282 0.878962 0.971572 0.177621 0.353227 0.741031 0.336818 0.354386 0.540669 0.154637 0.352119 0.950709 0.0408602 0.553217 0.610225 0.211413 0.00210357 0.619782 0.506463 0.0365341 0.408893 0.425526 0.405359 0.0245897 0.578291 0.774412 0.164429 0.801481 0.758875 0.794211 0.376376 0.507966 0.475228 0.691073 0.540415 -0.0561122 0.71515 0.264966 -0.0726358 0.84944 0.0360314 0.486167 0.433964 -0.0346636 0.493977 0.600381 0.0781781 0.246627 0.266328 0.2917 0.124765 0.546907 0.00157142 0.615994 0.590608 0.700934 0.748756 0.746324 0.394412 0.29003 0.630602 0.164998 0.384373 0.339475 0.575331 0.49993 0.445868 0.0386544 -0.102952 0.774606 0.115182 0.649742 0.385212 0.718749 0.289061 0.0916047 0.16639 0.730812 0.57875 0.274159 0.224715 0.155709 0.164289 0.599308 0.58013 0.609168 0.750951 0.0440538 0.597624 0.490078 0.523857 0.157832 0.577224 0.199624 -0.0863811 0.140112 -0.016297 0.844705 0.823398 0.612357 0.198559 0.673691 0.494224 0.520006 0.040207 0.272137 0.682782 0.681916 0.450873 0.753947 0.230276 0.104738 0.709847 0.160013 0.768713 0.607807 0.836156 0.816137 0.00138286 0.689829 0.553354 0.232375 0.861235 0.602922 0.706742 0.53711 0.102369 0.152066 0.138163 0.133659 0.837316 0.160949 0.00716045 0.130714 0.839591 0.571173 0.44077 0.267895 0.268107 0.959205 0.928903 0.678421 0.646914 0.459151 0.366295 0.284942 0.173749 0.384081 0.977928 0.284635 0.51048 0.690537 0.0780983 0.476884 0.38766 0.890506 0.183795 0.987808 0.889117 0.390702 0.501807 0.294456 0.0876423 0.786346 0.595657 0.196974 0.496204 0.298906 0.597581 0.69733 0.309332 0.299584 0.89788 0.897307 0.29878 1.00139 0.800817 0.799915 0.801284 0.400757 0.69909 0.600782 0.0981187 0.19771 0.800998 0.200516 0.699916 0.200901 0.399701 0.401797 0.100066 0.499984 0.699906 0.899212 0.0980013 0.0984574 0.798356 0.59862 0.0981471 0.498267 0.499991 0.398994 0.198883 0.897929 0.299628 0.59946 0.200165 0.898874 0.600987 0.100561 0.998658 0.299873 0.599621 1.0006 0.698736 0.698963 0.399998 0.0987434 0.899109 0.0989808 0.398998 0.499154 0.299973 0.698854 0.499988 0.999674 0.798145 0.101474 0.499352 0.400678 0.198874 0.299998 0.198688 0.399905 0.19876 0.19806 0.497961 0.597331 0.297631 0.795981 0.998553 0.598569 0.198724 0.89914 0.295869 0.694813 0.594466 0.696721 0.496843 0.993743 0.193313 0.796448 0.694368 0.297168 0.277777 0.180419 0.28205 0.388331 0.383709 0.0781307 0.276295 0.183054 0.275134 0.285805 0.850827 0.248272 0.151577 0.353394 0.15082 0.335943 0.728422 0.460391 0.0315663 0.161694 0.902432 0.106272 0.0964621 0.0165576 0.910218 0.297407 0.378259 0.916232 0.368666 0.61647 0.238854 0.526014 -0.0885778 0.442152 0.645381 -0.0658256 0.51652 0.75346 0.403319 0.656806 0.161571 0.138353 0.335545 -0.105684 0.161106 -0.130253 0.696571 -0.00284298 0.509456 0.576902 0.298741 0.665217 0.662832 0.585117 -0.187072 0.493707 0.55019 0.745142 0.633494 0.133276 0.633907 -0.156151 0.390761 -0.217585 0.542528 -0.221627 -0.000167832 0.0950666 0.486251 0.0829158 -0.274997 -0.182407 0.103349 -0.0527992 -0.10507 -0.0418984 0.259276 -0.0696175 -0.294742 0.309579 -0.0987229 0.542065 -0.0740167 0.191579 0.144202 0.266283 0.0442668 0.181966 -0.11815 -0.32716 0.201125 0.345282 0.430155 -0.114686 0.133774 0.284796 0.386098 0.463801 0.282258 0.0402776 -0.160109 0.407266 0.243384 -0.2168 -0.0709682 -0.263034 -0.162589 0.0636847 0.00649884 0.116017 0.305461 0.190751 0.134409 0.457663 -0.168306 0.52029 0.247027 0.351987 -0.305396 0.0159677 0.0991266 0.133967 -0.237646 -0.244677 0.259411 0.181047 0.0603406 0.0137044 -0.308758 0.154981 0.0317591 0.140236 0.214826 0.567009 -0.137072 0.235027 0.612593 0.0876554 0.0610819 0.19978 -0.0475459 0.706186 0.436719 -0.254387 -0.089152 0.258928 0.42499 0.533878 0.000265257 0.163825 -0.160243 -0.0490451 0.0441365 0.0273846 0.502318 0.746845 0.0919754 0.322286 0.554954 0.553645 0.0178663 0.322474 -0.0695087 0.404108 0.18732 0.880099 0.810822 0.899952 0.102896 0.14027 0.888428 0.938763 0.582731 0.181391 0.344428 0.458918 0.768796 0.744149 0.372481 0.79647 0.749282 0.0741014 0.560819 0.340506 0.773926 0.322205 0.18994 0.881811 0.0377188 0.941632 0.0814168 0.575672 0.87117 0.478406 0.291727 0.202456 0.0960613 0.989137 0.274799 0.77299 0.192187 0.195303 0.8942 0.0948067 0.795969 0.301595 0.899338 0.996414 0.288474 0.195148 0.999582 0.200311 0.1985 0.300661 0.898017 1.00125 0.19941 0.999086 0.19882 0.598742 0.700404 0.798854 0.498748 0.899966 0.799718 0.398999 0.598996 0.898888 0.198077 0.598039 0.6 0.199228 0.499771 0.499901 0.400688 0.300787 0.299423 0.799381 0.899379 0.399372 0.699937 0.799315 0.20075 0.500005 1 0.899988 0.399998 0.100451 0.500104 0.599874 0.299126 0.898266 0.798913 0.999954 0.698868 0.498681 0.500154 0.29999 0.697628 0.300965 0.89511 0.898955 0.495396 0.399925 0.297659 0.294619 0.49643 0.996852 0.596817 0.697666 0.974781 0.382722 0.98036 0.186798 0.683247 0.465906 0.180567 0.384487 0.775056 0.0831835 0.826167 0.3336 0.82099 0.835821 0.736934 0.895676 0.234303 0.0355617 0.301232 0.622571 0.64345 0.440975 0.817558 0.0762985 0.678362 0.00418249 0.350234 -0.0230777 0.783433 0.83919 0.370495 0.521975 0.625314 0.757606 0.20368 0.586531 0.144989 0.280444 -0.121545 -0.0353336 0.654889 -0.178216 0.152732 0.623461 0.285095 -0.281805 0.0433216 -0.101071 0.344231 0.350994 0.476961 0.241316 0.323748 -0.160371 0.173043 -0.400676 0.249813 -0.213856 -0.0733186 -0.34275 -0.111077 -0.16472 -0.121359 0.378491 0.2347 0.0706552 0.17787 0.046902 0.0452199 0.124549 -0.0578979 -0.0159681 -0.282722 0.336252 -0.456831 -0.157764 -0.438042 0.0369283 0.104611 -0.0409701 0.0524053 0.286181 -0.0973117 0.116345 -0.287497 -0.294632 0.00781078 0.175457 -0.265334 -0.270626 -0.390047 0.0646729 0.0311792 0.237645 -0.472891 0.0608878 -0.160257 -0.120759 0.208061 -0.422902 -0.497682 -0.411236 0.198337 -0.464571 -0.615837 -0.275611 0.146126 -0.554299 -0.328987 -0.580619 -0.278733 0.115493 0.335985 -0.0151457 -0.398425 -0.438837 -0.113547 0.0801802 0.10362 -0.262449 0.238164 -0.0966053 -0.109928 -0.121555 -0.0722615 -0.313938 0.0919596 0.0159839 0.149316 -0.384694 0.185942 0.163433 -0.280942 0.0268371 0.0444627 -0.023959 -0.2626 -0.48772 -0.17387 -0.0557949 0.157285 -0.127494 0.205598 -0.399466 0.105716 0.26569 -0.141573 -0.394414 0.0519302 -0.456149 -0.0122817 0.204008 0.339892 0.0913631 0.301 0.0548179 0.010174 0.149341 0.116423 0.134634 0.181806 0.0114905 -0.210563 0.29165 0.497421 0.198646 -0.011151 -0.289496 0.0076799 -0.125602 0.458036 -0.126609 -0.188444 0.0977219 0.214727 -0.0232367 0.461171 0.120777 -0.185743 0.146675 0.419136 0.535316 -0.0449468 0.269932 0.0364413 0.667161 -0.0134064 0.0420337 0.395451 0.108875 0.545052 0.486385 0.252407 0.397689 0.308031 0.553428 0.463007 0.00120436 0.687032 -0.0025333 0.840417 0.551265 0.0460947 0.53202 0.555716 0.122192 0.255225 0.759342 0.601348 0.806978 0.0829649 0.175241 0.581876 0.778916 0.875017 0.800987 0.983239 0.985106 0.366633 0.772836 0.494972 0.597027 0.898654 0.0974256 0.194593 0.601392 0.99723 0.296269 0.59289 0.195712 0.599993 0.598874 0.498714 0.699088 0.800375 0.999821 0.698418 0.997209 0.398033 0.5001 0.995746 0.295592 0.997303 0.297987 0.59705 0.396876 0.496841 0.197936 0.396549 0.596595 0.80011 0.599751 0.0999994 0.0993113 0.400069 0.0991747 0.699999 0.598879 0.100523 0.501833 0.600997 0.901511 0.299016 0.799316 0.698853 0.49782 0.299102 0.100048 0.899052 0.99669 0.785092 0.587416 0.383732 0.290904 0.0861816 0.673252 0.785943 0.484738 0.17798 0.384123 0.450495 0.35897 0.449893 0.860703 0.463528 0.618029 0.259782 0.361073 0.440451 0.742103 0.746349 0.175901 0.242286 0.494009 0.0840882 0.395175 0.670085 0.871299 0.21197 0.542592 0.657378 0.727364 0.415064 0.267905 -0.0102104 0.540203 0.356315 -0.0331966 -0.126434 0.136619 -0.148867 0.283362 -0.303663 -0.144214 -0.106828 -0.0902037 0.336792 0.63869 0.0861078 0.383626 0.434712 0.287706 0.0196547 -0.37033 0.0127152 -0.0263471 -0.228122 0.193824 0.227615 0.200675 -0.452353 -0.108951 -0.262517 0.218132 0.439536 -0.285201 -0.432758 0.214805 -0.410356 -0.254135 -0.0472773 -0.112249 -0.0821641 -0.406704 0.152551 0.062427 -0.230188 0.194442 0.136448 -0.39796 -0.380247 -0.585112 -0.535314 0.161155 -0.491777 -0.640563 -0.580717 -0.402085 -0.16978 -0.259933 -0.361778 -0.0272053 0.179061 -0.20482 -0.0206908 -0.465618 -0.00576485 -0.22706 0.0491436 0.0259219 -0.462956 -0.227649 -0.0540472 -0.102965 -0.74539 -0.171229 0.00963472 -0.0419686 -0.547442 -0.498879 0.0709769 -0.0595339 0.0233322 -0.37765 -0.770051 -0.56556 -0.312163 -0.186638 -0.260431 0.308304 -0.308764 -0.802191 -0.269659 0.0183709 -0.347002 -0.182733 -0.249884 -0.802771 -0.228276 0.210477 0.11825 -0.122901 0.058203 -0.587872 -0.0199609 -0.510618 -0.0821839 -0.831006 -0.299187 0.0200569 -0.432493 -0.0426321 -0.640666 0.0222701 -0.539976 -0.267107 -0.14689 -0.579388 0.165724 0.0664579 -0.0669542 -0.467655 -0.198622 0.00460565 -0.293045 0.177024 -0.430132 -0.228083 0.050012 -0.377843 -0.04854 0.00473409 0.0583081 0.052782 -0.518898 -0.0968225 -0.683075 -0.15951 -0.20897 0.102218 -0.121759 0.107503 0.164659 -0.270609 -0.0478118 -0.21576 -0.565955 0.180097 -0.0134417 -0.310445 0.0981782 0.293438 0.0121633 0.280534 0.0580042 -0.0207149 -0.376584 0.149059 -0.135076 -0.334869 0.0574799 0.285713 0.576852 -0.377454 -0.0920897 0.302432 0.475867 0.567235 -0.0376851 -0.374433 0.444945 0.322721 0.065651 0.508632 0.258709 0.186855 -0.129477 0.516221 0.592107 0.167707 0.191974 0.699827 0.210325 0.168804 0.226347 0.738571 0.706275 0.511018 0.557956 0.732549 0.35952 0.269411 0.573552 0.860941 0.94761 0.315784 0.672659 0.66279 0.258165 0.343237 0.784107 0.890546 0.293855 0.990094 0.686842 0.802621 0.289608 0.98219 0.890166 0.781946 0.697464 0.0994793 0.998999 0.800497 0.397459 0.100427 0.998029 0.797134 0.896666 0.0978325 0.4 0.499997 0.8 0.7 0.600288 0.0990187 0.999184 0.499956 0.599859 0.101479 0.598737 0.598999 0.497995 0.600674 0.799139 0.898492 0.79903 0.597841 0.197989 0.998141 0.295347 0.796741 0.495797 0.892462 0.792458 0.790359 0.592697 0.194477 0.990683 0.688005 0.775434 0.0829466 0.870414 0.175046 0.470649 0.857058 0.880003 0.676295 0.864895 0.0625665 0.790785 0.613168 0.589376 0.621857 0.302783 0.725264 0.102968 0.493462 0.658923 0.0577534 0.775174 0.40467 0.671371 -0.0910393 -0.00101685 3.94358e-06 -0.0946247 0.0928665 0.219941 0.398224 0.350145 -0.239179 0.125207 0.658455 0.437717 0.509113 0.372733 0.27202 -0.167464 0.427016 -0.392143 -0.214578 0.33875 -0.239721 0.30288 -0.284139 0.413764 -0.248894 -0.278021 -0.23827 0.0166861 0.317366 0.0949654 -0.42666 -0.279943 0.320499 -0.405401 0.00992329 -0.156285 -0.606607 -0.0945551 -0.431673 0.0515206 -0.192943 -0.367046 -0.599982 -0.268863 -0.00443798 -0.482089 -0.298317 -0.591928 -0.469078 -0.176579 0.0101787 -0.576307 -0.116328 0.112652 -0.283482 0.0373738 -0.0180358 -0.317488 -0.649156 -0.0829671 -0.485354 -0.210114 -0.0233927 -0.534912 0.0609762 -0.317982 0.20657 -0.352585 -0.743821 -0.278076 -0.415573 -0.71678 0.0408821 0.0134234 -0.227388 0.0925111 -0.42214 -0.327681 -0.221315 -0.511656 -0.131369 -0.834464 -0.521281 -0.459743 -0.355972 -0.579625 -0.135561 -0.59321 -0.29891 -0.0607718 0.0656663 -0.59136 -0.484429 -0.58328 -0.0906701 -0.0701869 0.320695 0.0691826 -0.235969 -0.356693 -0.504234 -0.44083 -0.21823 -0.198602 -0.416985 -0.269049 0.381038 -0.51603 -0.3363 -0.478521 -0.062536 -0.941451 -0.746754 -0.13982 -0.266216 -0.698344 -0.212239 -0.252188 -0.318266 -0.613597 -0.276495 0.0219644 -0.261572 -0.39331 -0.305498 -0.305394 0.241807 -0.52112 -0.137256 -0.0214721 -0.24274 -0.221968 -0.462553 -0.169457 -0.541625 -0.0270009 -0.201171 -0.0373582 -0.0422885 -0.344882 0.0409783 0.1907 -0.242693 -0.647794 -0.445483 -0.258549 0.0156758 -0.668062 0.176605 -0.599492 -0.331993 -0.470487 0.0510207 -0.448409 0.0981455 -0.0770992 -0.397832 0.123421 -0.462486 -0.0441821 -0.530177 -0.189583 0.0560707 0.202815 -0.419232 0.170124 0.170183 0.0928132 -0.21544 0.355205 0.150771 0.338184 -0.0417086 -0.251464 -0.358246 -0.0972004 0.328681 0.160656 0.329051 0.274823 0.349229 -0.060852 0.345322 0.261797 0.308508 0.190982 0.0687214 0.427121 0.846555 0.445208 0.71917 0.648771 0.175467 0.147595 0.83395 0.118378 -0.0349638 0.637539 0.346306 0.754308 0.444424 0.24401 0.753487 0.0562154 0.635905 0.632549 0.711478 0.981825 0.184932 0.98853 0.884718 0.277199 0.708467 0.582522 0.582996 0.277477 0.0787498 0.599943 0.299585 0.498999 0.899994 0.89957 0.400784 0.0985327 0.49847 0.901216 0.298917 0.0983934 0.999457 0.498005 0.598714 0.798142 0.399189 0.298939 0.699492 0.798122 0.798121 0.997739 0.199999 0.501263 0.597587 0.298138 0.198989 0.798194 0.298691 0.397911 0.296498 0.474042 0.793801 0.185037 0.370616 0.971984 0.970494 0.481642 0.278583 0.376103 0.765994 0.132113 0.666055 0.946913 0.634184 0.120279 0.112536 0.154712 0.54001 0.432034 0.295881 0.236923 0.48615 0.245179 0.143574 0.520464 0.75246 -0.0343662 0.725178 0.506767 0.148276 0.696721 0.676699 -0.156396 0.630649 0.196169 0.502813 0.64455 -0.171745 0.365105 -0.0372441 -0.367071 -0.101886 0.0508292 0.139842 0.119286 0.160357 -0.203177 -0.217967 0.279842 -0.41811 -0.145105 0.207046 0.152203 0.277711 0.174647 -0.227488 -0.340319 -0.0898273 0.322103 0.142727 -0.219634 0.246257 0.193687 0.0432202 -0.23887 -0.594104 -0.59008 -0.118559 -0.0096391 -0.73091 -0.161391 -0.209492 -0.175928 -0.154007 -0.323522 -0.263356 -0.266503 -0.43179 -0.294199 -0.624744 -0.726521 -0.315883 -0.566212 -0.477555 0.119016 -0.218467 -0.240147 -0.463835 -0.240812 -0.394296 -0.297647 -0.579934 -0.443822 0.131931 0.0243725 -0.426835 -0.356761 -0.339604 -0.0469097 -0.105721 0.128636 -0.731392 -0.299167 -0.125131 -0.0888196 -0.334421 -0.60575 -0.477119 -0.434869 -0.171206 -0.149879 -0.366634 -0.362668 -0.0354937 -0.480742 -0.629295 -0.596583 -0.638852 -0.337008 0.105545 -0.674949 -0.658429 -0.602884 -0.113297 -0.3416 0.0410586 -0.396571 -0.156351 -0.671929 -0.405465 -0.0917615 -0.676123 -0.565195 -0.546778 -0.298208 -0.354762 -0.774946 -0.199499 -0.728537 -0.16843 -0.416558 -0.590282 -0.493112 -0.565189 -0.396899 -0.273188 -0.616847 -0.698818 -0.249409 0.145135 0.102854 -0.359582 -0.142374 0.0967976 0.0413266 0.00353622 -0.898913 0.0148053 -0.697191 -0.341271 -0.0652005 -0.214636 -0.1202 -0.0708571 -0.678099 -0.741165 -0.726104 -0.6711 -0.305978 -0.501177 -0.347417 -0.33939 -0.517762 -0.321138 -0.30965 0.00705405 -0.869567 -0.598216 -0.355534 -0.0911424 -0.640067 -0.474875 -0.254606 -0.0527189 -0.0328375 -0.456776 -0.144739 -0.546246 -0.226808 -0.35703 -0.154738 -0.160339 -0.41168 -0.0470445 0.0822742 0.020117 -0.748501 0.251592 0.0272721 -0.119886 0.158012 0.466936 -0.0964842 0.392243 -0.280944 0.538576 -0.50244 0.450279 0.448717 -0.445851 -0.0940648 0.0953045 0.517519 0.122513 0.478151 0.6437 0.591513 0.177734 -0.177165 0.18686 0.044426 0.746584 -0.0538999 0.332992 0.734172 0.836076 0.52507 -0.0475677 0.551976 0.68716 0.152194 0.0411149 0.251236 0.553639 0.833405 0.660782 0.149661 0.138742 0.256392 0.42669 0.885001 0.0870166 0.285998 0.388812 0.677984 1.01001 0.786251 0.985153 0.681288 0.482686 0.300187 0.599624 0.0967619 0.499137 0.699092 0.799794 0.498297 0.997971 0.699071 0.499143 0.900066 0.599965 0.799988 0.899978 1.001 0.198769 0.898923 0.998349 0.70046 0.500617 0.0939485 0.798946 0.196389 0.894289 0.392317 0.692992 0.0974852 0.797282 0.396161 0.690554 0.855841 0.286291 0.0771216 0.559508 0.948154 0.159966 0.670509 0.569466 0.164732 0.938108 0.704679 0.263377 0.930564 0.00187224 0.587196 0.882804 0.830133 0.119097 0.0132754 0.364975 0.304662 0.193885 0.539131 0.325415 -0.00688672 0.461643 0.360699 0.416039 0.587761 0.401971 0.339997 -0.136619 0.466808 0.237527 0.00644769 0.3695 0.21025 -0.127179 0.324918 -0.216924 -0.262098 0.383944 -0.299332 0.0755281 -0.184512 -0.367462 0.321873 0.125347 -0.10534 -0.0309052 0.0383698 -0.0869737 -0.316598 -0.203837 -0.493816 -0.0713901 -0.390598 -0.572167 0.333087 -0.0146662 -0.534437 -0.232004 0.0402684 -0.246068 -0.596907 -0.558516 -0.512891 -0.218082 -0.406062 0.00521842 -0.591505 -0.528037 -0.361064 -0.583976 -0.138824 -0.0106452 -0.67214 -0.349494 -0.22243 0.0548364 -0.709796 -0.547741 -0.57315 -0.539655 -0.209811 -0.479477 -0.18969 -0.150058 -0.194654 0.040366 0.056173 -0.371854 -0.522872 -0.0549967 0.0457426 -0.0938339 -0.11796 0.0787887 -0.190285 -0.256729 -0.0517089 -0.172875 -0.670326 -0.407026 -0.646778 0.122726 -0.135663 -0.613065 -0.431182 0.105751 -0.414589 -0.224861 -0.347485 -0.664539 0.0166069 -0.511506 0.0872305 -0.0588742 -0.0356327 -0.066989 0.0894601 -0.43132 -0.551266 -0.169437 -0.075312 -0.548116 0.12147 -0.363833 -0.26099 -0.165085 -0.231507 -0.332491 -0.277076 -0.206194 -0.4037 0.0397444 -0.59507 0.113609 -0.781175 -0.438354 -0.153216 -0.347738 -0.14 -0.279171 -0.679403 -0.00471389 -0.443401 -0.299427 -0.334034 -0.456997 -0.658016 -0.380042 -0.491504 -0.505053 0.0194662 -0.700523 -0.874984 -0.122779 -0.644857 -0.612099 0.0555873 -0.411431 -0.466557 -0.571358 -0.573776 -0.0682284 -0.41284 -0.347017 -0.630796 0.0973852 -0.493844 -0.439615 -0.0267738 0.000533946 0.0143382 -0.0052105 -0.100323 -0.555557 -0.587227 -0.341485 0.0393395 -0.105108 -0.357637 -0.717388 -0.562506 -0.395547 -0.853252 -0.644937 -0.224539 -0.361619 -0.18852 -0.267904 -0.294405 0.0273153 -0.628136 -0.220255 -0.612772 -0.0669118 -0.469741 -0.269609 -0.328889 0.373535 0.23974 0.00468187 0.0549451 0.321398 -0.0617028 0.317664 -0.0882735 -0.120594 0.232611 0.306616 0.424739 0.444115 0.0964881 0.629474 0.341282 0.0969729 -0.145256 0.0621589 0.563767 0.279357 0.738247 0.578694 0.556799 0.423362 0.455648 0.176554 0.412768 0.161093 0.655808 0.163708 0.444537 0.273234 0.0511924 0.567971 0.159601 0.358112 0.0739585 0.944101 0.789672 0.893527 0.692062 0.197536 0.1857 0.314229 0.291121 0.0925861 0.583926 0.988419 0.79928 0.299223 0.999695 0.199983 0.696963 0.800631 0.697643 0.599776 0.0982588 0.796997 0.499012 0.799046 0.997964 0.19923 0.200108 0.299453 0.199848 1.00005 0.299991 0.098143 0.394713 0.900869 0.795373 0.69488 0.0951951 0.294229 0.195898 0.0956501 0.496452 0.0913632 0.957923 0.990147 0.281745 0.259097 0.062863 0.657081 0.974892 0.282934 0.0719254 0.844214 0.704586 0.864167 0.534992 0.895045 0.881836 0.58773 0.92788 0.823777 0.110246 -0.0305714 0.478827 0.890756 0.630495 0.684993 -0.045465 0.16229 0.540169 0.505025 0.684754 0.596271 0.0151201 0.249263 0.610372 -0.163088 0.150036 0.382009 0.483817 0.34238 0.239784 0.120461 0.0498052 0.532956 -0.0404665 -0.210235 -0.179522 0.170402 -0.331364 -0.434235 -0.238187 -0.321843 -0.696108 -0.106196 -0.204463 0.0645742 0.17203 -0.209509 -0.420586 0.198948 -0.297821 -0.348946 -0.239015 -0.0481054 -0.415536 -0.850997 -0.0520747 -0.0708848 0.118132 -0.0295622 -0.500672 -0.501504 -0.244322 0.137017 -0.153638 -0.227455 -0.152626 -0.369013 -0.00114427 -0.132183 -0.169518 -0.025056 -0.636451 0.0758548 -0.00321365 -0.235421 -0.12749 -0.0892275 -0.359671 -0.241335 0.123822 -0.289478 -0.432442 0.0170648 -0.578468 -0.751778 -0.239811 0.120537 -0.16429 0.134921 -0.197573 -0.322411 -0.297637 0.102821 -0.219634 -0.0259522 -0.485997 