-0.823809 -0.287994 0.472248 0.314084 0.302578 0.620324 -0.267222 -0.195234 0.361663 0.203829 -0.426822 0.56355 -0.213174 -0.710272 -0.29027 -0.301487 -0.420332 -0.733139 0.422784 0.880033 -0.700385 0.0858659 0.554583 0.340822 -0.930556 0.262746 -0.490159 0.875466 -0.423626 0.873292 -0.744167 -0.153092 0.0690774 -0.443385 0.32306 -0.830093 0.357912 0.513298 -0.197979 -0.670957 0.8159 0.51135 -0.650949 -0.630065 0.381395 0.87323 -0.819827 0.899882 0.550454 -0.510164 0.0778259 0.0906796 -0.614627 0.810998 -0.61846 -0.325682 -0.490642 -0.144869 0.996591 0.946149 0.108557 0.195787 -0.608386 -0.235681 0.930892 -0.0281028 -0.405857 0.547273 0.288141 -0.114979 -0.800569 0.283891 -0.946518 -0.798575 0.360191 0.512661 0.662357 -0.252725 -0.206471 -0.655153 -0.883584 -0.09082 0.779649 -0.549823 0.972348 0.641013 -0.838034 0.060794 -0.644333 -0.543826 -0.656154 0.975194 -0.0472629 0.434053 0.29314 0.547765 -0.988742 0.205886 -0.460428 -0.298659 -0.656516 -0.0152135 -0.824708 -0.0827059 0.322117 -0.474823 -0.144685 -0.758757 -0.117215 -0.840266 0.796585 0.281542 0.524197 -0.226326 -0.220539 0.208567 -0.691177 0.819851 -0.85442 0.75388 -0.141346 0.315691 -0.199649 0.216441 0.359643 0.83335 -0.789431 -0.549725 -0.438686 -0.486338 -0.593314 -0.122336 0.774508 0.0589387 0.978756 -0.518596 -0.128455 0.732275 -0.914723 0.806116 -0.709964 0.36115 -0.559087 0.961956 0.0277923 0.334082 0.326037 -0.383831 -0.354561 0.603227 0.583291 -0.997066 0.267885 -0.317751 -0.383527 -0.0815023 0.579893 0.647107 -0.606071 -0.280144 -0.169964 -0.860001 0.444758 0.328799 -0.170008 -0.639649 -0.137891 0.224792 0.952974 0.0719836 -0.699594 0.458824 0.135156 0.602547 0.975811 0.632889 0.874291 0.84089 -0.330361 0.922021 -0.76709 -0.762791 0.723536 0.0543258 -0.166377 0.807476 0.0422203 -0.669005 -0.137542 -0.871894 0.0931205 0.607505 -0.932075 0.337914 -0.0940411 0.301935 -0.238768 -0.860716 -0.92697 -0.600111 0.815335 0.795209 -0.250727 -0.554099 -0.332206 -0.86751 0.651783 0.547263 0.315809 0.541235 -0.939616 -0.624469 -0.679316 -0.0276206 0.817406 -0.836394 -0.193974 0.941209 0.327582 -0.294054 -0.542146 -0.47775 0.557619 -0.639121 0.524971 0.355774 -0.961136 -0.94983 -0.182336 0.644146 -0.137586 0.254905 0.710166 0.150191 -0.316991 -0.980835 -0.861809 -0.799014 -0.281479 -0.0458549 -0.399188 0.688749 -0.251835 0.229121 -0.841557 0.0599524 0.114602 -0.422704 -0.565175 -0.669043 -0.277582 0.291273 0.616004 -0.921477 0.0391046 -0.767395 -0.549567 0.444292 -0.905837 -0.180118 -0.750717 -0.872827 -0.520202 0.0368355 -0.114136 -0.610283 0.351673 0.429384 -0.20475 0.0615023 -0.574935 0.10234 -0.0201004 0.530503 0.983077 0.730552 -0.00445895 0.748218 -0.134839 0.543424 -0.0297234 -0.768848 -0.522999 0.338858 0.5869 -0.947397 -0.214143 -0.528417 -0.904795 -0.146559 -0.678706 -0.134394 -0.694117 -0.164168 -0.823898 0.00110914 -0.406662 -0.239536 -0.995285 0.924762 0.892438 0.960067 -0.975499 0.243981 0.703213 -0.681529 0.0153034 0.132135 -0.915299 -0.709772 -0.680997 -0.683548 0.662 -0.112157 0.840724 -0.904207 0.620419 0.69041 -0.951662 -0.672373 0.708406 -0.167067 0.970938 0.432511 -0.761794 0.0207981 0.200644 -0.604416 -0.917875 0.516579 0.892584 -0.243065 -0.323566 -0.85347 -0.236047 -0.371131 -0.980463 0.302464 0.0944243 -0.320043 -0.327362 0.933497 -0.273494 -0.856292 0.76028 0.553458 -0.935004 -0.18469 -0.0331539 -0.759462 -0.922954 0.0527494 -0.458786 -0.366117 -0.708569 0.775388 0.295773 0.933338 -0.197014 -0.53156 -0.397867 0.904198 -0.735113 0.175552 -0.603948 -0.126899 0.894572 -0.499522 0.17981 0.731678 0.4701 0.628463 -0.988085 0.926712 0.33554 -0.725087 -0.484759 0.475822 -0.601753 -0.254708 -0.124195 -0.0449108 -0.878686 0.892776 0.841935 0.502604 -0.46351 0.141214 -0.272293 -0.177744 -0.765314 -0.528295 0.403908 0.176289 -0.628983 -0.570153 -0.69313 0.390727 -0.334833 -0.875882 -0.563889 -0.142913 0.393943 0.223831 0.350995 0.523742 0.401504 0.962064 0.176046 0.908303 -0.908715 0.136046 -0.401989 0.0842424 0.430326 -0.897451 -0.135893 -0.304726 0.950894 -0.221076 0.785993 -0.0604608 -0.256136 0.650789 0.736618 -0.419908 0.464461 0.767494 0.653249 -0.0573169 -0.674221 -0.265032 0.0332716 0.919492 -0.887665 -0.280845 0.941313 0.965324 -0.831551 -0.547159 -0.00614696 -0.903262 -0.605869 0.237191 0.38148 0.878094 0.258 -0.0755067 -0.146264 0.453729 0.789735 0.944163 0.718736 0.532116 0.582111 0.268994 -0.147583 0.36567 -0.210479 -0.552064 0.689321 -0.208799 -0.870061 0.590119 -0.772986 -0.807496 -0.11745 0.364436 0.0295701 -0.477564 -0.110258 0.00283085 0.218216 0.29369 -0.443649 -0.696899 -0.520193 -0.411513 -0.150251 0.62201 0.0625659 0.0388789 0.298936 0.878652 0.777809 0.851023 0.997988 -0.437947 0.997651 -0.212239 0.601165 0.710732 0.659581 -0.825735 0.323135 0.935606 0.263578 -0.0971689 -0.0527578 -0.594782 0.869428 -0.577079 -0.185445 -0.145862 0.099218 -0.249643 0.828277 0.576789 0.13959 -0.540144 0.457712 0.434114 -0.259673 -0.307668 0.731874 0.842207 0.21121 0.147604 0.242045 -0.214014 -0.573959 -0.90881 0.14603 -0.189982 -0.178316 -0.65081 0.158236 0.0242457 0.395651 0.310958 0.558383 0.0973306 0.709434 -0.071944 0.191456 0.2617 0.886506 0.715638 0.459901 -0.685795 -0.387182 -0.253953 -0.668704 0.611211 0.13695 0.66591 -0.664003 0.0761887 0.270107 -0.328827 -0.434109 0.189513 0.385637 -0.472485 -0.323674 -0.00413482 -0.580377 -0.43756 -0.116354 -0.895084 0.871041 -0.336057 0.968363 -0.313358 0.798823 0.283505 0.272586 0.47501 -0.169867 0.436418 -0.299186 0.761794 -0.85163 -0.301386 -0.279186 0.408263 0.502787 0.20982 -0.637634 -0.165892 0.2041 0.671896 0.217405 0.0221318 -0.873602 0.347124 0.440859 0.517469 0.70527 -0.935865 0.747652 -0.570704 0.939454 -0.78927 0.4245 -0.574975 0.390146 -0.25963 -0.693097 -0.259578 0.179992 0.166349 -0.198431 0.17117 -0.00350757 0.564351 0.876475 -0.928801 0.086437 -0.425744 0.0602732 -0.634235 -0.73652 0.398469 -0.552889 0.535166 0.898601 0.799977 -0.309863 0.625896 0.928746 -0.894119 0.0064025 0.244294 -0.147414 0.20522 0.177716 0.561166 0.730159 -0.450141 0.544073 -0.688564 -0.813054 -0.848055 0.00924609 0.78801 -0.591788 -0.40949 0.0471068 -0.147855 0.139132 0.00648618 0.681074 -0.0833089 0.698546 0.0966415 0.504668 0.969125 0.949825 0.13385 0.67057 -0.433542 -0.66065 0.928154 0.898455 0.783749 0.861227 -0.117431 -0.524979 0.346112 -0.931456 0.955093 -0.764685 0.433755 0.0930323 0.635499 -0.416497 -0.141201 0.629033 0.0371091 0.478449 -0.00500862 -0.086977 0.758364 0.470525 0.735645 -0.240655 -0.975679 0.639921 0.59945 0.533095 -0.405194 0.639557 0.592735 -0.816493 -0.20213 0.698736 0.334054 -0.79194 -0.474808 -0.428238 0.0283284 0.658031 -0.785413 0.62472 0.362449 0.173558 -0.114813 -0.239843 0.651535 0.9125 -0.856459 -0.564969 0.747999 0.644387 -0.91925 0.695568 -0.91681 -0.312262 0.426035 -0.897063 0.64869 0.89894 0.431034 0.837845 0.959419 -0.272121 0.941115 0.618514 0.133346 0.150553 0.356249 -0.284512 0.846137 0.748276 -0.415007 -0.0214267 0.345111 0.642011 0.1554 -0.200977 0.411259 -0.486104 0.160242 0.154997 -0.601462 -0.381157 0.23018 0.572832 0.223041 -0.253693 -0.431989 -0.850545 0.377763 -0.698658 -0.0605601 0.534886 -0.0852776 0.196222 -0.338684 -0.0574245 -0.571778 0.941957 -0.370993 -0.838065 0.0964973 0.59802 -0.696745 0.521535 -0.352675 0.776248 0.683276 0.949037 0.379324 -0.321018 0.356029 -0.106902 -0.850217 0.0426164 -0.544846 -0.617078 -0.622864 -0.811976 -0.318028 0.0218416 -0.952554 0.982304 -0.693226 0.951163 0.706404 -0.137942 -0.849814 -0.0952871 -0.541552 0.826833 0.605829 -0.848877 0.977419 -0.563536 -0.377848 -0.466814 -0.50426 -0.181622 0.714356 0.457823 -0.19436 0.654619 0.957498 -0.108497 -0.731974 -0.805543 -0.00522341 0.364821 -0.19797 -0.7513 0.0223869 0.971543 -0.105989 -0.806463 -0.190845 -0.636974 0.582435 -0.0382059 0.680918 -0.241682 -0.519088 -0.946116 0.523566 0.937047 0.757827 0.530333 -0.207907 0.241426 -0.852716 -0.985935 -0.499845 -0.423576 -0.0560711 -0.308417 -0.776253 -0.59031 -0.997197 0.312126 -0.897731 0.768885 0.749247 -0.814556 -0.162733 -0.750244 0.16466 -0.813905 0.693558 -0.995394 0.79236 -0.250223 -0.503726 0.751601 0.743444 0.874963 0.636094 -0.229809 0.685961 -0.877466 -0.936172 -0.0974508 -0.147026 -0.383738 0.293956 -0.445942 0.0398241 0.0407149 0.403572 -0.308048 -0.394035 0.648715 0.0313379 -0.155248 -0.52967 0.245572 0.378742 0.106468 -0.882892 0.210473 -0.789891 -0.869999 0.590126 0.474407 0.851182 0.135483 0.499032 -0.460472 0.194274 0.900385 0.0127721 0.465153 0.68763 -0.232444 0.864463 0.87503 0.346553 -0.358947 -0.649939 0.954658 -0.249306 -0.0103731 0.326548 -0.545636 0.0303879 0.842523 -0.784142 -0.3185 0.896713 0.791278 0.000386413 -0.483881 0.608359 0.990783 -0.777715 -0.611668 -0.00198809 -0.842254 -0.00810121 0.296513 0.447705 -0.42514 -0.0146816 -0.190805 -0.0970589 -0.91564 -0.570182 0.03814 0.899334 -0.913191 -0.879407 -0.321761 0.495557 -0.445661 0.397468 -0.0258138 0.350064 -0.994882 -0.779374 0.740132 0.647075 0.54658 0.0392582 0.353217 0.110909 -0.173663 -0.0603149 -0.27109 0.161498 -0.927191 0.492194 0.384482 0.614465 -0.951082 -0.163143 0.391311 -0.0153082 -0.897919 0.772258 0.356033 -0.757095 -0.867753 0.566458 -0.529783 -0.104409 -0.373887 -0.888339 -0.538179 0.205485 -0.40308 0.795752 0.656572 0.83438 0.644621 0.51555 -0.0413615 -0.952053 0.89959 -0.034359 0.763961 0.643933 -0.881925 -0.806808 -0.904546 -0.00987834 0.556432 0.853096 -0.516777 0.139172 -0.931503 0.212632 -0.924672 0.519615 -0.940448 -0.989921 -0.443698 -0.759493 -0.529071 -0.341403 -0.830028 0.907214 -0.149434 -0.934416 0.745895 0.748654 0.295682 0.68564 -0.382212 0.572101 -0.531509 0.609128 -0.260553 0.634854 0.586806 -0.592034 -0.380287 -0.146007 -0.609332 0.280661 0.32668 -0.297162 0.247826 0.938418 -0.52472 0.109331 0.0659591 -0.310034 -0.765199 -0.25086 0.33517 -0.619209 0.358877 -0.272406 -0.941763 -0.582702 0.168071 -0.269067 0.807435 -0.183337 0.548471 0.0320368 0.775483 -0.887653 -0.0787053 -0.53858 0.64596 0.404939 -0.727947 -0.588966 0.754341 -0.63017 0.179253 -0.172786 -0.108995 0.237031 0.749807 -0.774818 -0.531584 -0.189629 -0.292072 0.672998 -0.53018 -0.563725 0.268278 -0.170943 0.400711 -0.962743 0.244626 0.888241 -0.610543 -0.895435 0.0179369 0.605175 0.0661743 0.67712 0.516073 0.310646 0.649666 -0.62898 -0.74853 -0.10207 -0.0779527 -0.655363 0.276427 -0.185696 -0.774029 -0.665647 0.214273 -0.920567 0.466509 0.637499 0.252059 -0.736419 0.112855 -0.885155 0.136562 0.509265 -0.807712 -0.818562 0.182909 -0.480437 -0.702281 -0.176763 -0.738221 -0.445248 0.584141 0.584873 0.809863 0.444294 -0.231738 -0.426361 0.826509 0.576396 0.13144 -0.537454 -0.129366 0.901941 -0.485956 -0.518646 -0.932263 0.937855 0.322033 -0.573169 0.10282 0.758054 -0.477888 -0.34295 -0.774087 -0.995353 0.64464 -0.90813 -0.754763 0.874521 -0.219834 -0.782704 -0.462266 0.136394 -0.412577 0.0720234 0.0372551 -0.88443 -0.720281 0.269015 -0.757326 0.699069 0.638608 0.978131 0.215086 0.341734 0.00583695 -0.0676293 0.578427 0.0546728 0.286068 -0.574442 0.518692 0.416934 0.946185 0.316826 0.782428 0.567846 0.0180877 0.0263263 0.684236 0.20774 0.0936439 0.537233 0.0947775 -0.400631 0.324297 0.396662 -0.550717 -0.425904 0.430539 0.707572 -0.247941 -0.483196 0.690361 -0.857672 0.55865 -0.609846 -0.053343 -0.0635072 -0.00687043 -0.320997 -0.392641 -0.115163 0.741284 -0.520414 -0.364847 0.36876 0.0564233 0.445764 0.560309 -0.770768 -0.257128 0.765007 -0.521332 -0.977266 0.181101 -0.766145 0.0371782 0.79356 0.29893 -0.941678 0.464982 0.129776 -0.398985 0.245118 -0.463655 -0.72098 0.138074 -0.755365 0.583004 0.699018 0.549066 -0.947087 -0.467933 0.00489951 0.018701 -0.653593 0.802371 0.938319 0.287018 -0.145946 -0.486291 -0.0530838 -0.322769 -0.275934 -0.820304 0.164829 -0.987333 0.125804 -0.0267856 0.453651 -0.180324 0.819624 0.65837 -0.267831 0.00813283 0.495171 0.372 0.341703 0.203525 -0.819475 -0.848872 -0.433062 -0.44377 -0.591746 -0.723043 -0.61354 -0.432736 0.767467 -0.238139 -0.614992 0.701843 0.0889227 0.198738 -0.572406 -0.338134 0.722144 0.383789 0.441528 -0.123898 -0.403789 -0.618399 0.715369 -0.651075 0.181512 0.124208 1.08801 0.224515 0.492521 0.523971 -0.211264 0.0203706 0.445431 -0.957916 -0.222615 0.0661633 0.16024 0.135355 0.384464 0.693019 -0.53793 -0.267569 -0.975958 0.766278 0.537347 -0.363086 -0.931178 -0.867362 0.19458 0.537724 -0.126639 0.0394612 -0.793943 -0.303219 -0.932087 -0.092178 0.28877 0.389548 0.784536 -0.315482 0.532612 -0.717547 -0.765044 1.02508 0.582966 -0.777681 0.441402 -0.301369 0.199878 -0.53631 -0.756026 0.650343 0.867034 0.104877 -0.823418 -0.67254 0.117641 -0.550292 -0.245369 -0.766127 0.17313 0.730602 -0.199396 0.851034 -0.0350241 -0.241045 0.182516 -0.915092 0.422043 0.526133 0.689959 -0.57137 -0.260936 -0.0885889 -0.519437 0.0206113 0.267166 -0.775951 -0.97657 -0.589216 -0.866194 0.348895 0.809472 0.800053 -0.175925 -0.17945 0.686655 -0.0114165 0.427954 0.616792 -0.895748 -0.817134 -0.304595 0.348826 0.999621 -0.654638 0.901948 -0.815286 -0.112078 -0.125074 -0.112279 -0.205385 -0.0928119 0.786052 -0.966994 -0.49406 -0.251169 0.637283 -0.742229 0.139967 0.619528 0.530799 0.0935975 0.104423 0.32598 0.17923 -0.370794 0.367438 -0.778563 -0.182049 0.490422 0.458702 0.226145 0.260635 -0.112193 0.471912 0.828405 0.881088 -0.421927 -0.941098 -0.93206 -0.38507 -0.10761 -0.56031 -0.445791 0.960626 -0.282449 -0.607987 -0.540414 -0.0194107 0.511018 -0.739866 0.51501 0.295089 0.279213 -0.0529958 -0.982769 0.0959576 -0.397132 0.920697 -0.178425 0.12773 -0.379477 0.210929 0.351142 -0.299676 0.03377 0.410956 0.589183 0.689772 -0.893007 0.674104 -0.919664 -0.468019 -0.333459 0.718621 0.930959 -0.775946 -0.898166 0.823688 -0.185961 -0.672298 -0.635636 -0.169766 -0.0413495 -0.0335234 0.970571 -0.852588 0.165474 -0.174562 0.988941 0.738944 -0.210993 0.15393 -0.933983 -0.865434 0.767712 0.765283 -0.594895 -0.574512 -0.470313 0.0284097 0.767499 -0.731896 -0.836291 0.881683 0.521359 0.878987 -0.70463 0.823403 0.41852 -0.954754 0.0640324 -0.0949002 -0.96704 -0.905728 0.327904 0.770389 -0.601787 0.940017 -0.998916 0.598438 -0.966717 -0.950882 0.302477 -0.863373 0.246036 0.44074 0.636092 0.680374 -0.793167 0.737666 0.874057 0.118499 -0.284983 0.0713059 0.875578 0.849537 -0.477022 -0.838718 -0.217205 -1.00692 0.906356 -0.707163 -0.668468 -1.01749 1.2621 0.236376 0.415422 -0.0465972 0.621328 0.553974 0.771264 -0.287955 -1.15216 -0.895575 1.35738 0.245321 -0.18397 -0.592213 -0.865979 0.678027 0.731409 -0.303447 -0.241883 0.169641 0.0187493 0.288138 0.472081 0.763358 -0.149734 0.767837 -0.103113 -0.890268 -0.239043 0.702853 -0.200034 -0.270436 -0.128225 0.603779 -0.315018 0.763824 0.383308 -0.537291 0.731659 0.14854 0.611148 0.104762 0.148239 -1.09344 -0.683001 -0.691283 -0.178415 0.315545 -0.632916 -0.756304 0.308781 -0.442595 -1.13129 -0.697364 -0.186125 -0.0696768 -0.590966 -0.634472 0.888452 -0.0425597 0.839556 -1.12775 0.420659 -0.487773 -0.775239 -0.515638 0.0321729 0.905798 -0.234095 0.275124 0.544821 -0.27184 -0.527421 -0.513938 -0.291878 0.222776 -1.09051 -0.272163 0.0734533 0.0697202 0.223083 -0.813139 -0.0808669 -0.42558 -0.664805 0.261287 -0.701939 -0.167456 -0.782585 -0.656262 -0.28188 -0.374834 0.0673798 0.814413 -1.16508 -0.358212 -0.699963 0.321432 0.32928 0.531899 -0.330971 -0.765055 0.459742 -0.660954 0.588833 0.418407 -0.217533 -0.164841 0.917381 -0.993641 0.42222 0.195153 0.341973 0.362543 -0.513202 -0.622132 0.700048 0.745369 0.742162 0.892085 -0.252838 0.854586 -0.260313 0.710903 -0.1656 -0.15167 -0.513168 -0.610575 0.141511 -0.255602 -0.779077 0.0361438 -0.247504 0.861533 0.622857 0.247955 -1.0198 0.185047 0.304538 0.400154 0.444332 -0.698557 0.873304 -0.723458 -0.634596 0.16404 -0.0637528 0.211359 -0.468894 -0.457523 -0.433392 -0.790027 -0.814024 0.610984 0.334181 0.688074 -0.752005 -0.844004 -0.547504 -0.238522 -0.8077 -0.471693 0.612878 0.0288648 -0.986165 0.621692 0.120094 -0.309143 -0.697506 -0.0902238 0.843679 -0.513752 -0.811026 -0.580862 0.19385 0.733371 0.375308 -0.255551 0.157685 -0.698846 -0.872591 0.0389938 -0.717827 -0.372724 0.274778 0.0208804 0.672681 0.709084 -0.797912 -0.0299405 0.000186195 0.110946 -0.136464 0.727813 -0.500246 -0.0468372 0.771594 -0.299513 -0.0367995 0.922878 -0.993986 0.855471 0.749116 0.268399 0.202775 0.719653 -0.219882 -0.199075 0.565605 0.38806 -0.461354 -0.105951 0.855308 -0.484923 -0.926872 -0.516045 0.402574 0.316107 -0.0256943 0.0668344 -0.898987 -0.424965 0.441412 -0.290453 -0.615317 0.62961 -0.8132 -0.974076 0.257035 -0.614871 -0.454759 -0.78562 -0.631669 0.312455 -0.73545 0.0149265 0.783187 0.422398 0.829541 -0.265567 -0.69387 -0.650697 -0.659482 -0.741594 -0.0662043 -0.783233 0.188167 -0.00199636 0.707527 0.729409 -0.281914 -0.0169898 0.153011 -0.797519 -0.0238301 -0.216368 -1.00869 0.427887 0.752077 0.45747 1.09742 0.849688 -0.0384886 -0.221844 -0.449824 -0.501804 -0.365952 -0.0711977 -0.0453634 -0.244589 1.14489 -0.288701 -0.479625 -0.185698 0.56554 0.589281 -0.348443 0.366102 -0.375811 0.380879 1.25763 0.437222 0.427151 -0.303907 -0.5571 0.0681004 -0.0802023 -0.355938 -0.352157 -0.595358 0.540013 -0.462339 -0.578036 -0.551414 0.347262 -0.135861 -1.00091 -0.192868 -1.11714 -0.756162 0.250649 -0.000254295 0.458745 -0.891769 0.44488 -0.835867 -0.872327 -0.574362 -0.939064 0.0717831 0.0442337 0.00595127 -0.681591 -1.11013 -0.159826 0.508831 0.676567 -0.235262 -0.542018 0.199196 0.0104866 -1.1018 -0.631634 -0.517268 -0.644346 0.389932 0.591935 1.09209 0.832511 -0.026913 -0.516073 -0.645951 0.137339 0.321826 -0.742704 -0.863376 0.235694 0.883169 -0.213453 0.221663 0.367225 -0.00349014 -0.223801 -0.0364679 -0.42811 -0.810199 -0.125736 0.106353 -0.977357 0.595675 0.372567 -0.597896 0.658074 -0.00480305 0.189304 -0.39396 0.661683 -0.595985 -0.214084 -0.244488 0.581549 0.138194 0.300483 -0.505494 -0.602961 0.220366 -0.605952 -0.564443 -0.331736 -0.661979 -0.11609 -0.537139 -0.934539 -0.74608 -1.18546 -0.170424 0.196187 0.995801 -0.801879 0.548513 -0.635511 -0.792092 0.674855 0.0522683 -0.728701 0.240517 -0.695718 -0.435868 -0.00343169 0.54169 0.48493 0.326305 0.773943 -0.97782 0.582308 -1.054 -1.09651 -0.860192 -0.974993 0.22122 -0.6511 0.888862 0.524279 -0.469498 -0.213684 -1.01287 -0.49419 0.795478 0.929723 0.73779 0.539115 0.466755 -0.728145 -0.101534 0.806875 -0.479581 0.329766 0.755479 0.193158 -0.245546 0.202361 0.325667 0.723458 -0.72113 -0.551235 -0.108583 -0.64618 0.827407 -0.736356 -0.366608 -0.470122 -0.2166 -0.76611 0.083236 -0.782304 -0.0850193 -0.342462 0.409773 0.985203 -0.265081 -0.606569 0.335363 -0.0701754 0.208647 -0.187277 0.127708 -0.301393 0.907992 0.875051 0.640106 0.551469 -0.049649 -0.907226 -0.730675 -0.726137 0.0343958 -0.464161 -0.0146137 -0.774533 0.39613 -0.148363 -0.67968 0.328345 0.850879 0.236329 0.363436 -0.937016 -0.22758 -0.542699 0.772152 0.476533 0.0969162 0.84074 0.762152 0.178064 -0.677442 0.275358 -0.885697 0.333837 -0.489251 0.213677 -0.830299 -0.31868 -0.715158 -0.330648 0.834126 -0.486398 -0.170299 0.212957 0.573595 -0.314723 0.894027 -0.0011387 -0.582634 0.638278 0.79458 -0.284866 0.957761 -0.696753 0.395429 0.622995 -0.646431 -0.71205 -0.866126 0.58209 -0.675369 0.663965 -0.984187 -0.113203 0.13376 0.148222 0.589523 -0.360599 -0.368047 0.853606 -0.986128 -0.751622 0.228452 0.617342 -0.0847534 0.89547 0.885798 -0.00136773 -0.417014 0.955351 -0.820802 -0.306927 0.798681 0.735713 -0.893581 -0.616941 -0.992732 0.385984 -0.636792 0.691904 0.0822852 -0.183247 -0.777405 0.390248 0.480314 0.223386 0.356076 0.184685 -0.649232 0.375895 -0.712352 -0.686358 0.323942 -1.15941 0.64028 0.328632 -0.515733 0.390211 0.135926 -0.508764 -0.286553 -0.0773032 -0.145469 0.360716 0.130245 -0.646091 0.00195294 -0.0918585 0.773265 0.0649603 0.120722 -0.179137 0.301085 -0.52847 -0.30902 -0.338755 -0.915719 -0.364 -0.84324 0.115144 -0.816856 -0.31672 -0.484342 -0.115989 0.417226 0.635407 -0.504685 0.740783 -0.129557 0.653228 -0.244992 -0.868122 0.757403 -0.0350423 0.41739 -0.654861 0.142393 -0.697093 -0.959879 -0.737292 -0.709643 0.683615 -0.913505 -0.0854935 0.54682 0.127804 0.0607295 -0.198346 -0.0761057 0.398455 -0.189488 0.497274 -0.527199 -1.10805 -0.939162 -0.633935 -1.09505 0.17664 -0.189019 0.333939 0.355762 0.230511 -0.849999 0.504768 -0.695239 -0.651066 -1.22102 -0.271505 -0.075884 -0.638352 -0.648247 -0.63418 -0.220406 -0.0474204 -1.19293 0.836325 -1.03518 -0.885551 -0.352312 -0.11899 0.35193 -0.729832 -0.196294 -0.430335 -1.19742 -0.542529 -0.135527 -1.09018 -1.22693 0.498378 -0.805057 -0.101393 0.548893 -0.763366 -1.18748 -1.02642 -0.48694 -0.196885 -0.290091 0.632804 -0.876863 -0.208955 0.674486 0.631502 -1.17925 0.760755 -0.563457 -1.05538 0.185055 -0.619048 -0.217908 0.268504 0.258395 -0.221684 -0.438749 -0.185788 -0.691705 -0.0637164 -1.02836 -0.675133 -0.596228 -0.158833 -0.935869 0.756742 0.748965 0.0629164 0.895988 -0.663718 0.141162 -0.225743 0.766065 0.266112 0.865504 0.512663 -0.60801 -0.295881 0.554199 0.646412 -0.239593 0.144941 -0.190366 -1.02049 -0.335984 0.630424 -0.307797 0.821907 -0.713891 0.893039 -0.296875 0.363948 -0.463704 -0.904315 -0.0568931 -0.10027 -0.155549 0.0569168 -0.84517 0.5754 0.127494 -0.800018 0.520666 -0.00353691 0.922162 0.372174 -0.0861965 0.408604 -0.648035 0.104537 -0.339457 0.567503 -0.959412 -0.611439 0.722224 -0.207661 0.223193 -0.115287 0.588498 -0.0280099 -0.332424 -0.259364 -0.673611 -0.444815 0.72507 -0.3095 -0.445294 -0.432029 -0.70559 -0.96954 0.460391 -0.420147 -0.151829 -0.380102 -0.207227 -0.272434 -0.586913 -0.119927 -0.136849 0.716851 -0.418841 0.791964 -0.455262 -0.187163 0.510034 -0.0998497 0.273688 0.838631 0.911849 -0.681855 0.0480195 0.192715 0.0719851 -0.288949 -0.571888 0.803894 -0.166607 0.290942 -0.461818 0.213617 0.583996 0.95548 0.0660676 0.485088 -0.681122 -0.130844 -0.739176 0.231242 -0.453148 0.132011 -0.102812 0.788012 -0.621656 -0.84419 -0.571341 -0.356203 -0.550623 0.983893 -0.270728 -0.59271 0.923427 0.3277 -0.671383 0.835612 -0.271968 -0.0114314 -0.742154 -0.576701 0.0869999 0.20112 -0.896607 -0.735231 -1.01872 -0.995593 -0.809611 0.381826 -0.224354 -0.684711 0.107342 0.771704 0.475353 0.576057 -0.664739 -0.296436 -0.0581733 0.184077 0.517437 -0.552379 -0.967635 -0.219383 0.226712 0.956827 -0.367232 -0.162037 -0.319838 -1.08925 -0.13986 0.0449951 -0.0502455 0.382293 0.63277 0.879457 -0.384235 -0.561787 -0.28676 0.104409 -0.945276 -0.968847 0.364861 -1.15637 -0.403722 1.0715 -0.276535 -0.144564 -0.543224 0.394863 0.45206 -0.165265 0.14489 0.102764 0.517296 0.33848 -0.632473 0.0426642 0.27178 -0.910631 0.183459 0.337336 -0.168364 -1.20584 -1.02616 0.165804 -0.795077 -1.15916 0.381309 0.229735 -0.145545 0.515267 -0.956896 -1.01642 0.515984 0.89738 -0.691103 -0.939347 0.486752 -0.138754 -0.842498 -0.612991 0.377791 0.502444 -0.446018 0.15645 -0.511449 -0.0557631 0.276281 0.744936 -0.223392 0.0469232 0.333231 -0.361942 -1.16687 0.410141 -0.432501 -0.540147 0.657298 0.17128 0.203305 -0.407276 -0.955832 -1.18855 0.160508 0.495806 -0.473512 0.263177 0.236706 -0.507337 -0.404353 -0.279442 0.0790805 -1.15605 -0.976014 0.693133 -0.0487281 0.209949 -0.97992 0.0345891 -0.184686 0.0457524 -0.0781681 -0.423369 -0.381957 1.1231 0.108276 0.228711 -0.830319 0.110349 0.165645 -0.153152 -0.851284 0.036219 0.343754 0.739054 0.22138 -0.731001 0.94743 -1.16065 -0.567877 0.717046 -0.987108 0.507878 -0.378021 0.644412 -0.382123 -0.283962 -0.703071 0.0351313 0.0142659 0.756365 -0.0442774 -0.984029 -0.196406 0.901525 -0.886893 0.351938 -0.402456 -0.500626 0.367136 0.218597 -0.512148 -0.907809 -0.118016 -0.700144 -0.637807 0.272863 0.383231 -0.00858908 -0.785328 0.478017 0.651242 0.589144 -0.483865 -0.0474043 0.898563 -0.959534 -0.601777 0.552329 -0.461431 0.0553071 0.284683 -0.199542 -0.64615 -0.710935 0.646387 -0.928022 -0.125833 0.136311 -0.7747 0.59139 -0.85622 -0.583266 -0.712474 -0.779599 -0.17781 -0.0392097 0.761514 0.0474936 -0.897111 -0.553782 0.131191 -0.930181 0.698461 -0.0363063 0.415113 0.632499 0.943924 0.234748 -0.784355 -0.21577 0.702864 -0.488913 0.672362 0.0277086 -0.580579 -0.378433 -0.482019 -0.514668 -0.914683 0.963633 -0.977526 0.82414 0.263522 0.482287 -0.968907 -0.723385 0.0805805 -0.303028 -0.0497474 0.64223 0.218484 0.677699 0.745622 -0.719779 0.927864 0.0692963 0.946661 0.100592 -0.981139 -0.931864 0.644548 0.594932 -0.134148 -0.545486 0.497304 0.80807 -0.596525 -0.478075 -0.274676 -0.676415 0.129144 0.188888 0.0869524 -0.578618 -0.88687 0.896991 -0.0467138 0.627286 -0.0287847 -0.365899 0.214605 -0.575932 0.845035 -0.854133 0.351142 0.590721 0.577792 0.190379 0.381165 -0.479023 0.423754 0.852457 0.820118 0.496252 0.276166 -0.752346 -0.984092 -0.65298 0.547672 0.123749 0.490322 -0.0935704 0.168622 -0.631454 -0.31456 -0.439616 0.860258 -0.2243 -0.698046 0.398432 0.648539 -0.935202 0.69871 -0.0331275 0.299797 -0.173846 0.164108 0.0455598 -1.06269 -0.472636 -0.140385 0.147092 0.293703 1.12695 -0.864188 0.16447 -0.782915 -0.114849 -0.546248 -1.09553 -0.00280368 0.675789 -0.914517 0.892227 0.59375 0.834206 -0.865754 0.257028 -1.09561 0.435328 0.245634 0.0438116 -0.523169 -0.100805 -1.03432 0.469199 -0.0886888 -0.123835 -0.573549 -0.721369 -0.794102 -0.45049 -1.19259 0.214111 0.260302 0.2359 0.82731 -0.776195 -0.228498 -0.853169 -0.816041 -1.06391 -0.792267 1.51704 -0.99477 0.149442 0.801129 -1.17734 -0.602589 -0.555398 0.405318 0.490973 0.202428 -0.0781944 -0.127989 -0.608074 0.132898 -0.542474 0.499009 -0.686441 -0.466263 -0.484614 -1.24412 0.274453 0.486275 0.280997 -0.553196 0.773307 -1.06454 -0.801004 -0.537029 0.132891 -0.6958 1.0804 -0.548729 -0.824617 -0.678655 0.766846 -0.477552 0.04876 -0.0346077 0.217024 -1.27488 -0.338034 0.282919 -0.181045 -1.05149 -0.851808 -0.767524 -0.48582 -0.134617 -1.00188 -0.369242 0.578956 -1.25258 0.294965 0.147743 0.486997 -1.18394 0.702134 -1.0133 -0.684594 -0.457848 0.886037 -0.705399 -0.967714 -0.0267646 -0.394496 -0.834924 0.593184 0.560494 0.443286 0.302366 0.489276 -0.859236 -1.20875 0.381952 0.432586 -0.182486 -0.951902 -0.0733276 0.0279249 -0.827701 0.549508 -0.72377 -0.474926 0.871358 -0.369801 -0.960689 -1.06081 0.0291293 0.115743 0.149503 0.740772 -0.656793 0.148259 0.765712 -0.425508 -0.118583 -0.972411 0.14437 -0.296985 -0.932664 0.859652 -0.301671 -1.0265 -0.860551 -0.369831 0.767041 -0.00819132 0.0913247 0.80002 -0.776513 0.619899 -0.321385 -0.246998 -0.459411 -0.0631525 -0.411575 0.528274 0.390254 0.875442 0.0287516 0.271128 -0.175229 0.241783 -0.104684 -0.325338 -0.166062 -0.404065 0.548688 0.914455 -0.869399 -0.830932 0.117466 0.218938 0.972628 -0.560799 -0.891763 0.663625 -0.758778 -0.238013 0.628276 -0.309691 0.311692 -0.129722 0.38023 -0.616466 -0.821957 0.17434 0.603699 0.394343 -0.654138 -0.426308 0.118335 -0.0882249 0.924016 -0.455226 0.296275 -0.276811 0.560074 0.141393 -0.929471 0.137174 -0.527656 -0.0319314 0.942465 0.0482145 -0.557321 0.19928 0.970585 0.906713 0.811583 0.566891 0.781406 0.727484 0.480012 -0.64131 0.558307 0.0816362 -0.0740594 -0.555303 -0.949417 0.137198 -0.829796 0.237788 -0.434785 0.542731 0.809506 -0.291878 -0.0175754 -0.394061 -0.0138319 0.491674 0.740138 0.138611 0.421413 -0.495946 0.832535 -0.498655 0.42111 0.582723 -0.207622 -0.167557 0.809655 -0.0788396 -0.206263 -0.751524 -0.999378 0.221418 -0.481029 -0.813881 0.874419 -0.752738 0.182929 -0.833976 -0.887461 0.102075 -0.385628 -0.744253 0.700697 0.0246374 0.115979 0.878924 -0.623974 -0.195385 0.765515 0.0329149 -0.751952 -1.17221 -0.990124 -0.141849 -0.881605 0.158667 0.821517 0.368456 0.494466 -1.07893 -1.06102 0.193116 -0.956416 -0.222339 0.391439 0.28478 -0.63881 0.251173 -0.652796 0.46632 0.37627 0.224211 -0.516544 -0.46672 -0.155379 0.22212 0.0641508 -0.085731 0.100899 -0.759161 0.403483 -0.842741 -0.807593 -0.421806 0.611496 0.993753 -1.06832 -0.805196 -0.470871 -0.144306 -0.994885 -1.06525 -0.476572 -0.338496 -0.130466 0.0369361 0.714537 -0.481177 0.722921 0.135765 -0.532311 -0.254495 0.504899 0.621142 0.3886 1.19149 -0.26576 0.114618 -0.730839 -1.07161 -0.959578 0.404208 -0.745441 -0.787942 -0.509935 -0.300024 -0.566593 0.387442 -0.850245 0.179409 0.613219 0.0078055 -0.134454 -0.401405 0.58855 0.655518 -0.95394 0.0142475 -0.255501 -0.237127 -0.176573 0.321558 0.177868 0.420898 0.300819 0.178679 -0.167395 -0.508362 -0.548463 0.999579 0.274678 0.616363 -0.203623 -1.20607 -0.0633408 -0.682607 -0.618525 -0.201208 0.0913526 -0.524835 0.592311 -0.393341 -0.030521 -0.181419 0.0508431 0.208765 -0.28773 -0.698819 -0.541172 -0.500658 0.32344 0.729717 0.395903 0.00569194 -1.23157 0.263974 -0.459059 -0.540636 -0.968011 -0.232106 0.163913 0.229322 -0.706806 -1.18496 -0.371319 0.0102114 0.420684 -0.462073 0.523024 -0.222209 0.244612 0.00881115 -0.659156 -1.13358 0.512605 1.01157 -0.712411 0.563618 0.418086 0.0379282 0.541533 0.386292 0.384829 0.50952 -0.447274 0.631728 0.39337 -0.168348 -0.383411 0.475001 -0.967975 0.468254 -0.515475 0.135446 -1.02416 0.487953 -0.073701 0.669681 -0.0178636 0.567456 -0.316395 0.0699608 -0.848851 -0.0584123 -0.0814548 -0.379899 -0.0957807 -0.698918 0.653904 -0.315075 -0.843935 0.0020963 -0.344154 0.566706 0.541287 0.553213 0.571689 0.531915 0.344314 -0.791031 0.73875 0.47633 -0.786415 -0.733535 0.211308 -0.00535723 0.729437 0.487273 -0.373001 0.979782 0.748257 -0.736989 0.233379 0.110085 -0.239393 0.419897 -0.206393 0.526072 0.838493 -0.573876 0.666625 -0.00101362 -0.398339 0.303887 -0.255059 0.803586 0.237761 -0.377195 0.503147 -0.198273 -0.5023 0.530551 0.96732 0.415074 0.690315 0.723106 -0.269129 0.627564 -0.311001 0.466417 -0.0514181 0.983158 0.930768 0.584614 -0.661569 0.590894 -0.586885 0.471613 0.178767 -0.882009 0.696438 0.0723583 -0.685771 0.800256 0.906557 -0.0778955 0.144819 0.434004 0.724894 -0.944559 0.645636 -0.636056 -0.590596 -0.854047 -0.66493 -0.422563 0.763563 0.388455 -0.690601 -0.579974 -0.837548 -0.49609 0.239382 0.0520507 -0.465862 0.0097546 0.319129 -0.938296 -0.62286 -0.558863 0.334975 0.481307 0.777984 0.547385 -0.369114 -0.448947 0.346286 0.264919 0.0840546 0.687754 -0.753476 -0.0332232 0.267402 0.505801 -0.749332 0.502466 -0.90484 -0.820061 0.681076 -0.588643 0.148234 -0.603604 0.370914 -1.07748 -0.310866 -0.343098 -0.227202 0.550634 0.497696 0.551082 0.808464 0.248616 -0.493389 0.0616242 0.254891 0.344558 0.80376 -0.988163 -0.696408 0.337741 -1.12499 -1.20388 -0.941833 -0.0610372 0.525415 0.820054 0.237402 -0.745478 -0.320863 0.277186 -0.417183 -0.894268 -0.375833 0.317849 0.469414 0.308959 -0.37156 0.327246 -0.87171 -0.481926 0.722489 0.590437 -0.643625 -0.857794 -1.06243 -0.385574 0.570449 -0.046209 0.449917 -1.18153 0.506992 0.0545747 -0.0975463 0.4082 -0.59107 0.52298 -0.977259 0.531356 -0.0800289 -0.722824 -0.209967 -0.954846 -0.863701 -0.890858 -1.08393 -0.461893 -0.841053 -0.151235 -0.575728 0.274426 0.238433 0.744316 -1.0091 0.666353 -0.297259 0.253111 -0.0447979 0.540939 -1.04089 -0.0704076 -0.812072 0.528495 -0.0664234 0.111278 -0.00731319 0.0131118 -0.482293 -0.424723 0.520989 0.688355 -0.98249 -0.173191 -0.677644 -0.463893 -0.0678106 -0.0396194 -0.879772 -0.864707 -0.837868 0.17332 -0.00612957 0.265775 -0.784317 0.457358 -0.132896 -0.0504835 -0.507783 -0.325359 -0.261186 0.157743 0.441274 0.102765 -1.06922 0.558595 0.382918 0.790408 -0.958144 0.014237 -1.09855 -0.171553 -1.09147 0.394427 -0.599851 -0.437112 -0.747922 0.575126 0.0370817 -0.338876 -0.0294475 -0.449603 0.0650518 -0.473425 -0.795085 -0.695354 0.644503 -0.420367 -0.748678 -1.08196 0.258938 0.0885455 -0.221204 -0.981104 0.814817 0.379785 0.496492 -0.472481 -0.346673 -0.901583 0.332315 0.688503 0.609193 0.018418 -0.956174 0.342459 -0.0833161 0.650132 -0.875675 -1.01937 0.68119 -0.937548 0.408191 -0.302039 -0.861887 -0.306874 -0.320797 -0.679324 0.372089 0.812167 0.228361 -0.309169 0.52942 -0.866512 -0.876397 0.295665 0.702442 0.359251 -0.497347 0.883271 0.529038 0.370558 0.00309687 -0.327333 -0.0956899 -0.34724 0.08878 -0.36226 -0.0544865 -0.56843 -0.223905 0.10557 -0.180285 -0.586293 -0.335678 -0.952916 -0.599619 -0.166603 0.912002 -0.967853 -0.872779 -0.455468 -0.757546 -0.818725 0.000921505 -0.076387 0.927505 -0.844382 -0.417314 0.926221 0.812858 -0.809327 -0.0030052 -0.932706 0.302241 0.0820831 -0.0708041 -0.577388 -0.636052 -0.812597 0.627375 -0.367719 0.526885 0.427824 -0.0960522 -0.101221 0.885207 0.284599 0.131881 0.984187 0.0895842 -0.193795 0.246659 0.21405 0.364214 0.596966 -0.252747 -0.511485 0.481804 0.829553 0.690685 -0.759137 -0.211968 -0.776243 -0.289562 0.494802 0.189022 -0.866651 -0.0158132 0.832808 0.140633 0.312062 -0.739913 0.341438 0.69418 -0.737097 -0.149587 -0.0895485 -0.574859 0.947799 0.603576 0.487315 0.481293 0.804344 -0.948467 0.154978 0.604452 -0.665264 -0.927508 -0.767685 -0.924493 0.568442 -0.739808 0.458869 -0.299065 0.284591 0.797198 0.0244696 0.884493 0.0893983 -0.604332 -0.940401 -0.391342 0.0593478 -0.912416 0.83189 -0.517596 -0.0775224 0.844652 0.507012 0.647662 0.0996885 0.00269208 -0.612917 -0.662863 -0.551425 0.668993 0.671278 -0.823756 0.334053 -0.602009 0.156592 -0.222616 -0.411334 0.583519 0.202042 -0.287758 -0.197634 0.440494 0.50025 -0.0920087 0.0104468 -0.907615 -0.574484 -0.818536 0.237446 -0.69983 0.601121 0.141872 -0.611975 0.442636 -1.04259 -0.696184 -0.479506 -0.064972 -0.433934 -0.15399 -0.79213 0.531361 0.748695 -0.471325 -0.958841 -0.642259 0.488391 0.312711 -0.388979 -0.133018 -0.328515 -0.699695 0.452939 0.186817 -0.411444 -0.203621 1.35356 -1.08569 -0.583598 -0.0640491 -0.391894 -0.64295 0.321017 0.0209353 -0.54108 -0.7562 -0.445209 -0.632496 -0.190741 -0.816464 -0.715568 -0.565891 0.388218 -0.239561 0.682933 0.368545 -0.546219 -1.02608 -0.119502 -0.617925 -1.2181 0.212684 -0.325652 -0.590975 0.699999 -1.13484 0.787088 0.523592 -0.883558 -0.51688 -0.484393 -0.904917 -0.301938 0.15245 -0.0283512 0.299223 0.925678 -0.76103 -0.763667 -0.415928 0.688219 -0.772506 -0.780179 -0.807005 -0.591028 -0.110279 -0.00401391 -0.109857 -0.943593 -0.887798 -0.204384 0.640587 0.165232 -0.583307 -0.0848382 -0.253802 0.251856 0.222575 0.454796 -0.752273 1.09012 0.655173 0.365256 0.30797 -0.353869 -0.466936 0.285549 0.553107 -1.09479 -0.709516 -0.0728561 -0.345273 -0.667835 -0.317147 -0.572351 0.619903 -1.00374 0.0881926 -1.06607 0.596465 1.08845 -0.660326 0.558539 -0.217649 -0.39831 0.4824 -0.286301 -0.632628 -0.707129 -0.787538 -0.956217 -0.747023 0.138051 -0.040115 0.123656 0.602286 -1.16384 0.364034 0.744203 -0.436124 -0.764802 0.906188 0.554175 0.884515 0.905056 -0.925229 -0.479811 0.823964 0.506904 -0.677933 -1.10115 0.116823 -0.746442 0.705109 -0.134036 0.652187 0.602049 0.442685 0.246833 -0.676351 -0.963202 -0.915955 0.712284 -0.529795 -0.755903 -0.858104 0.302368 -0.903149 0.512155 -0.142926 0.628009 0.729494 0.822119 -0.944301 -0.0778559 -0.537525 0.659842 -0.889326 0.93715 0.95063 -0.936275 0.961654 -0.994509 -0.588856 -0.357139 0.102715 0.0174931 -0.376416 0.572723 0.597041 0.419763 0.930799 0.581784 -0.932263 -0.76884 -0.763004 0.967286 0.701715 0.0300563 -0.990053 -0.414733 -0.753699 0.950408 -0.720739 0.857441 -0.986984 0.6944 -0.362739 -0.233529 0.875442 0.533635 0.238638 -0.140908 0.267262 0.28232 -0.200508 -0.767876 -0.805923 0.335615 -0.398326 0.596476 0.209872 -0.351013 -0.521007 -0.880122 0.434034 -0.297942 -0.140585 0.638296 -0.430783 0.70385 -0.313247 -0.482135 -0.171068 -0.934442 0.480838 0.556499 0.0904347 0.179111 0.37489 -0.390729 -0.34034 -0.250452 0.0213649 0.154945 0.44827 -0.101378 0.562092 -0.714575 -0.893399 0.074547 -0.171474 -0.0254302 0.676712 -0.876454 0.128423 -0.307173 0.449926 -0.602205 0.534451 -0.545246 -1.06283 -0.557949 0.543351 -0.587913 0.718317 -0.0119879 -0.406815 -0.664896 -0.535315 -0.443075 0.827203 -0.791503 0.889591 -0.366265 -0.677539 -0.715632 0.886796 -0.50923 -1.11444 -0.92371 -0.974594 0.419425 -0.19333 -0.220784 0.68547 0.292053 0.383644 0.183478 0.238952 -0.341713 0.492017 0.719485 0.256265 -0.602515 0.109859 1.11763 -0.36419 -0.310091 -0.213352 0.31782 0.45593 0.189188 0.5063 -0.190613 -0.832956 0.497761 -0.109566 0.617971 0.62245 -0.0678402 0.142039 -0.214547 0.332496 0.626632 0.0746658 0.621722 0.399201 0.297998 -0.79236 -0.953809 -0.640779 -0.398341 -0.862177 0.0406307 0.236027 0.897346 0.565372 -1.14694 -0.744791 -0.16387 0.363936 -1.04367 0.156069 -0.0417764 0.226743 -0.276153 0.447916 -0.54342 0.330843 -1.3684 -0.945271 -1.01648 -0.598479 -0.766938 0.127926 0.546976 0.675656 -1.12132 0.248895 -0.169983 -0.130391 0.425192 -1.29286 0.573154 -0.340249 0.167143 -0.990331 -0.888053 -1.21464 0.781536 -0.787913 0.505486 -1.22091 0.125448 0.39206 0.719469 -0.0217356 0.16737 -0.173445 0.413789 0.636917 0.337067 -0.484642 -0.668937 0.35379 -0.281156 0.153405 0.33349 0.619595 0.993529 0.264604 -0.141989 0.0671482 -0.911852 -0.0597003 0.0889331 -0.462337 0.02199 -0.81223 -0.342125 0.112349 -0.182965 0.955202 0.560341 0.257623 -0.15911 0.0706873 0.180598 0.413525 0.585668 0.740486 0.0140913 0.168722 -0.455782 -0.539382 -1.19827 0.04551 0.773425 -0.839591 0.345462 -0.593392 -0.308262 -0.320623 0.0593176 0.753505 0.227233 0.146809 0.787825 -0.36728 -0.217625 0.315119 -0.35226 0.0824795 -0.715673 -0.945756 -0.0485583 -0.109659 0.633866 0.204812 0.27995 -0.980745 0.501183 0.206358 -0.616924 0.788526 -0.240969 -0.337718 0.262706 -0.529285 0.117792 0.453223 -0.951921 -0.223938 -0.173447 0.511516 0.114281 -0.914886 -0.562934 0.437467 0.481636 -0.704686 0.331058 -0.568651 -0.261216 0.886491 0.367088 -0.757924 0.0284281 0.874142 -0.0406736 0.182159 0.0480675 0.857151 0.0972328 -0.876781 -0.934904 0.989286 0.32224 -0.497925 0.902946 -0.0101468 0.743733 -0.682356 -0.0492774 -0.863719 0.0332162 -0.869227 -0.837091 0.271815 -0.578014 0.0640764 0.0519054 -0.198925 0.706943 -0.194014 0.694967 0.69085 0.244058 0.603089 -0.266786 0.472839 0.95527 -0.735542 0.365572 -0.763048 0.320077 -0.829418 0.353985 -0.360411 0.397266 0.249833 0.0293727 0.888316 -0.230653 -0.999224 0.250943 0.789671 -0.370092 0.4946 0.573766 -0.341828 -0.296792 0.338618 0.839131 0.394212 0.209115 0.738508 -0.198176 0.502903 0.237092 0.411117 0.501793 0.065599 0.880994 0.649706 0.45035 -0.569976 0.41827 -0.522781 0.399567 -0.0290665 -0.71552 -0.683417 0.798814 -0.673857 0.26689 0.78841 -0.786989 -0.0543913 -0.280118 -0.22872 -0.493006 0.714235 -0.602875 0.341413 -0.104564 0.357603 0.151158 -0.582146 0.0902292 -0.514323 -0.490997 0.118526 -0.609767 0.470262 -0.909488 -0.247344 -0.0215188 0.576898 -0.440213 -0.779579 0.672755 -0.54049 0.00706099 -0.629112 0.83551 0.84919 0.13293 -0.232111 -0.0396006 -0.159129 -0.134312 0.444388 -0.866887 -0.135744 0.36327 -0.16901 -0.805384 0.779272 -0.243712 -0.827721 -0.59529 -0.886626 -0.727162 0.297548 0.66278 -0.261436 -1.01448 -0.395219 -0.308503 0.212122 -0.536463 -0.216514 0.314892 0.737241 0.962695 0.524878 -0.963035 0.241615 -0.346175 -0.527176 0.275799 -0.298227 -0.474134 -0.683292 -0.526392 -0.611429 0.573785 -0.645632 -1.38657 -0.890237 0.434255 -0.933349 1.0731 0.17221 -0.633872 -0.945337 -0.555134 0.165021 -1.0739 -0.547041 -0.490166 -0.802496 -0.8957 0.269005 0.593554 -0.136573 -0.75133 -0.718349 0.388393 -0.848164 -0.543479 -1.12511 -1.1919 -0.864538 -0.729053 0.257982 0.328847 -0.0808898 0.929479 -1.16928 -0.527671 0.4185 -0.776199 -1.11176 1.2883 0.708954 0.0519138 -0.877733 -0.142594 0.000478214 0.0227411 -1.00672 0.079723 -0.661006 -0.296361 0.457777 -1.17008 -0.363964 0.67017 -0.442117 -0.67163 -1.09973 -0.322109 -0.368529 -0.471293 -0.817926 0.1493 0.0995795 0.703349 -0.772855 -0.703514 -0.585382 -0.592756 0.645971 0.0606134 -0.447976 -0.522683 -0.531093 -0.25516 0.234359 0.0340816 0.442809 0.00442803 -0.704887 -0.673525 -0.39456 -0.157523 -0.952495 0.295311 -0.348257 0.0197664 0.737867 -0.00631078 0.44329 -0.0113007 0.758554 0.492215 0.909531 0.413533 0.380653 0.258564 0.513072 -0.271975 -0.23898 0.0306309 0.318695 -0.861288 0.157473 -0.220395 -0.270285 0.608639 -0.661645 -0.407037 -0.541681 0.493274 -0.655447 -0.122991 -0.910816 -0.142651 -0.629721 0.098104 0.75937 0.29614 0.748025 0.0322972 -0.808868 -0.24489 -0.543978 0.0692276 -0.317643 0.991311 0.0650297 -0.811017 0.0712512 -0.762666 -0.297798 0.88385 0.755785 0.280552 0.0541545 -0.762588 0.709865 0.481985 -0.632257 0.892631 -0.540264 0.763328 0.452649 -0.951355 -0.901802 0.608374 0.685772 -0.532584 0.283444 0.0619754 0.000324607 0.481152 0.229074 -0.270349 0.896429 0.974402 0.715338 0.786234 0.433984 0.401284 0.0858819 0.961949 0.2381 0.774742 -0.755985 0.551754 0.491884 0.669284 -0.341819 0.416833 -0.0515667 -0.769788 -0.642181 -0.0302108 -0.085455 0.153504 0.923495 -0.802595 0.262888 -0.302318 -0.454728 0.65449 -0.56251 0.712995 0.900213 -0.55861 0.449639 0.530605 -0.722399 -0.814505 0.81256 -0.79474 -0.449861 0.204046 0.663159 -0.830897 -0.811521 -0.789902 0.669533 -0.618966 -0.122032 -0.340307 0.226097 -0.256962 0.372411 -0.572445 -0.827841 0.341304 -0.270269 0.685108 -0.619577 -0.0388811 -0.253809 -0.839228 0.209415 -0.0874015 0.648338 -0.044623 -0.836702 -0.190941 0.673942 -0.597912 0.338193 0.492541 -0.400101 0.203067 0.393281 -0.870864 -0.600044 -0.512155 0.0530854 -1.12637 0.490384 -0.647539 -0.616145 -0.0343807 -0.0495122 0.152442 0.762316 -0.817785 -0.919782 -0.958556 -0.834466 -0.440979 0.113902 -0.763892 -0.220245 -0.730863 0.00571278 -0.868017 0.786274 0.674087 -0.0517302 -1.22056 0.391427 0.481615 -0.31369 0.1862 0.120043 0.53711 -0.124705 -0.965978 -0.445831 0.0316245 -1.02539 -0.702441 -1.20946 -0.810464 -1.06433 0.180047 -0.971658 -0.325697 -0.289829 -1.31001 -0.994201 0.0241075 -0.181073 0.355461 -0.858513 0.21284 -0.807047 -0.724181 -0.195899 -0.674509 0.367032 0.53022 -0.0649946 0.152499 -1.07354 -0.506404 -0.214646 -0.418673 -1.00161 0.0488433 0.372181 -1.30244 0.138157 0.366476 -0.330766 -0.0447093 -0.968989 -0.274666 0.140624 -0.559072 -0.739337 -0.481172 -0.0900324 0.0424073 0.614523 0.44806 -0.10848 0.216121 -1.24237 0.990423 0.216688 0.568988 -0.366767 -0.10733 -0.951739 -0.193405 0.748198 -0.361436 0.178344 1.23348 -1.13898 -0.393737 0.484356 -0.441048 0.105254 -0.00676523 -0.506283 0.442131 -0.81036 -0.542971 0.343914 -1.08898 -0.80184 0.432155 -0.0851129 0.156386 -0.487194 -0.258926 -0.977499 0.528941 0.430381 -0.297093 -0.641711 0.408465 -1.02455 0.923833 0.321643 -1.04656 0.286912 -0.332902 -0.878681 0.351786 0.735611 -0.549283 0.776062 0.522798 -0.39748 0.353003 -0.782574 -0.418959 -0.964106 0.576806 0.863252 0.16062 0.237161 -0.900616 -0.413285 -0.444299 -0.497621 -0.41016 -0.0584003 -0.378307 -0.398864 0.192693 -0.451783 0.537312 -0.798607 -0.609078 -0.999975 -0.418984 0.835638 0.519341 -0.578246 0.196754 0.697548 -0.688564 0.294632 0.254084 -0.260932 0.137474 0.129588 0.548191 -0.537697 0.0778439 -0.346106 0.244311 -0.0258871 0.403418 0.215222 -0.906664 -0.0607527 -0.761466 -0.234747 -0.55393 0.576655 -0.79614 0.800775 0.182598 -0.343533 -0.544739 0.38555 0.755129 -0.472832 -0.267212 0.144265 -0.815246 -0.907515 0.330171 0.259201 0.0432867 -0.181002 0.108171 -0.519262 0.471603 -0.262117 0.484645 -0.880553 0.16787 -0.560503 -0.555971 -0.950577 -0.59973 0.0815307 -0.468189 -0.294058 0.993826 -0.621281 -0.146131 0.0888173 0.338412 -0.388676 0.0824934 -0.242298 -0.616396 -0.377527 0.455775 0.836829 0.647539 0.816302 -0.251672 0.0125557 -0.795682 -0.845148 -0.656927 0.53084 0.699813 -0.814312 -0.847905 0.207963 -0.694054 -0.0206641 -0.34229 -0.561523 -0.204131 -0.80822 -0.126658 -0.917726 -0.427571 -0.930758 -0.537115 0.70067 0.429677 0.537004 0.498623 0.307305 0.670861 0.412158 -0.0879241 0.661218 -0.284424 -0.894615 0.842414 1.07734 -1.10401 -1.08563 -1.03015 0.553305 0.353533 -0.98216 -0.898613 0.0661517 0.830668 1.07499 0.100086 0.400276 -0.637051 0.561391 -0.548322 -0.898974 0.0754921 0.753452 -0.733137 0.043083 -0.470123 -0.964951 -0.00127893 -0.509573 0.25296 -0.880354 -0.734151 0.771834 -0.0499681 -0.696475 0.709596 -0.181317 0.472527 0.652696 0.737492 0.708975 -1.12091 0.415865 0.167156 0.0744366 0.0653395 -0.818995 0.39883 -0.245101 -0.0397365 -0.686024 -0.359752 -0.99375 0.6975 -0.156733 0.66055 -1.08977 -0.750155 -0.732793 0.201825 0.224563 -0.847308 -1.05607 0.271311 0.420097 0.746182 0.442181 -1.04973 0.650696 -0.522719 -0.878968 -0.58082 0.142736 -0.453212 -1.26785 -0.351054 -0.488606 -0.1501 0.475442 -0.409415 -0.0686904 -0.106553 0.45467 -0.324229 -0.124875 0.544481 -0.279131 0.101475 -0.94821 0.492447 -0.412002 -0.0715739 -0.201389 0.4159 -0.854129 -0.164091 -0.595514 0.0674598 0.142383 -1.19651 -0.194467 0.953425 -0.12975 0.525679 0.432529 -0.58797 -0.513053 -0.424271 -0.328349 -1.04549 -0.366418 -0.0203049 -1.04707 -0.332332 0.111154 -1.16477 -0.263116 -0.445503 -0.409062 0.676878 -0.58397 -0.205522 0.0686889 0.475061 0.130112 -0.205171 -0.568058 -0.48732 0.501699 -0.871959 -0.617227 -0.242207 -0.500963 -0.218517 0.570057 -0.554149 -0.904323 0.625734 -0.365023 0.152968 -0.394627 -0.84807 0.393747 -0.0232485 0.108523 -0.508005 -0.829438 0.842778 -0.781953 -0.273625 0.496349 0.0826095 -0.34198 -0.271344 0.0421172 -0.698079 -0.146198 0.689079 0.612899 -0.690707 -1.043 -0.156778 -0.373903 -0.120301 0.862469 -0.269192 -0.30204 -0.650317 0.838847 0.617682 0.432436 0.669494 0.799508 -0.112024 0.0149104 -0.353308 -0.281952 -0.845553 0.573953 -0.134479 -0.476561 0.741657 -0.10511 0.154595 0.773051 -0.127595 -0.400974 -0.392281 0.338138 -0.400141 -0.0224815 -0.0508236 0.0456308 0.0924968 -0.0453721 -0.380369 0.0389839 -0.0727586 0.990925 -0.689784 -0.973572 0.220386 -0.870711 0.506644 0.339023 0.694797 0.96188 -0.79864 -0.152416 -0.390435 -0.368017 -0.0796743 -0.0120337 -0.214038 0.868528 -0.217126 -0.23758 0.626737 0.945598 0.457218 0.728642 0.0721101 0.706967 0.176898 -0.988814 0.639847 -0.443099 -0.262061 -0.703495 -0.592842 -0.535762 0.496896 0.830497 0.0126467 0.957645 0.375747 -0.569647 0.659619 -0.871306 -0.145288 -0.535935 0.109742 -0.3665 -0.017899 -0.130768 -0.310526 0.688099 0.368605 0.144643 -0.707622 -0.925651 -0.828923 0.351058 -0.634404 0.128247 -0.868524 -0.892026 0.945352 -0.232539 -0.441392 -0.387172 -0.47252 0.444082 0.292683 -0.351581 -0.660279 -0.80764 -0.230268 -0.602647 -0.909593 -0.383365 0.872031 -0.154228 -0.0205987 0.052266 -0.712581 0.369651 -0.251126 0.624559 -0.863632 -0.897296 -0.986096 -0.803238 -1.0086 0.76798 0.582404 -0.577502 -0.0834205 -0.40915 0.109697 -0.198147 0.070097 0.14928 -0.488536 -0.579834 -0.220089 0.465562 -0.714849 -0.912487 -0.234271 -0.557302 -0.983117 -0.415405 -0.412006 0.40804 0.304495 -0.535763 -0.873273 0.914548 -0.540209 -0.0559491 -0.750731 -0.187327 -0.656342 0.65808 -0.8454 0.220742 -0.750672 0.0520191 0.318791 -0.280664 -0.444641 -1.09843 -0.779987 0.231551 0.71398 0.818096 0.301985 -0.964048 -0.342752 -0.118935 -0.113706 0.768513 0.223039 0.272935 -0.513793 -0.118843 0.348401 0.0253309 -0.957472 0.511571 -0.0825038 -0.249152 0.346693 -0.474447 -0.24444 0.556092 -1.25701 -0.818467 0.613485 -0.99772 -0.723954 0.431322 0.541674 0.137031 0.146503 -0.73421 -0.334292 0.870419 -0.385784 -0.0139814 -0.594334 0.469796 -0.780843 -1.24894 0.0291145 -0.63916 -1.25266 0.066086 0.0765796 0.128786 0.171894 0.343414 0.19353 -0.500227 -0.452089 -0.135255 -0.0578975 0.369046 -0.249567 -0.0189243 0.515861 -0.397824 -0.31015 -0.280635 0.229568 -0.499294 0.76967 0.336459 -0.490616 0.23409 1.01343 -0.829836 -0.692719 -0.796347 -0.879753 -1.16025 0.788251 -0.260045 0.299782 0.0148161 0.515365 -0.072039 -0.835296 0.479581 0.0583605 0.617908 0.210595 -0.204571 -0.644569 -0.755621 0.781282 0.709227 0.160917 -0.398792 -0.565683 0.445819 0.693484 -0.437861 -0.0775273 0.677027 -0.334891 0.626672 0.0879217 -0.048014 -0.766538 0.336576 -0.632999 -0.0235996 0.0508217 0.64041 0.197171 -0.780381 -0.250092 0.536511 -0.0304107 -0.764137 0.847209 0.203163 0.555267 0.552251 -0.197586 0.479448 -0.73872 0.512292 -1.10381 -0.611657 -0.233501 -0.0705139 -0.558378 -0.213149 0.148729 -0.237748 0.272186 -0.730985 -0.0495974 0.561596 0.429182 -0.488893 -0.0103247 -0.449754 -0.37965 -0.539389 0.436593 0.68653 0.294312 0.190859 -0.204919 0.276677 -0.929673 -0.632131 -0.829267 -0.568416 -0.587669 -0.706628 0.335601 -0.281531 -0.730292 0.801847 -0.584796 -0.801531 -0.85906 -0.692113 -0.767523 0.595383 0.12337 0.785883 -0.84151 -0.852677 -0.151976 -0.255618 -0.891649 0.667047 0.516437 -0.707961 -0.433927 -0.470109 0.898492 -0.922087 -0.423708 0.669659 0.314994 -0.679598 0.747463 -0.41411 0.659822 0.799853 -0.74912 0.339393 0.382503 0.858999 -0.178885 -0.446114 0.496524 -0.59856 -0.250991 0.415732 0.579651 0.893611 0.896624 0.671935 0.770804 0.36833 -0.317599 0.635652 -0.232228 -0.585538 -0.899726 -0.820498 0.846218 0.188813 0.653353 -0.26067 -0.178421 -0.59626 0.489432 0.309307 -0.876402 0.351839 -0.696994 -0.540819 -0.435442 0.858101 0.274285 0.368841 0.793326 -0.666381 -0.728957 0.535335 0.930531 0.758421 0.420495 0.394978 0.492682 0.884289 -1.0674 0.665934 0.644513 -0.923924 0.23104 0.833055 -0.730186 0.722 0.279515 1.08597 0.681847 0.793561 -0.412749 0.817887 -0.143971 -0.827138 -0.491619 0.243243 0.0539624 0.350456 -0.144749 0.618138 -0.726247 0.331079 0.756632 0.186388 0.148107 -0.430159 -0.865795 -0.196436 0.1729 -0.206984 0.170351 0.141038 0.557458 -0.409324 0.129065 -0.28102 -0.222931 0.111353 -0.236149 0.808175 0.329815 -1.05229 -0.377725 0.475642 0.243603 0.453455 -0.288093 0.0854061 -0.669061 -0.360596 -0.0834063 -0.0169353 -0.549139 -0.255863 -0.156684 0.55457 0.246805 0.581622 0.504091 -0.565894 -0.949165 -0.793449 -1.09624 0.173401 0.620627 -0.0333119 0.522225 -0.860287 -0.231316 -0.697443 -0.223321 -0.504635 0.349732 -1.10556 -0.248622 0.162301 -0.21307 -0.470312 1.25712 0.126836 -0.382076 -1.01888 0.169786 -0.674209 0.566109 0.398985 -0.439485 -0.916351 0.219046 -0.709577 -1.41 -0.705644 -1.08056 -0.232844 0.473836 -0.0309259 0.117788 -0.122765 0.427808 0.335302 -0.916763 -0.206825 -0.871048 -0.420128 0.147435 -0.0704688 0.601921 -0.0384705 -0.570829 -0.175311 -0.0803812 -0.219281 0.173319 -0.822409 -0.0185755 0.183861 -0.820259 0.651662 -0.670481 -0.985807 0.738577 0.699253 0.317524 0.330403 0.560166 -0.623432 -1.01531 -0.594061 0.457303 0.428667 1.23672 0.67109 -1.09625 -1.13143 -0.349827 -1.00438 -0.730444 -0.147361 0.331822 0.358423 1.15151 0.375322 0.363944 0.177511 0.416161 -0.213708 -1.00558 0.149162 -0.714373 0.544714 0.848343 -0.474529 -0.872128 0.258709 -0.174134 0.0382517 -0.812912 1.14934 -1.06517 0.705311 -0.704585 -1.03186 -0.84789 -0.599761 -0.739887 -0.321424 -0.817517 0.733964 0.741905 0.831463 0.150392 -0.890955 0.628174 0.598952 -0.464938 0.633133 0.934845 -0.0385818 0.0966352 -0.61442 0.127877 0.0611694 0.192181 -0.111815 -0.749353 -0.913721 -0.677817 -0.515456 0.174667 -0.451716 -0.663157 -0.0896344 0.870694 0.463435 0.749431 -0.40257 0.196709 -0.461621 0.67932 -0.510235 -0.548892 0.966589 0.643959 -0.960252 0.535039 -0.457454 0.841659 0.342953 -0.0854651 0.602767 0.0164126 0.0115274 0.583142 0.0495 -0.546523 -0.768587 0.125951 0.355621 -0.982759 -0.244953 0.68602 0.548555 -0.878272 -0.109207 0.959483 0.220824 0.75541 0.512773 0.2159 -0.473715 -0.536621 -0.942645 0.276986 -0.815599 -0.649615 -0.4773 -0.465457 0.472819 -0.910476 0.469487 0.939901 -0.765449 -0.0870307 -0.977439 0.00598234 -0.125725 -0.381897 0.865877 0.802576 -0.640546 0.580473 0.248553 -0.0100364 -0.781648 -0.359231 -0.0159757 0.755019 -0.460706 0.369302 -0.559921 0.924162 0.996244 0.817114 0.558526 0.594099 0.784313 -0.456364 -0.113428 0.897246 0.679818 -0.19565 0.326698 -0.69971 -0.942409 -0.962837 -0.332725 -0.331135 1.00167 -0.135637 0.00388547 0.646866 -0.663282 -0.828508 0.17991 -0.785511 0.746923 0.160235 -0.283544 -0.632422 -0.367207 0.88606 -0.407322 -0.681037 -0.829018 -0.238336 -0.805836 -0.298928 -0.680883 0.289101 -0.814526 -0.00692126 -0.61086 -0.088073 -0.833991 -0.0106258 -0.720855 0.733341 -0.532535 0.67735 -0.000754063 -0.338398 -0.0271669 0.736027 -0.429686 -0.0867103 0.764512 -0.06707 0.685912 -0.0247165 -0.556275 0.18769 -0.153799 -0.434535 0.295241 -1.18293 -0.727258 0.143591 0.368722 0.991099 -0.92642 -0.929667 -1.04647 0.0179642 -0.07839 -0.983856 0.126367 -1.02583 -0.721271 0.56221 0.832226 0.216891 -1.0717 0.181125 0.017768 0.56168 -0.792698 0.633907 -0.563812 -0.453114 -0.378806 -0.18037 -0.571919 0.731473 -0.61566 -0.0268097 0.529081 -1.12017 0.569966 1.04774 -0.951955 -0.999365 0.236011 -0.696629 0.106318 0.44495 -0.649979 0.140693 0.690066 -0.94073 0.0384201 -1.28022 -0.104513 0.394104 0.389499 0.851655 -0.681255 -0.666451 -0.10342 0.266689 -0.797947 0.0788754 -0.5704 0.213547 0.25266 0.31496 -0.526642 0.401859 0.438589 0.390562 0.450712 -0.822746 0.710334 0.164252 -0.114255 0.199057 0.365896 -0.0769813 -0.364516 -1.05526 0.0756972 -0.406244 -0.736348 -0.26034 -0.27194 -0.21798 0.41553 0.397345 -0.428971 0.255783 0.316686 0.299736 -0.445267 0.347244 -0.743776 -0.694774 -0.0915727 -0.796708 -0.244744 -0.722112 0.107185 -0.464793 0.181967 0.00144341 0.74637 -1.08638 -0.696726 0.492286 1.0541 0.288767 -1.07185 0.749987 -0.390926 -0.912216 -0.0779967 -0.0337225 -0.483837 -0.376552 -0.0308398 0.566941 -0.830182 -0.828324 0.378924 -1.0673 -0.252798 -1.21438 0.277573 -0.925858 -0.757565 -0.34058 0.61931 -0.458386 -0.32868 -0.0534408 -1.02475 -0.850058 0.263635 -0.910151 -0.354934 0.00514721 0.507898 0.92628 -0.709718 -0.0821615 0.343049 -0.11571 -0.65989 -0.282157 0.487476 -0.822763 -0.283914 0.649052 0.0608327 0.185124 0.826945 0.624172 0.841593 -0.886024 -0.25577 0.077114 -0.835918 0.660906 0.041496 -0.064134 -0.140116 0.0983422 -0.120673 -0.222498 0.390877 -0.752051 -0.024273 -0.295168 0.74756 0.498136 -0.392585 0.39091 -0.509002 0.80097 0.619466 -0.933983 -0.252519 -0.326713 -0.583449 -0.472549 -0.798665 -0.80997 0.964251 0.132911 0.101074 -0.0105106 0.794085 -0.196489 -0.741643 -0.724824 0.997531 0.0197746 0.0472188 0.810289 0.229755 0.828506 0.402545 0.923271 -0.294209 0.839877 0.823096 0.499809 -0.788804 -0.778644 0.369296 0.983663 -0.917584 -0.277388 0.66568 0.41707 0.225723 0.573923 -0.101468 -0.649504 0.102869 0.698763 0.810059 1.00002 0.758208 -0.455954 0.723461 0.802449 0.77791 -0.969 -0.464231 -0.653976 -0.703727 -0.138808 -0.417791 -0.624814 0.0624762 0.613826 -0.0228991 0.1775 -0.539708 -0.412722 0.193263 -0.0925232 -0.0531226 0.841193 0.44916 0.483214 -0.637402 -0.92291 -0.373199 -0.227315 -0.553976 -0.235338 0.169442 -0.873534 0.840978 0.323346 0.757589 0.573713 0.969102 0.0492244 -0.589928 -0.878829 0.26559 -0.421035 -0.840707 -0.401796 0.241963 0.452855 -0.215318 0.625753 -0.797094 -0.900186 0.262085 0.262835 0.480698 -0.403582 0.311778 -0.458501 0.3522 0.22042 0.814505 -0.0346563 0.329575 0.0863873 -0.482896 -0.314887 0.23557 -0.0701233 0.903184 -0.0609872 -0.325841 0.43542 -0.806588 -0.935311 0.506757 -0.264019 0.258207 -0.524402 -0.225532 -0.249365 0.419924 -0.599579 0.168022 0.361411 -0.155938 -0.00624758 -0.135552 -0.285895 -0.167282 0.66331 -0.386345 -0.724167 -0.288509 -0.903006 -0.0414238 -0.232253 -0.0885112 0.309907 0.570636 -0.641779 -0.349322 -0.34992 -0.605392 -0.190536 -0.177131 0.789545 -0.79246 -0.470998 0.663328 0.00720289 -0.69384 -0.844521 0.293128 -0.38762 -0.706393 -0.373159 0.179269 -0.10565 -0.0387088 0.114962 -0.368404 0.74469 -0.660734 -0.349545 -0.935401 0.40658 -0.313429 -0.945114 -0.569935 -0.00144376 0.505951 -0.0744938 -0.841583 -0.30277 -1.01886 -0.710159 -0.959197 -0.61962 0.0829517 0.193133 -0.973622 0.424964 0.70301 0.348706 0.388071 0.454042 0.23045 -1.04638 0.873756 -0.37019 -1.01212 0.449165 -0.346737 -0.462544 0.464257 0.277423 0.375493 -0.766333 0.940044 -0.0659638 -0.0054765 0.582945 0.0531028 0.215342 0.321881 -1.20815 -0.270806 -0.318223 -0.108556 0.126697 -0.586793 -0.436975 -0.923286 -0.815737 -0.783033 0.553902 -0.115524 -0.208871 0.115253 0.411026 0.33506 0.600768 -0.905785 0.846754 0.883796 0.0326571 0.304117 -0.623284 0.928236 0.669547 0.302063 -0.184856 -0.0503559 0.0157922 -0.0828104 0.399624 0.398341 0.861595 0.883985 0.59651 -0.776638 0.49559 -0.75496 -0.406915 -0.26522 0.694996 -0.230228 -0.432903 -0.0142427 -0.0272524 -0.243732 -0.807084 0.527244 -0.820487 -0.983286 -0.277949 0.484854 -0.144756 -0.0261753 0.951849 -0.447923 0.0803489 -0.41694 -0.779153 -0.0366497 0.498523 -0.6192 -0.538224 0.545963 0.307852 -0.538043 -0.842483 0.663803 -0.72532 0.475303 0.349267 0.253309 -0.278356 -0.35896 -0.351469 -0.184929 0.54275 0.738639 0.226341 0.408206 -0.815786 0.109691 -0.186805 -0.340239 -0.334701 0.660962 0.704502 -0.247348 0.559632 -0.141933 -0.238232 -0.563806 -0.992397 -0.268835 0.402297 0.0216882 0.711526 0.871358 0.608616 -0.61752 -0.0684387 0.4368 0.928041 -0.0465215 -0.50528 0.140465 0.478268 0.735422 0.800218 0.264459 0.883615 -0.710711 -0.207934 -0.35036 0.431045 -0.271582 1.05389 -0.295414 -0.0832663 0.761769 -0.581259 0.395629 0.665495 -0.365621 0.782024 0.230691 0.736628 0.102045 -0.672684 0.343593 0.158797 0.616911 -0.297128 0.466715 0.508642 0.0458809 -0.531364 0.484282 -0.759358 -0.0316089 -0.120943 -0.43925 0.416316 0.567097 0.1385 0.792126 1.05959 -0.11204 -1.00368 0.28282 -0.342261 -0.215011 -0.0889763 0.704005 -0.940102 -0.3314 -0.64187 0.0800813 -0.752648 -0.0143662 -0.794689 -0.909077 -0.813492 -0.101969 -0.270042 -0.586562 0.641062 -0.211795 0.238246 -0.0984339 -0.930619 0.655149 -0.754862 0.189783 0.0185228 -1.10114 -0.212213 -1.01508 0.164436 -0.556056 -1.06388 -0.361771 -0.454399 0.431217 -0.57349 -0.904856 0.494097 -0.962277 -0.753029 0.573178 -0.296343 -1.06892 0.0389231 0.712067 -1.01539 -0.501345 -0.330132 -0.910598 -0.0657735 0.452779 -0.0316945 -0.337244 -0.399604 0.638103 0.0613412 0.315089 -0.663589 0.213045 -0.54391 -0.712971 0.169123 -0.414758 0.141691 -0.511713 0.637724 -1.09377 -0.828352 -0.169727 -0.273243 -1.27663 0.510653 -0.882768 -0.939938 0.66807 -1.06453 -0.520887 0.691709 -0.254281 -0.00868328 0.197665 0.359997 -0.556711 -0.814664 -0.406146 -0.0935695 -0.0112757 -0.109402 0.454861 -1.23053 -0.50503 -0.830889 -0.791942 -0.725655 0.161065 -0.04508 0.120017 0.501178 -0.316969 -0.173981 -0.0783297 0.501891 0.351726 0.0898913 -0.875785 -1.0455 -0.482233 -0.563896 -0.141635 -0.670163 -0.257871 -1.07404 -1.13303 -1.02181 0.0811992 -0.324911 -0.197483 -0.359 -0.634293 -0.865393 -0.311884 0.249254 0.261412 -0.506395 -0.0488623 -0.530378 -0.635012 0.0338156 -0.0153934 -0.470177 -0.349097 -0.495422 0.669786 0.377007 -0.896578 -0.617467 -0.86393 0.640475 -0.295897 -0.469474 0.633915 0.526365 0.504436 -0.621139 -0.360376 0.826595 -0.924027 0.791092 0.580713 0.899999 -0.804653 -0.182455 0.848826 -0.486449 -0.42325 0.025204 0.421749 -0.0854643 -0.762049 0.536542 -0.471921 -0.170541 -0.108515 -0.517828 -0.78508 -0.193042 -0.154668 -0.478386 0.986315 0.634117 -0.155537 -0.154608 0.925108 -0.193472 -0.704472 0.252119 -0.263948 -0.617191 0.120169 -0.962622 0.585516 -0.0301084 0.818025 -0.898013 -0.718196 0.745382 0.463882 -0.107239 0.153368 -0.565142 0.666624 -0.573138 0.110032 0.336295 -0.379553 0.285145 0.619153 0.306597 0.0701544 -0.40055 -0.287695 0.767541 -0.673192 -0.924315 -0.0207514 -0.300333 -0.73343 0.977914 0.574968 -0.347323 0.323462 0.132332 -0.782723 -0.269007 -0.502905 -0.0727349 0.186074 -0.394005 0.346773 0.315097 0.324074 -0.490273 0.997729 -0.189823 -0.964959 0.240473 0.135751 -0.509741 0.287122 -0.846748 -0.990554 0.990671 0.608703 0.169723 -0.571045 0.514385 -0.906627 -0.21704 -0.231756 0.83098 -0.603029 -1.00134 0.961753 -0.737852 -0.267908 -0.529561 0.504824 -0.262331 0.880117 -0.638606 0.475691 0.555301 0.196564 -0.610934 -0.512886 0.927157 -0.449572 0.96051 0.695397 0.350434 -0.542483 -0.438451 -0.08624 0.93642 0.955741 0.059505 -0.627301 -0.456883 -0.489164 -0.745627 0.0184547 -0.993846 -0.563947 0.653335 -0.657323 -0.380327 -0.670939 0.625863 -0.924414 -0.395061 0.55601 -0.861472 0.0688004 -0.113867 -0.866742 0.243097 -0.726694 0.273374 0.837036 -0.650339 0.475495 -0.0736242 -0.665013 0.792867 0.189563 0.601794 -0.24664 -0.098422 0.35899 -1.04034 0.399517 -0.690882 -0.784131 0.73554 0.167764 -0.158784 0.334655 0.730428 -0.702247 -0.236537 0.367967 -0.993284 0.411978 0.34337 0.696546 -0.446356 -0.184272 -0.222707 -0.252276 0.25859 0.223223 -0.778971 -1.183 -0.150392 -0.491875 0.201836 0.293121 -0.126664 0.604912 0.219144 -0.280671 0.567616 -0.869636 -0.699152 1.03257 -0.491018 -0.0788471 0.431022 -0.240816 -0.885441 -1.12325 -0.733287 -0.15998 -1.07892 0.311303 0.311423 0.464221 -0.644486 0.187824 -0.0124495 -0.0344747 -0.565289 -0.877782 -0.800524 -0.619377 -0.706004 0.22288 -0.520092 0.556064 0.358964 0.42897 -0.506485 -1.05616 -0.699129 -0.610327 0.652627 -0.252007 0.758049 -0.729814 -0.0407596 0.459453 -0.874324 -0.45817 -0.826746 -0.922093 -0.970648 0.347171 0.672564 0.259327 -0.984615 -0.530176 -0.322769 -0.182953 -0.0970267 0.78484 -0.763754 0.418576 -0.254427 0.178383 0.424841 0.0174054 -0.718754 -0.72311 -0.0993344 -0.930941 0.632596 -0.510378 0.712721 -0.0850535 0.697037 -1.08462 -0.447593 0.33721 -0.819381 0.415742 -0.298737 0.427234 0.544285 -0.931032 -0.692658 0.54318 -0.711031 0.745831 -0.432564 -0.0124981 -0.323152 0.0947326 0.372561 0.276579 -0.632453 -0.177206 -0.201524 -0.315731 -0.945101 -0.402417 -0.717566 -0.839121 -0.0571952 -0.566928 -0.0408534 -0.0798857 -0.318953 -0.0172739 -0.0743342 -0.00667915 0.851992 0.549196 -0.184711 -0.155863 0.170621 0.831189 0.753845 0.516237 -0.885463 -0.790914 0.563718 -0.311686 -0.29893 0.576103 -0.518635 -0.498592 0.51034 0.387495 0.367776 0.718669 0.706007 0.708288 0.649372 0.64866 -0.0433874 0.0998003 0.308273 -0.835633 0.538238 -0.271446 -0.106328 0.708032 -0.721613 -0.691105 0.511003 0.271176 -0.433693 -0.878808 -0.16847 -0.580203 -0.646805 0.00979091 0.0899593 0.273957 -0.846805 -0.62269 0.0761407 -0.478562 0.0433354 -0.80796 -0.847217 0.410453 -0.337784 -0.016271 -0.760257 0.75144 0.212851 0.844128 0.81902 0.920197 0.457272 -0.571406 0.935808 -0.14928 -0.275992 -0.0455543 -0.802443 -0.958391 -0.0987111 -0.799254 -0.221156 0.554498 -0.559692 0.510658 -0.592579 -0.987949 -0.642428 -0.211623 -0.619321 -0.39786 -0.772883 -0.499318 -0.438135 0.0712282 -0.811682 0.67933 0.349256 0.730794 -0.0549207 0.912893 0.754648 0.452497 0.786557 0.359605 0.312763 0.679739 -0.553488 -0.261361 -0.871406 -0.598878 0.425035 0.307201 -0.0768552 -0.812498 0.626631 -0.0413004 -0.242549 -0.845352 -0.436596 -0.947606 0.642474 0.954067 -0.594134 0.561966 0.807892 0.925536 0.473924 0.0351019 -0.772733 -0.176244 0.395558 -0.48838 -0.508384 -1.00317 0.651179 -0.261527 -0.781086 0.413943 -0.313379 -0.0793368 -0.461235 0.501323 0.498007 -0.313646 -0.686627 0.477722 0.0870845 -0.442777 0.357217 -0.0320656 -0.952704 0.290271 -0.757542 0.836912 -0.502292 -0.431611 0.185699 0.165073 0.789466 -0.640854 -0.882434 -0.85032 0.89902 -0.0951392 -0.215349 -0.293434 -0.425115 0.685806 -1.06547 0.416673 -0.321426 -0.498563 -0.0137085 -0.260142 -1.10013 0.481787 -0.353023 -0.284491 -0.854316 0.75713 0.458613 0.336532 -0.623461 -0.989971 -0.167997 0.429973 -0.576268 -0.240377 0.710716 -0.626608 -0.495156 -0.491486 -0.327399 0.146429 0.20292 -0.698087 -0.259032 0.0201028 0.195956 -0.928336 0.677251 -0.489741 1.13965 0.113962 0.515703 0.146867 -0.401794 0.268726 -0.677286 0.507035 -0.823602 0.229675 -0.111059 0.206885 0.408718 0.105309 0.407039 -0.598191 -0.584546 0.821696 0.205009 -0.80625 0.0456761 0.397469 -1.13539 0.0631008 0.265745 -0.661029 -0.354262 -0.641961 0.614083 -0.727307 0.237232 -0.290862 0.0912375 -0.899773 0.0540115 -0.341604 -0.624119 0.220751 0.580419 -0.39215 -0.535376 0.219939 0.669284 0.639837 -0.616599 -0.393073 0.230878 0.632169 -0.257573 -0.537792 -0.403965 -0.385929 -0.931279 -0.838377 -0.575258 0.398362 0.458597 0.883463 -0.423621 0.55242 -0.22525 -0.70941 -0.0428883 -0.146542 -0.831137 -0.514048 -0.849144 0.840399 -0.278194 -0.60485 0.301708 0.610266 0.834184 -0.733495 -0.811621 0.693859 0.495517 0.0359174 0.12193 -0.606179 -0.732349 -0.81064 -0.0602115 -0.624451 0.308917 0.701532 0.0408267 -0.0244441 -0.655296 -0.762966 0.424378 -0.919487 0.613351 -0.107386 -0.357846 -0.898817 0.941164 0.413337 0.805414 -0.937702 -0.279074 -0.926441 -0.428667 0.505917 0.905185 0.709481 0.180753 -0.434679 -0.988493 0.734501 -0.574083 0.92298 -0.886699 -0.88744 0.667392 -0.172757 0.850308 0.373001 -0.173926 0.0914092 0.424118 -0.391361 -0.618582 0.0875722 0.599345 0.473592 0.382014 0.752709 0.70095 -0.811881 0.434541 -0.415152 0.620223 0.528847 -0.290476 0.644332 0.809316 -0.161095 0.940148 0.554131 0.280435 -0.976835 -0.578851 0.504881 0.612234 0.549161 -0.988962 0.239695 -0.0589521 -0.553887 0.131141 0.0723561 0.970614 -0.692956 -0.239032 0.874982 0.96488 0.286816 -0.549728 0.0852537 -0.250162 -0.898589 -0.695196 -0.299716 -0.284298 -0.968153 -0.00510149 0.280768 -0.186528 -0.0808517 0.752973 0.952942 -0.442926 0.170544 -0.624196 -0.600711 -0.976461 0.750173 0.219856 -0.130932 0.857372 -0.808466 0.208409 -0.822497 0.240927 -0.416167 0.820992 0.691044 0.955337 0.57432 0.118885 0.353047 -0.662754 -0.597891 0.665027 0.656147 0.251636 -0.175268 -0.317105 0.649181 -0.807895 0.197979 0.865665 -0.000793701 0.0940502 -0.578884 0.536214 0.8421 -0.40265 0.928835 -0.404667 -0.0364697 0.812471 0.840528 -0.657234 0.644025 -0.520188 -0.343695 -0.196553 0.720984 -0.102974 0.582544 -0.435744 0.771418 0.766055 -0.688309 -0.269469 -0.334066 -0.533165 0.0936089 0.0643888 -0.981586 0.083275 -0.117451 0.665865 0.896003 -0.921377 -0.0417377 0.0573279 0.0344086 -0.33081 0.382164 0.16267 -0.292655 -0.59182 -0.370184 0.598199 -0.322042 -0.203314 0.723523 0.0983589 0.34131 0.741603 -0.492484 -0.499149 0.573528 -0.953032 0.0551883 -0.35971 -0.0419373 0.798648 -0.780457 0.112554 0.511599 0.257955 0.244986 -1.05925 -1.01647 -0.251849 -0.848577 -0.354634 0.317847 0.100095 0.227357 -0.16433 0.445939 -1.07047 0.811991 -0.608258 -0.367957 0.960648 0.211177 0.415836 0.57356 -0.514372 0.744877 -0.0195473 -0.791857 -0.307334 -0.921245 0.204316 -0.99339 -1.04926 0.284764 -0.226002 0.714499 -0.236185 0.641066 -0.572964 -0.477585 -0.277758 0.206073 -0.302777 -1.04194 0.775906 0.127963 0.647303 -0.511906 -0.407994 -0.186737 -0.74969 -0.235008 -0.485899 -0.631731 0.823135 -0.777922 0.24029 -0.458943 -0.486855 -0.25251 0.0263371 -0.522919 -0.0247145 -0.142552 -0.0903215 -1.04731 -0.625659 0.654576 -0.928388 0.32982 -0.639866 -0.240422 -0.219177 0.489421 0.324438 -0.722158 0.531724 -1.03251 -0.997984 0.0404137 0.401715 -0.257593 0.936079 -0.677275 -0.714625 -0.631318 0.0623814 -1.00867 -0.811225 -0.929746 0.865112 -0.480118 -0.886788 0.526633 0.623885 -0.151367 0.389956 0.0247882 0.818547 -0.393167 0.940408 0.424267 -0.214773 0.866569 -0.613214 -0.901159 0.292055 0.331648 0.694039 0.0482043 -0.305548 -0.740747 0.55269 -0.224431 -0.0751342 -0.557263 -0.849463 -0.612356 -0.542638 -0.730383 -0.745428 0.535774 -0.656984 -0.330455 0.191094 -0.56395 -0.814423 0.142224 -0.144263 0.872541 -0.845432 0.749909 0.693061 0.182784 -0.0118969 0.114238 -0.28059 -0.727282 0.978334 -0.576782 0.511301 0.612313 -0.018269 0.424445 -0.791165 -0.771513 -0.578547 -0.571308 0.512208 0.714683 0.279679 -0.689754 -0.31412 -0.77466 0.101894 -0.495364 0.557504 -0.521933 0.99532 0.0105127 -0.484694 0.752109 -0.369492 -0.610924 -0.487949 0.891029 -0.758975 0.763704 0.0602777 0.298284 -0.377368 -0.179352 -0.761739 -0.0584362 -0.869011 0.807945 -0.315834 -0.649351 0.689517 0.536272 0.600828 0.617661 -0.22219 0.380787 -0.249686 0.398501 0.445527 0.276083 -0.539813 -0.0910217 -0.703405 0.722213 0.620396 0.928812 -0.495828 0.778589 0.682043 -0.197582 0.797583 0.0684133 -0.341919 -0.567667 -0.521902 0.780467 0.131544 -0.713303 0.398376 -0.340022 -0.771732 -0.605626 0.980852 0.0201632 0.662908 0.349877 -0.78273 -0.266568 0.696856 -0.69485 -0.379462 -0.764207 0.152608 -0.0207141 -0.662548 -0.474433 0.449922 0.649187 0.0227376 0.159095 -0.553673 0.160412 -0.0951188 -0.721902 -0.239258 -0.0808331 -0.135561 -0.456276 0.42067 -0.126473 -0.984369 0.217454 -0.905097 0.601969 -0.467528 -0.883533 0.0951189 -0.859304 -0.200872 0.560328 -0.271322 -0.819226 0.871624 -0.382091 -0.139837 0.913699 0.637882 -0.354721 0.133845 -0.888198 0.348175 0.774062 -0.942835 -0.78521 -0.203678 -0.392106 -0.00271303 -1.00412 -0.211093 -0.692677 -0.710391 -1.00785 0.264866 -0.260468 0.489101 0.180659 0.0611521 -0.917811 -0.317145 0.189979 0.686003 0.24225 0.195599 -0.7219 -0.546103 0.620325 0.390795 0.00553456 -0.379164 0.309454 -0.995329 -0.292403 -0.0425026 -0.128148 0.736423 0.135785 0.270688 0.385713 0.465528 -0.0928237 0.651814 -0.50057 0.200787 -0.174873 -0.64075 -0.585563 1.21796 -0.46849 0.462225 -0.834283 -0.869397 -1.01062 -0.518467 -0.112909 -0.705213 0.795451 1.04427 -0.291983 -0.547207 0.468238 0.328843 -1.01725 0.375607 -0.466185 -0.059804 0.732148 0.156215 0.438339 -0.931263 0.773004 -0.414125 0.0268753 -0.0693957 -0.801687 0.298295 -0.231573 -0.0896805 0.715376 -0.88678 -0.261361 -0.644834 0.665799 -0.365403 0.507211 -0.797154 0.896779 0.467454 -0.745194 -0.293238 -0.0833001 -0.21315 -0.347926 -0.119282 0.655372 -0.437423 -0.00874491 -0.301946 0.701604 -0.44397 -0.854832 0.891356 0.178125 0.216572 0.482634 0.660432 -0.239384 0.849803 -0.0203386 0.24737 0.691026 0.7581 0.194821 -0.49234 0.807112 0.386878 0.180384 -0.933068 0.458752 0.429658 -0.391465 -0.187067 0.599496 0.1827 0.698508 -0.551687 0.713251 -0.387291 0.223472 0.118411 0.86527 -0.911006 -0.458668 0.546158 -0.313056 -0.32672 0.537535 0.0491117 0.354814 0.927976 -0.309944 0.467813 0.624345 0.988761 0.0254058 0.228015 0.800138 0.563826 -0.862402 0.313017 -0.239296 0.922809 -0.820253 0.267696 0.940524 -0.119707 0.870334 0.201426 0.336568 -0.169304 -0.511069 0.783066 0.51226 -0.273872 0.877988 -0.755696 0.590194 -0.920868 -0.558806 -0.616641 0.256297 -0.0309746 0.147166 -0.443291 -0.241093 -0.969227 0.524831 0.684143 -0.0889702 -0.528859 0.66802 0.251126 0.0837884 -0.949193 -0.770224 0.301793 0.213983 0.0973575 -0.571775 -0.557579 0.798928 -0.500396 -0.957181 0.842877 0.903201 0.710481 0.41565 0.239913 0.14762 -0.257355 0.452472 -0.0713024 0.717456 -0.825962 0.619453 0.762467 -0.635735 0.143299 0.946143 0.166968 -0.604267 0.350518 0.0272067 0.119728 0.688281 0.0622262 -0.985304 -0.829064 -0.324037 0.10406 -0.372873 0.426283 -0.641984 -0.133649 0.144042 -0.443383 -0.704581 -0.703281 -0.592207 0.794535 -0.388378 0.913524 0.822639 0.933787 0.992696 -0.206329 0.356269 -0.659195 0.686719 -0.425034 0.539267 -0.0797749 0.503883 0.453057 0.463682 -0.832152 0.82138 -0.78177 -0.217709 0.127037 0.567521 -0.850544 0.715075 0.397983 -0.741277 0.171999 0.0399531 0.203701 0.932457 0.731123 -0.90991 0.144096 0.228191 -0.163722 -0.201416 -0.351593 0.322802 -0.838145 0.596674 0.517841 0.941779 0.555477 0.547674 -0.808219 0.479767 -0.967454 -0.781376 0.774164 -0.269687 -0.279864 0.732876 0.38205 0.153822 0.464746 -0.0630351 0.607511 -0.263719 -0.152372 -0.0263334 -0.0994525 -0.957854 0.22248 0.735106 -0.457023 -0.754932 -0.238904 0.601637 -0.448983 -0.0354081 0.251949 0.574859 -0.455528 -0.524034 0.362613 0.207273 -0.764092 0.550769 -0.383416 -0.439745 -0.211918 0.635154 0.826719 -0.734894 -0.738976 -0.351675 -0.661172 0.50929 0.610454 0.0802029 -0.383381 -0.796218 0.0251001 0.953776 -0.887894 -0.446636 0.253866 -0.133451 0.275258 0.577758 -0.78819 -0.831929 0.595089 -0.348729 -0.310072 -0.574237 0.266372 0.774476 -0.398123 0.0713006 0.624437 0.702894 -0.130509 0.900888 -0.129801 0.444229 -0.0172871 0.357072 -0.747637 -0.188223 0.777689 -0.511262 -0.735101 -0.992301 -0.156705 -0.185185 0.633436 0.860012 -0.26146 -0.482169 -0.329811 0.850174 0.551048 -0.797273 -0.623442 0.920064 0.285834 0.128529 -0.372989 -0.38432 0.666831 0.176694 0.134855 -0.0184151 0.120237 -0.336941 0.102735 -0.311808 -0.120733 -0.462348 0.720584 0.966261 -0.773146 -0.698159 -0.159315 0.592394 0.58966 -1.00055 0.0416476 -0.0980344 0.630103 -0.730981 0.14027 0.816315 0.607231 -0.695603 -0.143486 -0.217416 0.483748 0.834172 -0.708485 -0.164112 0.547516 0.186341 -0.866675 0.57498 -0.138289 0.225626 0.679731 0.146555 -0.0495529 0.386878 -0.284428 -0.722632 0.91503 0.675238 0.660501 -0.759748 -0.547289 -0.350762 0.454934 -0.119777 0.763731 0.43212 0.612811 -0.40075 0.658859 0.707693 -0.784628 -0.631545 -0.50262 0.727413 0.895349 0.715955 0.197128 -0.699303 0.858045 -0.266254 0.241806 -0.198159 0.867677 -0.922995 -0.327855 0.166741 -0.749907 -0.0368561 -0.896706 0.893902 0.895881 0.171681 -0.298663 -0.955756 -0.74562 0.0448148 -0.800202 0.241742 0.34165 0.487537 -0.105988 0.671079 0.73401 0.967322 0.644163 -0.917011 -0.429494 -0.486134 0.867142 0.787983 0.552252 0.719583 0.548567 -0.34119 -0.0566518 -0.261277 0.232695 0.130646 0.570633 0.288976 -0.972695 -0.796506 -0.175854 0.649551 0.602776 0.437969 -0.345009 -0.336157 -0.807953 -0.0434927 0.577484 0.7357 -0.408795 0.448352 -0.330688 -0.167399 -0.842704 -0.840764 0.566286 -0.515442 -0.187883 -0.0993864 -0.527812 0.783606 0.037755 -0.954042 -0.847274 -0.615017 0.876869 -0.467779 0.931635 -0.4945 -0.0571555 0.857468 0.700226 -0.0749533 -0.597874 -0.918037 0.908914 -0.0140046 -0.0118135 0.830265 0.571684 -0.406603 0.998366 -0.712113 -0.733804 -0.78652 0.288407 0.203589 -0.866832 -0.123476 0.279519 -0.113548 0.870855 -0.823638 -0.0450565 -0.784278 -0.255803 -0.7341 0.85787 -0.379195 -0.419482 0.859091 -0.899175 -0.896222 0.76912 -0.75268 -0.649633 0.225874 0.267806 0.259793 0.838239 0.107526 -0.428028 0.30805 -0.633031 0.439584 0.779524 0.358629 -0.705121 -0.533282 0.5172 -0.0633018 -0.47994 0.000555723 -0.00609315 -0.852788 -0.448748 -0.585999 0.98002 0.630317 -0.573938 -0.358444 -0.232726 -0.391126 -0.251447 -0.804336 -0.71655 -0.138141 -0.282169 -0.880973 0.965338 -0.264131 0.991266 -0.956774 0.829186 0.132975 -0.0563216 -0.850034 -0.515579 0.521056 -0.600138 0.192712 -0.0262829 0.926881 0.775576 -0.514914 0.0911487 -0.0593419 0.116564 0.895438 0.0750644 0.727929 -0.174714 0.860044 0.727812 -1.00237 -0.857545 0.373904 -0.461306 -0.968965 -0.307003 -0.988875 0.274832 -0.329464 -0.31504 0.869245 -0.402794 0.306172 0.0399947 0.671385 0.544551 0.938268 -0.117977 -0.351744 0.73062 0.0754115 -0.68072 -0.409897 0.468117 0.816175 0.781342 0.896704 0.314492 0.812423 -0.688175 0.505482 -0.237661 0.264581 0.57228 -0.0945553 0.645282 -0.0144252 0.585635 -0.842097 -0.571108 -0.696615 0.218863 0.870326 -0.84277 0.111322 0.734408 0.267031 -0.695311 0.890376 -0.0349781 -0.930371 0.100661 0.658908 0.412434 -0.416479 0.225298 -0.971499 0.926348 0.706833 0.921669 0.134209 -0.852618 -0.14366 0.0797068 0.698118 -0.842561 -0.966549 0.00789615 0.00776313 -0.377306 0.802798 -0.29967 -0.103963 -0.199816 0.289252 0.662875 0.773934 -0.547948 -0.824548 0.973682 -0.394403 0.954806 -0.290489 -0.726237 -0.0784874 -0.775682 0.705458 0.761447 -0.185039 -0.257982 -0.464506 -0.800074 -0.0605486 0.561934 0.134637 0.918422 -0.486418 0.27942 -0.997026 0.804822 0.316112 0.0733308 -0.799406 0.316506 0.689786 -0.326035 0.350976 -0.542685 -0.460859 -0.62343 0.64129 0.810018 0.331732 0.0395571 0.819048 -0.486554 -0.902928 -0.914154 0.195189 -0.730581 0.42777 0.491259 0.643472 0.340672 -0.522024 0.809044 0.599281 -0.446067 -0.033778 -0.857145 -0.935375 0.300342 0.171249 -0.837157 -0.403786 0.5304 0.935948 -0.894369 0.319395 0.756603 -0.336173 -0.237444 -0.0802724 0.0586312 0.323578 0.493257 
0.644144 0.907668 -0.319401 0.368955 0.00558814 0.518933 -0.763487 0.642798 -0.61174 0.545927 -0.8804 0.803094 -0.0157639 -0.992376 0.679662 0.0251427 -0.701895 0.238761 -0.423371 -0.201458 -0.85347 0.879864 -0.216085 -0.0752068 -0.341696 -0.1071 -0.413115 0.515847 -0.722948 0.545914 -0.415624 0.001105 0.756383 0.421443 0.686193 -0.883363 -0.837709 -0.58467 0.116303 0.914967 -0.125031 -0.266064 -0.59032 0.759051 0.586041 -0.102161 0.414708 0.326112 -0.699764 0.739081 -0.707903 -0.395513 0.33418 -0.595747 0.514941 0.895693 0.317329 -0.650025 0.867942 0.812537 0.191492 0.345368 -0.548076 0.282218 -0.788764 0.474218 -0.325038 0.543333 0.943409 0.130714 -0.739094 -0.852758 -0.732842 0.0223626 0.245356 -0.0427966 0.374743 -0.829819 0.977343 -0.849917 0.770465 0.904892 0.115373 -0.785699 -0.729019 0.874058 0.635964 0.951402 -0.994025 -0.967126 -0.17836 -0.524688 -0.582742 -0.347188 -0.728137 0.211105 0.259156 -0.684731 0.897206 0.899092 -0.401396 0.91732 0.920705 -0.41057 -0.184865 -0.337671 -0.122087 0.646767 -0.39981 -0.925721 0.617145 0.746192 -0.0413953 0.985092 0.29902 0.877033 0.207149 -0.462185 0.396682 0.342364 -0.0248247 -0.80834 0.695714 0.753903 -0.795366 0.716269 -0.706555 0.0375216 0.150079 -0.805477 0.602953 0.433468 -0.621931 0.0208221 -0.654939 0.492212 -0.231775 0.902805 0.556202 -0.922547 0.51176 -0.139018 -0.415561 -0.634153 -0.885484 -0.773378 0.0893316 0.846405 -0.607434 -0.353858 0.0473756 -0.681343 -0.524941 0.0768913 -0.25924 0.899157 -0.195942 -0.212427 -0.231039 0.0121399 -0.86598 0.361566 -0.957585 -0.603063 0.532104 -0.304847 0.784438 0.104892 -0.623046 -0.00590757 0.530815 -0.500097 -0.638789 -0.22088 0.129089 -0.74218 0.489067 -0.118601 -0.25934 -0.632309 -0.922733 -0.54957 -0.162067 0.130618 -0.244543 -0.0630597 -0.792971 0.160992 -0.53489 -0.884277 0.945867 0.38437 -0.538979 -0.93279 0.46566 0.0396757 -0.690049 0.189579 -0.511206 0.678087 0.891174 -0.813828 0.0512034 0.163719 0.396998 -0.920695 0.500937 0.673106 0.331308 -0.799852 -0.500846 0.694101 -0.488806 -0.803253 0.0184256 -0.972295 -0.933901 -0.976792 -0.655564 0.789226 0.43801 0.950832 -0.924439 -0.596103 -0.619047 -0.437471 -0.877683 0.611109 -0.0376687 -0.247274 -0.2926 0.460484 0.561185 0.729188 -0.632063 -0.681201 -0.130583 0.0118009 0.950726 -0.140166 0.891556 -0.567159 -0.383523 -0.926904 0.944509 -0.861327 0.838851 0.260218 -0.342557 -0.41465 0.403281 -0.967079 0.971983 -0.456937 0.407497 -0.678983 -0.855958 0.0951467 -0.737557 -0.639686 0.738896 0.636918 -0.30795 -0.295816 0.636456 0.87288 0.73093 -0.784513 0.02862 0.826458 -0.272829 -0.929741 0.420024 0.828518 0.342239 0.756595 -0.373093 -0.474865 0.549085 0.077144 -0.221695 -0.126415 0.632783 -0.855463 -0.68114 -0.857298 -0.808223 0.385706 -0.999961 0.916164 -0.863223 0.541473 -0.110246 -0.910762 -0.308936 0.658405 -0.63274 -0.132316 0.3899 0.103631 -0.875425 -0.226819 -0.918274 0.552761 -0.83397 -0.362149 -0.0728926 -0.00574358 -0.191049 0.606602 -0.600815 0.728323 -0.318323 0.137096 0.283641 -0.627423 -0.272973 -0.000859091 -0.321513 0.849441 -0.80137 0.276434 0.994616 0.399089 -0.335195 -0.639146 -0.0451626 -0.427775 -0.996411 -0.0371935 0.595117 0.233547 -0.592659 -0.898584 -0.736624 0.558194 -0.619612 0.11029 0.620401 -0.964311 -0.260342 0.632726 -0.36075 0.467845 -0.38547 0.626738 -0.394464 -0.034046 0.446936 0.362745 0.116707 0.960542 -0.00942561 0.423773 -0.914661 -0.813908 0.31439 -0.29742 0.733528 0.695781 -0.204801 -0.590786 -0.403832 -0.145363 -0.873978 -0.938213 0.522581 -0.663862 -0.687312 0.495222 0.67239 0.1309 -0.330375 -0.147541 -0.482304 -0.461956 -0.171752 -0.409823 0.84799 -0.822879 -0.27139 0.482468 0.759087 0.968131 -0.373857 -0.393719 -0.339457 -0.848576 0.0867155 0.364264 0.277403 0.28098 -0.00741201 0.454471 -0.356356 -0.783746 0.532833 -0.0962036 -0.891218 -0.862874 -0.787153 -0.9561 0.33288 -0.469671 -0.15047 0.517559 -0.710973 0.197519 0.571811 -0.71685 0.261158 -0.745861 -0.178059 0.609693 -0.147084 -0.875815 0.354763 0.0830493 0.969513 0.546554 -0.7649 -0.405661 0.833368 0.572522 -0.155134 -0.645726 0.987824 0.56947 -0.124702 -0.122631 -0.727368 0.211042 -0.670483 0.00166621 -0.14815 -0.516953 0.528282 0.873624 -0.801309 0.688329 0.0962678 -0.0498248 0.0982981 0.446053 0.976133 0.995206 -0.350788 -0.32256 0.425526 0.0943768 -0.738274 -0.378551 0.00791814 -0.354125 0.658743 -0.170308 -0.395651 0.353185 -0.122855 0.166081 -0.593912 -0.762106 -0.736143 0.807224 -0.0821647 -0.367927 -0.52016 0.241417 -0.0435886 -0.818355 -0.5015 -0.729182 0.651202 -0.155567 0.605041 -0.992564 -0.555825 -0.112508 0.397861 0.879365 0.0896284 -0.10262 0.787379 0.624635 0.654502 0.766148 -0.00247942 0.294709 -0.48202 -0.297404 0.563152 0.254979 -0.627374 0.227781 -0.667586 -0.824 -0.777832 0.170906 -0.533875 0.0526629 0.38402 -0.320214 0.43793 0.18381 0.486706 -0.787776 0.0327141 -0.816234 -0.527079 -0.463397 0.348949 0.978995 -0.4032 -0.263662 -0.202781 -0.193378 -0.574753 -0.794249 -0.900224 0.219664 -0.162915 -0.346675 -0.704943 -0.918493 0.0259996 -0.901856 -0.271505 -0.4317 -0.505587 -0.126392 0.0613493 -0.830963 0.0604216 0.623567 0.267339 -0.317104 -0.147294 0.306956 0.631558 -0.773431 -0.686621 0.192212 -0.24771 0.225138 -0.803033 -0.136184 0.540357 -0.582446 0.570316 -0.7848 0.218862 -0.14474 0.812789 0.454973 0.323318 0.90111 -0.383817 0.10139 0.701939 0.232187 0.985029 0.989104 -0.48479 -0.162108 -0.763784 0.261668 -0.763419 0.0170173 0.99926 -0.622726 0.651579 -0.613865 -0.784358 0.105811 0.858265 0.869795 -0.859863 0.529784 -0.73278 -0.292508 0.339618 -0.955623 -0.398161 -0.549686 0.6933 0.356585 -0.102516 -0.037837 0.393141 -0.513094 0.502726 -0.580991 -0.056472 -0.232533 0.0776975 0.310255 0.161443 0.844087 -0.404208 -0.563638 0.176213 0.673784 0.342666 -0.0881836 -0.570299 -0.474044 -0.0835745 -0.838943 -0.323634 -0.0159392 0.227568 0.926667 0.98321 0.942925 -0.50028 -0.743885 -0.270717 -0.390532 0.268078 0.514979 0.606829 -0.495928 -0.619191 -0.620874 0.61998 0.459935 -0.00120563 0.837183 -0.914338 0.620807 -0.405383 0.190288 -0.367449 0.444028 -0.0460948 -0.946372 0.205961 0.702194 -0.823023 -0.648153 -0.945279 0.47614 -0.329318 -0.677848 0.748737 -0.840618 0.163887 -0.478923 0.170352 0.462447 -0.319137 0.806144 0.506084 0.398005 -0.417776 0.348446 -0.733832 -0.687863 -0.472003 -0.331711 0.256351 -0.161088 -0.51824 0.527882 -0.38359 0.928808 -0.260375 -0.942099 -0.208079 -0.113428 0.885634 -0.31887 -0.472763 0.255427 -0.156863 -0.862251 -0.104862 -0.0569005 -0.16125 0.496301 0.26139 -0.837248 0.394486 -0.909609 0.338317 0.429432 -0.628111 0.604547 0.126729 0.579825 0.912927 -0.951603 -0.0691044 0.74981 -0.494706 0.699534 0.395045 0.407892 -0.0581267 0.180316 0.438066 -0.675817 -0.696568 0.411977 -0.66316 -0.432011 -0.984881 0.647228 0.657827 -0.451508 0.779267 0.432169 0.269491 -0.0412813 0.652361 -0.384951 0.371491 -0.160113 0.97776 0.387507 -0.545374 0.513129 0.411415 -0.767369 0.351038 -0.384321 -0.0667886 0.95955 0.187602 -0.890798 0.814333 0.672903 0.399138 -0.727901 0.6687 -0.192625 0.754202 0.679893 -0.595345 0.0871453 -0.704003 0.229759 -0.759969 -0.425441 0.427705 -0.871603 0.713476 0.640061 0.826535 0.892671 0.664212 -0.0583792 -0.494046 -0.640616 0.268646 0.482397 -0.222711 0.673983 0.986668 -0.440155 -0.732557 -0.708932 0.615423 0.785651 -0.0736777 -0.0178696 -0.756231 0.0889911 1.67203e-05 -0.170632 -0.716273 -0.297376 0.0640444 0.227057 -0.53751 0.186505 0.993037 0.885324 0.809252 0.398923 -0.0237961 -0.176379 0.682317 -0.482355 0.522584 -0.629281 0.734078 -0.967893 0.446825 0.175224 0.939102 0.741915 -0.12086 -0.806459 -0.416393 0.761789 -0.739009 -0.304211 -0.734879 -0.483875 -0.653 -0.735441 0.896975 -0.253486 -0.796092 -0.204975 -0.30031 0.504016 0.210301 -0.505392 -0.790334 -0.848727 0.0607425 0.883306 -0.724906 -0.635269 0.757239 0.792926 0.0565097 -0.867005 0.615735 0.370015 0.0268751 0.757524 0.269844 -0.929448 -0.0270788 0.852777 0.657501 0.66556 0.990994 0.343502 -0.965701 -0.762858 0.492943 0.468898 0.967456 -0.819459 0.201973 0.78184 0.336132 -0.796993 0.153187 -0.85733 -0.668116 0.324697 0.69509 -0.267111 0.459883 -0.121512 0.487568 -0.962144 0.536203 -0.491469 0.505444 -0.141436 0.690765 -0.826655 0.0328708 -0.690513 0.365643 -0.857367 0.668423 0.816064 -0.685415 -0.00186611 0.322722 0.11995 -0.394938 0.635832 -0.781065 -0.731359 -0.383905 0.262392 -0.10795 0.628722 0.0397918 0.398746 -0.807855 0.875014 -0.119681 0.878345 0.278257 0.99609 0.454771 -0.157632 0.623492 0.294781 -0.607431 -0.247829 0.014611 0.382103 0.635643 -0.623923 0.547779 -0.812023 0.438097 -0.202559 0.635992 0.949374 -0.633127 0.409085 -1.00017 0.216461 0.301517 0.921703 0.678686 -0.147328 0.433094 -0.644884 -0.984069 -0.96122 -0.731639 0.0379349 -0.323901 -0.74312 0.622967 -0.383032 0.630459 0.315342 0.620702 -0.948139 0.164522 0.325743 -0.28739 -0.387795 0.880947 -0.295401 0.653183 0.884634 -0.321524 -0.800513 0.50087 0.754518 -0.209137 -0.143805 0.642424 -0.575091 0.756353 -0.930439 0.75775 -0.572618 0.415318 0.473901 0.860804 -0.405665 0.934464 0.0597426 -0.715392 -0.912373 0.773891 0.152683 0.634806 -0.654015 0.727806 -0.63441 -0.141073 0.0977304 -0.0898138 0.618652 0.203193 -0.508502 -0.292987 -0.861774 -0.744272 -0.0989467 -0.140357 0.468385 0.879177 0.0345734 0.379465 0.503213 -0.722014 0.892989 -0.364924 -0.581718 0.952274 -0.16838 0.293284 -0.3186 0.692982 0.486101 -0.691591 0.0885699 -0.33351 0.818828 -0.0101724 -0.214312 -0.692102 -0.893635 -0.106086 0.16932 -0.641039 -0.113304 0.958628 -0.998707 -0.094302 0.129205 -0.569904 0.296206 -0.715815 -1.01621 -0.191538 0.460696 0.225847 -0.00308056 0.962804 0.144591 -0.265455 -1.00656 0.0206981 0.342846 -0.882628 0.112094 0.487329 0.375258 0.0078406 -0.187795 0.140843 -0.167116 0.327046 0.866837 -0.912014 0.639957 0.354299 0.367647 -0.271363 -0.949714 0.647398 -0.301307 0.772351 -0.398852 0.0946147 0.5649 -0.720575 -0.833905 -0.1168 -1.00425 0.581205 0.920413 -0.500868 -0.684268 0.355222 0.342085 0.785205 0.177058 0.564033 -0.748896 -0.149315 0.52897 -0.514847 -0.255403 -0.840267 -0.356049 -0.266973 0.257568 -0.549175 -0.88189 0.201637 -0.472578 -0.209989 0.826261 0.130565 0.60396 -0.436926 0.984486 -0.951065 0.852515 0.456936 0.116927 0.800653 -0.0497443 0.481572 -0.949836 -0.448974 -0.118959 -0.0487976 0.930218 -0.230241 0.950451 -0.50724 -0.783225 0.245492 -0.229739 0.0517864 -0.322448 0.0769642 -0.730657 0.881054 0.397078 0.672088 0.68447 -0.451708 -0.229881 -0.244835 -0.433751 -0.068201 0.501911 -0.638109 -0.220241 0.223952 -0.383636 -0.15945 -0.499135 0.928951 0.44245 -0.148744 -0.781522 0.863496 0.626731 0.368362 -0.265983 -0.841247 0.127463 0.67624 0.160624 -0.745356 -0.788071 0.373487 -0.0747751 0.906079 0.464781 -0.629201 0.766003 0.180202 0.782082 -0.108757 0.734645 -0.544169 -0.630906 0.470661 0.196336 -0.57415 -0.253108 -0.0428929 -0.175984 -0.906246 -0.252169 -0.489113 0.608973 -0.224092 -0.483245 0.604794 -0.149079 -0.895388 -0.488136 -0.973401 -0.833412 -0.981269 0.502407 0.872286 0.478779 -0.226379 -0.428587 0.552662 0.0275051 -0.063804 0.112994 0.792443 0.364515 0.385718 -0.164544 0.62507 0.353273 0.31328 0.759701 -0.599136 -0.830417 -0.77424 -0.783343 0.778236 0.300724 0.937144 -0.143953 0.732145 -0.448707 -0.419989 -0.378079 -0.453088 -0.96267 -0.406685 -0.207385 -0.17854 -0.810618 -0.268644 -0.0363227 0.468972 0.712979 -0.935782 0.0138077 0.702451 0.685721 0.966239 0.174801 0.0701029 0.49736 -0.863836 0.896141 0.416403 -0.215164 -0.431158 -0.922242 -0.101304 0.585738 0.584441 -0.134397 -1.00341 -0.92211 0.824607 0.700098 0.479153 -0.0165271 -0.779648 -0.60028 -0.543498 0.24263 -0.968043 -0.130667 -0.643329 -0.926951 -0.193135 0.671705 -0.122131 0.075405 -0.565808 0.526024 -0.939471 0.850366 0.134847 0.410295 -0.73685 -0.122672 0.372693 -0.273076 -0.886401 -0.441161 -1.00837 -0.187199 -0.368099 0.676271 -0.883121 -0.998328 0.0638101 0.457322 0.139353 -0.643783 0.0510807 -0.0327876 -0.0982183 -0.437172 -0.507665 -0.589745 0.399207 0.531279 0.529656 0.429702 0.0646458 -0.715965 -0.169178 -0.306268 -0.400336 -0.337691 0.140302 -0.159274 -0.121137 -0.951657 0.677521 -0.370356 0.378469 -0.0716998 0.956659 0.745343 0.617171 0.751352 0.570606 0.276354 0.626733 0.151396 -0.158125 0.56017 0.69586 -0.578736 -0.93067 -0.14646 -0.826967 -0.410759 -0.979665 0.389901 -0.886612 0.653969 0.716601 -0.514284 -0.305836 0.571858 -0.573817 -0.254499 0.410232 -0.335149 0.845051 -0.913006 -0.898528 0.716992 -0.882461 -0.814031 -0.225456 0.294297 0.329116 0.148028 -1.04808 0.0360556 -0.848733 0.558735 -0.509552 -0.614156 0.449438 0.735111 0.317936 0.278356 -0.538173 0.13415 0.846575 1.00559 -0.173121 -0.0263342 0.804386 -0.217431 -0.728048 -0.0384368 0.121253 -0.258831 -0.0235322 0.123873 -0.770993 -0.080631 0.465695 0.582598 0.657875 -0.20056 -0.541346 0.125158 -0.61628 -0.831381 0.105509 -0.359244 0.679818 0.000786058 -0.20581 0.340328 0.0704194 0.796098 0.255294 -0.196215 -0.523737 0.249719 -0.474937 -0.134049 -0.937595 -0.643564 -0.065403 0.715619 -0.654384 -0.540424 0.166824 0.848849 -0.854159 0.197006 -0.817691 -0.939655 -0.421238 -0.469251 0.271321 0.463992 0.0968424 -0.266542 -0.968671 0.484725 0.449953 -0.615088 -0.627784 0.865098 0.707443 -0.618653 -0.483189 -0.345498 -0.750803 0.9287 0.00170232 -0.784213 0.764284 -0.452124 -0.325441 0.226545 0.260456 -0.928603 -0.303302 -0.325196 -0.94776 -0.35538 -0.459756 0.861826 0.768488 -0.2754 0.992363 -0.597825 -0.644981 0.0817845 0.149615 -0.780473 -0.937809 -0.201741 -0.576282 0.558852 0.458577 0.26969 -0.462932 -0.0350533 0.423174 -0.798449 -0.47435 0.304875 0.148248 0.617716 0.73783 0.753667 -0.86261 0.847089 0.833905 0.800421 -0.791621 0.53626 -0.212953 0.244999 0.490353 0.644017 -0.116862 -0.794461 -0.575047 0.436142 -0.279978 0.103312 0.765717 -0.503862 0.208532 -0.312401 -0.418273 -0.273699 0.570974 0.985895 -0.748976 -0.673606 0.338107 -0.61936 -0.536944 0.838337 -0.624762 0.547859 0.229408 -0.968185 -0.17356 0.475916 -0.1436 -0.901091 0.164037 -0.496211 0.984045 0.522895 -0.815901 0.112715 0.54789 -0.957363 -0.0214904 -0.668384 -0.200239 0.808587 -0.0329037 0.457053 0.319258 -0.0256309 0.854015 0.951678 -0.0440885 -0.515186 0.689681 0.818165 0.937298 0.353854 -0.182126 -0.170791 -0.231068 -0.132075 0.887439 0.829813 -0.758205 -0.235641 0.891836 0.687698 0.477286 -0.422865 -0.856479 0.365789 -1.02922 0.0200163 -0.809598 -0.529736 0.400665 -0.308303 0.914868 -0.884371 0.894434 -0.693838 0.64626 -0.00496876 0.796847 0.367802 0.804399 0.412137 0.834047 -0.509261 0.325553 0.873221 0.0535936 -0.474089 0.298539 0.719496 -0.401684 0.253038 0.271334 0.227244 -0.738527 0.133559 0.0629128 0.291957 -1.08451 0.199418 -0.43546 0.00784329 0.823383 0.58771 -0.604876 -0.0296957 -0.295584 0.0742875 0.147287 0.899999 0.0622305 -0.820246 -1.02902 -1.12287 -0.538488 0.507986 -0.70929 0.168098 -0.786082 0.612978 0.367193 -0.764913 -0.779695 -0.66375 0.565138 0.47946 -0.292437 0.712873 0.031656 0.0861362 0.722559 0.790373 -0.572405 -0.109894 -0.614542 0.0585453 -0.25948 -0.388897 0.712726 0.185706 -0.207859 -0.920288 0.0459818 -0.797871 -0.56042 0.530945 -0.862078 0.107544 0.630452 -0.553094 -0.263415 0.839925 -0.650344 -0.354912 0.323676 -0.646877 0.120254 -0.144763 -0.249378 0.776588 -0.385585 -0.0980709 0.65583 -0.999317 -0.965218 -0.561329 0.396626 0.187569 -0.152637 -0.575952 0.540587 0.255655 -0.314213 -0.573157 0.913295 0.407416 0.588359 -0.556766 -0.165502 -0.483955 0.972582 -0.631126 -0.304525 0.864591 -0.587326 -0.101116 -0.645079 0.233668 0.931914 -0.180089 -0.0498976 -0.627027 0.792551 0.186178 0.867315 0.682632 0.605634 0.503352 -0.0636201 0.744152 0.327422 0.411313 -0.819039 0.412113 0.0850346 0.0153578 0.972383 0.941254 0.480298 -0.315827 0.057017 -0.199635 0.341271 0.0752589 -0.621582 0.844309 0.830913 0.188939 0.279758 0.223609 -0.572201 -0.676174 0.387388 0.389626 -0.0920728 -0.909115 -0.355521 0.1123 0.379649 -0.582333 0.303105 0.478575 -0.753307 0.542835 0.934236 0.877933 -0.76525 -0.980729 0.413526 -0.978168 -0.621081 -0.290246 -0.0655053 0.928211 -0.972233 -0.209484 -0.998724 0.930517 -0.158098 0.750737 -0.569635 -0.326391 -0.205487 0.391024 -0.647263 0.115173 -0.829044 0.825949 -0.791437 -0.474836 0.569718 0.481771 -0.247056 -0.514307 0.901473 0.0966179 0.0525544 -0.108247 -0.611015 0.722143 -0.512924 0.952504 -0.431809 -0.278165 -0.25182 -0.813892 -0.713101 0.766061 0.838171 -0.570718 0.706795 -0.139636 -0.92111 0.818092 0.299494 -0.709052 -0.9069 0.792488 0.848857 -0.302441 -0.167556 -0.808349 -0.538858 -0.0588373 0.543265 0.0308308 -0.472838 -0.709203 0.789939 -0.229427 0.799967 -0.624142 0.456511 0.957576 -0.700762 -0.0295511 -0.27099 0.731001 -0.638948 -0.647785 -0.8661 0.56787 -0.340447 -0.262409 -0.537214 -0.108251 -0.83379 0.164011 -0.150865 0.872406 -0.816248 -0.144701 -0.253948 -0.683948 -0.718321 0.0311176 0.862408 0.184799 -0.63201 0.641654 -0.63494 0.556065 -0.31467 -0.850628 -0.442129 -0.671051 0.761952 0.467715 0.12703 0.270666 -0.529971 -0.53535 0.0819798 0.473219 -1.0416 0.675889 0.824173 -1.03234 0.64138 -0.158721 -0.140596 0.0167021 0.379192 -0.477234 -0.792301 0.218714 0.30798 -1.17554 -0.935637 1.00776 0.66852 -0.286667 0.0447888 0.568768 0.336106 0.480198 -0.878494 0.14277 0.264695 0.400245 -0.776968 -0.856193 -0.0776853 -0.423875 0.055632 -0.235519 0.913493 -1.0465 -0.61337 1.10025 -0.945782 -0.631084 -0.614512 -1.02413 0.78473 -0.713392 0.55603 0.240344 0.672965 -0.621558 -0.648339 -0.75746 -0.293649 -0.694421 -0.835668 0.442124 -0.848431 -0.30551 -0.810828 0.20164 0.134555 0.485338 -0.785975 0.154768 -1.03511 0.24066 -0.597826 0.64687 -0.400197 0.792687 -0.454637 -0.797091 0.545195 -0.10832 0.636702 0.21695 0.810405 -0.611989 -0.177927 -0.581917 -1.04585 0.616176 0.0100781 0.300569 0.670915 -0.0731744 -0.963529 0.366989 0.0153066 0.52921 0.342113 -0.99227 0.596931 0.207442 0.40018 0.0992715 0.971673 -0.364918 -0.0421354 0.734003 -0.402181 0.351223 -0.512306 0.537121 -0.444834 -0.0153702 0.256004 -0.245977 0.233252 -0.626744 -0.411885 0.0542844 -0.850778 -0.148727 -0.677004 0.502982 0.204753 -0.56133 -0.423955 -0.123172 -0.402126 -0.186545 0.638399 -0.673759 -0.122021 -0.438477 -0.719425 0.489258 -0.0568258 -0.649753 0.433527 -0.935988 0.89458 0.117086 -0.561752 -0.766084 0.233107 -0.775883 -0.0627252 -0.514065 -0.225588 0.224283 -0.127746 0.570106 -0.448206 -0.945773 -0.526782 -0.401379 0.0137938 -0.0267091 -0.644484 -0.0628204 -0.119561 -0.484009 0.347341 -0.711848 0.176856 0.55998 -0.327806 -0.309577 0.269785 0.281128 0.814978 -0.535459 -0.200576 0.152232 -0.394365 -0.737561 0.754754 -0.0117376 0.165192 0.0411152 -0.588404 -0.10058 0.945659 -0.933669 0.372455 0.311994 0.691794 -0.0741158 0.547193 -0.0351486 0.47542 0.512006 -0.840998 -0.089185 -0.325428 -0.968687 -0.256185 -0.488469 -0.0180112 0.00683152 0.149657 0.444373 -0.598491 0.269107 0.537042 0.697392 0.250303 0.963402 -0.620613 0.572467 -0.842462 -0.45309 -0.537826 0.683379 -0.934722 -0.208329 -0.116756 -0.0438677 -0.772515 -0.222112 0.0526577 -0.36937 -0.78874 -0.0984218 -0.306076 -0.753783 0.897121 0.863574 0.845888 0.694036 0.468559 -0.295196 -0.147518 0.128963 0.442292 -0.297158 -0.626291 0.0566289 -0.360869 0.598559 0.382266 -0.774534 -0.826055 0.278243 0.168045 0.766198 0.48806 -0.93851 0.334658 0.237169 -0.661075 -0.5949 0.787537 -0.77965 -0.206304 0.245329 -0.276345 -0.103807 0.246664 -0.964494 -0.292047 0.328388 -0.612666 -0.977959 -0.407582 -0.567087 0.168725 0.202248 0.527527 0.385586 -0.0390812 0.353751 0.0111309 0.222506 0.395074 0.239878 -0.243653 0.687939 -0.578362 -1.07186 -0.0996271 -0.68279 -0.720304 -0.93421 -1.03739 0.662638 0.444969 0.304787 -0.500244 -0.283871 -0.0787158 -0.329621 0.602257 0.719976 -1.0389 -0.091757 -0.369184 -0.813864 0.849355 -0.46376 0.250419 -0.0361179 -0.416438 0.643085 0.529043 -0.489967 -0.814751 0.489707 0.513356 0.105405 0.159744 -0.230766 -0.969495 -0.319145 -0.661558 -1.13975 0.797289 -0.70956 -0.446762 -0.639512 -0.728026 -0.674993 0.377676 -0.619632 -0.0971824 0.105992 -0.558819 -0.392972 0.273808 0.64694 0.719012 0.332138 -1.04132 -0.737213 0.779831 -0.228283 0.10244 0.206085 -0.259887 0.137153 0.634812 -0.308769 -0.951766 0.0530899 -0.0987206 -0.446207 -0.363583 -0.445072 0.715167 -0.121825 -0.791873 0.3501 -0.676812 -0.909172 -0.169737 0.29903 -0.411138 0.691541 -0.818054 -0.83516 -0.262141 -1.15329 0.054548 -0.902526 0.807548 0.54026 -0.415064 -0.387832 -0.771917 -0.375002 0.367768 0.172187 0.474673 -0.0324498 0.288251 0.0481848 0.598302 0.811713 0.677312 0.687577 -1.04573 -0.325556 -0.231588 -0.231889 0.0683953 -0.818327 0.223403 0.213416 0.226926 0.831558 0.348934 -0.436366 0.371662 0.032275 -0.553634 -0.307563 -0.129746 -0.513783 0.533415 0.621541 -0.0434791 0.481095 -0.611104 -1.01882 0.600359 0.751068 0.00286896 -0.564116 -0.34487 0.113644 0.575004 -0.873209 -0.30066 0.791318 -0.271518 -0.592256 -0.554214 -0.580041 0.219354 -0.00549854 -0.0816314 0.821544 -0.661766 0.868762 0.435178 0.173388 0.564728 0.406214 0.700051 -1.00028 -0.280191 -0.719735 0.647522 -0.977525 0.906466 0.390322 0.598683 0.402744 0.623948 -0.939479 -0.877651 -0.413452 -0.428115 0.806459 -0.860647 -0.725719 0.848136 -0.424328 -0.12377 0.554701 -0.18771 -0.439712 0.869682 0.746026 0.166527 -0.720593 -0.0353625 -0.432479 -0.0862793 -0.434314 -0.679783 0.984332 -0.626753 -0.436868 -0.588468 -0.694949 -0.829648 0.733483 -0.974615 -0.858154 0.24945 0.843841 -0.741471 -0.578228 -0.135671 -0.0221297 -0.477798 -0.61628 -0.417595 0.530139 -0.460424 0.579294 -0.717133 -0.790828 -0.654032 0.871365 -0.842412 -0.966245 -0.709966 0.436445 -0.288955 -0.660463 0.0305673 -0.235833 -0.242025 -0.239729 0.545245 -0.354467 0.433368 0.270356 0.109248 -0.770197 -0.827912 -0.868217 0.334248 -0.117376 -0.266797 0.907398 -0.872275 -0.596836 0.165119 0.554816 0.700805 -0.18859 0.88858 -0.817064 -0.39114 -0.529748 0.568822 0.406667 0.650299 -0.924366 0.209319 0.0156663 -0.915919 -0.467349 -0.869224 0.164469 0.292869 0.314393 0.906003 -0.701765 0.10364 0.904882 -0.381672 0.0659345 0.588201 -0.701782 -0.582102 -0.141172 0.129154 -0.424227 0.873123 -0.136965 -0.402526 0.344428 0.854721 -0.190164 -0.128552 0.739491 0.553191 -0.387711 0.365624 -0.289527 -0.361585 -0.333511 0.671802 0.705923 -0.289183 0.852945 0.808143 -0.492728 -1.00845 -0.0199718 -0.741075 0.195836 -0.16043 0.211472 0.251991 -0.360628 -0.886046 -0.924526 -1.03277 0.159717 -0.0446006 0.429707 0.448299 0.84407 -0.486247 -0.86698 0.360709 -0.935063 -0.362587 -0.988442 0.627 0.32505 0.240976 -0.960704 -0.805978 -0.714861 -0.267528 0.413289 0.644523 -0.397282 0.802566 0.550511 -0.224124 0.00734342 0.165078 -0.576661 -0.36788 -0.421078 -0.700433 0.839392 -0.235338 -0.471522 -0.389337 -0.618105 -0.342767 -0.851038 -0.976615 -0.308482 -0.425903 0.566445 -0.114948 0.936056 -0.293849 -0.111842 0.359578 -0.127827 0.680789 -0.237711 -0.373367 -1.14248 -0.114981 1.05999 0.5944 -0.483636 -0.0148914 0.0235888 0.68561 0.184352 -1.0007 -0.904609 0.0764251 -0.200496 0.716769 -0.301164 0.168193 0.129612 -0.685489 -0.339245 -0.334198 -0.438144 -0.431892 -0.0575312 -0.472109 -0.734193 -0.0568637 0.1946 0.222791 0.658758 -0.302814 0.320035 -0.397188 0.65089 0.663014 -0.608048 0.839579 -1.02818 0.16062 0.715507 -0.00982695 0.750029 0.705675 0.656746 -0.365787 -0.832828 0.361755 -0.924768 -0.105226 -0.692305 -0.100885 0.741115 0.0753749 -0.893766 0.528966 0.497976 -1.02285 0.447381 -0.502756 -0.487582 0.19533 -0.210524 0.574623 -0.787047 -0.277082 -0.3456 -0.514348 -0.528193 -0.431224 -0.819371 0.656141 0.3261 0.276914 -0.576931 0.777126 0.20775 0.390754 0.125429 0.665656 0.0175121 -0.862581 -0.93441 -0.441623 0.577808 -0.114886 0.475547 0.909425 -0.564403 0.292586 -1.00568 0.696008 0.121714 0.37728 -0.716763 -0.950107 0.690401 0.428726 0.61763 0.393424 -0.519823 -0.870081 0.359868 -0.466768 -0.960671 -0.615859 0.338323 -0.417375 0.343442 0.450222 0.622871 -0.0617879 0.583021 -0.097592 -0.388582 0.334375 -0.644557 -0.38063 0.00175697 0.794523 0.497647 -0.208285 0.814649 -0.322022 0.196795 0.92277 -0.606125 -0.361736 0.937079 -0.170009 -0.625624 -0.349278 -0.47733 -0.355781 0.718033 -0.998547 -0.932915 -0.193575 -0.30615 -0.711578 0.993537 0.0702264 0.883948 0.421268 -0.953407 0.504949 -0.814723 0.625732 -0.726816 -0.513997 -0.192731 0.431787 0.0377563 -0.293195 0.259121 0.698066 0.000106018 0.176593 0.38211 0.563959 0.214085 0.20095 0.323668 -0.468528 -0.120676 -0.569632 0.508052 -0.625898 0.68697 -0.233958 -0.180275 0.17683 0.539306 -0.494828 -0.842698 0.376042 -0.352 -0.785763 0.0617758 0.631013 0.685116 -0.262402 0.197098 0.0821648 0.269202 0.295324 -0.456716 0.0112947 -0.169958 0.32529 0.577146 0.0833205 0.749663 -0.227139 -0.354293 0.277289 0.747273 0.698575 0.0266683 0.808384 0.212491 -0.472444 0.876348 0.459759 -0.86648 -0.984635 -0.354169 0.0117092 0.624319 0.175648 0.499448 0.675367 -0.298098 0.588204 -0.714528 -0.0134483 -0.582 -0.239349 -1.08639 -0.187715 -0.0544 -0.249394 0.0457856 0.429509 0.621152 0.80589 -0.360846 0.132352 0.446706 -0.334715 -0.39952 -0.204636 -0.29096 -0.63849 -0.963571 0.442176 -0.81736 0.848366 0.711836 -0.407441 0.46934 -0.0895952 0.701651 -0.991681 0.521419 0.363323 -0.375265 0.493077 -0.0316118 0.396285 0.797579 0.572107 0.479492 0.628765 -0.752525 -0.069586 0.52506 -0.284259 0.70075 -0.591382 -0.484877 0.82786 -0.777498 0.418289 -0.121196 -0.523699 -1.08261 0.441781 -1.04126 -0.718763 0.756503 -0.484466 -0.99213 0.508969 -0.555918 -0.198307 -0.211498 -0.629864 -0.632405 -0.271468 0.0230381 0.53018 -0.822856 0.395351 0.322539 -0.753438 0.225418 0.713299 0.57811 0.412496 -0.962195 0.20777 -0.463089 0.226002 -0.145982 -1.01465 0.238287 0.174746 0.565204 