0.5554 0.9452 0.28323 -0.88298 -0.48744 0.89819 -0.93619 -0.98257 0.31291 -0.99998 -0.44601 -0.083828 0.54476 -0.72403 0.85199 0.11326 -0.71026 0.96988 0.82643 -0.72728 0.91787 -0.59673 0.93451 -0.78139 -0.8362 0.39345 0.69134 -0.5928 -0.75148 -0.4912 0.2237 -0.9736 -0.65665 -0.70999 0.90174 -0.85785 -0.20952 -0.39063 0.16288 -0.25985 0.68883 0.82026 0.8266 -0.98031 -0.33142 -0.39229 -0.76078 -0.67324 -0.38333 0.66743 0.83788 -0.68054 0.75815 -0.56897 0.22689 0.46083 -0.53264 0.5348 -0.79417 0.19188 0.0031255 -0.94181 -0.97043 -0.36513 -0.75456 -0.1421 -0.91385 -0.03637 0.46071 -0.51918 0.13142 -0.5742 0.053923 -0.88872 0.0049837 0.73196 -0.51384 -0.93851 0.7372 -0.57071 -0.5786 0.45485 -0.55167 -0.95168 -0.28739 -0.9572 -0.81346 0.96985 0.45508 0.77476 -0.98976 -0.039052 -0.041679 -0.51409 0.06379 0.83738 -0.69195 -0.60992 0.31508 -0.043515 0.24319 0.7501 0.85157 0.35689 0.34382 0.67419 -0.12287 0.13937 -0.34708 0.72564 -0.63577 0.16971 0.40221 -0.62284 -0.82277 -0.45813 -0.98776 -0.5806 -0.11881 0.71654 -0.5606 0.51251 0.99773 -0.73593 0.99855 0.081858 -0.8781 -0.96541 0.14311 0.01057 -0.90382 -0.54649 0.10148 0.58653 -0.20534 -0.17934 0.21471 0.018155 0.82026 -0.79684 0.63262 0.080556 0.85834 0.15163 0.76165 -0.36914 -0.02503 -0.78833 0.73758 0.006305 0.86664 0.26821 -0.14873 -0.44133 -0.44177 0.63659 -0.31443 -0.34616 -0.63198 0.49146 0.35812 -0.44692 -0.73247 0.90897 -0.0001028 -0.36164 -0.50851 -0.65994 0.082883 -0.58637 0.47345 -0.87829 -0.51486 0.047077 0.88717 -0.46862 0.52445 0.092984 0.62064 -0.32342 0.25618 -0.93629 -0.028841 -0.51056 -0.04915 0.17754 -0.68969 0.68722 -0.57255 -0.71855 0.32095 0.26564 -0.31836 0.70014 -0.23637 -0.23979 -0.39956 0.030475 0.53338 0.8593 -0.17424 -0.73045 -0.79245 0.8419 0.77939 0.74116 -0.43133 0.91116 -0.19033 -0.29978 0.077684 0.36421 0.35658 -0.20025 -0.61887 0.32166 -0.32866 -0.59294 -0.55619 -0.18532 0.4446 0.55912 -0.84431 -0.23348 -0.47136 0.60802 -0.69015 0.83839 0.99937 -0.48567 0.64911 -0.9743 -0.71842 -0.67639 0.10681 -0.82475 -0.056093 0.44443 -0.12565 0.084477 0.31134 0.73994 0.56116 0.65656 -0.79644 -0.091197 0.090884 0.043584 0.069633 -0.62632 0.83101 -0.99482 0.094724 0.40588 0.24984 0.27507 -0.81574 -0.94671 0.20468 0.069542 -0.49569 -0.72269 0.78791 0.88158 -0.26763 -0.43706 -0.22228 -0.43873 0.90442 -0.85901 0.53727 -0.4029 0.072011 0.81731 -0.80703 0.98032 -0.48874 0.94813 -0.98416 -0.41289 -0.34368 -0.51752 0.33375 0.58627 0.94394 -0.62627 -0.57326 -0.75419 -0.099602 -0.41922 0.43621 -0.16941 -0.29793 0.29499 -0.8197 -0.60172 0.13004 -0.50055 0.03807 -0.77975 -0.47072 -0.23094 -0.22319 0.39752 0.9234 -0.21989 -0.28481 -0.82804 0.13455 -0.80131 0.73492 -0.079235 0.19246 0.072457 0.52716 -0.2228 -0.032275 0.72078 0.7931 -0.65105 0.59071 0.057275 0.82844 0.97718 0.96844 -0.21024 -0.54588 -0.97052 0.16568 0.85174 -0.8952 -0.79538 -0.52141 0.61525 0.99606 0.22027 -0.14631 -0.94471 -0.75696 0.43273 -0.88994 -0.1695 -0.58165 -0.53095 0.72718 0.80694 0.95598 -0.96828 0.3531 -0.39996 -0.82958 0.30032 -0.2646 -0.032508 0.38396 -0.84631 -0.11994 0.24801 0.98834 0.73499 -0.7284 0.78928 0.21712 0.41622 0.2655 -0.94409 0.89324 -0.60305 -0.48829 -0.48346 -0.70272 0.3101 0.11898 -0.61292 0.15039 -0.18091 0.42155 0.22572 0.29517 0.89073 -0.60723 0.68662 -0.55197 0.17962 -0.54386 -0.89066 -0.79994 0.70239 0.84258 -0.63066 -0.16389 0.13409 -0.68899 0.88053 0.65809 0.46433 -0.49109 0.33733 0.22956 -0.77506 -0.63663 0.085413 0.99461 -0.80009 0.52546 -0.22118 -0.11657 -0.34236 -0.55341 0.25509 -0.80346 -0.37361 -0.89462 0.15911 0.28962 0.54062 0.32613 -0.70371 0.055626 -0.81377 0.38 -0.307 0.96411 0.62577 0.21823 0.64329 -0.047447 -0.11331 -0.26616 -0.91697 0.80032 -0.16301 0.56046 0.74718 0.88544 0.42759 -0.79306 0.5794 -0.47053 -0.99275 0.91335 0.59711 0.27003 -0.27335 -0.91238 -0.55561 -0.04066 0.42313 0.40424 0.44989 0.68562 -0.69371 0.12143 0.63053 0.30545 -0.58239 0.5369 -0.61196 0.49977 0.30133 0.78774 0.24819 -0.044766 0.63928 0.65184 0.032376 -0.49948 0.50902 -0.45243 0.84925 -0.34211 -0.98085 -0.174 0.13108 -0.54282 0.9159 0.27465 -0.94248 0.046514 0.13993 0.62895 -0.41053 -0.36165 -0.21697 0.67765 0.90318 0.064625 0.17541 0.21833 -0.60695 0.91603 0.089983 -0.74744 0.16005 -0.96498 -0.44818 -0.083757 -0.16312 -0.42231 -0.37322 -0.0062081 0.59648 0.88568 0.58671 -0.12448 0.39984 -0.56637 -0.57805 -0.58862 0.15175 0.99399 0.85704 -0.068775 0.58685 -0.5087 -0.8924 -0.81196 -0.15455 0.97519 -0.29681 0.23764 -0.38596 -0.85584 0.3901 -0.8213 0.79975 0.66345 -0.93846 -0.90086 0.41283 -0.82775 -0.32701 0.32156 -0.82023 -0.4344 0.043084 0.58656 0.1369 -0.57654 0.40173 -0.012652 -0.048297 0.41947 0.099818 0.76955 -0.51373 -0.37961 0.10172 0.16803 0.23932 0.67824 0.62011 0.42209 0.47627 0.83551 -0.45181 -0.97392 -0.025461 0.059111 0.87819 0.28822 0.43781 -0.92291 -0.24763 -0.52749 -0.35041 0.062702 -0.30668 0.84973 -0.36784 -0.19473 -0.74816 0.65205 -0.81249 -0.32602 0.52442 0.92165 -0.025648 0.67955 -0.30202 0.7628 0.94523 -0.75043 0.8445 -0.67159 0.68357 0.83426 -0.45135 -0.26539 -0.38244 0.32796 0.87613 0.38493 0.44514 -0.94168 -0.18286 0.41512 -0.79888 -0.94442 -0.31295 0.35544 -0.12693 -0.80617 0.084474 -0.080162 -0.041436 0.69203 -0.17081 0.68996 -0.65285 0.15725 0.83117 0.78434 0.80001 0.85094 0.90014 0.40436 -0.12275 0.22205 -0.97204 0.67263 -0.69526 0.23161 0.82602 -0.90809 -0.85329 0.40415 -0.65467 -0.52737 -0.10168 -0.23035 0.9099 0.62428 -0.14627 0.93046 -0.73471 0.7256 0.77875 -0.79957 -0.34603 -0.97494 -0.73502 -0.26424 -0.10245 0.78947 0.87438 -0.35619 0.48049 0.16816 0.61956 -0.98383 0.87485 0.79324 0.3685 -0.087673 0.48281 0.93353 0.86215 0.08167 -0.10535 -0.22145 0.44501 -0.60779 0.8414 -0.70858 -0.94877 -0.55162 -0.43421 -0.94824 -0.61272 -0.82428 0.2541 -0.41338 0.25451 -0.15968 0.34018 -0.65048 -0.9891 -0.87666 -0.20121 0.5688 0.07497 -0.19229 -0.24879 0.72072 -0.55113 0.11294 0.77703 -0.33923 -0.55388 0.8272 0.94654 0.22722 0.13894 0.92771 -0.76455 -0.39618 -0.054595 -0.82385 0.4112 0.04211 -0.060542 0.50136 -0.059839 -0.21196 -0.17552 -0.040141 0.94197 0.76375 -0.66502 0.51866 0.95371 0.98315 0.60031 -0.025525 0.46986 0.77942 0.38388 -0.69522 0.87015 -0.45474 0.66316 0.29466 -0.037886 -0.25453 -0.61931 -0.93775 0.28691 -0.58956 -0.13565 0.60713 0.94183 0.73729 0.49844 -0.092784 0.065604 -0.87455 -0.24062 -0.21633 -0.44643 -0.60567 0.11694 0.41025 -0.67902 0.35717 -0.68024 0.7294 0.45066 -0.25191 0.77721 0.82906 0.97322 0.59246 -0.27322 -0.88348 -0.33247 0.27087 -0.86198 -0.47496 -0.14298 0.63379 0.83277 0.65017 -0.72272 -0.81262 -0.6997 0.96113 -0.80149 -0.67924 0.1099 -0.44338 -0.65785 -0.59308 0.64402 -0.5572 -0.091709 -0.22197 -0.8224 0.50913 -0.30269 0.090693 0.70461 -0.23697 -0.67597 0.24783 -0.28174 -0.94649 0.6828 0.42431 0.74991 -0.49914 0.24374 0.2969 0.0074135 -0.34312 0.53823 -0.8807 0.37784 0.14959 0.63386 0.62182 0.61062 -0.78673 0.9881 0.01152 0.56521 -0.26905 0.14477 -0.005349 -0.86146 -0.83423 0.83306 -0.16829 -0.072355 -0.45679 0.80981 -0.55532 0.43016 0.79558 -0.23161 -0.78519 -0.16369 -0.29794 0.19 -0.38093 -0.25754 -0.46544 -0.82062 -0.20691 -0.41796 0.93474 -0.32237 0.46841 0.13742 0.94284 0.20443 0.11885 -0.30174 -0.16852 -0.53935 0.85974 -0.46165 -0.67359 -0.86882 -0.60989 0.30619 0.63972 0.97663 0.97685 -0.15647 -0.73667 0.055092 0.60285 0.72828 -0.68066 0.23173 -0.26241 -0.11695 0.30443 0.46074 0.31405 0.86491 -0.11093 -0.079272 0.63154 -0.10208 -0.78267 0.62756 0.27903 0.97507 0.81424 0.83638 0.2508 0.8531 -0.51491 0.76143 -0.47355 0.39852 0.10168 -0.81529 -0.22789 0.081121 0.080278 0.076732 -0.0077359 -0.26243 -0.71613 -0.14016 0.60697 -0.36056 -0.59166 -0.073301 0.1473 -0.74678 -0.1105 0.72885 -0.012533 0.43533 0.84861 0.8697 0.91617 -0.99771 -0.36793 -0.51894 -0.89429 0.80522 0.34687 0.27245 0.53864 -0.52025 -0.28911 0.57934 -0.7488 0.20144 0.73597 0.97654 0.37978 -0.65639 -0.94771 -0.81028 -0.14633 0.71209 -0.68142 -0.57269 -0.83799 0.76701 0.14586 0.055093 0.45814 -0.17649 -0.22565 -0.70495 -0.48373 0.2069 -0.5242 -0.025276 -0.47432 -0.037437 0.043736 0.23151 -0.9229 -0.117 0.93188 -0.95994 -0.86683 -0.7255 -0.30818 0.56135 -0.70474 0.58481 -0.73728 -0.073941 0.53071 0.35486 0.37837 -0.14444 0.94849 -0.25449 -0.53019 0.97803 -0.94101 -0.96677 0.79317 0.93012 0.82396 0.9787 0.86846 -0.91316 0.75025 0.036778 -0.090152 -0.014353 -0.6287 -0.36505 -0.99105 -0.53086 0.80411 -0.10684 -0.9341 -0.57353 -0.41387 0.48328 -0.10536 -0.82024 -0.083527 0.63269 0.93338 0.0086881 0.64456 0.5037 0.19397 -0.59981 0.28503 -0.43084 0.95725 0.99531 0.17415 -0.42694 -0.14851 -0.99269 -0.58636 0.56622 0.091575 0.31139 0.46654 -0.73082 0.10247 -0.2207 -0.79345 0.057129 -0.39893 -0.50995 -0.28524 -0.84814 -0.45963 0.8726 0.65998 -0.99067 0.009283 0.69323 -0.39339 -0.76685 -0.73777 -0.6169 -0.19283 -0.030929 -0.23401 -0.64476 -0.51044 -0.74476 -0.40124 0.1342 0.011 -0.49404 -0.82398 -0.2132 -0.45283 -0.13417 -0.22764 -0.6222 -0.24292 -0.24377 -0.14534 -0.073193 0.064522 -0.81297 0.29048 -0.23534 -0.72122 -0.53352 -0.60878 -0.039429 -0.76903 0.12579 0.59935 0.9485 0.27931 -0.98966 0.0068147 -0.54168 0.042553 0.34816 0.92902 -0.90712 0.17078 -0.25118 0.17386 -0.0044551 0.096462 -0.27902 -0.61157 0.36905 -0.26147 0.34195 -0.45055 -0.53307 -0.57549 -0.88724 -0.10788 0.057686 0.30395 -0.2494 0.79646 0.84627 0.039727 -0.94812 0.45668 -0.67674 0.69919 0.77355 -0.18564 0.75265 -0.92533 -0.54735 -0.90289 -0.14988 0.14333 -0.99644 -0.15272 0.37198 0.48186 -0.66721 0.74749 0.19235 0.72083 0.08041 0.10127 -0.57919 -0.21811 0.28378 0.25389 0.3329 0.25251 0.22752 0.91603 0.16455 0.1883 -0.76296 0.044186 0.4245 0.014044 0.51966 0.051861 0.1675 -0.81337 0.41534 0.42724 0.97081 0.67898 -0.35698 -0.49187 0.53274 0.26936 0.50695 -0.56989 -0.00098498 -0.92972 0.877 -0.039595 -0.46626 0.69996 0.48052 -0.56454 -0.30233 0.93681 0.49846 -0.96131 -0.71011 0.515 -0.88354 0.9324 0.97374 -0.53054 0.80835 0.27209 0.38845 -0.25791 0.38287 -0.58376 0.79229 0.016451 0.92396 -0.39041 -0.47253 -0.14282 -0.4141 -0.46522 -0.12948 0.3786 0.60188 0.19752 -0.099412 -0.38826 0.018889 0.7415 0.77014 -0.39536 0.86546 0.41346 0.7539 -0.72779 0.12587 0.92746 -0.96451 0.62514 0.26949 0.37882 0.13967 0.16909 -0.81542 -0.56304 -0.50752 -0.33645 -0.90025 0.78899 -0.27366 -0.99594 -0.85171 0.9222 0.6497 -0.46178 -0.82498 0.027431 -0.90682 0.81882 0.6506 0.47775 0.099562 0.14261 0.17523 0.3716 -0.041557 -0.96626 -0.67196 0.86396 -0.085079 0.56045 -0.064524 -0.48251 -0.68818 0.59664 -0.31458 0.70252 -0.57883 0.16502 -0.16151 0.31613 -0.77465 -0.66478 0.24178 -0.49089 -0.79995 0.28067 -0.99754 0.8264 -0.89419 0.014009 0.6612 0.62547 0.40438 0.03023 0.057721 -0.049166 -0.90145 0.54801 0.40758 0.92424 0.35336 0.979 -0.014654 0.084238 -0.24107 -0.58067 0.34893 0.37863 -0.32789 -0.54067 0.7281 -0.2756 -0.088076 -0.44648 -0.67351 0.72701 0.077716 0.29371 0.58083 0.80295 0.3714 -0.013867 -0.71578 0.5599 0.60846 0.74381 -0.43026 0.079625 0.34339 0.85599 0.71366 -0.023898 -0.37332 0.94152 0.037447 -0.37963 0.31589 0.55679 0.11184 -0.25612 0.80963 -0.043891 0.15425 0.75345 -0.79559 -0.99847 -0.49673 -0.0014876 0.0073102 0.052556 0.75553 0.48409 -0.20858 -0.092317 -0.053462 0.76127 0.59097 -0.53824 -0.91145 -0.38731 -0.32066 0.10915 -0.12578 0.30718 -0.52152 -0.90685 0.88356 0.59134 -0.96731 0.92842 -0.49044 0.97636 -0.006622 -0.28597 0.93838 -0.0045285 0.51606 0.77309 0.51983 -0.60863 0.81245 -0.36721 0.92881 -0.60962 0.28006 -0.73627 -0.17451 0.60929 -0.028852 -0.73822 -0.78887 -0.80011 0.36352 0.74468 0.27428 -0.81032 0.96158 0.60761 -0.24543 -0.31355 -0.28539 -0.53963 0.90211 -0.30011 -0.53421 0.55401 -0.5556 -0.5178 -0.16592 -0.1257 0.35489 -0.7141 0.597 0.482 0.74986 0.41404 0.25384 0.94608 -0.25635 0.44114 -0.72371 -0.2726 0.50183 -0.19691 0.96876 0.63005 0.32522 0.48786 0.54081 0.88468 0.83622 -0.98255 -0.42098 -0.84457 0.59019 -0.036203 -0.12466 -0.87675 0.78423 0.050276 -0.4538 -0.14224 0.7548 -0.94479 -0.46391 -0.35387 0.24874 -0.95622 0.31303 0.29712 -0.77168 0.29057 -0.67391 -0.80174 0.64862 -0.31765 0.37305 -0.86209 -0.70608 -0.77462 0.14011 -0.44016 -0.18408 -0.012866 0.4024 0.13684 0.41556 -0.57625 -0.18461 0.30525 -0.035448 0.78585 0.67403 -0.9766 -0.97223 0.14324 0.77067 0.82033 0.80365 0.36353 -0.30278 0.41515 -0.86251 -0.98738 -0.78908 -0.24964 0.27175 0.5746 0.21068 0.3886 -0.32459 -0.57212 -0.18386 -0.90734 -0.35857 0.91763 0.94486 -0.10364 -0.83732 -0.10787 -0.97626 -0.8961 -0.65493 -0.84252 0.71773 0.77146 -0.98958 0.32776 0.81929 0.63182 0.8076 0.70862 0.08199 0.3258 -0.25698 0.52774 0.14583 0.1415 -0.072169 -0.89857 0.11443 -0.95865 -0.56036 -0.47696 0.88402 -0.19036 -0.16239 0.23761 0.97473 -0.52858 -0.43849 0.20264 0.91005 0.76881 -0.71357 -0.13176 0.29367 0.64484 0.021052 -0.1358 -0.041335 -0.66497 0.9835 0.82941 0.27689 0.74693 -0.72155 -0.73833 0.55954 -0.55409 0.93889 -0.14468 -0.021605 -0.94261 -0.26581 -0.70132 -0.82305 -0.41014 -0.69096 0.019069 -0.31047 0.44262 0.16836 -0.44977 0.16612 0.62863 0.61786 -0.075288 0.66956 -0.86402 -0.85049 -0.96842 -0.85983 -0.75762 0.46947 0.078175 0.41732 0.29149 0.9862 -0.21175 0.23295 -0.41053 0.60683 0.85023 0.61284 -0.19963 0.27264 -0.50284 -0.050363 0.89197 0.40351 -0.24593 0.24182 -0.52875 -0.35068 -0.047315 -0.050689 -0.52744 -0.94552 0.88003 0.040548 -0.38568 -0.68388 -0.70648 -0.58047 0.90345 -0.87086 0.3217 -0.82515 0.73524 -0.6983 -0.93336 0.05981 0.34647 0.92004 0.51687 0.32819 -0.44489 -0.1156 0.60673 -0.947 0.90726 0.62123 0.40864 0.87555 -0.55502 -0.59866 0.49068 -0.11449 0.434 -0.79137 0.37331 -0.49934 0.28988 -0.67538 -0.167 0.44412 0.57134 -0.90014 -0.34972 0.26896 0.13302 0.51559 0.78597 0.028679 0.19878 0.71318 -0.11866 0.86617 -0.43385 -0.87709 -0.6336 0.14153 0.91209 0.9589 -0.50944 -0.29479 0.79313 0.18806 -0.7836 -0.90281 -0.071979 -0.061403 0.01598 -0.91253 0.59636 -0.2486 -0.033212 -0.34154 -0.50155 0.98943 -0.25986 0.95391 -0.18236 0.79839 0.83806 -0.93596 -0.53315 -0.14737 0.70485 0.26066 0.19345 -0.39647 -0.56458 -0.17192 -0.27972 -0.90994 0.30219 -0.94713 -0.031789 -0.42297 0.97127 -0.3302 0.90565 0.53494 0.49756 0.87793 0.91075 0.97314 -0.37484 0.47038 -0.077336 -0.732 0.15561 0.060591 0.29777 -0.646 0.50288 -0.64582 0.46582 0.15001 -0.52921 0.45334 -0.70432 0.92403 0.27673 -0.33896 -0.63998 -0.72699 0.76938 -0.51548 0.3718 0.6666 -0.14167 -0.0020273 0.93317 0.74785 0.65473 -0.26279 -0.55288 0.82677 -0.18385 -0.66205 0.50494 -0.47836 0.87563 -0.29948 -0.3072 0.14197 0.76739 0.29007 0.83364 0.69676 -0.94044 0.27565 0.43554 0.1905 -0.21844 0.070086 0.96314 0.26374 -0.96766 0.78212 -0.24663 0.82341 -0.30188 0.30744 0.10275 0.28138 -0.23066 -0.34198 -0.27005 -0.78539 -0.14764 -0.80987 -0.062057 -0.040468 -0.79749 -0.14441 0.69412 -0.80063 -0.56001 -0.75677 0.43531 -0.75536 -0.82144 0.3152 -0.77193 0.39053 0.37681 0.33231 -0.23088 0.36689 -0.47693 0.25505 0.38651 0.36503 -0.60012 0.44293 0.010478 0.14214 -0.82761 -0.06338 0.9219 0.39545 -0.42295 -0.65284 0.72124 -0.75401 -0.93459 -0.7423 -0.69641 -0.32375 -0.25705 -0.026693 0.13475 -0.71152 0.42625 0.97398 -0.7532 0.60562 0.32736 -0.69785 0.23527 -0.46313 -0.20103 0.8054 0.31751 -0.95599 -0.43387 0.60535 0.83602 0.86537 0.74257 -0.83453 -0.0060897 0.42298 -0.65428 -0.904 0.65788 0.43943 0.58807 0.87909 -0.61177 0.84997 0.24115 0.38608 0.79285 -0.98011 -0.77538 0.67726 0.97616 0.3526 -0.34688 0.46579 -0.17614 0.63428 0.42363 -0.53537 0.65048 -0.3981 -0.86732 0.4601 -0.26334 0.4854 0.013147 -0.28391 -0.17606 -0.058341 0.1365 0.82628 0.0090572 -0.91427 -0.2898 0.32538 0.94576 0.84061 0.69803 0.31149 0.59328 0.54908 0.64298 0.21431 0.95963 -0.15257 0.52532 0.56445 -0.62969 0.70548 0.89389 -0.79451 -0.64157 0.10283 0.80095 -0.87015 -0.49599 -0.94128 -0.88794 -0.31911 0.16123 -0.30421 -0.59869 0.96774 -0.49256 -0.21353 -0.76347 0.77888 -0.29517 -0.43213 -0.12517 0.77383 0.63716 -0.46403 0.36182 -0.23383 -0.17973 -0.97644 -0.45554 -0.59258 -0.69052 0.65597 -0.8438 0.046414 0.3398 0.61091 -0.84606 0.1735 -0.8228 0.75123 0.11275 0.53711 0.16655 -0.74368 -0.86791 0.95662 -0.36197 0.77103 0.70356 -0.87185 0.25263 0.50537 0.083622 -0.37241 0.40323 -0.89341 -0.53591 0.078737 0.57165 0.17042 -0.98511 -0.36001 -0.17468 -0.75263 0.58874 0.031143 0.03176 0.31337 -0.64723 0.58381 0.75331 -0.22735 -0.2463 -0.63147 -0.20775 0.63747 0.57047 -0.86433 0.70045 0.80965 0.90717 -0.23166 0.9291 0.54666 0.41657 -0.37299 0.95734 0.72967 0.29261 0.23939 0.2042 0.73472 0.069005 -0.61257 -0.38808 -0.45532 -0.51022 0.58251 -0.41415 -0.07793 -0.13286 -0.60798 -0.87793 -0.9524 -0.80394 0.073158 0.34848 -0.60471 -0.95219 0.39306 0.47748 0.26237 -0.57337 -0.58155 0.19677 -0.57526 -0.032734 0.86634 -0.93652 0.48792 -0.92894 -0.94369 0.70944 0.91205 0.059446 0.22258 -0.67194 -0.84601 0.55895 -0.26454 -0.5714 0.97986 -0.30988 0.90836 -0.17822 0.66843 0.43835 0.4604 -0.613 -0.66972 0.9805 0.71327 0.94761 0.98216 0.097171 -0.36444 0.041851 -0.11592 -0.99784 0.78092 0.85504 0.41242 0.031162 -0.82573 -0.64527 0.76862 0.84036 -0.61864 0.078028 -0.50217 0.6233 -0.81388 -0.055701 0.75534 0.77036 -0.90257 -0.16006 0.11372 -0.39116 -0.31364 -0.57587 0.57004 -0.21329 0.98374 0.21693 0.57557 0.64162 -0.25281 0.58585 0.62001 0.72127 -0.065169 0.73276 -0.64053 0.18923 -0.43161 -0.57669 0.41403 0.76406 0.11722 0.16119 -0.54734 -0.2581 -0.0045271 -0.61895 -0.70725 0.87991 0.2824 0.067051 -0.5891 0.019755 0.24558 -0.87964 -0.047582 0.1202 0.58198 -0.25752 0.13671 0.8316 -0.37067 -0.23762 -0.043753 -0.89544 -0.96145 -0.19381 -0.57789 -0.42305 0.70521 -0.67593 0.77797 0.99948 0.55237 -0.56533 0.4065 -0.48708 -0.02227 0.40877 -0.32193 -0.15752 -0.54566 -0.8588 0.61465 -0.17849 0.25822 -0.75665 0.56524 -0.13281 -0.025355 0.63073 0.5869 -0.63033 -0.78903 -0.19633 0.27997 -0.026842 0.12173 0.034079 -0.33406 0.41554 0.93153 0.76188 0.65736 -0.64921 0.42408 -0.084421 -0.63359 -0.57474 0.88337 0.96386 0.28822 -0.94902 0.52355 0.79979 0.34338 0.099671 -0.43143 0.078369 0.55149 0.53691 0.095177 -0.42182 0.1958 0.15738 -0.97786 0.1902 -0.52914 0.82004 0.065201 0.60661 -0.86213 -0.85944 -0.5455 0.44221 -0.15192 -0.39098 0.010402 0.85803 -0.3009 0.23577 0.87233 0.39274 -0.23213 0.60014 -0.45921 0.80528 -0.59039 0.2097 -0.28948 -0.31879 0.1857 0.037222 0.3541 -0.8465 0.44288 0.75607 0.35241 0.65541 0.21983 0.74953 -0.13155 -0.046608 0.094425 -0.68721 -0.75531 -0.7613 0.55445 -0.44771 0.62585 0.28401 0.32683 0.15202 -0.29613 0.47608 -0.48467 0.45251 -0.011463 -0.58404 0.112 -0.88241 0.83979 -0.51424 0.58909 0.058133 0.61871 0.59075 -0.44433 -0.33689 0.98394 0.71141 0.090835 0.43288 -0.30851 0.7248 0.8645 0.19948 0.46659 -0.27159 0.17961 0.68414 0.6985 0.63365 -0.7334 0.59742 0.8656 -0.15966 -0.051612 0.9726 -0.96185 -0.51177 0.94295 0.23201 -0.82019 -0.25224 -0.78181 0.65878 0.92512 0.016929 -0.17765 -0.24803 0.4639 0.17367 -0.99256 0.65562 -0.41266 0.46743 0.64109 -0.78771 0.13277 -0.60667 0.43521 -0.029322 -0.27888 -0.78567 -0.86084 0.17363 -0.911 0.40225 0.76777 0.46395 0.12844 -0.66962 0.17063 0.25404 -0.24569 0.7423 0.67708 0.77267 -0.090409 0.79257 -0.91135 -0.2163 0.51444 0.064065 -0.26935 0.17627 -0.97233 0.10199 0.056529 0.6808 0.23374 0.015558 0.13897 0.053699 0.96949 0.5819 0.51369 -0.16889 0.84336 0.0043552 -0.49002 0.20761 0.72033 0.19852 -0.55376 0.85978 0.80388 -0.9813 -0.70092 -0.39617 -0.63494 0.37267 -0.25152 -0.69666 -0.9603 0.38995 0.63159 -0.18863 0.05318 -0.50629 -0.86303 0.74572 -0.048755 -0.69458 -0.18718 -0.88959 0.22311 -0.59915 -0.85361 -0.60487 -0.333 -0.14454 -0.36361 -0.99564 0.44969 0.82897 0.95905 0.92898 0.61342 0.73056 -0.71271 -0.2604 0.085849 0.68897 0.36578 0.52274 0.68872 -0.86826 -0.16866 0.9931 -0.99522 -0.0004994 0.39407 0.91231 -0.045734 0.80266 -0.78594 -0.20233 -0.20943 -0.59018 0.73539 0.83436 0.13023 0.22331 0.18864 0.60512 -0.8004 -0.23926 -0.84031 0.41133 -0.0062839 -0.11527 -0.69951 0.11036 -0.60299 -0.3423 -0.16422 -0.99925 -0.19507 0.50142 0.70441 0.42711 0.99016 -0.58068 0.57005 -0.66492 0.84868 -0.73892 -0.1742 -0.23003 -0.10689 0.22715 -0.44123 0.43636 0.27903 -0.39233 -0.18671 0.87207 0.92266 0.13073 0.90799 -0.50056 0.81859 0.77005 0.70263 0.28799 0.81657 -0.49524 0.42766 -0.56387 -0.687 -0.8823 -0.5177 -0.047924 0.72792 -0.1878 -0.39628 -0.60407 0.14056 0.85729 0.86964 0.44731 0.71594 0.89184 -0.67593 -0.76906 -0.53475 -0.22229 -0.43058 0.23942 0.77908 0.81492 0.16328 -0.21244 -0.32997 -0.49331 0.99267 0.97568 0.33178 0.56641 -0.052678 -0.76507 -0.14761 -0.98165 0.65034 -0.34017 0.15838 -0.0033469 0.22838 0.089572 -0.17732 -0.68935 0.63192 -0.1743 0.31743 -0.47287 0.42032 0.067761 0.84958 0.17682 -0.95856 0.7523 -0.43804 0.61266 0.012816 0.45867 0.91164 -0.70879 0.96249 -0.10008 0.66857 0.65186 0.90809 0.58838 0.040348 0.78393 0.83022 0.82383 0.72866 0.94827 -0.5055 0.65583 -0.94939 0.029807 -0.5469 0.35711 0.86581 -0.51411 0.56092 -0.20932 0.56138 0.41843 -0.57418 0.96941 -0.09437 0.8644 0.63659 -0.80921 -0.99154 -0.19987 -0.83619 -0.95961 -0.71668 -0.74241 -0.53662 -0.86756 -0.69421 -0.21366 0.25447 0.81873 0.899 0.56666 0.60941 0.27441 0.92846 -0.17606 -0.67805 0.92563 0.060312 0.36382 -0.65174 0.60914 0.75109 0.80369 -0.018505 -0.37173 -0.055199 -0.06196 -0.33043 -0.96707 0.87883 0.11459 0.80074 0.23337 0.92106 -0.96602 -0.71115 -0.54883 0.55942 0.58871 0.48328 0.44637 -0.95494 0.75303 -0.305 0.76739 -0.030558 -0.41077 0.53479 0.11525 -0.43415 0.34448 -0.51584 0.13636 0.14701 -0.37615 -0.59012 0.81428 0.72891 0.35068 0.88722 -0.010192 -0.060881 0.38978 0.15767 -0.33858 -0.82128 -0.94948 0.27202 0.32531 0.86268 0.6215 -0.67925 0.86164 -0.68056 -0.99696 0.01779 -0.86841 -0.10745 -0.55323 0.28999 -0.6603 0.82434 -0.27641 -0.79226 -0.12537 -0.75765 0.89202 -0.60248 0.64629 -0.67942 0.26296 -0.57661 -0.26418 0.72799 -0.58281 -0.061071 -0.74049 -0.45981 -0.19227 -0.63134 0.44615 0.31168 -0.045407 -0.79687 -0.40481 0.10227 0.76303 0.4151 -0.41494 -0.62086 0.07371 0.91306 0.81373 -0.37324 0.8353 0.54373 0.17132 -0.95279 0.82627 -0.75575 0.4461 0.79863 0.22673 -0.10395 -0.48727 0.28257 -0.44262 0.27489 -0.38929 0.66579 0.2017 -0.034471 -0.85371 0.86678 0.89465 0.73457 -0.91808 -0.62802 0.26189 0.95225 -0.54549 0.7229 -0.24933 0.72499 -0.81572 -0.43855 0.30022 0.70728 0.45014 -0.48625 -0.49148 0.0030391 -0.96783 0.65097 0.75583 0.6689 -0.35056 0.21868 -0.13112 0.80099 0.57006 0.90634 0.77673 -0.25328 -0.79271 -0.61175 -0.34808 0.23774 -0.15863 0.79809 0.61996 0.9693 0.26253 -0.49254 0.49574 0.53808 0.67071 -0.015157 -0.11299 -0.39603 -0.96942 -0.035336 0.44022 -0.64346 0.22178 -0.37182 0.70614 0.36285 -0.85784 0.47276 0.071252 0.62092 -0.17821 -0.74361 0.94673 0.98231 -0.74536 0.037419 -0.1369 -0.085646 -0.47581 0.22391 0.46239 -0.87418 -0.80042 0.75611 0.25524 0.10456 0.091479 0.30499 -0.30592 0.9795 -0.19644 -0.17343 -0.41922 0.69765 0.40696 0.262 -0.37004 -0.56958 -0.5434 -0.2847 0.58205 0.31897 0.80448 0.73856 -0.22608 0.2899 0.090665 0.98186 0.80829 -0.61368 -0.60359 -0.03252 0.47318 0.44498 0.89969 0.16473 -0.43083 0.52986 0.69822 0.32585 0.71169 0.6789 0.44826 0.92832 0.89292 0.060671 -0.39881 -0.00712 0.096557 -0.50937 -0.92277 0.10816 -0.1921 0.44588 -0.93614 -0.75261 0.78453 -0.16306 -0.070477 0.21499 0.36474 0.2738 -0.27715 -0.44051 0.72589 -0.4148 0.57822 -0.95486 0.5123 -0.96533 -0.77015 -0.084857 0.45073 -0.73671 -0.60754 0.53269 -0.39223 0.055053 -0.40003 0.44676 -0.4349 0.96966 -0.11993 -0.92141 -0.47895 0.26972 -0.28375 -0.20467 0.77456 0.13985 -0.69914 -0.41714 0.7233 0.20479 0.58068 -0.962 -0.66309 0.2473 -0.57049 -0.87583 0.12166 -0.49595 -0.60842 -0.18873 -0.64839 0.030852 0.84282 0.020833 -0.2923 0.93028 -0.95907 0.68216 -0.46181 -0.37266 0.1004 0.99656 -0.37601 -0.8928 -0.41876 0.59759 -0.47512 -0.087106 0.37453 0.12709 -0.58324 0.26928 0.29703 0.67816 -0.58526 -0.94659 0.13085 0.23341 -0.51679 0.16084 -0.26822 0.78294 -0.16227 0.97175 0.31449 -0.26663 0.35919 0.56164 -0.49741 0.15649 -0.31843 0.83036 0.90128 -0.99049 0.28893 -0.71745 0.80396 0.04306 -0.26611 -0.50516 0.73121 0.75231 0.52942 -0.34963 -0.69478 -0.32752 0.37092 0.12023 -0.28223 0.61668 -0.45432 0.63147 0.90324 0.23585 0.58772 -0.0014462 -0.49122 -0.61889 -0.81026 -0.16542 0.91425 -0.10608 -0.7662 0.85266 0.064839 -0.040249 -0.54471 -0.78514 0.16048 0.85872 0.09624 -0.79974 -0.25831 -0.75129 0.75045 -0.6356 -0.81763 -0.85613 0.90465 0.93902 0.5564 0.2126 -0.94379 -0.66165 -0.82778 -0.98329 -0.22885 0.033244 -0.50253 -0.97642 0.52645 0.75638 -0.19285 0.36858 0.78052 -0.12286 -0.42196 -0.44322 0.95885 -0.55051 0.79871 0.37437 -0.30955 0.30391 -0.27939 -0.89585 0.5929 0.93273 0.059291 -0.99797 -0.64799 0.84846 -0.13574 -0.39448 -0.81326 -0.96531 0.74623 0.46304 0.99153 -0.63178 -0.98726 -0.34034 0.22634 -0.6881 0.45558 -0.29229 -0.89386 0.33788 -0.43814 -0.16168 -0.016922 -0.52062 0.073813 0.65084 0.48433 -0.91053 -0.5304 -0.70732 0.037362 0.3027 -0.59313 -0.17674 -0.95005 -0.30803 -0.038262 -0.13732 0.23598 0.65558 0.66173 0.51512 -0.30592 0.69145 -0.4073 -0.35056 -0.73602 -0.70121 0.29229 0.95109 0.64163 0.32094 0.095925 -0.41234 -0.871 0.47811 0.10715 0.55782 -0.8042 -0.93114 0.76875 0.8435 0.11104 -0.697 -0.73699 -0.51514 -0.55251 0.77881 0.15074 0.31579 -0.34981 -0.41834 0.03127 -0.68639 0.61884 0.74334 -0.31664 0.6718 -0.6919 -0.017445 0.76641 -0.83097 -0.93224 0.36483 -0.29855 0.45733 0.42381 -0.66711 0.85255 0.32989 0.32679 0.87611 0.61243 0.87876 0.7089 -0.03915 0.088105 0.31669 0.71915 -0.37552 -0.22466 -0.73963 0.76997 -0.53663 -0.84101 -0.99601 0.83589 0.18377 0.29946 -0.50106 -0.77636 0.88728 -0.24738 -0.0043007 0.39291 -0.6178 -0.9621 -0.90811 0.90528 0.80795 -0.14826 -0.82865 0.9074 -0.76946 -0.35944 0.060255 -0.19501 0.40574 0.48381 0.33775 0.57117 -0.080879 -0.44706 0.37809 -0.9472 -0.096604 -0.29131 0.21089 0.69088 0.81742 0.7046 -0.26753 0.95298 -0.38282 -0.72999 -0.65508 -0.82085 0.13013 -0.005834 0.12634 -0.74843 -0.76816 0.64868 0.21686 0.17004 0.96024 0.83765 -0.5638 -0.45621 -0.87447 -0.6865 0.82062 -0.59022 0.43858 -0.2199 0.70812 0.068775 0.58007 -0.69383 0.7959 0.037559 -0.86946 0.30896 -0.78244 0.98203 -0.51162 0.06666 0.76105 0.63817 0.07356 0.52201 0.4981 -0.95401 0.74692 0.52874 -0.10039 0.12829 -0.76479 -0.94782 0.34776 -0.55097 -0.35281 -0.7491 0.22918 0.37192 0.22847 0.71788 0.4408 0.17374 0.76775 0.77666 0.67287 -0.89452 -0.0035683 -0.45856 0.43638 0.045046 -0.26269 0.88597 -0.96195 0.96992 -0.027345 0.64847 0.77029 0.89544 0.91716 -0.39075 0.68682 -0.42268 -0.13171 0.93717 -0.99133 -0.37033 -0.15667 -0.6372 -0.49122 -0.84821 -0.16154 0.17681 0.70305 -0.29971 0.48603 0.57231 -0.48685 0.053991 0.26101 -0.89101 0.34236 0.11673 0.60253 0.13708 -0.11662 0.5297 -0.97391 0.84631 -0.10311 0.52695 -0.23056 0.94981 -0.99424 0.71692 0.78675 -0.64261 0.35548 -0.4924 0.46561 -0.78178 0.079767 0.45825 0.31375 -0.64161 0.91736 -0.53626 -0.964 -0.22598 -0.94818 0.62406 -0.29993 0.04828 0.36119 0.49379 -0.30303 -0.44397 -0.79998 -0.80169 -0.10835 -0.36282 0.77752 0.88011 -0.14688 -0.67849 -0.37971 -0.20154 0.27957 0.66695 0.7751 -0.85049 -0.59529 0.058004 0.53109 -0.17005 -0.23867 0.30984 -0.12981 0.4639 -0.25438 -0.97623 -0.9012 -0.29183 -0.7179 -0.94366 0.85241 -0.12465 -0.32696 -0.63296 0.13608 -0.22501 0.18912 -0.40301 -0.30232 -0.98997 -0.89598 0.37793 -0.099528 0.23514 0.4892 -0.42533 -0.81727 -0.72505 0.73156 0.40952 -0.25238 -0.45629 0.20101 0.29229 0.73231 0.14234 -0.60701 -0.62361 0.30867 0.95297 -0.81352 -0.831 0.84545 0.030604 -0.52093 0.1654 0.92395 0.32383 0.85745 -0.49788 0.78782 -0.020446 0.489 -0.33627 0.91979 0.76692 -0.90336 0.95469 0.31402 0.78587 0.088511 0.038386 -0.76716 -0.48823 -0.29695 -0.46573 -0.08198 -0.56975 -0.4364 0.55436 -0.78124 0.18862 0.074533 0.48337 0.071861 0.3294 -0.4081 -0.44303 -0.38522 0.80292 0.42552 -0.38859 0.97698 0.1469 0.41502 -0.97207 -0.062763 -0.10799 -0.58008 0.7295 -0.44598 -0.91725 -0.19606 -0.74295 0.51626 0.66296 0.8322 -0.27534 -0.69272 -0.48907 0.48328 -0.86455 0.71909 0.11236 -0.53493 -0.099636 -0.83463 0.15481 -0.41308 -0.88996 0.15021 0.034446 0.72517 -0.91053 0.023897 -0.17982 -0.22784 0.87572 0.44198 -0.94612 0.4963 -0.16074 0.99942 0.69595 0.35363 0.46143 0.14751 -0.65459 -0.30402 -0.9832 -0.67896 0.94562 -0.30535 0.25194 0.60738 -0.98359 0.73459 0.11139 0.83261 -0.16441 0.035658 0.54378 0.11123 -0.68417 0.60615 0.37482 0.61159 0.6461 0.16682 -0.61304 0.055116 0.16982 0.28696 0.87919 0.59103 0.14171 -0.54304 -0.76973 -0.07674 0.74359 0.45885 -0.71539 -0.91262 0.36683 -0.12099 0.74104 0.57281 -0.25461 -0.21458 0.73527 -0.41335 0.67369 -0.089878 -0.26852 -0.54743 -0.5084 -0.58306 0.4668 -0.23945 0.19921 -0.70348 -0.82542 -0.71908 0.87156 -0.82769 -0.4315 -0.80121 -0.98321 -0.43348 0.84499 0.21946 0.0090659 0.19264 -0.069814 0.21498 -0.43224 0.50985 -0.10296 -0.82359 0.94061 -0.13478 -0.30332 0.95693 0.36901 0.32447 0.904 -0.25018 -0.26177 -0.11062 -0.42655 -0.46603 0.77188 0.51616 -0.61095 -0.90805 0.96663 0.91475 -0.65573 -0.26177 0.050573 -0.0143 0.019458 0.24696 -0.0014011 -0.2477 0.95687 0.13974 0.76501 -0.27199 -0.9878 -0.066454 -0.26684 0.72585 -0.98879 0.13871 -0.71024 0.41253 0.85345 -0.35892 -0.93052 0.76762 0.49765 0.56518 -0.70822 0.62401 0.13582 -0.93657 0.30645 0.13634 0.21222 0.34327 -0.38344 0.90069 -0.97758 0.87378 -0.35017 0.086004 0.34279 0.7492 0.32283 -0.0070132 0.2634 -0.96722 -0.81989 -0.98944 -0.53312 0.34097 -0.18383 0.11467 -0.2285 0.60346 -0.69559 0.42949 0.93278 0.65471 -0.21918 0.042764 0.10098 -0.90149 -0.40953 -0.25024 0.43774 -0.039721 -0.16353 0.61318 -0.20553 -0.19031 -0.68971 -0.12333 0.62747 -0.5595 0.44654 0.00080809 -0.44599 0.9601 -0.20907 0.30541 -0.37626 0.55114 0.10086 0.55663 0.98862 0.21985 -0.53195 0.1022 0.58595 0.5979 0.80887 0.60813 -0.44336 -0.21182 -0.34574 0.3079 0.10023 0.22034 0.98394 -0.77793 0.7849 -0.45666 -0.28201 0.71748 0.57221 0.87949 -0.96337 0.38748 0.085228 -0.17424 0.61652 -0.57608 0.39874 -0.52036 -0.70001 0.53066 0.34646 -0.53949 -0.20525 -0.91339 0.50201 -0.54535 0.19947 -0.20439 -0.49328 -0.79881 -0.24759 -0.80702 -0.39373 0.58358 -0.47026 -0.035961 0.29074 0.12555 -0.48189 0.0284 0.33355 0.044722 0.5954 0.87652 -0.12251 0.46076 -0.18279 -0.25944 -0.090451 0.015904 -0.84252 0.6853 -0.48884 -0.89324 -0.31977 0.25066 -0.53441 0.041256 0.31413 0.13183 0.069725 0.32499 0.63256 0.43788 -0.74804 0.71839 0.39404 -0.78149 -0.74057 0.73522 -0.0062614 -0.52614 0.58888 0.42324 0.9566 -0.30202 -0.20421 0.19478 -0.52711 -0.59453 -0.94671 0.73535 -0.4519 0.21636 0.23406 -0.086553 -0.76954 -0.23891 0.41029 -0.2842 -0.51283 -0.074891 -0.76023 -0.067416 0.11794 -0.79431 -0.34763 0.17132 0.98533 -0.77778 -0.22402 -0.33027 -0.37174 0.93728 -0.99682 0.12517 -0.53118 -0.80392 0.49317 -0.18955 0.77537 0.015925 0.68887 0.80293 0.96644 0.85274 -0.7887 -0.8056 -0.51607 -0.43024 -0.34898 0.75283 0.40363 -0.60936 -0.88137 0.36718 0.42347 -0.10923 -0.79421 -0.033462 0.29997 -0.7534 0.76602 -0.53993 -0.7245 0.94055 -0.70607 -0.17032 0.75598 -0.54899 0.71471 0.039867 0.98118 -0.7433 0.53089 0.09207 0.30212 0.66932 0.66114 -0.43601 0.31972 0.77365 -0.40194 -0.10436 -0.51946 0.17044 -0.53499 -0.13363 0.48431 0.66002 0.80441 0.19411 -0.010221 0.98557 0.83997 -0.26639 0.47079 -0.93998 -0.59303 0.23741 -0.27034 -0.33639 -0.43233 -0.63788 0.011691 -0.89676 0.43582 -0.20405 0.84656 0.84079 0.020462 0.60537 -0.83307 -0.54741 -0.25693 -0.71008 -0.95804 -0.23066 -0.12766 0.93629 0.467 -0.82577 -0.62873 -0.63055 0.54644 0.60247 0.94595 0.13227 0.95934 -0.9275 0.97439 -0.050061 -0.25479 -0.070923 0.558 -0.89144 -0.52141 -0.11571 0.70916 -0.63987 -0.86282 -0.093723 -0.92013 0.1159 0.026252 -0.78704 0.26876 0.10204 0.49425 0.76318 -0.31452 -0.7497 0.73501 -0.92789 -0.48931 -0.021022 -0.12188 -0.7158 -0.0042012 0.262 0.018084 -0.02283 -0.22798 -0.29077 0.14099 -0.80545 0.89351 0.020045 -0.079177 0.061625 -0.068738 -0.50757 -0.36609 0.12492 0.59864 0.48528 -0.45835 -0.64247 -0.073976 -0.88466 -0.91031 0.12446 -0.7669 0.8406 -0.016199 -0.16369 -0.41492 0.35512 -0.26119 0.12752 -0.012556 -0.79021 -0.34352 0.73065 0.42255 -0.19467 0.027908 -0.93542 0.66993 0.58599 0.50817 0.90788 0.14094 0.38505 0.9517 -0.054819 0.0088767 0.51667 -0.8277 -0.90092 -0.61957 0.77724 -0.10353 -0.139 -0.70977 -0.95007 -0.44063 -0.42785 -0.92883 -0.37221 0.586 0.47905 -0.012357 0.5405 0.93023 -0.1108 0.40689 0.82852 0.98087 0.72579 -0.81336 0.63202 0.99777 -0.93438 -0.31347 -0.85204 -0.33382 0.1019 -0.98757 -0.22286 -0.42439 -0.65239 0.99092 -0.07547 0.071833 0.74626 0.098219 -0.91666 0.57854 -0.7034 -0.98003 -0.98762 -0.4888 -0.7241 -0.34609 -0.17308 -0.97341 0.16903 -0.95915 -0.8438 0.21772 0.61079 0.65029 -0.75923 -0.74889 -0.047561 -0.92771 -0.3788 0.84127 -0.5633 -0.25866 0.10647 0.68479 0.50479 -0.99885 -0.39337 -0.95769 0.015393 -0.71961 -0.55448 0.945 -0.66025 0.44063 -0.18379 -0.52097 -0.20871 0.13007 -0.41885 -0.70288 0.096879 0.64123 0.12805 0.78344 0.13239 0.8743 -0.80359 -0.16213 -0.20965 0.84014 -0.55139 -0.72421 0.64248 0.56082 -0.48919 0.093514 -0.099979 -0.63552 0.16583 -0.46191 -0.07598 0.15566 0.035933 -0.42584 -0.87234 -0.35669 0.017765 0.89392 0.56273 0.78223 -0.26214 0.15992 -0.66499 0.0028255 0.40629 0.86042 -0.53227 -0.36158 -0.16627 -0.5881 0.11841 -0.00074273 0.64806 0.69526 -0.89942 0.21027 0.050688 0.30443 0.35831 0.44396 -0.62785 0.13813 -0.041664 0.94797 -0.087784 0.74543 -0.019754 0.73667 0.13326 0.8747 -0.32294 -0.43426 -0.555 0.92884 -0.76202 0.92988 0.62492 -0.70049 -0.86915 -0.58761 -0.64157 -0.99335 0.53181 -0.33005 0.61083 0.63435 -0.60875 -0.084048 -0.29063 0.65861 0.42044 0.91873 -0.90204 0.0047474 0.45813 -0.90447 0.63118 0.084968 -0.35634 -0.7769 0.67265 -0.036387 0.12947 0.93565 -0.33847 0.43045 0.83833 0.21818 -0.67491 -0.34252 0.61955 -0.083884 -0.26127 0.27478 -0.025775 -0.95977 -0.805 0.029983 -0.057678 0.024916 0.79625 -0.74 0.33704 0.52996 -0.7011 -0.84806 0.80419 -0.22546 -0.22095 0.82113 0.74062 0.1874 -0.98623 0.22542 -0.68677 -0.96816 -0.84913 -0.91016 -0.73331 -0.76251 0.86824 -0.56417 0.8927 -0.15355 -0.34742 -0.020978 -0.80253 0.12521 0.43379 -0.55713 -0.6142 0.58443 -0.811 0.8508 0.014821 0.84658 -0.52954 0.566 -0.31532 -0.056135 0.80441 -0.64648 0.96879 0.47944 0.41825 0.79041 -0.62183 -0.5991 -0.77576 -0.46652 0.60563 -0.90585 -0.93742 -0.59339 0.00043361 -0.42756 -0.15958 -0.26737 -0.33697 0.30691 -0.28622 0.27777 -0.91196 -0.34652 0.51049 -0.32147 0.98784 0.7393 0.061198 0.51335 0.97652 -0.65669 -0.21134 -0.90629 0.52744 -0.43834 -0.83586 0.50125 0.45142 -0.86391 -0.84836 -0.35005 -0.77521 -0.38814 0.56148 0.63352 -0.5521 0.26193 -0.032996 0.62037 0.74268 -0.82755 0.015179 -0.81296 -0.22267 -0.66048 -0.33137 0.69273 -0.81832 0.13299 -0.96335 0.35808 0.095039 -0.36293 0.95689 0.4551 0.66819 0.46301 -0.93554 0.18293 0.50182 -0.38411 -0.1156 -0.46167 0.014859 -0.085271 0.30184 -0.52866 -0.25229 -0.75292 0.94789 -0.67851 -0.26207 -0.4866 0.058654 0.8944 -0.12572 0.60087 -0.113 0.81468 0.65643 -0.86076 -0.44753 -0.39454 -0.43598 -0.64089 0.15881 0.35368 0.57712 -0.15437 0.040705 0.55561 -0.84659 -0.5116 -0.077241 -0.27555 -0.65866 0.7495 0.16227 0.38981 0.88024 -0.31181 0.70623 -0.59321 0.14758 0.09436 -0.95258 0.95254 0.93756 0.29881 0.39796 0.35221 -0.075797 -0.94245 0.57435 -0.92609 2.2038e-05 -0.049552 0.22209 0.29814 -0.52244 0.81887 0.29742 -0.55057 -0.43813 -0.80203 0.67896 -0.42032 0.032368 0.8346 0.51127 0.32142 0.27937 0.16206 0.052246 0.40191 0.51095 -0.39502 -0.36435 -0.97429 -0.73548 0.54452 0.78884 -0.085864 -0.79117 -0.19866 0.29391 0.27664 0.63751 0.011874 -0.36004 0.96184 0.013644 0.74516 -0.48181 -0.6345 -0.71601 0.85784 -0.73917 -0.48015 0.7413 0.62091 -0.50424 0.66716 0.58518 0.3531 0.94104 0.61446 -0.35955 0.65111 -0.73477 -0.349 -0.38353 -0.74439 -0.7422 0.28856 -0.46207 -0.65105 -0.23758 -0.047167 -0.40325 0.13418 0.72781 0.91536 -0.9255 0.06296 0.9013 -0.34955 -0.065244 0.62323 -0.036798 -0.042896 -0.91685 0.85917 0.45899 -0.38546 0.98732 0.59059 -0.87849 0.86279 0.14219 -0.72033 -0.87029 0.25091 0.5408 -0.73508 0.34605 -0.92447 -0.27283 -0.54321 0.13371 -0.17605 0.27304 0.32613 -0.2952 -0.64579 -0.32525 0.17966 -0.72532 -0.84296 0.71665 -0.29695 0.25668 -0.40908 0.16095 -0.28291 0.51711 -0.699 0.3413 -0.10947 -0.30902 0.80226 0.36771 -0.43253 -0.93571 0.099104 -0.6757 -0.1832 -0.045668 0.87681 -0.22064 -0.040549 0.12814 0.61189 0.6687 -0.363 -0.32248 0.86532 0.90964 0.44421 0.13527 0.096592 0.20086 0.0098663 0.2405 -0.65321 0.5602 0.34528 -0.93056 0.99094 -0.21719 0.59146 -0.51366 -0.36282 0.90574 -0.49164 -0.87134 -0.35687 -0.99267 0.90556 -0.91228 -0.9257 -0.17137 -0.13655 -0.69672 -0.36004 0.53489 -0.21807 0.57915 0.029474 0.31597 -0.9561 0.042018 -0.47696 0.75046 0.78873 0.91426 -0.93905 0.23294 0.46998 -0.40711 0.09986 0.036082 -0.63643 0.10493 -0.24125 0.74833 -0.51442 0.094926 0.74631 -0.7384 -0.88814 -0.23063 -0.64721 -0.61925 -0.71118 -0.22358 0.9142 -0.44233 -0.74327 0.20069 0.38599 0.78166 -0.19872 -0.23921 0.74357 -0.31327 -0.21987 -0.54393 -0.32198 0.99496 0.60549 -0.87537 -0.6934 0.24861 0.34327 0.53935 -0.27793 0.61981 -0.024937 -0.81735 0.021231 0.54145 -0.42982 -0.93257 -0.17383 0.5602 -0.25189 0.88404 -0.40104 -0.25868 -0.3704 -0.38614 0.94809 0.23884 -0.92355 0.25805 0.92018 0.80877 0.71158 0.73589 0.01609 -0.76534 -0.817 0.40353 0.55329 -0.19577 0.075211 -0.24141 -0.54779 0.62601 -0.88302 -0.25982 -0.55051 -0.84847 0.068343 0.31903 0.052906 0.021587 0.96808 0.23135 0.93405 -0.67658 -0.60652 -0.052922 0.49001 0.48544 -0.67771 -0.50722 -0.011822 0.64703 0.25144 0.59048 0.95159 0.88107 -0.42894 0.92929 -0.51913 -0.43551 -0.057581 0.33217 -0.63991 0.69478 -0.98856 0.26155 0.69549 0.20988 -0.5425 -0.75664 -0.93242 0.26917 -0.076738 -0.47428 -0.21956 0.45348 -0.075152 0.33761 -0.32546 -0.51174 0.43669 0.66457 -0.59356 0.63165 -0.8398 0.075464 0.4086 -0.49727 -0.53069 0.80997 -0.79705 0.020614 0.83208 0.089027 0.867 -0.0020576 0.22943 -0.32254 -0.17449 -0.59794 0.3962 0.073701 0.36453 -0.66461 0.72263 0.43291 0.11815 0.78895 -0.61976 0.45328 0.065055 -0.81566 -0.24455 0.26829 0.60264 -0.9658 0.29577 -0.53286 0.75678 0.13748 0.77776 0.56577 0.061615 -0.62522 0.74785 0.16977 0.8482 -0.44099 0.97765 0.54992 0.59575 -0.68899 -0.4618 -0.44729 -0.04081 -0.73897 -0.76976 0.60314 0.010017 -0.18912 0.19852 -0.5939 -0.37406 0.38425 0.1099 0.45179 0.096933 0.43791 0.19164 -0.37904 0.4319 -0.1266 -0.96071 -0.039518 0.10743 0.55786 -0.31799 0.049895 0.83876 0.57271 -0.83177 0.56185 0.73198 -0.44495 0.095272 -0.21947 0.81833 0.015715 0.99832 0.023753 0.45866 0.3411 0.93669 0.39357 -0.77114 -0.53007 -0.62479 -0.10406 -0.98466 0.67525 0.19876 0.82444 -0.52713 -0.71892 0.49028 -0.45396 0.75195 -0.13873 0.18894 -0.54791 0.91328 0.93027 0.42439 -0.41626 -0.7393 -0.70665 0.41994 -0.23776 0.62651 0.71179 0.95088 0.83246 0.046842 0.95906 0.7728 0.52326 -0.38147 0.49953 0.29426 -0.37517 -0.023501 -0.25324 0.54259 0.55606 0.015847 -0.85207 0.39105 0.68907 -0.31614 -0.91184 0.89351 0.051887 0.80644 0.83923 -0.64014 0.47057 0.15058 -0.73667 -0.042822 -0.67042 0.041951 -0.65056 -0.10233 -0.83097 0.66279 0.59949 -0.71988 0.58057 -0.87252 -0.091964 -0.16763 0.46439 -0.29291 -0.28663 0.11612 0.33985 -0.64221 0.73417 0.074758 0.82488 -0.52835 -0.15347 0.78701 0.043488 -0.62823 -0.81553 -0.6421 0.043072 -0.20269 0.88598 -0.50389 0.083402 -0.099195 -0.94436 -0.18553 -0.25334 -0.60738 -0.81896 0.58238 -0.51488 -0.16534 0.42161 0.83413 -0.33207 0.53655 0.40804 -0.086344 -0.072746 -0.43517 -0.2299 -0.68384 0.045517 -0.7549 0.89596 0.39806 -0.088091 -0.22013 -0.37501 -0.0084277 0.83087 -0.36642 -0.22373 -0.54904 0.66282 -0.11986 0.1441 0.44058 0.13383 0.75501 -0.56328 -0.19831 0.82629 0.43905 0.59731 0.56083 0.27149 -0.2199 -0.48572 -0.44051 -0.34901 0.17007 -0.58822 -0.96077 0.17238 -0.19024 -0.3473 -0.19404 0.43343 0.42815 0.93411 0.28093 0.64039 0.27417 0.038442 -0.66995 -0.84535 0.97999 0.65489 -0.99724 0.46441 0.37946 -0.6901 -0.48852 0.35523 -0.89835 -0.36248 0.324 -0.30002 -0.77255 0.33049 -0.13087 0.44061 0.23735 0.63026 0.043621 -0.36952 -0.84897 0.13109 0.90147 0.88452 0.50558 -0.055225 0.69611 -0.48394 -0.95007 0.58955 -0.83916 0.049605 -0.99521 -0.64198 -0.47661 0.45769 -0.99682 -0.58649 0.98992 0.33335 -0.2873 -0.27111 -0.070147 0.84808 -0.096568 0.56945 0.83492 -0.71023 -0.26457 0.14608 0.7013 0.23947 0.99564 -0.91332 -0.93667 0.79604 -0.22144 0.31882 0.4068 0.82501 -0.40368 -0.72693 0.58121 0.5918 -0.82706 0.033321 -0.41958 -0.46364 -0.38475 0.66977 -0.27566 -0.076577 -0.17809 0.47363 0.33258 0.28615 -0.9888 0.25285 -0.30674 -0.71127 0.33335 0.33351 0.73486 0.8288 0.30755 -0.3498 0.72784 -0.114 -0.98497 0.57754 0.56865 -0.23649 0.33266 -0.97217 -0.14994 0.40186 -0.90854 0.72835 -0.26227 -0.4289 0.62335 -0.59018 -0.20736 -0.64015 -0.26242 -0.38637 0.16013 -0.18913 -0.64813 -0.78269 -0.49456 0.99102 0.21956 -0.71752 -0.29783 -0.79374 -0.21759 -0.14379 0.079611 0.35743 0.62405 0.40141 0.56019 0.57796 0.3247 -0.26137 -0.28013 0.45156 0.19035 -0.017296 0.087647 0.14609 -0.66949 0.96261 0.99147 0.065939 -0.99992 0.24573 0.52499 0.3363 -0.14178 -0.73567 -0.8334 0.93574 0.63548 -0.9549 -0.55703 -0.55147 -0.8827 -0.61236 0.45685 -0.52168 -0.6065 0.054593 -0.2589 -0.07332 -0.36039 -0.39412 -0.58943 0.97636 0.29695 -0.57414 -0.77597 -0.80472 -0.97516 -0.10507 -0.44976 -0.99981 -0.42503 -0.3809 0.75264 0.51019 -0.44282 -0.13034 0.47372 -0.69245 0.33925 0.51954 0.16802 -0.24968 -0.8258 -0.13683 -0.032016 0.60631 -0.78052 -0.534 0.54296 -0.36187 -0.63425 0.75568 0.25248 0.17095 -0.067918 0.72332 0.83773 0.60377 -0.33162 0.29178 0.19779 0.48798 0.079938 0.18719 -0.17406 0.24658 0.9629 0.33808 -0.15746 -0.58179 -0.67598 -0.28081 0.73654 -0.36935 -0.043037 -0.57038 -0.17163 -0.0098196 -0.083396 -0.068328 0.21068 0.12491 -0.4829 0.33535 0.048042 0.31251 -0.46293 0.35813 -0.2956 -0.057228 -0.046579 -0.057006 0.053623 -0.90381 0.20588 0.35815 0.57791 -0.5592 0.15531 -0.22869 0.73511 -0.24587 -0.27744 -0.7054 -0.18735 -0.39018 0.62229 0.49632 0.70182 0.11191 -0.76076 0.56995 0.47324 0.37636 0.45885 -0.51174 -0.67783 -0.050296 0.82416 -0.58184 -0.64919 0.33936 -0.025655 0.36742 0.47316 0.013437 -0.3933 0.27835 -0.48973 -0.50239 0.069954 -0.96593 0.15538 -0.57702 0.80554 -0.42243 -0.29492 0.22744 0.87113 0.13831 0.32886 -0.59763 0.6561 -0.93213 0.57461 0.71836 -0.9353 -0.043121 0.49452 -0.76809 -0.011076 -0.074972 -0.6549 0.5808 0.62668 -0.64469 -0.82817 -0.024736 0.67463 -0.073164 -0.22275 0.036653 -0.18432 0.89776 0.80872 -0.68604 -0.14481 0.04775 -0.99608 -0.95367 0.78254 -0.77045 -0.74417 0.12917 -0.60814 0.36006 -0.55645 -0.62365 -0.80635 -0.69306 -0.88826 0.7365 -0.2313 -0.81101 0.85649 0.83565 0.47609 -0.40485 -0.6169 0.37649 0.67384 0.35603 -0.12128 0.71951 -0.68946 0.059892 0.64015 -0.89737 0.33091 -0.42578 -0.0060762 0.24908 -0.10485 -0.67605 0.93726 0.32138 0.42937 -0.1784 -0.33363 0.32658 -0.93344 -0.75569 -0.39375 -0.8885 -0.28401 -0.33285 -0.52455 0.37606 0.43551 -0.10316 -0.87749 -0.51438 -0.31321 0.3658 -0.49 0.63879 0.27117 0.89503 0.19651 -0.8161 -0.96043 -0.30646 0.51769 -0.090368 0.2087 -0.011473 0.18395 -0.8305 0.44902 0.16236 -0.043378 -0.2925 -0.87755 0.85163 -0.87954 0.7068 0.61882 0.83077 -0.96881 0.5879 0.71706 0.18126 -0.67238 0.33958 0.61631 0.22845 -0.076954 -0.9214 0.36407 -0.3237 0.90651 0.55164 0.39452 -0.21927 0.95791 -0.086448 -0.38617 -0.27826 -0.26892 -0.020488 -0.28729 -0.098591 0.049936 0.38484 -0.3884 0.38204 -0.36036 0.22296 -0.51094 0.20482 0.61691 0.22244 0.79854 -0.27361 -0.039174 -0.69361 -0.18866 0.28455 -0.39544 -0.10943 -0.54105 -0.49359 0.59673 0.75476 -0.82573 -0.7127 0.92873 -0.79682 -0.38082 0.086115 -0.99674 0.63017 -0.95543 -0.6867 0.81736 -0.14595 0.72235 -0.07472 0.50574 -0.21357 -0.28841 -0.028162 0.27303 -0.52477 -0.20249 -0.11024 -0.0023617 -0.4581 0.032479 0.61029 -0.35222 -0.10211 0.96905 -0.50134 -0.85079 -0.36511 -0.70818 0.62815 0.023962 -0.0096361 -0.8388 -0.17028 -0.45513 -0.15325 -0.89718 -0.54255 -0.45764 0.51605 0.25981 -0.33493 0.96172 0.76242 -0.50362 0.2635 -0.4016 -0.54905 -0.63992 -0.91405 0.10575 0.052033 -0.91034 0.10242 -0.59108 0.89806 0.039031 0.1305 -0.47383 0.19923 0.8316 -0.19489 -0.093362 -0.1761 -0.53508 -0.61057 0.76844 0.80818 0.40554 -0.34387 -0.37783 -0.31356 0.34676 0.90576 0.35762 -0.73486 0.88073 -0.68265 0.51368 0.84824 0.86038 0.42194 -0.81709 -0.013036 0.46266 -0.64953 -0.4814 -0.81681 0.57055 -0.25437 -0.55651 -0.92138 0.86288 -0.87353 0.54673 0.78073 -0.85437 0.05361 -0.049777 -0.51358 0.78737 -0.76581 -0.52648 -0.96634 -0.98206 0.44653 0.46143 -0.015784 0.0508 0.42445 -0.20486 0.75532 -0.81573 -0.63973 0.34971 0.50073 -0.12464 -0.91365 0.29966 -0.50934 0.26438 0.093681 0.568 -0.93095 0.29596 0.33937 0.71122 0.34052 0.74607 -0.74901 0.58211 0.95442 0.91216 -0.934 0.68698 -0.32904 0.6435 -0.56169 0.41705 0.68822 -0.50942 -0.2809 0.43418 -0.42751 -0.53907 0.52196 -0.57552 0.56317 0.089366 -0.49772 0.55092 -0.2609 -0.0030445 0.5963 0.7227 0.096786 0.98786 0.14274 0.54884 0.24714 0.68515 0.82987 -0.50979 -0.74792 -0.82532 0.33801 -0.66253 0.20012 0.87234 0.22872 -0.22047 0.5595 0.10322 -0.69902 0.99051 0.5148 -0.2095 0.42978 0.15502 -0.39347 -0.88379 -0.74043 -0.58631 0.44168 -0.01249 -0.85798 0.68698 -0.32775 0.60703 -0.52863 0.83421 0.92955 -0.68253 -0.68539 0.89274 0.3139 0.90661 0.32387 -0.20035 -0.23474 -0.97835 -0.89112 -0.9313 0.64826 -0.86921 -0.12384 -0.44909 -0.77965 0.25952 0.27667 -0.99617 0.99376 0.28618 0.28056 -0.053291 0.55747 0.54913 -0.75252 -0.012696 0.8919 0.63415 -0.86039 -0.43538 0.14878 0.31589 -0.087422 -0.48128 0.28756 0.10599 -0.41086 0.49433 0.022062 -0.89544 0.19437 0.59531 -0.50747 0.83187 -0.071418 -0.062464 0.80011 -0.66486 0.041238 0.77343 -0.73344 -0.5482 0.89324 0.16524 -0.93961 0.20439 -0.36431 -0.085247 -0.76425 0.5859 0.12683 -0.81301 0.10296 -0.67117 -0.073243 -0.030811 -0.48579 0.22847 0.30711 0.35422 0.32923 0.76107 -0.1986 -0.53818 0.16995 0.92253 0.89126 -0.69985 -0.15327 0.38854 -0.35759 0.40007 -0.41636 -0.17858 0.73713 0.90439 0.046718 -0.93935 0.27296 0.098704 -0.43677 -0.04902 -0.27507 0.74181 0.23778 -0.75129 -0.78468 0.89345 0.69885 0.7265 0.81661 0.35969 -0.96293 -0.26837 -0.48071 0.34507 -0.71754 -0.80588 -0.66454 0.83754 -0.22174 0.68286 0.593 0.9593 0.92793 0.25304 -0.93245 -0.8981 -0.26305 0.64975 0.79559 -0.047268 -0.75538 -0.24326 -0.4664 -0.4493 -0.76196 -0.51729 0.39282 -0.57319 -0.66828 0.17198 -0.23305 0.90783 -0.12186 0.52475 -0.8013 0.54738 0.81315 0.2883 -0.41637 0.91993 0.96309 -0.46344 0.84237 -0.060932 0.66114 -0.25983 -0.61955 -0.50258 -0.86596 0.98942 -0.37035 0.40564 -0.99972 -0.73586 -0.014582 0.94469 0.90721 -0.15895 0.081896 -0.16901 -0.20549 -0.14938 -0.45801 -0.21672 0.51098 0.029915 -0.59883 0.77627 -0.077233 -0.76071 -0.89105 -0.49748 -0.49958 0.10949 0.95211 0.141 -0.49704 0.12773 0.93276 0.91487 -0.92084 -0.28581 0.68959 0.2167 0.59432 0.57183 0.77913 0.11805 0.39958 -0.99549 -0.89652 -0.93265 0.89831 -0.93877 0.15734 -0.28577 -0.51804 -0.64155 0.66996 0.27865 0.58502 0.35722 0.28687 0.029274 -0.77702 0.25021 0.68212 0.77214 -0.85316 -0.75896 -0.20491 0.64762 -0.79421 -0.88631 0.57737 0.26223 0.8747 -0.21169 -0.0079925 -0.60047 -0.31737 -0.70339 -0.8524 -0.1398 -0.6608 -0.69858 0.68583 0.87565 0.5249 -0.11909 -0.043637 -0.99325 0.80614 -0.22034 -0.88798 -0.37137 -0.62151 -0.83566 -0.83924 -0.74554 0.9055 0.95166 -0.14988 -0.31614 -0.49731 -0.083662 0.72545 -0.39532 -0.7578 -0.73584 0.42875 -0.34178 0.0027936 0.27283 -0.049953 0.22218 -0.92391 -0.58489 -0.51268 0.19157 0.60897 0.16786 -0.74873 -0.13513 0.61843 -0.62875 -0.78053 -0.86156 0.3094 0.99736 0.93784 0.067731 -0.54909 0.68986 0.28569 -0.33862 -0.25646 0.56244 0.18727 0.63518 0.54625 -0.21696 0.5656 0.010791 0.033747 -0.93722 0.67448 0.82652 -0.26722 -0.97014 0.58848 -0.069821 -0.067726 -0.27267 -0.10686 -0.93943 0.15291 0.43636 0.17306 0.84323 0.80369 -0.66028 0.056698 -0.13229 -0.082897 0.77388 0.36307 0.52946 0.44449 -0.12309 0.99027 -0.8923 0.49797 0.34997 -0.38779 0.47536 0.32247 -0.68093 -0.36573 0.36654 -0.048219 0.90112 0.97052 -0.53763 -0.44451 0.20322 0.73062 0.41024 0.60019 0.18283 0.38932 -0.75975 -0.18503 -0.607 -0.97316 0.062183 -0.3138 -0.41978 -0.99706 -0.577 0.6219 -0.80122 0.59808 0.58538 0.2701 0.38876 -0.83916 0.083135 0.70728 0.94142 -0.81312 -0.13444 -0.52531 0.71574 0.88438 -0.30035 0.27007 -0.12144 -0.1144 0.29551 -0.36095 0.066482 0.32008 0.86512 0.96052 0.40507 -0.53587 -0.74913 -0.7754 -0.55403 -0.4046 -0.18987 0.72311 -0.96447 0.95789 0.52864 -0.18017 -0.75411 -0.0028715 0.91422 -0.76483 -0.24975 0.17716 0.28887 -0.6457 -0.044361 -0.58724 -0.9417 0.49073 0.1726 0.82915 -0.37884 0.077601 -0.70745 -0.15246 0.84733 -0.39825 -0.75766 -0.74308 0.77141 0.70003 -0.88025 -0.74297 0.97985 -0.7324 0.8391 0.40986 -0.9507 0.18005 -0.38432 0.74057 -0.28497 0.35272 -0.4981 0.50162 -0.42994 -0.34257 0.37776 0.094171 -0.46541 0.17511 -0.26322 0.18888 0.38018 0.33829 -0.81084 -0.8974 0.29101 -0.29658 0.26921 -0.080566 -0.62918 -0.68835 0.88681 0.94383 0.079008 0.98036 0.15799 0.51615 -0.61981 -0.55439 -0.95562 -0.94273 -0.89825 -0.15931 -0.65151 0.65808 -0.78004 -0.7739 -0.14291 0.76147 0.76526 -0.030929 -0.39745 -0.60304 -0.93071 0.12867 0.080234 -0.13457 -0.69751 0.3743 -0.71786 0.91065 -0.97716 0.62192 0.48303 -0.35639 -0.44605 0.55421 -0.56134 -0.55702 -0.80333 -0.79511 -0.65449 -0.23781 -0.47289 0.56736 0.67955 0.16383 -0.87426 0.38241 0.52787 -0.96814 -0.20401 0.98002 -0.42581 0.99649 0.4764 -0.67678 -0.52632 -0.14855 0.65025 -0.77926 0.19525 -0.6486 -0.48624 -0.42755 -0.35794 -0.55946 0.158 -0.8064 -0.41226 0.12445 0.82547 0.019196 -0.55306 0.33353 0.45402 0.71969 0.093244 -0.74357 0.98898 0.50582 -0.94502 0.22889 0.82445 0.83249 -0.41483 0.48044 -0.17661 0.9759 0.64604 0.59343 0.26739 -0.048407 -0.66331 0.50329 0.92947 0.69816 0.96559 0.89319 0.53676 0.33934 -0.47512 0.90503 -0.61341 0.52794 -0.39847 -0.49148 0.00048695 0.45208 0.60202 -0.99993 -0.12711 -0.067038 -0.16438 -0.40289 0.019345 -0.98889 0.83776 -0.99152 -0.53875 0.58484 -0.92485 -0.54283 0.17941 0.81468 -0.84565 -0.62393 0.49678 -0.042292 -0.17076 -0.088042 -0.80392 -0.71972 -0.6421 -0.22639 0.87589 -0.21269 -0.70699 -0.94086 0.4652 0.15647 -0.98235 0.3831 0.90178 -0.11124 -0.6914 0.59922 0.87107 0.48063 0.77937 0.35452 -0.18985 -0.60192 -0.72196 -0.39189 -0.14105 -0.3331 0.23919 -0.9527 0.908 -0.25326 0.92111 0.67811 0.29551 0.63679 0.476 0.12484 0.64461 -0.13593 -0.30267 0.62716 -0.85228 0.86867 0.12455 0.14448 -0.053691 -0.78145 0.16022 -0.40498 0.52034 0.54784 -0.46851 0.43441 0.7177 -0.24295 -0.58836 0.93188 -0.9977 -0.7335 0.93646 0.43135 0.36372 -0.49632 0.29953 -0.11896 -0.61828 -0.26881 0.66312 -0.37406 0.76846 -0.98907 -0.072081 -0.61681 -0.7571 -0.27914 0.49371 -0.54173 -0.83589 -0.69271 0.31638 0.44304 -0.40603 0.91272 -0.50546 0.0058643 -0.16931 -0.44669 0.0042882 0.1016 0.28672 -0.9292 -0.35656 -0.036182 0.88725 0.60898 0.24362 -0.68974 -0.67881 -0.77269 0.63214 -0.21304 0.11052 -0.73948 0.87169 0.80486 0.091823 -0.3474 0.95942 -0.67051 -0.8108 0.92918 -0.0010643 0.86976 0.37647 -0.35337 -0.25604 0.44694 0.0011613 -0.26926 -0.53057 0.462 0.28242 -0.20478 0.4651 0.58261 -0.21834 0.12458 -0.14778 -0.1593 -0.16475 -0.55533 -0.72498 -0.81951 -0.099283 0.46189 0.19839 -0.79639 0.90121 0.38419 0.78028 -0.72577 0.25571 0.86011 -0.51499 -0.67936 -0.96454 -0.69679 0.71654 0.68199 0.203 -0.42338 0.22331 0.026347 0.85701 -0.54045 -0.63345 0.60883 0.89031 0.61134 -0.36719 0.34938 -0.14301 -0.85144 0.10296 -0.73456 0.22472 -0.77032 -0.18726 -0.36514 -0.39229 -0.14592 -0.96598 0.32374 0.91955 -0.63428 -0.070433 -0.97683 0.82542 0.010206 0.85702 -0.51013 0.76577 0.23244 0.91852 0.64217 -0.03992 -0.88861 -0.98549 0.69548 0.81355 -0.93449 -0.11764 -0.023889 0.39175 -0.071288 0.87232 -0.8428 0.18616 -0.069275 -0.22492 0.075715 0.8437 -0.86347 0.23889 -0.64661 -0.93001 0.58702 -0.37769 0.82776 -0.44231 0.032351 0.25925 0.43622 0.99864 0.38363 -0.97 0.0011731 0.27204 0.71569 -0.83869 -0.42993 0.82272 -0.49982 0.78914 0.59404 -0.639 -0.85376 -0.61808 -0.11701 0.70274 0.84059 -0.39676 -0.98461 0.51593 0.47103 -0.76901 0.88397 -0.50338 -0.96373 0.27376 0.98915 -0.70061 -0.017292 0.64612 -0.044634 -0.74773 0.17097 -0.64466 -0.90496 -0.20919 0.80076 0.49457 0.53875 -0.28235 0.85728 -0.7367 0.37907 0.64925 0.087105 -0.3336 -0.10421 -0.25216 0.87515 0.97005 -0.80968 0.67261 -0.70487 0.47471 -0.99321 -0.0085768 0.60791 0.61785 0.81841 -0.41932 0.43765 0.13405 -0.13172 0.50408 0.10399 0.47051 0.34322 0.40154 0.61345 -0.54853 -0.033013 -0.61239 -0.73166 -0.017273 -0.098574 0.59397 0.088373 0.34748 0.59852 -0.33628 -0.89069 0.62155 0.074339 0.17669 -0.81344 0.31506 -0.98735 0.78184 0.46786 0.76697 -0.71582 -0.52256 -0.58628 0.71924 0.34862 -0.12514 0.93425 -0.14756 -0.22879 0.89875 0.61871 0.17591 0.87032 0.74241 0.14465 -0.64705 0.52153 -0.85714 0.21718 -0.95713 -0.72167 0.84351 0.42976 0.24107 -0.52436 -0.91003 0.85938 0.86529 -0.20747 0.60232 -0.25175 -0.11991 -0.80392 -0.58661 -0.93586 0.93871 -0.011058 0.58703 -0.42134 0.72172 0.063749 0.69365 -0.7208 -0.69528 -0.82959 -0.49985 0.77671 -0.92825 0.63777 -0.74744 -0.72352 -0.44737 -0.7131 -0.52086 -0.31363 0.33214 0.22655 0.26049 0.058102 0.72877 0.61759 -0.37105 -0.20778 0.50888 -0.79157 -0.90327 0.11809 0.42079 -0.88456 -0.76448 0.84094 0.011204 0.090734 0.79239 0.90485 -0.4983 -0.78603 -0.82209 -0.97715 -0.078254 -0.32844 0.21205 0.89401 0.011644 -0.389 0.49786 0.74952 0.12545 -0.91854 -0.37957 0.81528 0.80707 -0.63067 0.63467 0.60881 0.56649 -0.74883 0.72968 -0.1456 0.026034 0.035157 -0.43414 -0.20806 -0.097281 -0.88408 -0.72382 0.46833 -0.57604 -0.39714 -0.35017 0.74251 0.81085 0.066277 0.55429 0.68757 0.32204 -0.15062 0.9961 0.44121 0.62404 -0.49411 -0.43347 -0.53351 -0.19003 0.59289 -0.54011 -0.72742 -0.82877 -0.60127 0.69588 0.6906 -0.71617 0.2529 -0.25967 -0.82837 -0.98116 0.14223 -0.269 -0.5404 -0.2108 -0.87769 -0.75103 0.35249 0.45175 -0.64058 0.91773 0.85078 -0.37886 -0.99096 -0.73741 -0.42114 -0.75493 0.02218 0.7494 0.79988 0.73535 -0.59149 0.60936 0.65686 0.42975 -0.39112 -0.20296 0.75245 -0.89267 -0.37106 0.78144 0.91109 0.79081 0.35965 0.63693 0.79281 -0.086244 -0.91436 0.77551 0.096686 0.91363 -0.31699 -0.052008 -0.27549 -0.85385 0.2498 -0.032131 -0.65722 -0.53249 -0.014312 -0.814 -0.36872 0.4866 0.74271 -0.19633 -0.51943 0.35086 0.16376 -0.65448 -0.89478 0.78395 -0.65086 -0.046574 0.57967 -0.61008 -0.55531 -0.77766 0.3567 0.46979 -0.039677 0.53049 0.089928 0.62805 -0.53907 0.97047 0.45602 0.32865 0.048551 0.32417 0.46426 0.93 -0.81665 0.72351 -0.50278 0.061477 0.41685 -0.91956 -0.8203 0.53256 0.69745 -0.99654 -0.87557 -0.38205 -0.53438 0.24256 -0.50284 0.3034 -0.33927 -0.41416 0.25867 -0.59916 0.65109 0.26927 0.091917 -0.021287 -0.86836 -0.99562 -0.29405 -0.98823 -0.45795 0.88027 -0.88561 0.29977 -0.24118 -0.16218 0.070497 -0.78492 0.65239 0.050757 -0.58127 0.81103 -0.55148 0.8218 0.94982 0.23306 -0.89345 0.94109 -0.97661 -0.041047 0.54765 0.25588 -0.1772 -0.78304 -0.58739 0.89172 -0.14962 0.079584 -0.5831 0.33016 -0.76721 -0.79265 0.015042 -0.35677 -0.16341 -0.54115 -0.35102 0.36195 -0.82408 -0.47955 -0.35096 0.31015 -0.51031 -0.60665 -0.65756 -0.64675 0.99918 0.89368 0.78923 0.41311 -0.69496 -0.80985 0.56828 0.95244 -0.17382 0.30203 -0.73283 -0.65056 0.84032 0.19786 -0.30978 -0.85006 -0.8199 0.44508 0.88872 0.65481 0.067495 0.80201 -0.56591 0.16335 0.40885 -0.54849 0.53464 0.95124 0.60459 -0.25746 0.28475 -0.89325 -0.79051 -0.98076 0.12937 0.34788 0.042506 0.79569 0.21191 -0.49141 0.36281 0.6015 -0.33237 -0.80963 0.29636 -0.56528 0.69425 0.5288 0.42679 -0.80679 0.28095 0.77992 -0.21836 0.74029 0.39118 0.36236 -0.45948 -0.37078 0.4011 0.0013388 0.40666 -0.77151 0.8561 -0.97535 -0.90504 0.25635 -0.14204 -0.9095 0.75104 0.80674 -0.43376 -0.67488 0.7476 -0.47251 0.13305 -0.20203 0.2869 -0.9925 -0.61229 -0.8239 0.5578 0.90438 0.85965 0.66199 -0.45248 0.75439 0.93552 -0.55732 0.60165 -0.25789 0.42481 -0.24899 0.49397 -0.80818 -0.483 -0.96434 -0.041292 -0.91299 0.94363 0.93593 -0.83765 0.1969 0.75351 0.60313 0.028172 0.2963 -0.56787 0.79867 -0.49084 0.59271 0.47286 -0.24232 -0.73052 -0.059448 -0.6766 -0.044163 -0.29437 -0.43892 -0.2202 -0.43165 -0.81132 0.069948 -0.053048 0.77064 0.67051 0.64411 -0.62571 -0.85993 0.83469 -0.048901 0.80974 0.29056 -0.35741 -0.88573 0.16293 -0.87065 -0.81929 0.85401 -0.95164 0.19544 0.16525 0.3905 0.4649 -0.99676 0.21716 0.63616 0.23145 -0.029914 0.50353 0.98251 -0.96901 0.13734 0.35639 0.95128 0.71045 -0.54482 -0.8859 -0.81366 -0.84911 0.57298 0.77524 0.084172 0.086068 0.033637 -0.53618 0.55809 -0.55291 -0.96685 -0.60724 -0.75474 0.046152 0.60422 -0.46414 0.18436 -0.41791 0.43125 -0.27344 -0.99781 -0.4049 -0.096078 0.70939 -0.99697 0.97457 0.21761 -0.7453 0.71777 0.58441 -0.17441 -0.41267 -0.56982 0.25837 -0.63111 0.28003 0.59931 0.85908 -0.39407 -0.31838 0.39678 0.45651 0.81516 -0.72975 0.22009 -0.92335 -0.65482 -0.47578 0.04942 -0.52034 0.86253 -0.60875 0.075828 0.69725 -0.58335 0.23125 0.98845 -0.90194 0.78002 0.20705 -0.017209 -0.86949 -0.076215 0.53852 -0.35754 0.89274 0.50958 -0.44439 -0.54446 0.15908 -0.21689 -0.40577 -0.72579 0.9882 0.49238 0.70874 -0.19681 0.089553 0.97679 -0.77485 -0.76634 0.56023 0.61432 0.8136 -0.17431 -0.23374 -0.061955 0.65689 0.062033 0.63006 -0.40054 -0.00064887 -0.35905 0.92463 0.99478 -0.14034 0.61382 0.4557 -0.59985 0.15266 0.77851 -0.27376 0.537 0.11856 0.9046 0.217 0.29024 -0.79065 -0.91774 0.60566 0.59902 -0.658 -0.81072 -0.36762 -0.098924 -0.37585 -0.44702 0.49181 -0.08612 -0.45152 0.58691 0.41044 -0.029083 -0.32446 0.70136 0.18985 -0.068156 0.97919 -0.68818 0.9168 -0.12967 -0.94991 -0.38952 0.93393 -0.72078 -0.17273 0.35707 -0.5451 -0.60725 -0.61237 0.85682 0.031216 -0.1628 0.45705 0.77585 -0.57513 -0.18464 -0.58282 0.35319 -0.42737 -0.47213 0.84604 0.78598 0.023509 0.23527 0.57913 -0.60007 0.48754 -0.52796 -0.40966 0.93051 0.34503 -0.56296 -0.81699 -0.68841 -0.65176 0.23343 -0.83381 0.020761 -0.22565 0.097031 0.53917 0.94974 0.093709 0.23483 0.22382 -0.33098 -0.18124 0.22204 -0.67337 0.80989 -0.0086726 -0.088055 -0.23194 0.23305 0.95628 -0.42358 -0.47714 -0.5811 0.34427 -0.64963 -0.82385 -0.18032 -0.28444 -0.029914 -0.68419 0.3297 -0.7445 -0.92277 0.51849 0.80916 0.24783 0.29879 0.3221 -0.45803 -0.080764 -0.63731 0.79139 -0.16404 -0.48758 0.90231 0.27769 -0.3186 -0.047405 -0.62616 -0.72863 0.58439 -0.97258 0.51826 -0.041956 -0.3464 -0.91946 0.20286 -0.84854 0.041407 -0.56058 -0.35422 0.82728 0.58964 0.22016 0.98777 -0.15712 0.057396 -0.21498 0.2345 -0.47755 -0.52698 -0.467 0.40949 -0.55066 -0.70994 -0.87434 -0.79533 0.83216 0.29078 0.18456 0.41318 0.30321 0.60188 0.34391 0.85225 -0.85145 0.55932 -0.44106 -0.36207 -0.69817 0.87447 0.19473 0.39358 -0.070853 0.065458 -0.4161 0.55358 0.51229 -0.4706 -0.49686 -0.077023 0.31352 0.58088 -0.84377 -0.53604 0.34748 0.72074 -0.24396 0.11675 -0.26275 -0.48236 -0.92001 -0.26493 -0.091017 0.23692 -0.25234 -0.39916 -0.30891 -0.44204 -0.046234 -0.92181 -0.89608 -0.38607 -0.21977 0.71862 0.44293 -0.7852 0.84942 0.11904 -0.42453 0.32169 0.011191 -0.27736 0.21921 -0.051474 -0.94879 0.21277 0.87114 0.66449 -0.28635 0.69672 -0.4445 0.41052 0.48562 -0.75216 0.49863 0.35472 0.52114 -0.75571 0.14108 0.88469 -0.19052 0.10525 0.12617 0.98911 0.75482 0.59793 0.74048 0.69129 0.81026 0.4445 0.86169 0.3077 -0.49296 0.58961 0.45977 0.12644 -0.95751 -0.90983 0.17683 0.48771 0.7447 -0.33571 0.93585 -0.4094 0.9812 -0.48995 0.92892 -0.35234 -0.4281 0.036304 -0.88072 -0.91664 -0.86592 0.8826 0.30745 0.40532 -0.90343 -0.66002 -0.1516 0.7835 0.94179 0.13821 -0.88742 -0.15491 -0.91841 -0.89755 -0.23505 0.46979 -0.89094 0.87712 -0.74938 -0.23325 -0.92719 -0.22323 -0.83322 0.64496 -0.29931 0.82038 -0.91919 0.76367 0.47413 0.37744 0.83444 0.73106 -0.70133 -0.0048558 0.41395 0.77726 0.018695 -0.76399 0.274 -0.23171 0.78585 0.0091573 -0.21544 -0.70373 -0.81068 -0.87029 -0.46842 0.83234 0.41366 0.64658 -0.41544 -0.96004 0.67074 0.24562 0.9584 -0.31056 -0.094679 0.28584 0.90413 0.27967 -0.73413 -0.35081 0.04899 0.64297 -0.53511 -0.00070002 -0.64179 0.32728 0.18285 0.48644 -0.67008 0.88939 0.59795 -0.78036 0.72182 0.13062 -0.010865 -0.43313 0.1053 0.048891 -0.52157 -0.87594 -0.87447 -0.71523 0.20557 0.17188 -0.39796 -0.67294 -0.93957 0.99312 -0.19938 -0.0033449 -0.61995 0.80488 0.26423 0.7331 0.61752 0.41061 0.40206 0.92765 0.61341 0.81806 0.85939 0.87704 -0.30519 0.75914 0.066122 -0.51168 0.63379 -0.63325 -0.61452 -0.95786 -0.39465 -0.022485 0.246 -0.34052 0.080712 0.47165 -0.5241 -0.65879 0.72517 -0.25213 -0.11006 0.22264 0.080022 -0.79972 0.20351 -0.13125 -0.047165 -0.96279 0.012166 -0.9466 0.049901 0.0090343 0.92258 -0.99311 -0.84972 0.19559 -0.45872 0.41546 -0.17399 0.95566 0.42732 0.13762 -0.8301 0.42075 0.73005 -0.49733 -0.78324 -0.3322 -0.016866 0.23051 0.75314 -0.82274 0.89987 -0.23134 -0.38232 0.28694 0.55794 -0.10954 -0.86625 -0.63583 0.40006 -0.95822 0.25654 0.82814 -0.18001 0.85036 -0.73406 0.30911 0.01034 -0.8424 0.8088 -0.038356 0.55865 0.081534 0.84077 0.20182 -0.46575 0.88111 -0.50537 0.87438 -0.80441 0.50995 -0.34065 -0.24916 -0.2852 -0.74262 -0.955 0.62114 0.49532 0.35021 -0.68772 -0.020781 0.089244 -0.6656 0.39714 0.085253 0.12103 0.017287 0.65173 -0.45241 0.68508 -0.88966 -0.64099 -0.14889 0.93034 -0.25426 0.38215 -0.68086 -0.15504 0.1632 -0.041844 0.51116 0.15305 -0.66144 -0.18986 -0.041465 -0.91528 0.84487 -0.20126 -0.66833 0.37156 0.33359 -0.68462 -0.46154 -0.52751 0.30083 0.51153 -0.77984 -0.25988 0.74221 -0.8861 0.31187 -0.2686 0.019034 -0.064864 -0.21931 -0.67667 0.030897 0.41501 -0.77062 0.094208 -0.63435 -0.81859 0.25119 0.69328 0.027731 0.24371 -0.9454 0.69255 0.41847 0.24695 0.71231 0.39282 -0.57378 -0.87101 -0.9801 -0.27728 0.3413 0.90647 -0.18749 -0.12138 -0.43489 0.091021 0.80533 -0.009122 0.34588 0.32967 -0.833 0.31663 -0.93774 -0.3597 0.72426 -0.57002 -0.69313 0.8028 -0.96358 0.40298 -0.058737 -0.82905 -0.20042 0.78132 0.45657 -0.21628 -0.22592 0.46957 0.33714 -0.38177 -0.92806 -0.9374 -0.85881 -0.65128 0.73435 0.35739 -0.044783 -0.4647 0.032356 0.16284 -0.59738 0.86923 0.98178 -0.48296 -0.87793 -0.7475 -0.30556 0.54495 -0.22083 0.29765 -0.72095 -0.75282 -0.55589 0.99529 0.18173 -0.54421 -0.27484 0.14894 0.040657 -0.52506 0.10324 -0.57475 -0.19688 -0.22384 -0.67775 -0.51891 0.78029 -0.48459 0.18855 -0.51217 0.73225 -0.96841 0.31557 -0.65113 -0.92866 0.043849 0.67812 0.84864 -0.2103 0.41057 0.49142 -0.95255 -0.95335 0.68541 -0.16028 -0.60507 0.36476 0.3223 -0.62791 0.38657 -0.87988 -0.55343 -0.78666 0.76089 0.32897 -0.76331 -0.098804 -0.057785 -0.68531 0.97104 -0.16828 -0.26027 0.020757 -0.75658 -0.13814 0.46144 0.26376 0.34913 -0.35331 0.73876 -0.67668 -0.80865 0.36482 -0.77124 0.060918 -0.3 -0.83839 0.33687 0.53368 -0.13519 0.71166 -0.58783 -0.93189 0.39851 0.93152 -0.3693 0.1449 -0.018658 0.38019 0.80127 -0.53336 0.30261 -0.91453 0.19194 -0.40298 -0.37703 0.87655 0.88993 0.51819 0.64411 0.23002 -0.66263 -0.28199 0.0053549 0.97984 -0.9361 0.64226 -0.24793 0.77632 -0.1122 0.95149 0.5904 -0.46656 -0.21649 -0.49859 0.9586 -0.64578 0.34778 -0.62648 0.9129 -0.59984 -0.18685 0.67016 -0.82427 -0.47392 -0.46925 0.10313 0.45916 0.71838 -0.60418 -0.65559 0.32824 -0.3348 -0.54336 0.90113 -0.61513 -0.010977 0.26521 0.98354 -0.63384 -0.97879 -0.78051 0.15824 0.3182 0.080749 -0.4224 -0.86714 0.36881 0.98785 -0.27952 -0.065723 0.082678 0.26466 -0.92033 -0.84527 -0.3724 0.56596 -0.039789 -0.49527 -0.072686 0.14876 -0.21428 -0.05843 0.10086 -0.31259 -0.77902 -0.86741 -0.56986 -0.80154 -0.97599 0.59763 0.588 -0.30744 0.10377 0.8931 -0.57866 -0.97048 -0.35661 -0.51154 -0.86615 -0.82936 -0.51178 -0.46841 0.43161 -0.45181 -0.57152 0.16591 0.02568 0.3171 0.69481 0.069178 -0.46681 0.1722 0.89933 -0.68774 -0.37143 -0.90699 0.62607 0.38732 -0.94446 -0.36938 -0.26189 -0.59256 0.60139 -0.74156 0.71813 0.74084 -0.87652 0.84371 -0.05179 -0.17169 -0.25507 0.47132 -0.51116 0.023347 -0.74359 -0.13607 0.48824 -0.45555 0.29572 -0.51551 -0.0477 0.41559 -0.080519 -0.32054 0.65565 0.14046 -0.64748 0.032568 0.4412 -0.49318 -0.20048 0.55742 -0.90815 -0.39384 0.12642 0.62224 0.46706 0.16655 0.24554 0.59112 0.66947 0.9955 -0.0355 -0.79017 0.0023754 0.75978 -0.066476 -0.70956 -0.019007 0.93513 -0.38632 -0.56052 0.87531 0.42153 -0.69389 -0.27625 0.27951 0.92806 -0.81693 -0.63774 0.082352 -0.13605 -0.58649 -0.68527 -0.85273 -0.31806 0.14314 0.91336 0.45887 0.55851 0.058605 0.94874 -0.79158 0.059197 -0.48825 -0.98426 0.093292 -0.8611 -0.59446 0.72507 -0.70319 0.47516 -0.22386 -0.31288 -0.89901 0.5108 0.085469 -0.47989 0.27312 0.4498 -0.98297 -0.62261 -0.83219 0.80841 -0.35563 -0.60074 -0.00042443 0.61772 -0.04636 -0.54938 0.79628 -0.5646 -0.78611 -0.081395 -0.96275 0.64266 0.51449 -0.82009 -0.65137 -0.38851 0.28649 0.77106 0.61982 0.66769 0.53005 -0.427 -0.35253 -0.51916 0.94276 0.96979 0.68451 -0.75767 -0.97136 0.72292 0.69662 0.17854 0.48634 -0.25531 -0.48606 -0.72543 -0.28941 0.47498 0.75448 -0.011299 0.051507 -0.064057 0.72002 0.72965 0.83263 -0.18506 -0.70297 0.55358 0.67519 -0.73399 0.46086 -0.12435 -0.037419 0.09324 -0.57899 0.59257 0.30132 0.57181 0.97762 -0.091546 -0.84939 0.070955 -0.0043163 0.3716 0.89987 -0.46057 -0.48797 -0.785 0.038666 0.76384 -0.46661 0.6511 -0.50582 -0.24939 -0.52355 0.048579 -0.4311 0.60121 0.66138 0.57465 -0.26901 -0.62334 -0.70104 0.48437 0.4412 0.65422 0.97477 0.95858 0.61502 -0.32825 -0.78443 0.99388 0.97163 -0.15244 0.75235 0.50191 0.87159 0.87227 0.25682 -0.44428 -0.58161 0.4189 0.12631 0.52153 0.92105 -0.1073 0.6386 0.40956 0.66581 0.8205 -0.51116 0.16602 0.82939 0.23064 0.5915 0.17235 -0.95736 0.25005 -0.64834 -0.1077 -0.53471 0.82032 0.56147 0.41066 -0.87145 -0.64736 0.43799 -0.53428 -0.097224 0.32952 -0.21019 0.21497 0.9972 0.36141 -0.48122 0.75504 0.025954 -0.011086 0.83631 -0.35163 0.0089417 -0.052216 0.11901 0.21544 -0.60136 -0.087967 -0.68797 0.45649 -0.018946 0.76131 -0.6855 -0.13793 0.39269 0.085845 -0.80446 -0.91138 -0.10543 -0.31537 0.8323 -0.22529 -0.49977 -0.10016 0.37861 -0.67803 0.013952 0.56533 0.50749 0.68385 0.52441 -0.66506 0.65203 -0.71009 -0.11998 -0.57613 -0.12211 -0.93026 0.43313 -0.78732 -0.89817 -0.12456 0.45595 -0.017524 0.34653 -0.78277 0.1344 0.32862 -0.32875 -0.21066 0.55012 -0.23007 0.93618 -0.84308 0.25903 -0.94649 -0.11416 -0.3975 0.85977 0.68901 -0.18193 -0.78978 -0.71544 -0.30907 0.021628 -0.22664 0.073044 -0.9328 -0.12891 0.44962 0.28941 0.70718 0.73651 0.9365 -0.37952 -0.0074303 0.82246 -0.7423 0.30689 -0.25624 0.35585 0.239 -0.24315 -0.43834 0.52146 -0.22733 -0.17985 0.8814 -0.79539 -0.62547 -0.75948 0.76638 -0.66964 0.9574 0.27915 -0.17137 -0.30641 0.55876 0.56171 -0.0011483 -0.55607 0.42281 -0.49324 -0.17109 -0.28432 0.68652 0.94462 0.85766 0.4891 0.28033 -0.70273 -0.47167 0.77407 0.81289 0.4131 -0.65955 -0.12434 0.1214 0.60545 0.32436 0.82192 0.80435 0.88351 0.79185 0.20999 0.7816 -0.85661 0.82357 -0.19919 0.37853 -0.373 0.66986 0.96521 -0.48793 -0.8843 0.67374 0.82474 -0.25381 0.72137 -0.31572 0.87427 -0.27256 0.75148 -0.94607 -0.53853 -0.39807 -0.36045 -0.017468 0.46136 -0.55743 -0.039443 0.59899 0.86217 -0.97233 0.83568 0.66745 0.064064 -0.63671 0.79901 0.035281 -0.24464 -0.85268 0.11212 0.39927 -0.40889 -0.97234 -0.87535 
-0.52492 -0.093102 0.44404 0.71412 -0.30484 -0.5642 -0.86983 0.49315 0.018524 -0.50604 0.39089 -0.49401 -0.86417 -0.80249 0.36021 -0.85453 -0.61816 0.74957 -0.27017 -0.52724 -0.093521 -0.64854 -0.71395 -0.82349 -0.46123 0.9262 -0.55158 -0.8648 -0.55039 0.33771 0.82451 0.65864 0.6763 -0.80296 0.4961 0.24369 -0.67732 -0.72753 -0.64054 0.0090578 -0.2156 0.65915 0.15596 0.98848 -0.63959 0.22731 -0.21562 -0.082573 0.59122 0.36359 -0.85715 0.93583 0.33781 0.9119 -0.039856 0.9174 0.52901 0.37158 -0.021237 -0.63672 0.74128 0.28636 -0.69704 -0.83668 0.56475 0.93312 0.77634 -0.49718 0.91025 0.58262 -0.96768 0.23623 -0.60171 -0.5836 -0.47691 -0.077954 -0.44663 -0.22849 0.54528 0.84377 -0.061597 0.44976 -0.064578 -0.78994 0.83892 -0.88031 0.58269 -0.762 -0.86174 0.23602 -0.23132 0.77881 -0.75047 0.22452 -0.12206 -0.70126 0.84881 -0.90404 -0.73601 -0.24351 0.71678 -0.31042 -0.2413 0.3641 0.71984 -0.44457 -0.9219 0.98516 0.23813 0.73418 -0.37047 0.37465 0.66292 0.76072 -0.028626 0.26036 -0.59661 0.97432 0.95941 0.4107 -0.3088 -0.13441 -0.24816 -0.1111 0.82666 -0.49018 0.021276 -0.57522 -0.87712 -0.071024 -0.75543 -0.56296 -0.60331 0.060314 0.50902 0.29432 0.59391 -0.28545 0.72723 0.66364 -0.25214 -0.071156 -0.18552 -0.51558 0.205 -0.96597 -0.42092 -0.61711 0.98576 0.88276 -0.66103 -0.85373 -0.029601 -0.033713 -0.87848 0.55158 -0.98239 0.81763 -0.52349 0.57893 -0.13398 0.36582 -0.44675 0.35856 -0.74562 -0.45637 -0.78308 0.2446 -0.78945 -0.0058772 -0.49191 -0.9394 -0.49116 0.89843 0.070622 -0.29894 0.5796 -0.9246 -0.39151 -0.37314 -0.21287 0.31432 -0.31071 0.036194 0.61516 0.018447 0.78922 -0.8342 0.48765 0.71647 -0.078628 0.14929 0.11777 -0.28206 0.52205 0.7544 0.50759 0.93735 -0.88421 0.47169 0.59031 -0.50291 0.90963 -0.052149 0.5665 0.81367 -0.002205 -0.85447 -0.86351 0.54047 0.028349 0.24959 -0.6029 0.98681 -0.22624 -0.7643 -0.83419 -0.96307 -0.20613 0.086933 0.83133 0.67833 -0.37263 -0.87693 0.5747 0.94109 0.68467 0.6798 -0.39431 -0.73342 -0.33715 -0.025036 0.64574 -0.96032 -0.79578 -0.62809 -0.62289 0.85685 0.83119 0.24391 0.10324 -0.52368 0.0035116 0.65991 -0.13439 0.59948 -0.61527 0.17705 0.26193 -0.84959 0.44327 0.45203 0.94974 0.93933 -0.044501 0.6045 0.20461 0.48821 -0.28575 -0.42174 -0.010193 0.4853 0.52183 0.78795 -0.64728 0.076395 0.65957 0.79916 0.73682 0.96905 0.45585 0.71919 0.40653 0.89216 0.60035 0.31211 -0.48166 0.12484 -0.63421 0.089368 -0.030294 0.33364 -0.24779 0.15443 0.88555 0.16087 0.26755 -0.30363 -0.54689 0.48654 0.24879 -0.42426 -0.58828 -0.19071 -0.6904 -0.76719 -0.58693 0.48206 -0.85594 0.88501 0.26519 -0.87522 0.13153 0.43471 0.22787 -0.16434 0.66154 -0.49462 0.60636 -0.2547 0.77551 0.43092 0.0024161 0.53662 -0.52418 -0.47452 0.44793 0.054207 -0.34446 0.48219 0.33348 -0.77174 0.9065 -0.0062889 -0.10564 -0.45405 -0.49753 0.42273 -0.54296 -0.093325 0.48236 0.030544 -0.83433 -0.76935 0.69734 -0.12766 0.888 0.38914 0.26842 -0.65945 -0.48494 0.37851 -0.89229 -0.71759 0.94434 -0.15077 0.892 0.95544 -0.78806 0.14596 -0.79682 0.12611 0.21199 0.5876 -0.30708 -0.95891 -0.57401 0.53294 -0.6307 0.26928 -0.17538 -0.3311 0.95191 0.83341 -0.88898 0.79367 -0.01272 -0.30618 0.22719 0.072859 -0.73765 0.28253 0.72537 -0.91007 0.61419 -0.82451 -0.80139 0.26504 -0.25663 0.97376 0.040079 -0.49829 -0.29329 0.75163 -0.89231 -0.44395 -0.97792 -0.37128 -0.42777 -0.31855 -0.79707 -0.05681 -0.7917 -0.95347 -0.5269 -0.044265 -0.78617 0.37251 -0.4509 0.48296 -0.71342 0.36112 -0.52482 -0.83421 -0.70293 -0.2783 0.84089 0.47448 0.0031569 0.19988 -0.053522 -0.60765 -0.024525 0.62355 -0.74921 0.89247 -0.8407 0.29747 -0.26599 0.61356 -0.54776 0.60151 -0.82165 -0.16872 0.0082843 0.8846 0.32119 0.83648 0.705 0.21631 0.9397 -0.32276 0.10124 0.69795 0.31628 -0.27752 0.28651 0.60928 0.050678 -0.081694 -0.59709 -0.60628 -0.0098405 0.95332 -0.093824 -0.77357 0.65513 -0.59673 0.96566 0.21936 -0.10602 0.90748 0.10337 -0.37474 -0.57668 -0.0089163 0.50398 0.78268 0.40575 0.95316 -0.44214 -0.13233 -0.5618 0.17175 -0.47074 -0.16732 -0.86809 0.97574 -0.11436 -0.84997 -0.073407 -0.16253 -0.40124 0.0063232 -0.70866 -0.071311 -0.89147 0.73284 0.86837 0.1428 0.11576 0.43332 -0.29964 0.3733 -0.82381 -0.28101 -0.68851 0.24969 0.75339 -0.3565 0.51181 -0.56516 0.36532 0.017052 0.38741 0.77275 -0.26332 0.55592 -0.30433 -0.26098 -0.11552 0.56926 0.62012 -0.17628 -0.66069 -0.24543 0.48476 0.16227 0.79891 -0.16719 0.13663 0.75219 0.49694 -0.59165 0.34551 0.45027 -0.0098732 0.37162 -0.4677 -0.92972 -0.90346 0.15008 -0.48572 0.19592 0.046639 -0.53795 0.29836 -0.099002 0.06362 -0.17099 0.56562 -0.089885 -0.79961 0.27732 -0.18823 0.48062 0.041437 0.56781 0.064493 0.94736 -0.32364 0.008109 0.69002 0.26714 -0.92733 -0.93744 0.41569 -0.98782 -0.052857 0.91656 -0.98041 -0.23613 -0.45151 -0.086997 -0.87835 -0.86209 0.96032 0.36475 0.49109 0.35314 -0.19955 -0.61493 0.56689 -0.55858 -0.14727 0.28471 -0.35168 -0.38228 -0.39553 0.24284 0.33238 0.8426 0.29183 0.71121 -0.71189 -0.23542 0.64732 -0.96257 0.90903 0.86329 -0.98931 -0.28875 0.70605 0.59699 -0.61802 0.26377 0.029772 -0.44967 0.71224 -0.3397 -0.40858 0.15001 -0.14913 -0.68822 -0.55425 -0.2542 -0.12415 -0.63189 -0.017552 -0.70091 -0.60424 0.31732 0.26532 -0.90696 0.95434 -0.95752 -0.71464 0.14709 -0.081292 0.92468 0.32867 -0.032924 -0.62399 -0.31071 -0.57261 -0.27414 0.75492 0.067553 -0.29979 -0.74687 -0.56098 0.2652 -0.98084 0.5103 0.55625 0.71217 0.51542 -0.70946 0.61745 -0.49087 0.25122 -0.88769 0.28583 0.45076 0.76488 -0.2076 0.96244 0.41859 0.15935 0.44863 0.41383 -0.085567 -0.87046 -0.62824 -0.10368 -0.72503 -0.27975 -0.48989 0.30117 0.94096 -0.95218 0.32189 0.34132 0.67597 0.43271 0.45148 -0.2964 -0.95545 -0.9462 0.95165 0.79866 0.37076 0.58762 -0.6134 0.81457 -0.00059186 0.20053 0.025019 -0.83152 0.51999 -0.66715 0.33703 0.86942 -0.2568 -0.1377 -0.40084 0.90406 0.39777 -0.17879 -0.99313 -0.30632 0.57691 -0.45253 -0.98496 -0.99123 0.71662 0.10931 -0.031537 0.70536 -0.22354 0.79755 -0.91023 0.17888 -0.19352 0.077645 -0.75263 0.23687 0.27365 0.76304 0.61638 0.67434 0.46264 -0.59467 -0.49152 0.10737 0.87068 -0.18315 0.030634 0.59753 0.94234 0.78547 0.56082 0.61775 -0.64761 -0.77533 0.1024 -0.32889 0.78378 -0.68983 -0.11394 0.25906 0.34648 0.95235 0.57585 -0.59064 0.37164 0.39432 0.054998 -0.80901 -0.62628 -0.28323 -0.10966 0.73945 0.10226 -0.045482 -0.66852 -0.90545 -0.18714 -0.84126 -0.40147 0.64765 -0.034544 0.60854 0.8694 0.031348 -0.46291 0.36791 -0.74368 -0.18707 -0.089133 0.71895 0.34401 -0.73376 0.90361 -0.74887 -0.53339 0.35878 0.67112 0.44925 -0.73405 -0.406 -0.33723 0.69801 0.1185 -0.16628 -0.87633 -0.9153 -0.23997 -0.43118 0.066891 -0.83294 0.47971 0.15718 0.63465 -0.038915 0.97756 0.4092 0.18293 -0.5825 -0.76484 -0.90025 -0.59772 -0.7719 -0.19731 -0.58392 -0.30849 -0.89734 0.68104 -0.25438 -0.47021 -0.88173 -0.99642 -0.40229 0.50747 0.46466 0.42529 0.041667 0.30193 -0.082173 0.18878 -0.92456 0.024798 0.89004 -0.0034015 0.15209 -0.98458 0.40717 0.50542 0.13662 -0.70635 -0.016133 -0.4207 0.2379 -0.67999 -0.84973 -0.88828 0.61273 -0.76245 -0.24083 0.7527 0.96695 0.91117 0.31516 0.17394 0.027351 -0.42036 0.39196 0.81348 0.86907 0.27636 -0.442 0.2817 0.11241 -0.023394 0.037285 0.36436 -0.32241 -0.11638 -0.72496 0.94577 -0.36991 0.032593 0.60086 -0.67195 -0.7807 -0.78 0.29577 0.59255 -0.68003 -0.069654 -0.42397 0.94902 -0.74982 -0.71002 -0.19309 -0.90409 0.68741 0.97689 -0.64313 -0.14048 0.77292 0.69279 -0.047426 -0.44497 -0.2909 -0.71305 0.24017 0.14529 0.015122 -0.30213 0.20331 0.74633 0.96493 0.054709 0.21516 0.23235 -0.12699 0.2333 -0.71029 -0.038292 -0.66966 0.71786 -0.15371 -0.024124 0.03746 -0.33788 0.18177 -0.10813 0.22456 -0.82146 0.80238 0.48003 -0.75989 -0.47662 0.69075 -0.20572 0.39853 -0.40976 -0.21108 -0.62157 0.023048 -0.48208 0.75642 -0.085874 -0.6293 -0.64449 0.55003 0.047953 -0.91439 0.49958 -0.30602 -0.84644 -0.50712 0.96221 -0.20446 0.61627 0.21573 -0.45828 0.35214 -0.76258 0.36816 -0.48703 0.094184 -0.6519 -0.69527 -0.69469 0.57542 -0.28485 0.19896 0.93736 -0.61422 -0.2891 -0.94531 -0.52099 0.0078481 -0.54256 0.08816 0.10796 0.20993 -0.98406 0.039183 0.42289 0.61167 -0.20123 0.55202 -0.1267 0.1695 0.046841 0.46828 -0.92316 -0.34594 0.22266 -0.92824 0.52345 0.95657 -0.44113 -0.96644 -0.24621 0.37449 0.27255 -0.0067579 -0.31188 0.50022 0.77026 -0.97884 -0.1756 -0.19427 0.19043 0.53086 -0.17788 0.59469 -0.87092 -0.17036 0.77299 -0.17012 0.37309 -0.1989 0.063752 0.22818 0.48657 0.43405 -0.070992 -0.64181 0.97733 0.45986 0.51753 0.7731 -0.52339 -0.10282 0.74524 -0.37414 -0.96747 0.31614 0.95361 0.14031 -0.19339 -0.93984 0.67076 0.24678 -0.74764 -0.60966 0.090509 -0.83286 -0.01892 0.78374 0.86587 -0.89251 0.45049 0.60184 0.20507 -0.63936 -0.89537 -0.98811 -0.95979 0.80082 -0.15106 -0.082437 -0.96373 -0.26452 -0.59437 -0.66573 -0.31665 -0.57741 -0.65022 0.29213 -0.58801 0.14371 -0.86823 0.35883 -0.36745 0.21232 0.045248 0.41104 0.32204 0.20268 0.51167 0.51881 -0.73183 -0.65752 0.9844 0.18577 0.15241 0.04075 -0.85203 0.74327 -0.37247 -0.50217 -0.17886 -0.74444 -0.53267 0.18747 -0.14933 0.22884 -0.54139 -0.1148 0.60962 -0.19267 0.57137 -0.70574 0.79389 0.42035 0.51966 -0.1933 0.29226 0.92354 -0.72214 0.44354 -0.69974 -0.83623 -0.99661 0.16848 -0.46426 0.72401 -0.92928 -0.44018 -0.16608 -0.94893 -0.95862 0.0289 -0.55559 0.20425 0.2922 -0.48295 0.31038 0.53703 0.6074 0.64987 0.6744 -0.19481 -0.65291 -0.2188 0.75867 0.56188 -0.88731 -1 -0.054045 0.91561 -0.32335 -0.6733 -0.038809 -0.95087 0.42986 -0.25941 -0.23979 -0.17563 0.44467 0.24708 0.094368 -0.96188 0.086679 0.93769 -0.25371 -0.82548 0.028638 -0.39832 -0.4559 0.011798 0.93134 0.93688 -0.092685 0.68036 0.88447 -0.36904 -0.28142 -0.60916 -0.65686 -0.62708 0.10496 -0.014383 -0.84785 0.89785 0.19962 -0.89937 -0.42526 -0.58719 0.67513 -0.7569 -0.37501 -0.35873 -0.020597 -0.69836 0.73992 0.76175 -0.30195 0.90737 -0.52139 0.76311 -0.82887 0.84309 -0.25877 -0.73366 -0.35135 0.6958 -0.36546 0.4721 -0.56407 -0.17816 -0.34777 0.76085 -0.81427 0.81484 0.56081 0.65029 0.7024 -0.34862 0.21283 0.84382 0.42477 0.81432 -0.9163 -0.89278 -0.9652 0.72526 0.64182 0.11757 0.2011 0.13056 -0.42154 -0.55218 -0.47042 0.43952 0.51868 0.64798 0.64043 0.90256 0.71842 -0.34342 0.58529 0.66568 0.42561 -0.75852 0.76339 0.95564 -0.36172 0.2178 -0.32649 0.41781 0.88323 0.1232 -0.32929 -0.21004 -0.48819 -0.82029 0.34073 0.21829 0.48341 0.50791 -0.53607 -0.026701 -0.1318 0.39407 0.0070901 0.98692 0.5034 0.9868 0.262 0.064074 -0.40879 -0.67283 -0.23494 -0.65207 0.9752 -0.6288 -0.35027 -0.89536 -0.58361 0.070605 0.85009 0.63287 -0.2149 0.40635 -0.98656 -0.90024 0.34155 -0.15014 0.5231 -0.25906 0.3344 0.052346 0.67393 0.98549 -0.13946 -0.34246 0.50554 0.74664 0.33854 -0.2792 0.81049 -0.10913 0.14077 -0.82731 -0.91618 -0.72405 -0.6179 -0.15679 0.48494 -0.11731 0.29874 0.71954 -0.35695 0.013659 -0.52838 0.58348 -0.70042 0.22022 0.24277 0.40312 0.25017 0.79608 0.17379 0.25561 0.98061 -0.35542 -0.31689 -0.76746 -0.52936 0.35751 0.48854 -0.82448 -0.72594 0.74714 0.32013 0.27435 -0.78116 -0.38352 -0.56117 0.89859 -0.5705 -0.11707 0.96033 0.51811 0.3897 -0.35759 0.060762 0.27087 -0.5834 -0.98982 -0.83848 -0.030117 0.0867 0.86534 0.71102 0.90844 0.54493 -0.93043 0.98473 0.5161 0.32943 0.48318 0.20138 0.76128 -0.29683 0.8025 -0.79878 -0.53065 -0.70108 -0.38921 0.2869 -0.12906 -0.61511 0.50402 -0.42873 -0.33092 0.83077 0.61877 -0.048153 0.73644 0.7665 -0.32542 0.65426 -0.54033 0.39808 0.82219 -0.99673 -0.7822 -0.58304 -0.9323 0.70257 -0.012724 -0.19078 -0.88354 0.38137 -0.26098 -0.94272 0.18959 0.28582 0.93548 0.79482 -0.51338 -0.86597 -0.31984 -0.85886 -0.4039 0.23676 0.50062 0.31575 0.24477 -0.26748 0.77783 0.29058 0.51546 -0.23542 0.48268 -0.27148 -0.60919 0.31322 -0.86649 0.7862 -0.32269 -0.25893 0.1 -0.68289 0.62768 -0.43426 -0.72314 -0.85946 0.3597 0.6068 -0.7938 0.028263 -0.20673 -0.029941 -0.36215 0.63991 -0.061792 -0.72823 -0.93252 -0.65065 0.70789 0.88349 -0.75182 0.70705 -0.45833 0.00058071 0.39048 0.22197 -0.99444 0.78805 0.098145 0.13519 0.9188 -0.11237 0.070158 0.68195 0.25274 0.25917 0.53704 -0.1838 -0.55382 -0.73286 0.81017 -0.42552 -0.97663 0.63289 -0.34798 -0.53945 -0.83817 -0.61188 0.75227 -0.30084 0.53186 -0.025664 -0.15759 0.28915 -0.77618 0.51551 0.30692 -0.72627 0.99628 0.98567 0.44759 -0.197 -0.044803 -0.9603 0.69995 0.30321 -0.71479 -0.73293 -0.22631 0.13516 -0.55903 -0.4259 -0.31173 -0.057299 0.19244 -0.26204 -0.24266 0.82489 0.64951 0.66677 -0.64045 -0.86458 -0.94489 -0.18369 0.96396 -0.058389 -0.087845 0.62289 0.44993 0.12207 0.75269 0.48249 0.56568 -0.47238 0.85302 -0.80718 0.28469 0.71777 -0.50318 0.70892 0.10938 -0.32589 -0.55132 0.50061 -0.89301 0.50698 -0.41833 0.74738 -0.38333 0.76255 -0.77818 0.39563 -0.7165 0.92382 0.34263 0.67295 -0.55412 0.68374 0.53614 -0.58288 -0.33926 -0.20532 -0.51202 -0.51175 0.55748 -0.011208 0.51558 -0.74248 0.95089 0.69867 0.34173 0.9398 -0.36034 -0.2684 0.51357 0.40937 0.64456 0.15318 -0.91122 -0.91239 -0.55295 0.47454 0.45235 0.79734 -0.76792 0.36225 0.47451 0.85603 0.6822 -0.76993 -0.62755 -0.045179 -0.51584 -0.14447 0.88852 0.47267 0.56364 0.99465 -0.33677 -0.83567 0.74513 0.62783 -0.42139 -0.22575 -0.4981 -0.75165 -0.62293 0.46216 0.093721 -0.1385 -0.95366 -0.70722 -0.9871 0.40682 0.31174 -0.69527 -0.96763 0.46483 -0.44195 -0.97964 -0.81063 -0.20468 0.095323 -0.051494 0.44652 -0.8185 0.26271 -0.23962 -0.0732 -0.34825 0.22416 0.89368 0.31713 -0.88695 -0.95421 0.06613 -0.73327 0.78522 0.39634 0.95596 -0.46309 -0.042405 0.4961 0.94268 0.60801 0.73712 0.66272 -0.70378 -0.028117 0.75183 0.035721 0.87583 -0.90555 -0.65491 -0.8618 0.07211 -0.17382 0.84313 0.99291 -0.46457 -0.14118 0.063148 -0.051745 0.55375 0.12312 -0.54665 0.184 -0.3793 0.98713 -0.32211 -0.73886 0.47704 -0.70428 -0.048563 0.37787 -0.37929 -0.64526 0.28854 -0.30556 -0.08944 0.085669 0.32859 0.95094 -0.98611 -0.50388 0.21339 -0.25667 0.079954 0.36891 -0.17264 0.56214 -0.23972 -0.68688 0.18615 0.87129 0.75287 0.66521 0.63649 -0.48389 0.0053844 0.26088 0.93823 0.89458 0.78476 -0.70671 -0.44422 0.63874 -0.029422 -0.079281 0.44074 0.034949 -0.26118 -0.92021 -0.76165 0.40166 0.69011 -0.90449 -0.76123 0.67489 -0.56348 0.42583 0.12571 -0.77497 0.053561 0.30776 -0.69705 -0.66292 -0.067382 0.75548 -0.97911 0.046952 -0.16204 0.2035 -0.74618 0.40823 0.44513 0.53708 -0.24918 -0.39259 -0.95736 0.98887 0.031558 0.53385 0.55739 -0.91604 0.56354 0.2505 -0.88067 -0.21231 -0.66759 0.40958 0.43891 -0.42457 0.67777 -0.058125 0.98965 0.26308 0.40882 0.32216 -0.7198 0.2228 0.64086 0.50048 -0.99874 -0.56385 -0.40208 -0.48702 0.5614 -0.55856 0.50065 -0.60442 -0.72818 0.34695 0.57132 0.055513 -0.595 -0.35988 0.50973 -0.76417 0.63133 0.11465 -0.73826 0.14706 0.86031 0.7399 -0.53651 -0.14596 0.086588 -0.492 0.37022 -0.14512 -0.029606 -0.39782 -0.1602 0.54109 -0.62904 0.61187 0.5029 -0.1514 0.3632 0.13502 -0.53867 0.77675 0.5634 -0.59636 -0.70559 -0.70276 -0.17486 0.28479 0.68493 0.075226 -0.18352 0.1275 -0.29624 0.23679 0.83874 0.50084 0.74875 -0.73232 0.3385 -0.27115 -0.92198 0.44692 -0.24508 -0.89179 0.99584 -0.60966 -0.3974 0.11241 0.93662 -0.67467 -0.32001 0.25146 0.76926 0.16078 -0.4836 0.022803 0.76845 -0.67937 0.48971 -0.0064726 0.5734 0.034751 -0.0014198 -0.72975 0.27041 0.29431 0.98048 0.25954 -0.37972 0.8494 -0.73252 -0.3279 0.80773 -0.097665 -0.92699 -0.31716 0.52922 0.16343 -0.38106 -0.86506 -0.27873 -0.57135 0.1669 -0.65092 0.75119 0.57987 -0.33788 -0.77658 0.233 0.61508 0.22051 -0.5163 0.5088 -0.13446 0.77034 0.021314 -0.29398 -0.23413 -0.39502 -0.23899 -0.17283 -0.94046 -0.94137 0.30258 -0.52692 -0.38769 0.31862 0.24138 0.41639 -0.076202 0.64575 0.66703 0.94632 0.43564 -0.93889 0.65455 -0.62004 -0.69103 0.23101 0.3124 0.10502 0.6873 0.71824 0.43837 0.3038 0.57339 -0.60248 0.035592 -0.98714 0.97295 0.42269 0.023028 -0.106 0.71458 0.81139 0.15003 -0.58656 -0.50831 -0.89508 -0.52626 0.79153 -0.78268 0.75258 -0.16465 -0.481 -0.88842 0.14332 -0.15069 -0.53654 0.8814 -0.53113 0.34061 0.47723 -0.35469 0.098346 0.52569 0.42284 0.48048 0.71786 0.096221 0.61218 0.44589 -0.96823 0.64144 0.31287 -0.065258 0.24601 -0.61383 0.37314 -0.80487 0.33127 0.73732 -0.35546 -0.2919 -0.59321 -0.11251 0.042627 -0.017014 -0.96774 -0.25647 0.63012 0.0046118 0.19689 0.063806 0.92233 -0.18795 0.18684 0.51739 0.081238 -0.26332 0.005841 0.1129 -0.068627 0.54585 -0.49284 -0.65692 -0.55266 0.49241 -0.96286 0.35125 -0.011472 -0.43666 0.95147 0.30902 -0.58922 0.28102 -0.68274 0.035363 -0.26928 -0.84762 -0.45718 0.87577 -0.77583 0.64208 -0.75504 0.20677 -0.78195 0.099451 0.97543 0.046746 0.023925 -0.51863 0.59175 0.036977 0.40518 0.13108 0.095915 -0.034041 -0.44246 -0.84863 0.83349 0.65184 -0.48858 0.58198 -0.78244 0.51781 -0.47496 0.63673 0.91755 0.4649 -0.59207 -0.66705 -0.68765 -0.55441 0.069844 -0.28592 0.53605 -0.384 0.50556 -0.67746 0.64129 0.012059 -0.089524 0.19365 0.379 0.42049 0.75246 -0.11469 0.35011 0.34213 0.77939 -0.19646 -0.40212 0.14018 -0.73045 0.63917 0.3023 -0.70945 0.82168 0.88302 0.64645 -0.69718 0.3253 0.17066 0.85278 -0.89894 0.30058 -0.031989 0.37756 0.15123 -0.0033074 0.88905 0.74782 -0.95666 -0.50311 0.4271 0.31097 0.18949 0.84 0.79461 0.63471 0.77399 0.81653 -0.36409 -0.79408 0.95869 0.82204 -0.31091 0.41271 0.53328 0.54759 0.78725 -0.85196 -0.84907 -0.13874 -0.58653 0.98173 0.83248 -0.10055 -0.75137 -0.68845 0.43398 0.38723 -0.72371 0.91055 0.1926 0.79228 0.35296 0.47315 0.66806 -0.85833 -0.74214 0.8517 0.20948 -0.41195 0.25181 0.7972 0.70445 0.97008 -0.22064 -0.64962 0.26844 0.42416 -0.42829 -0.35146 0.11889 0.15676 -0.039799 -0.02953 -0.38002 0.92826 -0.70312 0.061149 0.34193 -0.1397 0.16417 -0.26463 -0.34909 -0.038859 0.88613 0.61123 0.37473 0.024104 0.47208 -0.84582 -0.47386 0.6661 -0.9659 -0.89548 -0.39797 0.26642 -0.33964 0.054024 -0.0629 0.9063 0.44507 -0.8343 0.16424 0.81331 0.8098 -0.13104 0.17246 -0.043578 -0.096382 -0.38659 0.47706 -0.9328 -0.47982 0.86939 -0.76952 -0.055616 0.23278 -0.28114 -0.73806 0.10821 0.81115 -0.21804 0.38352 -0.055849 -0.31213 -0.49082 0.79761 -0.013043 0.62274 0.82644 -0.48877 0.76346 -0.45656 -0.82799 -0.67965 0.014956 -0.77714 -0.17251 0.72891 0.46498 -0.50984 -0.41606 0.91525 0.98974 -0.25019 -0.42075 0.85803 0.064793 -0.68603 -0.62615 0.66689 0.77111 0.078347 -0.47619 0.30772 0.95148 -0.099401 0.70637 0.86877 -0.83996 0.24407 -0.84546 -0.6302 0.61987 -0.32383 0.16205 -0.50619 -0.30313 0.93472 0.086425 0.027336 -0.02458 -0.33855 -0.40161 -0.45495 -0.82201 0.43562 -0.63306 -0.80566 0.15777 -0.28172 0.90517 0.30707 0.68005 -0.63459 0.51943 0.73012 0.12296 -0.8118 -0.9588 0.35431 0.31375 0.10432 0.39322 -0.04636 0.18405 -0.01751 -0.55425 -0.99553 -0.88591 0.47072 -0.51695 -0.51902 -0.81718 0.54958 -0.54173 -0.31663 0.79093 -0.34621 -0.72239 -0.7031 -0.79792 0.60353 0.99086 0.53493 0.016559 -0.25022 -0.41736 0.76477 -0.93879 0.18756 0.49883 -0.53302 -0.41914 0.0028427 0.95779 0.27768 -0.57677 0.38701 0.18777 0.19379 0.95364 0.058055 -0.18038 0.67358 -0.61568 -0.077766 -0.27331 -0.29805 0.12882 0.14429 0.76282 0.37135 -0.037134 -0.8014 0.42664 -0.30562 -0.6874 0.83974 0.65652 -0.31915 -0.090245 0.75691 -0.38036 -0.38532 -0.99709 0.060013 0.52786 -0.84992 0.40424 -0.13543 -0.082357 -0.61051 -0.29941 0.98852 -0.63452 -0.35568 0.76011 -0.54976 -0.8769 0.21476 0.38261 0.048802 -0.71686 0.30101 -0.6947 0.0012528 0.29012 0.20818 -0.55652 -0.74699 0.146 -0.18593 -0.8544 -0.005409 0.3923 0.68798 -0.894 -0.43697 -0.573 0.49907 -0.11389 -0.85505 -0.84085 -0.68831 -0.54686 -0.058168 -0.39732 -0.99426 0.68986 0.24649 -0.77885 0.6678 -0.0043127 -0.47376 0.60193 0.10532 -0.37858 -0.58895 -0.84643 0.35398 -0.6328 0.90461 0.50386 0.98636 -0.82836 -0.24336 0.82396 -0.27894 -0.30634 0.12105 -0.32183 0.78421 -0.51903 0.19667 0.71316 0.13189 -0.075685 0.29755 0.94582 -0.09541 -0.36417 0.97105 -0.0085824 0.41937 0.63234 0.19123 -0.33238 0.88084 -0.86423 -0.20082 -0.97043 0.65533 0.98544 -0.7171 0.18994 0.036022 -0.10804 0.61471 -0.89915 0.34607 0.34753 0.031186 -0.93819 -0.32597 -0.15014 0.16106 0.58342 -0.039762 0.41963 -0.25538 0.24922 0.48379 0.33693 0.26846 0.69125 0.75883 -0.52861 0.64169 -0.4302 -0.70231 0.16058 -0.025955 -0.063883 0.3342 -0.78802 0.5114 0.44229 -0.97741 -0.58424 -0.64941 0.86579 0.82549 -0.81808 0.64463 -0.76379 -0.033525 0.25842 0.22326 0.66685 -0.44122 0.87592 -0.46408 -0.044261 -0.59142 0.19879 -0.33478 -0.21459 -0.73122 0.90951 0.22129 -0.030832 0.75315 0.37096 0.20096 0.085825 0.36199 0.89588 0.71783 -0.56983 0.55569 -0.39348 -0.38377 0.85764 -0.79436 0.45596 -0.79659 0.40204 0.38997 0.7233 0.59674 -0.4986 -0.39955 0.6736 0.4788 -0.12447 0.74584 -0.42746 0.19664 -0.0342 -0.71192 0.20919 -0.073531 -0.99815 -0.83687 -0.73267 0.24422 -0.20935 -0.56221 -0.68318 -0.12793 0.15791 0.51106 0.54703 -0.62224 -0.50331 -0.043854 -0.47366 0.083456 -0.29884 0.4979 0.55666 -0.14761 0.52728 -0.68521 0.5151 0.6349 -0.57471 0.51514 -0.16951 -0.71004 0.24506 -0.66925 0.5166 0.41712 0.83946 -0.18663 -0.58849 -0.27721 -0.95159 -0.37763 -0.61897 0.82029 0.86849 0.55975 0.52442 -0.59603 0.22519 0.51163 0.99113 -0.25412 -0.58773 0.35286 -0.93219 -0.61821 -0.30111 0.22452 -0.96828 0.23524 -0.59866 -0.15376 0.78025 -0.078745 0.43631 -0.75558 -0.057728 -0.21043 -0.55128 -0.067973 0.061903 0.60876 -0.28927 0.13201 -0.92495 -0.93893 -0.81795 -0.25589 0.23686 -0.84058 0.33621 -0.83254 0.49586 -0.023972 0.35125 0.1887 0.15352 -0.47025 0.37062 -0.46663 -0.71483 0.44394 0.59202 0.61483 -0.73495 -0.28524 -0.48164 0.56012 0.44562 -0.31505 -0.49722 0.30094 0.47749 0.84584 0.025473 -0.13029 0.97466 -0.15651 -0.68342 0.4856 0.46548 0.58374 -0.85167 -0.9436 0.27704 -0.20067 -0.68937 -0.69205 0.19905 0.37151 0.26946 0.98794 0.64626 0.69924 -0.90958 0.65423 0.52399 0.71959 0.75583 0.31331 0.1484 0.011685 0.11259 0.4713 -0.99967 0.59697 0.65431 0.10543 -0.28606 0.38343 -0.66743 -0.22079 0.77303 -0.69858 0.84718 -0.40075 0.93552 0.13908 0.29083 -0.68831 -0.74347 -0.37398 0.50548 -0.35937 0.20315 0.32285 0.0077689 0.091221 -0.25505 -0.78621 -0.92314 0.95071 0.89843 -0.62603 0.40829 -0.11623 -0.29075 0.94121 -0.50691 0.95895 -0.45914 0.025773 -0.4848 0.78177 0.97947 -0.2116 0.72638 0.98474 0.66384 -0.76038 0.55347 -0.52019 0.45513 -0.59697 0.66164 -0.099838 -0.534 0.85827 -0.36831 0.71611 0.8274 -0.7306 0.36417 -0.77734 0.34156 -0.48086 0.85107 -0.12481 0.81693 0.54172 -0.59463 0.14249 0.2026 0.45747 -0.33933 0.69997 -0.84566 0.64624 -0.39486 0.087703 0.94224 0.36259 -0.078778 -0.4145 -0.75687 -0.6033 0.93069 -0.5529 -0.56396 -0.53182 0.8315 -0.45904 0.12166 -0.67355 0.63802 0.099347 -0.74686 -0.19285 0.11221 0.44441 0.84646 0.52449 0.55135 0.59947 -0.62176 0.15416 0.023424 -0.91738 -0.26756 0.028112 -0.76897 -0.052136 -0.63453 0.25204 0.78957 0.44199 0.6481 0.80263 0.48301 0.44701 -0.92628 0.67263 0.43621 0.15053 0.89385 -0.8094 -0.74351 -0.12468 0.57474 0.913 0.38786 0.50485 -0.51674 0.39238 -0.76876 0.53782 0.0086025 0.6754 -0.67057 -0.24067 0.16894 -0.36579 -0.92698 -0.38947 0.30632 -0.93938 -0.47505 -0.4712 0.88602 0.16427 0.25539 0.86501 -0.25936 -0.60486 -0.11596 0.80125 -0.56144 -0.63021 0.38753 -0.089429 -0.45657 0.84732 0.14241 -0.39814 -0.1247 -0.89552 -0.95577 0.71352 0.51664 -0.79463 -0.086874 -0.37317 -0.32239 -0.31804 0.065772 -0.086848 -0.52766 -0.5697 -0.86998 -0.38137 0.1891 -0.31789 0.79603 -0.75237 0.11508 -0.38606 -0.50721 -0.65866 0.83632 0.20571 -0.75378 -0.41692 -0.20937 -0.56277 0.39321 -0.25147 0.80741 0.67222 -0.12617 0.15197 0.21591 0.55565 0.22084 0.46383 -0.51339 -0.010962 -0.87164 0.81439 -0.35706 0.34625 0.37054 0.86054 -0.48844 -0.39786 0.8107 0.050384 0.56883 -0.37624 0.81954 -0.066724 0.38344 -0.39967 0.57465 0.28176 0.88383 0.10646 0.75315 0.97644 -0.56699 0.80734 -0.8189 -0.92174 0.39877 0.14631 0.47468 -0.47247 -0.78989 -0.51003 0.023068 -0.38642 0.91818 0.77527 -0.39797 -0.28693 0.042203 0.23479 0.37326 0.093042 -0.12708 0.85479 0.95872 0.54425 0.32191 -0.90635 0.67645 0.95346 0.98782 0.09206 -0.76214 -0.99773 0.15093 0.44547 -0.47684 -0.83372 0.089626 -0.47708 0.31166 0.47242 -0.17718 -0.1448 0.32931 -0.38235 0.71798 0.94884 0.63965 -0.43626 -0.12395 -0.2874 -0.79977 -0.0033142 -0.29194 0.69671 0.8633 0.012227 0.052208 0.52178 0.1953 -0.65177 -0.64228 -0.46706 -0.15845 0.63468 0.5697 0.34987 0.61708 0.45916 -0.081583 0.81474 -0.23292 -0.16658 0.4541 0.99073 -0.72791 -0.95034 -0.15022 -0.79721 -0.15096 -0.30366 0.90719 0.9617 0.071886 0.82539 -0.78921 -0.60363 -0.13721 0.99754 0.10932 -0.51044 0.76896 0.46487 -0.19585 0.99635 0.89814 -0.45733 -0.019703 0.74183 -0.64256 -0.67251 -0.17446 -0.17491 -0.8101 0.69357 0.42893 -0.018427 -0.49603 0.47122 0.19982 -0.47612 0.99898 0.0054972 0.85062 -0.36092 0.43377 -0.52119 -0.28567 0.53418 0.74201 -0.62106 -0.96385 0.34108 -0.48687 -0.16742 -0.80079 -0.26434 -0.10903 -0.4366 -0.012055 -0.55723 0.54574 0.90175 0.10794 0.25296 -0.73668 -0.064837 -0.18794 -0.87226 -0.12064 -0.68457 0.78663 -0.15885 -0.23831 0.25851 -0.68609 0.80975 -0.33795 -0.40846 0.64438 0.96877 0.42395 -0.44735 -0.98391 -0.73311 -0.045876 -0.15761 -0.47155 0.67107 0.26112 0.28777 -0.52023 0.4299 0.16375 -0.0060962 -0.81027 -0.77554 0.24368 -0.20993 -0.7869 0.35076 -0.44222 0.23482 -0.18351 -0.86985 -0.49261 -0.93294 -0.43472 0.81052 -0.010322 -0.13069 0.46098 -0.066071 -0.48574 0.57685 0.10002 -0.045611 0.83022 0.27457 0.92314 -0.77347 0.34494 0.33359 0.2278 -0.29869 0.56622 0.27482 0.80701 0.53497 0.028664 -0.20042 0.38199 0.023013 -0.47137 0.30484 -0.066611 0.069784 -0.83518 0.17155 -0.38854 0.90545 0.19547 -0.080038 -0.32645 0.68173 0.46354 -0.10198 -0.65485 0.34241 -0.5884 0.60597 -0.9021 -0.85459 0.80364 -0.44236 -0.96269 -0.016721 0.055196 -0.24652 -0.46001 -0.76632 -0.46076 0.18741 -0.5724 0.060391 -0.57448 0.013599 0.55679 0.35647 -0.038967 0.13214 0.59486 -0.95287 -0.7264 -0.98581 0.55533 -0.042049 -0.01029 -0.3686 -0.086531 -0.57943 0.95994 -0.015047 -0.81638 0.50613 0.57243 0.29483 -0.22626 0.18945 0.53574 0.27459 -0.11975 0.89097 -0.36452 0.31577 0.27031 0.10931 0.20937 0.1329 -0.67799 -0.99321 -0.52514 -0.19987 0.1638 -0.38091 -0.24391 -0.8225 0.66889 0.34409 -0.17477 0.22569 0.53555 0.034402 0.5132 -0.25906 0.045445 -0.54177 0.68864 -0.12988 -0.29121 0.059446 -0.90297 0.65882 0.21745 0.99247 0.31219 -0.55726 -0.9662 0.52881 0.89903 0.49953 0.0065058 -0.68536 -0.19854 -0.63224 -0.93773 -0.96769 0.44752 -0.85109 -0.30181 -0.29659 -0.59121 -0.6167 -0.98591 -0.94722 -0.081546 -0.61151 -0.31807 0.74823 -0.60223 -0.33744 0.40275 0.65003 0.89499 -0.95289 -0.46659 0.61379 -0.21704 0.20671 0.36284 -0.089566 -0.93703 -0.73199 -0.81052 -0.31455 0.081129 -0.093998 0.41866 -0.2424 0.83962 0.44869 -0.91248 0.42521 0.65558 -0.29757 0.32418 -0.5911 0.83384 0.57712 0.91324 0.62205 -0.94134 -0.99974 -0.18 -0.14759 -0.64222 0.26264 -0.081382 -0.097193 0.91244 0.82768 0.29275 0.94812 0.88883 -0.73933 0.81183 -0.4194 -0.44967 0.13051 0.070489 0.41801 0.32159 -0.98889 -0.86734 -0.036906 -0.80096 -0.50036 0.19 -0.96026 -0.96177 0.24373 0.9722 -0.90876 0.91833 -0.55501 -0.48255 -0.55204 0.084162 -0.38906 0.63608 0.52721 0.30415 0.36168 0.76788 -0.86947 0.66444 0.63725 -0.065307 -0.86741 -0.44927 0.67715 0.32571 -0.0991 0.11651 0.74522 0.46828 0.20816 -0.1989 0.036324 0.89618 -0.14663 -0.89387 0.81115 0.25769 -0.27392 0.095864 0.77256 0.4536 0.4863 -0.67429 -0.62647 -0.16346 0.99097 0.83911 0.78124 0.64488 -0.99395 -0.40319 -0.095449 -0.81655 -0.7456 0.48524 -0.19321 0.57518 -0.59542 0.50088 -0.65256 0.5286 -0.44701 -0.31886 0.97182 0.18343 0.93289 -0.21795 0.65919 0.19327 -0.63816 0.41459 -0.27826 0.26522 -0.97974 0.78622 -0.5209 0.85164 0.17771 -0.20436 0.24819 -0.50247 -0.60207 0.26564 -0.98284 0.79057 0.83665 -0.72446 -0.92303 -0.77869 0.43251 0.94599 -0.95583 -0.075538 -0.15319 -0.47744 -0.21274 0.8319 0.96681 0.89275 -0.59273 0.56276 0.19968 0.61729 0.85976 -0.44581 -0.84661 -0.96933 -0.22325 0.21775 0.89847 0.7451 -0.27829 0.81577 0.28265 0.96305 0.28289 0.82524 -0.61432 0.72443 -0.65673 0.76988 -0.57586 -0.26474 0.52139 -0.24207 -0.30216 0.58938 -0.65176 0.84268 0.16598 -0.8179 0.73259 -0.92984 0.83848 -0.55714 0.69739 0.31042 0.05325 -0.0885 0.69819 0.27551 0.69707 0.95852 -0.47246 0.91582 0.84635 0.74207 0.83036 0.43413 -0.44432 -0.56807 -0.66838 -0.64899 0.37932 0.37486 0.91243 0.50752 -0.26923 -0.26467 0.1204 0.74628 -0.55087 -0.55781 0.31866 0.24194 -0.81685 0.54184 -0.83552 -0.7202 0.99964 -0.17271 0.72607 -0.86507 -0.21536 -0.042075 0.50497 0.49955 -0.017074 0.10929 0.4115 0.86735 -0.72145 0.55199 0.19286 0.51964 0.88495 0.41396 -0.21567 0.88946 0.01819 0.74977 -0.70064 0.76451 -0.53957 -0.67539 -0.21862 0.26042 -0.64592 0.48349 0.62629 0.016512 -0.026548 -0.37966 -0.41136 -0.19058 0.69582 -0.034875 0.07875 0.41211 -0.14394 -0.61573 0.54764 0.95075 -0.57586 -0.82884 -0.87877 0.91996 -0.029554 -0.81 -0.19566 0.39908 0.17052 0.8322 0.28365 0.61381 -0.12088 -0.22257 -0.76292 -0.7795 0.35366 0.90393 0.08346 -0.42088 0.40724 0.56622 0.70615 0.75671 -0.85718 -0.14883 -0.34516 0.17056 -0.34627 0.067686 0.95417 -0.14054 -0.026672 -0.3473 -0.099291 0.22035 0.27726 0.3583 0.50648 0.79818 -0.55291 -0.10923 0.9858 0.43416 -0.14015 0.62069 -0.57843 -0.94882 -0.27977 0.045831 0.90552 0.29562 0.9455 -0.81452 0.13401 0.13206 0.36962 0.16863 -0.31652 -0.59519 -0.81785 0.52368 0.96209 -0.042449 0.23997 0.67959 -0.9944 -0.83134 -0.69371 0.56566 0.66452 -0.68834 0.52591 0.62406 -0.21466 0.93048 0.2712 -0.34444 -0.94922 -0.02389 0.61039 -0.10983 0.049178 0.74808 0.22581 -0.69899 -0.34562 -0.33396 0.77856 0.73116 0.40812 0.5136 -0.92903 -0.74519 0.40769 0.29359 0.40997 0.18291 0.44147 0.2052 -0.73657 -0.1277 -0.32683 0.085678 0.40653 0.28486 -0.58559 -0.67785 -0.29719 0.83103 -0.54142 -0.15694 0.8919 0.98803 0.49496 -0.75561 -0.20753 -0.33364 0.68549 -0.94311 -0.14444 -0.39356 0.22366 -0.87548 -0.82701 -0.40585 -0.98511 0.57249 0.44167 -0.65691 0.61037 0.027819 0.036157 0.44389 -0.65752 0.2548 0.51109 0.79655 -0.10847 0.00092995 0.68731 0.96265 -0.74772 -0.74302 -0.96956 0.09845 -0.99871 0.30213 -0.77077 -0.85563 -0.45707 0.41387 -0.44585 0.096467 0.41636 -0.38358 0.33449 0.055069 0.48693 0.80968 -0.62829 0.27107 0.39814 0.37066 0.44795 0.024937 -0.44482 -0.87128 -0.51855 0.097313 0.26923 0.21614 0.79604 -0.080915 -0.82797 0.75716 -0.16422 -0.14539 0.093964 -0.85723 -0.05376 0.77619 -0.96303 -0.0070582 -0.036547 -0.69049 -0.073654 0.60682 -0.44514 0.60421 0.40533 0.040716 0.97992 -0.11962 -0.25383 0.059399 -0.45766 0.053227 -0.53415 0.90409 -0.52562 -0.72408 0.80782 -0.84797 0.69159 0.0035373 -0.68179 0.89267 0.6109 -0.69101 -0.88983 -0.46706 -0.031177 -0.63849 -0.60046 0.53076 0.79728 -0.22569 0.63231 -0.84733 -0.017425 0.041685 0.83413 -0.72804 -0.11527 0.65417 0.30395 0.39516 0.35795 -0.15992 -0.82662 -0.66588 -0.66985 -0.20014 0.78143 0.63086 0.91646 -0.4676 -0.0255 -0.86763 -0.82159 -0.4523 0.59776 -0.027468 -0.7913 0.74818 0.96501 -0.099024 0.30039 0.18269 -0.98415 -0.34214 0.8735 -0.19584 0.59811 0.098319 -0.60418 -0.89204 0.094684 0.29124 -0.14256 -0.80819 -0.35168 0.74703 -0.55062 0.57219 0.34133 0.53713 0.38106 -0.39642 0.64033 -0.83071 -0.082554 -0.62034 -0.67673 0.030804 0.87338 -0.69123 -0.60814 0.56599 0.75911 -0.70277 -0.014899 -0.934 -0.5922 0.14588 -0.1779 -0.7431 0.25001 0.12807 -0.48955 0.95998 -0.84999 0.67119 -0.96936 0.3874 -0.89555 -0.5835 -0.0089221 -0.9573 -0.2388 0.72124 -0.79384 0.74229 0.60991 -0.1238 0.55901 -0.042408 -0.052668 -0.015334 0.096502 -0.51504 -0.67681 0.25952 -0.28788 -0.53198 -0.37088 0.47251 -0.91831 -0.064212 0.25575 0.55319 0.88728 0.039969 -0.27309 -0.33772 0.25373 0.043605 0.67136 -0.060094 -0.46263 -0.14891 0.83089 -0.66108 0.48751 -0.64812 -0.44771 0.7016 -0.73301 0.50505 0.66054 0.86692 -0.87149 0.51393 0.028993 0.2243 0.85032 0.62601 -0.14748 0.028735 0.23429 0.74797 0.0086116 0.64564 0.53278 -0.74003 0.24023 -0.45148 -0.15607 0.043043 -0.51154 0.2365 -0.60359 -0.59951 -0.24921 0.070419 -0.60125 -0.95805 -0.54668 0.67581 -0.28192 0.54378 -0.49406 0.30199 -0.75951 0.49969 0.7819 0.94566 0.37237 -0.14428 0.50606 -0.20525 0.24052 0.75003 -0.14709 -0.11935 -0.61907 0.82044 0.83803 0.1186 0.47781 -0.26897 0.024747 0.44743 0.36779 -0.19603 -0.48328 -0.033208 0.70657 -0.13177 -0.50152 -0.72598 -0.23855 0.92832 -0.33911 0.30561 0.52971 -0.51935 -0.61967 -0.15736 -0.48975 0.91561 0.52478 -0.52862 -0.80668 0.37831 0.59095 -0.80225 -0.21517 0.64526 0.10507 0.16399 0.24227 -0.78731 0.40292 0.42024 -0.99394 0.031306 0.79809 0.84219 0.91428 0.85259 0.026344 0.11327 0.70362 -0.67619 0.85479 -0.91406 0.79301 -0.89758 0.92223 0.57952 -0.46625 0.099414 -0.036157 0.5505 -0.5194 -0.82924 0.20217 -0.95422 0.96086 -0.17781 -0.78769 -0.37938 0.25152 0.79877 0.64435 0.98417 0.76864 0.8347 -0.57673 0.12817 0.93162 -0.8718 -0.32372 -0.77069 0.19966 -0.38738 0.57872 0.072653 0.81049 0.97474 0.61843 -0.51881 0.34133 -0.40104 0.36998 -0.27402 -0.79487 0.42667 0.89522 -0.66953 0.60968 -0.8234 -0.51917 0.2648 0.34403 -0.61142 -0.7885 -0.7015 0.057951 -0.45355 0.361 -0.83241 -0.23779 -0.0046399 -0.57185 0.24491 0.48207 -0.95071 -0.60925 -0.96175 -0.71565 0.93602 -0.80002 0.41875 0.48488 -0.58103 -0.091723 0.23512 0.31751 -0.91591 -0.89323 0.20532 0.068104 -0.87089 0.032737 -0.59778 0.69416 -0.29685 -0.63647 -0.58633 0.90534 0.14059 -0.23589 -0.094302 0.15811 0.89418 0.12039 -0.048391 0.26637 -0.96811 0.21551 -0.89934 0.77145 0.35092 0.49441 0.69792 0.21462 0.48911 -0.92809 -0.39863 0.88535 0.47971 0.53703 0.92311 0.51689 -0.54302 0.18092 0.4851 0.3441 0.90927 0.64872 -0.42614 0.70093 -0.072147 0.82262 0.62589 -0.90129 0.26258 -0.84316 0.39449 -0.67423 0.81839 0.39967 0.92473 0.11912 0.63136 0.30023 0.08008 